{"learner":{"attributes":{"best_iteration":"20","best_score":"0.05807305001648296","scikit_learn":"{\"_estimator_type\": \"regressor\"}"},"feature_names":["log_ret_1d","log_ret_5d","vol_5d","vol_10d","vol_20d","vol_60d","hl_range","co_range","atr_14","mom_10d","ma_5","ma_20","ma_60","ma_ratio_5_20","ma_ratio_20_60","drawdown_20","drawdown_60","ctx_equity_proxy_log_ret_1d","ctx_duration_proxy_log_ret_1d","ctx_credit_proxy_log_ret_1d","ctx_real_asset_proxy_log_ret_1d","ctx_equity_proxy_log_ret_5d","ctx_duration_proxy_log_ret_5d","ctx_credit_proxy_log_ret_5d","ctx_real_asset_proxy_log_ret_5d","ctx_equity_proxy_vol_20d","ctx_duration_proxy_vol_20d","ctx_credit_proxy_vol_20d","ctx_real_asset_proxy_vol_20d","ctx_equity_duration_ret_5d_spread","ctx_credit_duration_ret_5d_spread","ctx_rel_vol_20d_vs_equity_proxy","ctx_corr_20d_vs_equity_proxy"],"feature_types":["float","float","float","float","float","float","float","float","float","float","float","float","float","float","float","float","float","float","float","float","float","float","float","float","float","float","float","float","float","float","float","float","float"],"gradient_booster":{"model":{"cats":{"enc":[],"feature_segments":[],"sorted_idx":[]},"gbtree_model_param":{"num_parallel_tree":"1","num_trees":"71"},"iteration_indptr":[0,1,2,3,4,5,6,7,8,9,10,11,12,13,14,15,16,17,18,19,20,21,22,23,24,25,26,27,28,29,30,31,32,33,34,35,36,37,38,39,40,41,42,43,44,45,46,47,48,49,50,51,52,53,54,55,56,57,58,59,60,61,62,63,64,65,66,67,68,69,70,71],"tree_info":[0,0,0,0,0,0,0,0,0,0,0,0,0,0,0,0,0,0,0,0,0,0,0,0,0,0,0,0,0,0,0,0,0,0,0,0,0,0,0,0,0,0,0,0,0,0,0,0,0,0,0,0,0,0,0,0,0,0,0,0,0,0,0,0,0,0,0,0,0,0,0],"trees":[{"base_weights":[-1.063464E-3,-6.5705683E-3,1.72563E-1,-1.5588267E-2,4.0048726E-2,2.0235883E-1,2.224152E-3,-2.6803209E-2,1.6451906E-2,2.2152064E-2,1.1289689E-1,1.3406779E-2,7.7508125E-3,-1.4109322E-3,3.7446541E-3,6.036937E-4,6.7782574E-3,-2.2585772E-3,1.450279E-3,1.2759636E-2,3.228165E-3],"categories":[],"categories_nodes":[],"categories_segments":[],"categories_sizes":[],"default_left":[1,1,0,1,0,0,0,1,0,0,0,0,0,0,0,0,0,0,0,0,0],"id":0,"left_children":[1,3,5,7,9,11,-1,13,15,17,19,-1,-1,-1,-1,-1,-1,-1,-1,-1,-1],"loss_changes":[7.775512E-1,3.318985E-1,8.640474E-2,2.3795721E-1,1.6437767E-1,2.0715475E-2,0E0,7.26462E-2,8.805804E-2,4.9296178E-2,1.554656E-1,0E0,0E0,0E0,0E0,0E0,0E0,0E0,0E0,0E0,0E0],"parents":[2147483647,0,0,1,1,2,2,3,3,4,4,5,5,7,7,8,8,9,9,10,10],"right_children":[2,4,6,8,10,12,-1,14,16,18,20,-1,-1,-1,-1,-1,-1,-1,-1,-1,-1],"split_conditions":[2.9060063E-1,1.0309064E0,1.824835E2,1.6757483E2,3.3877622E-2,-7.289215E-2,2.224152E-3,1.0359895E0,1.668075E-2,-6.8033105E-1,-1.3119418E-2,1.3406779E-2,7.7508125E-3,-1.4109322E-3,3.7446541E-3,6.036937E-4,6.7782574E-3,-2.2585772E-3,1.450279E-3,1.2759636E-2,3.228165E-3],"split_indices":[3,14,11,12,9,15,0,13,17,32,15,0,0,0,0,0,0,0,0,0,0],"split_type":[0,0,0,0,0,0,0,0,0,0,0,0,0,0,0,0,0,0,0,0,0],"sum_hessian":[8.11E2,7.87E2,2.4E1,6.6E2,1.27E2,1.9E1,5E0,4.89E2,1.71E2,1.03E2,2.4E1,6E0,1.3E1,4.83E2,6E0,1.66E2,5E0,9E0,9.4E1,5E0,1.9E1],"tree_param":{"num_deleted":"0","num_feature":"33","num_nodes":"21","size_leaf_vector":"1"}},{"base_weights":[2.0070018E-5,-5.1151523E-3,1.5756789E-1,-1.5020945E-2,4.4453774E-2,1.1272527E-2,1.2426545E-1,-2.3638407E-2,3.120133E-2,3.4885142E-2,1.1660091E-2,2.9487826E-3,7.1685347E-3,-1.7324773E-3,-4.4907266E-4,4.138212E-3,7.4678997E-4,6.914843E-3,1.4665641E-3],"categories":[],"categories_nodes":[],"categories_segments":[],"categories_sizes":[],"default_left":[1,1,0,1,0,0,0,0,0,0,0,0,0,0,0,0,0,0,0],"id":1,"left_children":[1,3,5,7,9,-1,11,13,15,17,-1,-1,-1,-1,-1,-1,-1,-1,-1],"loss_changes":[6.407591E-1,3.7727973E-1,2.8500736E-2,2.556615E-1,2.2304049E-1,0E0,1.5244812E-2,8.683929E-2,8.347236E-2,6.658666E-2,0E0,0E0,0E0,0E0,0E0,0E0,0E0,0E0,0E0],"parents":[2147483647,0,0,1,1,2,2,3,3,4,4,6,6,7,7,8,8,9,9],"right_children":[2,4,6,8,10,-1,12,14,16,18,-1,-1,-1,-1,-1,-1,-1,-1,-1],"split_conditions":[2.9060063E-1,1.0309064E0,-2.64481E-2,1.7148833E2,1.84666E2,1.1272527E-2,-5.2975096E-2,1.41757E2,1.4037089E-1,-6.0704485E-2,1.1660091E-2,2.9487826E-3,7.1685347E-3,-1.7324773E-3,-4.4907266E-4,4.138212E-3,7.4678997E-4,6.914843E-3,1.4665641E-3],"split_indices":[3,14,22,12,10,0,15,12,4,21,0,0,0,0,0,0,0,0,0],"split_type":[0,0,0,0,0,0,0,0,0,0,0,0,0,0,0,0,0,0,0],"sum_hessian":[7.9E2,7.66E2,2.4E1,6.39E2,1.27E2,6E0,1.8E1,5.39E2,1E2,1.22E2,5E0,5E0,1.3E1,3.07E2,2.32E2,2.3E1,7.7E1,5E0,1.17E2],"tree_param":{"num_deleted":"0","num_feature":"33","num_nodes":"19","size_leaf_vector":"1"}},{"base_weights":[9.0660056E-4,-4.511683E-3,1.5579578E-1,-3.0359905E-2,1.0178002E-2,1.214042E-2,1.24983445E-1,2.1928864E-2,-3.3194385E-2,8.061651E-3,9.030575E-3,3.128696E-3,6.982919E-3,2.6850519E-3,3.3633707E-5,-2.0382442E-3,-9.5691934E-4,-1.1692756E-5,1.5218076E-3],"categories":[],"categories_nodes":[],"categories_segments":[],"categories_sizes":[],"default_left":[1,1,0,0,0,0,0,0,1,1,0,0,0,0,0,0,0,0,0],"id":2,"left_children":[1,3,5,7,9,-1,11,13,15,17,-1,-1,-1,-1,-1,-1,-1,-1,-1],"loss_changes":[6.704112E-1,2.9343912E-1,4.204166E-2,4.222712E-2,1.7636758E-1,0E0,1.1409819E-2,1.0094205E-2,2.7525127E-2,9.058373E-2,0E0,0E0,0E0,0E0,0E0,0E0,0E0,0E0,0E0],"parents":[2147483647,0,0,1,1,2,2,3,3,4,4,6,6,7,7,8,8,9,9],"right_children":[2,4,6,8,10,-1,12,14,16,18,-1,-1,-1,-1,-1,-1,-1,-1,-1],"split_conditions":[2.9060063E-1,1.2776E2,1.50498E2,1.13292E2,1.83606E2,1.214042E-2,1.08341314E-1,-5.9075915E-4,1.2345E2,1.0293907E0,9.030575E-3,3.128696E-3,6.982919E-3,2.6850519E-3,3.3633707E-5,-2.0382442E-3,-9.5691934E-4,-1.1692756E-5,1.5218076E-3],"split_indices":[3,10,10,10,10,0,25,17,10,14,0,0,0,0,0,0,0,0,0],"split_type":[0,0,0,0,0,0,0,0,0,0,0,0,0,0,0,0,0,0,0],"sum_hessian":[7.97E2,7.71E2,2.6E1,2.79E2,4.92E2,5E0,2.1E1,1.4E1,2.65E2,4.87E2,5E0,5E0,1.6E1,5E0,9E0,1.71E2,9.4E1,3.56E2,1.31E2],"tree_param":{"num_deleted":"0","num_feature":"33","num_nodes":"19","size_leaf_vector":"1"}},{"base_weights":[2.1929434E-3,-3.800098E-3,1.2863544E-1,-6.443299E-3,1.316089E-1,1.6007237E-1,4.9802475E-2,-2.4336932E-2,8.712957E-3,1.1005248E-2,3.2675196E-3,1.1142041E-2,6.260935E-3,3.0361412E-3,1.4380827E-3,-1.3552166E-3,4.902465E-3,9.536348E-5,1.5537441E-3],"categories":[],"categories_nodes":[],"categories_segments":[],"categories_sizes":[],"default_left":[1,1,0,1,0,0,0,1,0,0,0,0,0,0,0,0,0,0,0],"id":3,"left_children":[1,3,5,7,9,11,13,15,17,-1,-1,-1,-1,-1,-1,-1,-1,-1,-1],"loss_changes":[6.195911E-1,2.8037822E-1,8.372384E-2,2.082228E-1,7.357031E-2,2.897662E-2,1.0107867E-3,1.2187703E-1,6.325105E-2,0E0,0E0,0E0,0E0,0E0,0E0,0E0,0E0,0E0,0E0],"parents":[2147483647,0,0,1,1,2,2,3,3,4,4,5,5,6,6,7,7,8,8],"right_children":[2,4,6,8,10,12,14,16,18,-1,-1,-1,-1,-1,-1,-1,-1,-1,-1],"split_conditions":[1.9708052E-2,1.0385962E0,3.70971E-1,1.1284457E-1,1.19985186E-1,-7.289215E-2,-5.293325E-3,1.48582E2,1.736005E2,1.1005248E-2,3.2675196E-3,1.1142041E-2,6.260935E-3,3.0361412E-3,1.4380827E-3,-1.3552166E-3,4.902465E-3,9.536348E-5,1.5537441E-3],"split_indices":[8,13,32,5,25,15,20,10,11,0,0,0,0,0,0,0,0,0,0],"split_type":[0,0,0,0,0,0,0,0,0,0,0,0,0,0,0,0,0,0,0],"sum_hessian":[8.16E2,7.8E2,3.6E1,7.66E2,1.4E1,2.5E1,1.1E1,3.51E2,4.15E2,5E0,9E0,7E0,1.8E1,6E0,5E0,3.44E2,7E0,3.19E2,9.6E1],"tree_param":{"num_deleted":"0","num_feature":"33","num_nodes":"19","size_leaf_vector":"1"}},{"base_weights":[-9.517862E-4,-8.166215E-3,9.9533446E-2,-2.1923693E-2,9.684682E-3,1.6726737E-1,5.1361337E-2,-2.4793964E-2,4.8421267E-2,4.8828716E-3,6.8965564E-3,2.93547E-3,1.9574268E-1,2.2806691E-2,6.8781525E-2,-1.2881325E-3,2.2281616E-3,4.3961336E-3,9.441039E-4,-7.591227E-5,1.6910877E-3,1.122827E-2,5.2736746E-3,2.407923E-3,-9.5110433E-4,1.77879E-3,4.9214833E-3],"categories":[],"categories_nodes":[],"categories_segments":[],"categories_sizes":[],"default_left":[1,1,0,1,0,0,0,1,0,0,0,0,0,0,0,0,0,0,0,0,0,0,0,0,0,0,0],"id":4,"left_children":[1,3,5,7,9,11,13,15,17,-1,19,-1,21,23,25,-1,-1,-1,-1,-1,-1,-1,-1,-1,-1,-1,-1],"loss_changes":[5.8439237E-1,1.8489097E-1,1.6760474E-1,8.701189E-2,7.977804E-2,5.651492E-2,1.4846422E-2,2.8626889E-2,1.8176109E-2,0E0,7.232724E-2,0E0,2.0545006E-2,1.5762145E-2,1.6188048E-2,0E0,0E0,0E0,0E0,0E0,0E0,0E0,0E0,0E0,0E0,0E0,0E0],"parents":[2147483647,0,0,1,1,2,2,3,3,4,4,5,5,6,6,7,7,8,8,10,10,12,12,13,13,14,14],"right_children":[2,4,6,8,10,12,14,16,18,-1,20,-1,22,24,26,-1,-1,-1,-1,-1,-1,-1,-1,-1,-1,-1,-1],"split_conditions":[1.5678907E-2,9.566694E-3,2.3718725E-1,1.690245E2,1.0074712E-1,2.2356667E-1,1.980638E-1,3.512842E-2,9.938523E-1,4.8828716E-3,1.73922E2,2.93547E-3,1.7416201E-3,1.82178E2,1.1489358E-2,-1.2881325E-3,2.2281616E-3,4.3961336E-3,9.441039E-4,-7.591227E-5,1.6910877E-3,1.122827E-2,5.2736746E-3,2.407923E-3,-9.5110433E-4,1.77879E-3,4.9214833E-3],"split_indices":[8,8,32,11,5,2,2,1,14,0,11,0,23,10,30,0,0,0,0,0,0,0,0,0,0,0,0],"split_type":[0,0,0,0,0,0,0,0,0,0,0,0,0,0,0,0,0,0,0,0,0,0,0,0,0,0,0],"sum_hessian":[8.04E2,7.51E2,5.3E1,4.24E2,3.27E2,2.1E1,3.2E1,4.08E2,1.6E1,9E0,3.18E2,5E0,1.6E1,1.3E1,1.9E1,4.03E2,5E0,6E0,1E1,2.43E2,7.5E1,1.1E1,5E0,8E0,5E0,1E1,9E0],"tree_param":{"num_deleted":"0","num_feature":"33","num_nodes":"27","size_leaf_vector":"1"}},{"base_weights":[-6.3520815E-4,-5.026301E-3,1.2516092E-1,-6.530488E-3,9.780879E-3,1.5712397E-1,2.0112584E-3,-2.5247736E-2,4.879067E-3,8.842506E-3,5.2714236E-3,1.021631E-3,-1.3853203E-3,9.5433666E-4,-3.119876E-4],"categories":[],"categories_nodes":[],"categories_segments":[],"categories_sizes":[],"default_left":[1,1,0,1,0,0,0,0,1,0,0,0,0,0,0],"id":5,"left_children":[1,3,5,7,-1,9,-1,11,13,-1,-1,-1,-1,-1,-1],"loss_changes":[4.585542E-1,2.433258E-1,6.969419E-2,1.7032689E-1,0E0,1.7500222E-3,0E0,3.448461E-2,7.847345E-2,0E0,0E0,0E0,0E0,0E0,0E0],"parents":[2147483647,0,0,1,1,2,2,3,3,5,5,7,7,8,8],"right_children":[2,4,6,8,-1,10,-1,12,14,-1,-1,-1,-1,-1,-1],"split_conditions":[1.9708052E-2,1.84666E2,3.70971E-1,1.2776E2,9.780879E-3,7.879383E-3,2.0112584E-3,1.13292E2,1.2631811E-1,8.842506E-3,5.2714236E-3,1.021631E-3,-1.3853203E-3,9.5433666E-4,-3.119876E-4],"split_indices":[8,10,32,10,0,9,0,10,26,0,0,0,0,0,0],"split_type":[0,0,0,0,0,0,0,0,0,0,0,0,0,0,0],"sum_hessian":[8.28E2,8.01E2,2.7E1,7.96E2,5E0,1.9E1,8E0,3.01E2,4.95E2,1.2E1,7E0,1.5E1,2.86E2,2.17E2,2.78E2],"tree_param":{"num_deleted":"0","num_feature":"33","num_nodes":"15","size_leaf_vector":"1"}},{"base_weights":[-1.0727603E-3,-5.615238E-3,1.2534377E-1,-9.027379E-3,7.179338E-2,9.9171875E-3,9.15655E-2,-1.800944E-2,1.6491115E-2,4.927975E-2,8.24457E-3,1.0865643E-1,1.5364384E-3,-1.0399958E-3,1.2599067E-3,3.3282645E-3,2.3674585E-4,5.889847E-5,3.2628793E-3,6.302722E-3,3.413989E-3],"categories":[],"categories_nodes":[],"categories_segments":[],"categories_sizes":[],"default_left":[1,1,0,1,0,0,0,1,0,0,0,0,0,0,0,0,0,0,0,0,0],"id":6,"left_children":[1,3,5,7,9,-1,11,13,15,17,-1,19,-1,-1,-1,-1,-1,-1,-1,-1,-1],"loss_changes":[4.635447E-1,2.0640467E-1,5.0881326E-2,1.7151584E-1,6.1041355E-2,0E0,1.8495992E-2,6.7199185E-2,1.144778E-1,2.1442875E-2,0E0,2.632603E-3,0E0,0E0,0E0,0E0,0E0,0E0,0E0,0E0,0E0],"parents":[2147483647,0,0,1,1,2,2,3,3,4,4,6,6,7,7,8,8,9,9,11,11],"right_children":[2,4,6,8,10,-1,12,14,16,18,-1,20,-1,-1,-1,-1,-1,-1,-1,-1,-1],"split_conditions":[2.9060063E-1,1.0286213E0,-7.289215E-2,1.5033159E-1,1.83008E2,9.9171875E-3,3.0206323E-1,1.0381532E0,1.4037089E-1,1.1219958E-1,8.24457E-3,1.8803718E-2,1.5364384E-3,-1.0399958E-3,1.2599067E-3,3.3282645E-3,2.3674585E-4,5.889847E-5,3.2628793E-3,6.302722E-3,3.413989E-3],"split_indices":[3,13,15,5,10,0,32,14,28,28,0,6,0,0,0,0,0,0,0,0,0],"split_type":[0,0,0,0,0,0,0,0,0,0,0,0,0,0,0,0,0,0,0,0,0],"sum_hessian":[8.05E2,7.78E2,2.7E1,7.46E2,3.2E1,7E0,2E1,5.52E2,1.94E2,2.7E1,5E0,1.5E1,5E0,5.19E2,3.3E1,3.6E1,1.58E2,7E0,2E1,9E0,6E0],"tree_param":{"num_deleted":"0","num_feature":"33","num_nodes":"21","size_leaf_vector":"1"}},{"base_weights":[-7.562725E-4,-7.050822E-3,8.880687E-2,-1.3459906E-2,3.2691613E-2,1.09277286E-1,9.759832E-3,-2.0944541E-2,2.51494E-2,2.5317276E-2,7.507433E-3,1.4316705E-1,6.857004E-2,2.096319E-3,-9.6028775E-4,-1.3393149E-3,-6.129478E-4,8.624317E-4,5.9888843E-3,5.745647E-3,9.187963E-4,9.957386E-3,5.7493793E-3,1.190574E-3,4.0534437E-3],"categories":[],"categories_nodes":[],"categories_segments":[],"categories_sizes":[],"default_left":[1,1,0,1,0,0,0,0,0,0,0,0,0,0,0,0,0,0,0,0,0,0,0,0,0],"id":7,"left_children":[1,3,5,7,9,11,13,15,17,19,-1,21,23,-1,-1,-1,-1,-1,-1,-1,-1,-1,-1,-1,-1],"loss_changes":[4.5501643E-1,1.9249336E-1,8.469412E-2,1.8836153E-1,8.714628E-2,4.812455E-2,1.1985903E-2,2.7324393E-2,7.7183396E-2,6.0079865E-2,0E0,1.1805564E-2,9.817652E-3,0E0,0E0,0E0,0E0,0E0,0E0,0E0,0E0,0E0,0E0,0E0,0E0],"parents":[2147483647,0,0,1,1,2,2,3,3,4,4,5,5,6,6,7,7,8,8,9,9,11,11,12,12],"right_children":[2,4,6,8,10,12,14,16,18,20,-1,22,24,-1,-1,-1,-1,-1,-1,-1,-1,-1,-1,-1,-1],"split_conditions":[1.5678907E-2,1.0313418E0,1.7174017E2,1.7125917E2,1.83008E2,2.3718725E-1,1.7388783E2,1.41757E2,-3.9888177E-2,-4.5861147E-2,7.507433E-3,9.737874E-1,2.6287967E-1,2.096319E-3,-9.6028775E-4,-1.3393149E-3,-6.129478E-4,8.624317E-4,5.9888843E-3,5.745647E-3,9.187963E-4,9.957386E-3,5.7493793E-3,1.190574E-3,4.0534437E-3],"split_indices":[8,14,12,12,10,32,12,12,16,21,0,13,28,0,0,0,0,0,0,0,0,0,0,0,0],"split_type":[0,0,0,0,0,0,0,0,0,0,0,0,0,0,0,0,0,0,0,0,0,0,0,0,0],"sum_hessian":[8.05E2,7.53E2,5.2E1,6.49E2,1.04E2,4.1E1,1.1E1,5.44E2,1.05E2,9.9E1,5E0,2.1E1,2E1,5E0,6E0,3.24E2,2.2E2,9.8E1,7E0,6E0,9.3E1,5E0,1.6E1,5E0,1.5E1],"tree_param":{"num_deleted":"0","num_feature":"33","num_nodes":"25","size_leaf_vector":"1"}},{"base_weights":[-2.2521515E-3,-4.2121615E-3,8.654615E-3,-6.8508987E-3,8.989437E-2,-1.2823481E-2,2.1912483E-2,7.0379763E-3,6.2022462E-2,-1.0245264E-3,1.3102423E-3,6.3575744E-3,8.4433705E-4,2.2463703E-3,3.8791809E-3],"categories":[],"categories_nodes":[],"categories_segments":[],"categories_sizes":[],"default_left":[1,1,0,1,0,1,0,0,0,0,0,0,0,0,0],"id":8,"left_children":[1,3,-1,5,7,9,11,-1,13,-1,-1,-1,-1,-1,-1],"loss_changes":[2.7979466E-1,2.0026709E-1,0E0,1.3479386E-1,2.2459343E-2,1.9473858E-1,6.9254875E-2,0E0,7.7066943E-4,0E0,0E0,0E0,0E0,0E0,0E0],"parents":[2147483647,0,0,1,1,3,3,4,4,5,5,6,6,8,8],"right_children":[2,4,-1,6,8,10,12,-1,14,-1,-1,-1,-1,-1,-1],"split_conditions":[1.84666E2,1.9925085E-1,8.654615E-3,1.0294651E0,1.50498E2,1.7125917E2,-5.545881E-2,7.0379763E-3,3.6557704E-2,-1.0245264E-3,1.3102423E-3,6.3575744E-3,8.4433705E-4,2.2463703E-3,3.8791809E-3],"split_indices":[10,26,0,14,10,12,21,0,1,0,0,0,0,0,0],"split_type":[0,0,0,0,0,0,0,0,0,0,0,0,0,0,0],"sum_hessian":[8.11E2,8.03E2,8E0,7.82E2,2.1E1,6.48E2,1.34E2,6E0,1.5E1,5.42E2,1.06E2,5E0,1.29E2,9E0,6E0],"tree_param":{"num_deleted":"0","num_feature":"33","num_nodes":"15","size_leaf_vector":"1"}},{"base_weights":[3.680217E-4,-5.648053E-3,8.515368E-2,-7.3314905E-3,1.0765575E-1,1.0431577E-1,1.0990197E-2,-1.5120896E-2,1.3949368E-2,2.322312E-3,7.5461315E-3,1.3549721E-1,4.517736E-2,1.4235297E-3,-5.617649E-4,3.3641227E-3,-8.3221355E-4,2.6007136E-3,1.0437637E-4,7.5666457E-3,4.350551E-3,1.174136E-3,2.7922937E-3],"categories":[],"categories_nodes":[],"categories_segments":[],"categories_sizes":[],"default_left":[1,1,0,1,0,0,0,0,0,0,0,0,0,0,0,0,0,0,0,0,0,0,0],"id":9,"left_children":[1,3,5,7,9,11,13,15,17,-1,-1,19,21,-1,-1,-1,-1,-1,-1,-1,-1,-1,-1],"loss_changes":[4.080323E-1,1.43272E-1,7.41733E-2,1.22379914E-1,2.212201E-2,7.132754E-2,4.982001E-3,6.890675E-2,8.929235E-2,0E0,0E0,7.563323E-3,2.391778E-3,0E0,0E0,0E0,0E0,0E0,0E0,0E0,0E0,0E0,0E0],"parents":[2147483647,0,0,1,1,2,2,3,3,4,4,5,5,6,6,7,7,8,8,11,11,12,12],"right_children":[2,4,6,8,10,12,14,16,18,-1,-1,20,22,-1,-1,-1,-1,-1,-1,-1,-1,-1,-1],"split_conditions":[1.5678907E-2,1.0385962E0,1.7174017E2,1.4574362E-1,1.182972E-1,2.541255E-1,-5.9828594E-2,-9.979919E-3,1.4037089E-1,2.322312E-3,7.5461315E-3,1.7416201E-3,2.6287967E-1,1.4235297E-3,-5.617649E-4,3.3641227E-3,-8.3221355E-4,2.6007136E-3,1.0437637E-4,7.5666457E-3,4.350551E-3,1.174136E-3,2.7922937E-3],"split_indices":[8,13,12,5,4,5,15,7,4,0,0,23,4,0,0,0,0,0,0,0,0,0,0],"split_type":[0,0,0,0,0,0,0,0,0,0,0,0,0,0,0,0,0,0,0,0,0,0,0],"sum_hessian":[7.98E2,7.46E2,5.2E1,7.36E2,1E1,4.1E1,1.1E1,5.39E2,1.97E2,5E0,5E0,2.6E1,1.5E1,6E0,5E0,9E0,5.3E2,4.6E1,1.51E2,1.8E1,8E0,6E0,9E0],"tree_param":{"num_deleted":"0","num_feature":"33","num_nodes":"23","size_leaf_vector":"1"}},{"base_weights":[2.0427993E-3,-2.6650976E-3,1.0464436E-1,-1.000184E-2,3.337669E-2,9.365383E-3,7.8232266E-2,-1.8481195E-2,1.4198217E-2,1.7088316E-2,8.221757E-2,5.007512E-3,4.759514E-2,-9.7039837E-4,2.3722148E-3,3.2231768E-4,4.6935524E-3,1.1579073E-3,-1.7339609E-3,5.2143536E-3,1.0724599E-5,1.4888226E-3,2.7092958E-3],"categories":[],"categories_nodes":[],"categories_segments":[],"categories_sizes":[],"default_left":[1,1,0,1,0,0,0,1,0,0,0,0,0,0,0,0,0,0,0,0,0,0,0],"id":10,"left_children":[1,3,5,7,9,-1,11,13,15,17,19,-1,21,-1,-1,-1,-1,-1,-1,-1,-1,-1,-1],"loss_changes":[3.963697E-1,2.0791084E-1,6.394568E-2,1.3425854E-1,1.0440168E-1,0E0,1.4706925E-2,3.0492201E-2,1.0438905E-1,3.2539338E-2,5.9699938E-2,0E0,3.068149E-5,0E0,0E0,0E0,0E0,0E0,0E0,0E0,0E0,0E0,0E0],"parents":[2147483647,0,0,1,1,2,2,3,3,4,4,6,6,7,7,8,8,9,9,10,10,12,12],"right_children":[2,4,6,8,10,-1,12,14,16,18,20,-1,22,-1,-1,-1,-1,-1,-1,-1,-1,-1,-1],"split_conditions":[1.9708052E-2,1.0309064E0,3.9745194E-1,1.6757483E2,3.2460827E-2,9.365383E-3,-7.3504406E-3,1.8540962E-1,-3.154697E-2,1.69587E2,1.4295319E-1,5.007512E-3,-1.1411927E-2,-9.7039837E-4,2.3722148E-3,3.2231768E-4,4.6935524E-3,1.1579073E-3,-1.7339609E-3,5.2143536E-3,1.0724599E-5,1.4888226E-3,2.7092958E-3],"split_indices":[8,14,31,12,9,0,23,4,16,12,5,0,9,0,0,0,0,0,0,0,0,0,0],"split_type":[0,0,0,0,0,0,0,0,0,0,0,0,0,0,0,0,0,0,0,0,0,0,0],"sum_hessian":[8.19E2,7.84E2,3.5E1,6.52E2,1.32E2,7E0,2.8E1,4.83E2,1.69E2,1E2,3.2E1,1.5E1,1.3E1,4.77E2,6E0,1.55E2,1.4E1,9E1,1E1,2.5E1,7E0,5E0,8E0],"tree_param":{"num_deleted":"0","num_feature":"33","num_nodes":"23","size_leaf_vector":"1"}},{"base_weights":[-4.6748572E-4,-3.5221004E-3,1.0048793E-1,-6.8745795E-3,6.8265386E-2,1.2038389E-1,1.2026038E-3,-1.8062677E-2,3.3331495E-3,4.5675404E-2,8.303636E-3,8.031996E-3,8.686922E-2,-1.0185455E-3,1.3971212E-3,4.204115E-5,2.83244E-3,-3.3602244E-4,3.2977876E-3,5.329916E-3,2.4686872E-3],"categories":[],"categories_nodes":[],"categories_segments":[],"categories_sizes":[],"default_left":[1,1,0,1,0,0,0,1,0,0,0,0,0,0,0,0,0,0,0,0,0],"id":11,"left_children":[1,3,5,7,9,11,-1,13,15,17,-1,-1,19,-1,-1,-1,-1,-1,-1,-1,-1],"loss_changes":[2.4150701E-1,1.8337548E-1,3.2082096E-2,8.3087295E-2,6.75364E-2,1.0330379E-2,0E0,3.7417263E-2,5.057965E-2,3.1258825E-2,0E0,0E0,3.6138669E-3,0E0,0E0,0E0,0E0,0E0,0E0,0E0,0E0],"parents":[2147483647,0,0,1,1,2,2,3,3,4,4,5,5,7,7,8,8,9,9,12,12],"right_children":[2,4,6,8,10,12,-1,14,16,18,-1,-1,20,-1,-1,-1,-1,-1,-1,-1,-1],"split_conditions":[2.9060063E-1,1.0274025E0,2.9720274E-1,1.40962E2,1.84666E2,-1.5669836E-2,1.2026038E-3,1.0432346E0,1.668075E-2,1.07970536E-1,8.303636E-3,8.031996E-3,1.8565815E-2,-1.0185455E-3,1.3971212E-3,4.204115E-5,2.83244E-3,-3.3602244E-4,3.2977876E-3,5.329916E-3,2.4686872E-3],"split_indices":[3,13,32,10,10,9,0,14,17,28,0,0,6,0,0,0,0,0,0,0,0],"split_type":[0,0,0,0,0,0,0,0,0,0,0,0,0,0,0,0,0,0,0,0,0],"sum_hessian":[7.81E2,7.59E2,2.2E1,7.26E2,3.3E1,1.7E1,5E0,3.46E2,3.8E2,2.8E1,5E0,6E0,1.1E1,3.3E2,1.6E1,3.64E2,1.6E1,8E0,2E1,6E0,5E0],"tree_param":{"num_deleted":"0","num_feature":"33","num_nodes":"21","size_leaf_vector":"1"}},{"base_weights":[-7.9732E-5,-5.1247007E-3,6.637606E-2,-1.0249717E-2,2.3303805E-2,1.1623688E-1,3.7074655E-2,-1.6811036E-2,2.0306755E-2,1.3289585E-2,6.845026E-2,8.057304E-3,8.2271844E-2,4.591784E-2,-8.8709773E-4,5.3656386E-5,-9.936261E-4,3.0918128E-3,4.041857E-4,-2.3045477E-3,9.5725193E-4,3.999477E-4,5.2517876E-3,2.4178901E-3,5.4638823E-3,4.147023E-3,1.730936E-3],"categories":[],"categories_nodes":[],"categories_segments":[],"categories_sizes":[],"default_left":[1,1,0,1,0,0,0,1,0,0,0,0,0,0,0,0,0,0,0,0,0,0,0,0,0,0,0],"id":12,"left_children":[1,3,5,7,9,11,13,15,17,19,21,-1,23,25,-1,-1,-1,-1,-1,-1,-1,-1,-1,-1,-1,-1,-1],"loss_changes":[2.7559468E-1,1.1155102E-1,8.0428064E-2,1.302594E-1,5.198679E-2,1.877442E-2,1.9235298E-2,2.9258952E-2,5.7876058E-2,3.4609303E-2,4.560428E-2,0E0,7.5378343E-3,1.0933369E-2,0E0,0E0,0E0,0E0,0E0,0E0,0E0,0E0,0E0,0E0,0E0,0E0,0E0],"parents":[2147483647,0,0,1,1,2,2,3,3,4,4,5,5,6,6,7,7,8,8,9,9,10,10,12,12,13,13],"right_children":[2,4,6,8,10,12,14,16,18,20,22,-1,24,26,-1,-1,-1,-1,-1,-1,-1,-1,-1,-1,-1,-1,-1],"split_conditions":[1.6008636E-2,1.0309064E0,2.0740314E-1,1.7125917E2,1.0276446E0,4.1940182E-1,1.7448083E2,9.705787E-1,1.07342815E-2,8.442307E-2,1.2732343E-1,8.057304E-3,-3.851612E-2,1.9342104E-1,-8.8709773E-4,5.3656386E-5,-9.936261E-4,3.0918128E-3,4.041857E-4,-2.3045477E-3,9.5725193E-4,3.999477E-4,5.2517876E-3,2.4178901E-3,5.4638823E-3,4.147023E-3,1.730936E-3],"split_indices":[8,14,32,12,13,31,12,14,8,5,3,0,21,5,0,0,0,0,0,0,0,0,0,0,0,0,0],"split_type":[0,0,0,0,0,0,0,0,0,0,0,0,0,0,0,0,0,0,0,0,0,0,0,0,0,0,0],"sum_hessian":[8.2E2,7.63E2,5.7E1,6.47E2,1.16E2,2E1,3.7E1,5.33E2,1.14E2,9.6E1,2E1,7E0,1.3E1,3.2E1,5E0,7.8E1,4.55E2,2.5E1,8.9E1,8E0,8.8E1,8E0,1.2E1,7E0,6E0,6E0,2.6E1],"tree_param":{"num_deleted":"0","num_feature":"33","num_nodes":"27","size_leaf_vector":"1"}},{"base_weights":[1.9960136E-3,-1.8615049E-3,9.4272986E-2,-3.2877484E-3,7.662687E-3,7.562203E-3,7.227132E-2,-1.0544723E-2,1.6021842E-2,4.1025183E-3,1.3814648E-3,-7.5844274E-4,9.564327E-4,2.3527946E-3,3.704354E-4],"categories":[],"categories_nodes":[],"categories_segments":[],"categories_sizes":[],"default_left":[1,1,0,1,0,0,0,1,0,0,0,0,0,0,0],"id":13,"left_children":[1,3,5,7,-1,-1,9,11,13,-1,-1,-1,-1,-1,-1],"loss_changes":[2.8387567E-1,1.6996768E-1,2.918005E-2,1.0666714E-1,0E0,0E0,8.64692E-3,7.616926E-2,5.524986E-2,0E0,0E0,0E0,0E0,0E0,0E0],"parents":[2147483647,0,0,1,1,2,2,3,3,6,6,7,7,8,8],"right_children":[2,4,6,8,-1,-1,10,12,14,-1,-1,-1,-1,-1,-1],"split_conditions":[2.9060063E-1,1.0524969E0,-7.227158E-2,1.4935756E-1,7.662687E-3,7.562203E-3,3.0206323E-1,1.0300238E0,1.4037089E-1,4.1025183E-3,1.3814648E-3,-7.5844274E-4,9.564327E-4,2.3527946E-3,3.704354E-4],"split_indices":[3,13,16,5,0,0,32,14,4,0,0,0,0,0,0],"split_type":[0,0,0,0,0,0,0,0,0,0,0,0,0,0,0],"sum_hessian":[7.96E2,7.65E2,3.1E1,7.59E2,6E0,7E0,2.4E1,5.52E2,2.07E2,1.9E1,5E0,4.78E2,7.4E1,4.4E1,1.63E2],"tree_param":{"num_deleted":"0","num_feature":"33","num_nodes":"15","size_leaf_vector":"1"}},{"base_weights":[6.445823E-5,-3.3625069E-3,8.209542E-2,-1.4341426E-2,9.523145E-3,7.231357E-3,5.8801454E-2,-1.9856863E-2,1.5577715E-2,1.0183754E-1,6.2561976E-3,1.1025992E-3,3.59339E-3,-6.844874E-5,-1.1649559E-3,2.527811E-3,1.5511138E-6,6.906062E-3,2.126682E-3,2.2068841E-4,5.434831E-3],"categories":[],"categories_nodes":[],"categories_segments":[],"categories_sizes":[],"default_left":[1,1,0,1,0,0,0,1,0,0,0,0,0,0,0,0,0,0,0,0,0],"id":14,"left_children":[1,3,5,7,9,-1,11,13,15,17,19,-1,-1,-1,-1,-1,-1,-1,-1,-1,-1],"loss_changes":[2.2432649E-1,1.0850301E-1,3.810732E-2,6.862641E-2,1.0582282E-1,0E0,1.0419704E-2,2.2242099E-2,3.534544E-2,1.9946374E-2,6.406907E-2,0E0,0E0,0E0,0E0,0E0,0E0,0E0,0E0,0E0,0E0],"parents":[2147483647,0,0,1,1,2,2,3,3,4,4,6,6,7,7,8,8,9,9,10,10],"right_children":[2,4,6,8,10,-1,12,14,16,18,20,-1,-1,-1,-1,-1,-1,-1,-1,-1,-1],"split_conditions":[1.9708052E-2,1.48582E2,-7.227158E-2,1.0335112E-2,1.55782E2,7.231357E-3,-5.9573755E-2,9.705787E-1,1.18136285E-2,-2.8822998E-2,1.0488918E0,1.1025992E-3,3.59339E-3,-6.844874E-5,-1.1649559E-3,2.527811E-3,1.5511138E-6,6.906062E-3,2.126682E-3,2.2068841E-4,5.434831E-3],"split_indices":[8,10,16,8,10,0,16,14,8,30,14,0,0,0,0,0,0,0,0,0,0],"split_type":[0,0,0,0,0,0,0,0,0,0,0,0,0,0,0,0,0,0,0,0,0],"sum_hessian":[7.96E2,7.65E2,3.1E1,4.13E2,3.52E2,7E0,2.4E1,3.49E2,6.4E1,1.1E1,3.41E2,7E0,1.7E1,5.5E1,2.94E2,1.9E1,4.5E1,6E0,5E0,3.36E2,5E0],"tree_param":{"num_deleted":"0","num_feature":"33","num_nodes":"21","size_leaf_vector":"1"}},{"base_weights":[6.275122E-4,-3.8952357E-3,6.739225E-2,-1.2914169E-2,7.1571316E-3,8.464432E-3,5.263637E-2,-1.8664578E-2,1.8916971E-3,-4.845144E-2,1.0426308E-2,6.915753E-2,6.32635E-5,1.2458261E-3,-1.0855427E-3,1.26085E-3,-5.75335E-4,-1.6325306E-3,-3.1190037E-3,3.512587E-4,2.7093866E-3,6.236892E-3,2.667843E-3,1.1448563E-3,-1.3293395E-3],"categories":[],"categories_nodes":[],"categories_segments":[],"categories_sizes":[],"default_left":[1,1,0,0,0,0,0,0,0,0,0,0,0,0,0,0,0,0,0,0,0,0,0,0,0],"id":15,"left_children":[1,3,5,7,9,-1,11,13,15,17,19,21,23,-1,-1,-1,-1,-1,-1,-1,-1,-1,-1,-1,-1],"loss_changes":[2.4273644E-1,7.515189E-2,6.777142E-2,3.5368316E-2,6.213342E-2,0E0,3.9949805E-2,4.0236227E-2,3.68552E-2,2.144847E-3,4.7396477E-2,2.4081603E-2,7.911043E-3,0E0,0E0,0E0,0E0,0E0,0E0,0E0,0E0,0E0,0E0,0E0,0E0],"parents":[2147483647,0,0,1,1,2,2,3,3,4,4,6,6,7,7,8,8,9,9,10,10,11,11,12,12],"right_children":[2,4,6,8,10,-1,12,14,16,18,20,22,24,-1,-1,-1,-1,-1,-1,-1,-1,-1,-1,-1,-1],"split_conditions":[1.5678907E-2,9.628998E-3,3.92475E-1,1.4332483E2,2.1882387E-2,8.464432E-3,1.7135217E2,1.13464E2,8.662697E-3,3.3393968E-3,1.0276446E0,5.5784095E-2,9.948248E-1,1.2458261E-3,-1.0855427E-3,1.26085E-3,-5.75335E-4,-1.6325306E-3,-3.1190037E-3,3.512587E-4,2.7093866E-3,6.236892E-3,2.667843E-3,1.1448563E-3,-1.3293395E-3],"split_indices":[8,8,31,12,27,0,12,10,8,0,13,27,13,0,0,0,0,0,0,0,0,0,0,0,0],"split_type":[0,0,0,0,0,0,0,0,0,0,0,0,0,0,0,0,0,0,0,0,0,0,0,0,0],"sum_hessian":[8.02E2,7.52E2,5E1,4.14E2,3.38E2,5E0,4.5E1,2.98E2,1.16E2,1.8E1,3.2E2,3.4E1,1.1E1,1.9E1,2.79E2,4.2E1,7.4E1,1E1,8E0,2.98E2,2.2E1,6E0,2.8E1,6E0,5E0],"tree_param":{"num_deleted":"0","num_feature":"33","num_nodes":"25","size_leaf_vector":"1"}},{"base_weights":[9.577889E-4,-2.1841847E-3,9.006127E-2,-3.5787793E-3,7.477049E-3,7.574644E-3,6.92135E-2,-1.0027511E-2,1.0435253E-2,1.9057024E-3,4.059282E-3,-7.9407886E-4,2.566722E-5,5.307574E-3,3.9735148E-4],"categories":[],"categories_nodes":[],"categories_segments":[],"categories_sizes":[],"default_left":[1,1,0,0,0,0,0,0,0,0,0,0,0,0,0],"id":16,"left_children":[1,3,5,7,-1,-1,9,11,13,-1,-1,-1,-1,-1,-1],"loss_changes":[2.2192565E-1,1.6261701E-1,2.4093881E-2,6.878792E-2,0E0,0E0,5.096875E-3,3.2157432E-2,5.6315616E-2,0E0,0E0,0E0,0E0,0E0,0E0],"parents":[2147483647,0,0,1,1,2,2,3,3,6,6,7,7,8,8],"right_children":[2,4,6,8,-1,-1,10,12,14,-1,-1,-1,-1,-1,-1],"split_conditions":[2.9060063E-1,1.84666E2,9.737874E-1,8.520736E-3,7.477049E-3,7.574644E-3,-5.9828594E-2,1.659855E2,-9.766599E-2,1.9057024E-3,4.059282E-3,-7.9407886E-4,2.566722E-5,5.307574E-3,3.9735148E-4],"split_indices":[3,10,13,6,0,0,15,12,29,0,0,0,0,0,0],"split_type":[0,0,0,0,0,0,0,0,0,0,0,0,0,0,0],"sum_hessian":[7.91E2,7.65E2,2.6E1,7.59E2,6E0,5E0,2.1E1,5.2E2,2.39E2,7E0,1.4E1,3.34E2,1.86E2,5E0,2.34E2],"tree_param":{"num_deleted":"0","num_feature":"33","num_nodes":"15","size_leaf_vector":"1"}},{"base_weights":[8.988142E-4,-2.9752282E-3,5.361219E-2,-1.3971318E-2,7.6760007E-3,7.102087E-3,3.9599296E-2,2.047871E-3,-1.4855355E-2,3.5047731E-3,4.4466205E-2,5.260551E-3,2.9523257E-2,-8.587016E-4,3.148287E-4,5.43247E-4,-8.722308E-4,1.088682E-3,5.7583703E-3,2.9196672E-3,5.126171E-4],"categories":[],"categories_nodes":[],"categories_segments":[],"categories_sizes":[],"default_left":[1,1,0,0,0,0,0,0,1,0,0,0,0,0,0,0,0,0,0,0,0],"id":17,"left_children":[1,3,5,7,9,-1,11,-1,13,15,17,-1,19,-1,-1,-1,-1,-1,-1,-1,-1],"loss_changes":[1.6108003E-1,8.619182E-2,6.1289594E-2,1.8186808E-2,5.7238325E-2,0E0,2.8626926E-2,0E0,1.7617024E-2,5.21519E-2,5.845926E-2,0E0,2.3324508E-2,0E0,0E0,0E0,0E0,0E0,0E0,0E0,0E0],"parents":[2147483647,0,0,1,1,2,2,3,3,4,4,6,6,8,8,9,9,10,10,12,12],"right_children":[2,4,6,8,10,-1,12,-1,14,16,18,-1,20,-1,-1,-1,-1,-1,-1,-1,-1],"split_conditions":[1.5678907E-2,9.170188E-3,3.9745194E-1,-2.64481E-2,1.0213674E0,7.102087E-3,1.1090251E-1,2.047871E-3,1.68426E2,1.7078498E-1,1.6683176E-1,5.260551E-3,1.57534E2,-8.587016E-4,3.148287E-4,5.43247E-4,-8.722308E-4,1.088682E-3,5.7583703E-3,2.9196672E-3,5.126171E-4],"split_indices":[8,8,31,22,13,0,26,0,10,2,2,0,10,0,0,0,0,0,0,0,0],"split_type":[0,0,0,0,0,0,0,0,0,0,0,0,0,0,0,0,0,0,0,0,0],"sum_hessian":[7.87E2,7.34E2,5.3E1,3.61E2,3.73E2,6E0,4.7E1,5E0,3.56E2,3.36E2,3.7E1,5E0,4.2E1,3.21E2,3.5E1,2.49E2,8.7E1,2.9E1,8E0,1.6E1,2.6E1],"tree_param":{"num_deleted":"0","num_feature":"33","num_nodes":"21","size_leaf_vector":"1"}},{"base_weights":[3.498206E-4,-2.940976E-3,5.0889462E-2,-7.864912E-3,2.2695148E-2,6.786681E-2,-2.6512158E-3,-1.2633415E-2,1.7350253E-2,-3.3446524E-2,2.9008957E-2,9.224552E-2,2.8580748E-2,1.1296226E-3,-1.3758069E-3,2.4187274E-4,-7.787208E-4,4.0305923E-3,3.6583908E-4,-2.0989976E-3,-8.2471006E-4,1.2066747E-3,4.934663E-3,2.0041768E-3,5.4148887E-3,8.116726E-4,2.3227E-3],"categories":[],"categories_nodes":[],"categories_segments":[],"categories_sizes":[],"default_left":[1,1,0,1,0,0,0,1,0,0,0,0,0,0,0,0,0,0,0,0,0,0,0,0,0,0,0],"id":18,"left_children":[1,3,5,7,9,11,13,15,17,19,21,23,25,-1,-1,-1,-1,-1,-1,-1,-1,-1,-1,-1,-1,-1,-1],"loss_changes":[1.3602957E-1,9.7123615E-2,4.5628875E-2,7.777309E-2,4.492425E-2,3.375779E-2,8.78152E-3,2.7975671E-2,6.478772E-2,1.1881711E-3,3.5669424E-2,1.4917344E-2,2.7768742E-3,0E0,0E0,0E0,0E0,0E0,0E0,0E0,0E0,0E0,0E0,0E0,0E0,0E0,0E0],"parents":[2147483647,0,0,1,1,2,2,3,3,4,4,5,5,6,6,7,7,8,8,9,9,10,10,11,11,12,12],"right_children":[2,4,6,8,10,12,14,16,18,20,22,24,26,-1,-1,-1,-1,-1,-1,-1,-1,-1,-1,-1,-1,-1,-1],"split_conditions":[1.5678907E-2,1.0294651E0,1.7174017E2,1.7125917E2,-6.4971685E-1,2.4928178E-1,9.948248E-1,9.705787E-1,9.84491E-3,5.6877257E-3,1.8803718E-2,-6.0126368E-2,1.4059189E-2,1.1296226E-3,-1.3758069E-3,2.4187274E-4,-7.787208E-4,4.0305923E-3,3.6583908E-4,-2.0989976E-3,-8.2471006E-4,1.2066747E-3,4.934663E-3,2.0041768E-3,5.4148887E-3,8.116726E-4,2.3227E-3],"split_indices":[8,14,12,12,32,5,13,14,8,6,6,32,1,0,0,0,0,0,0,0,0,0,0,0,0,0,0],"split_type":[0,0,0,0,0,0,0,0,0,0,0,0,0,0,0,0,0,0,0,0,0,0,0,0,0,0,0],"sum_hessian":[8.16E2,7.67E2,4.9E1,6.44E2,1.23E2,3.7E1,1.2E1,5.42E2,1.02E2,1.2E1,1.11E2,2.2E1,1.5E1,6E0,6E0,7.8E1,4.64E2,1.3E1,8.9E1,7E0,5E0,1.05E2,6E0,6E0,1.6E1,1E1,5E0],"tree_param":{"num_deleted":"0","num_feature":"33","num_nodes":"27","size_leaf_vector":"1"}},{"base_weights":[9.055841E-4,-2.7930243E-3,5.0094113E-2,-5.973791E-3,3.8849697E-2,8.217723E-2,2.6917472E-2,-8.667696E-3,2.7400468E-2,1.0886744E-1,8.346184E-3,8.4749574E-4,9.935427E-2,3.7791666E-2,-1.4798816E-4,-6.445906E-4,4.6304084E-4,5.840326E-3,7.7019696E-4,1.6144842E-3,7.037004E-3,1.3562015E-3,-1.112739E-3,6.7264303E-3,2.4616153E-3,2.4692416E-3,7.7317184E-4],"categories":[],"categories_nodes":[],"categories_segments":[],"categories_sizes":[],"default_left":[1,1,0,1,0,0,0,1,0,0,0,0,0,0,0,0,0,0,0,0,0,0,0,0,0,0,0],"id":19,"left_children":[1,3,5,7,9,11,13,15,17,19,21,-1,23,25,-1,-1,-1,-1,-1,-1,-1,-1,-1,-1,-1,-1,-1],"loss_changes":[1.4568318E-1,9.891163E-2,3.9428413E-2,6.2543124E-2,1.1228809E-1,2.4085417E-2,1.1158144E-2,4.8739392E-2,5.3973958E-2,3.450732E-2,2.2439204E-2,0E0,2.5110975E-2,5.707711E-3,0E0,0E0,0E0,0E0,0E0,0E0,0E0,0E0,0E0,0E0,0E0,0E0,0E0],"parents":[2147483647,0,0,1,1,2,2,3,3,4,4,5,5,6,6,7,7,8,8,9,9,10,10,12,12,13,13],"right_children":[2,4,6,8,10,12,14,16,18,20,22,-1,24,26,-1,-1,-1,-1,-1,-1,-1,-1,-1,-1,-1,-1,-1],"split_conditions":[1.5678907E-2,1.761165E2,2.3718725E-1,3.3877622E-2,1.3399638E-1,2.2356667E-1,1.7174017E2,1.5033159E-1,-4.222259E-2,-8.6334655E-3,1.6168298E-1,8.4749574E-4,3.0984214E-1,2.6433742E-1,-1.4798816E-4,-6.445906E-4,4.6304084E-4,5.840326E-3,7.7019696E-4,1.6144842E-3,7.037004E-3,1.3562015E-3,-1.112739E-3,6.7264303E-3,2.4616153E-3,2.4692416E-3,7.7317184E-4],"split_indices":[8,11,32,9,28,2,12,5,21,30,2,0,3,5,0,0,0,0,0,0,0,0,0,0,0,0,0],"split_type":[0,0,0,0,0,0,0,0,0,0,0,0,0,0,0,0,0,0,0,0,0,0,0,0,0,0,0],"sum_hessian":[7.99E2,7.44E2,5.5E1,6.92E2,5.2E1,2.2E1,3.3E1,6.41E2,5.1E1,1.5E1,3.7E1,5E0,1.7E1,2.4E1,9E0,5.19E2,1.22E2,5E0,4.6E1,5E0,1E1,2.3E1,1.4E1,9E0,8E0,1.5E1,9E0],"tree_param":{"num_deleted":"0","num_feature":"33","num_nodes":"27","size_leaf_vector":"1"}},{"base_weights":[1.3362049E-3,-2.2293855E-3,4.8157647E-2,-8.1060575E-3,1.513814E-2,7.125219E-3,3.656825E-2,-1.3656656E-2,1.6605228E-2,5.0742645E-3,7.42619E-2,4.3213487E-2,-1.1344168E-3,1.109032E-3,-7.656721E-4,2.4174664E-3,1.9280857E-4,1.6590533E-3,-2.5107278E-4,1.8138869E-3,6.483336E-3,1.4864298E-3,3.2018356E-3],"categories":[],"categories_nodes":[],"categories_segments":[],"categories_sizes":[],"default_left":[1,1,0,1,0,0,0,0,0,0,0,0,0,0,0,0,0,0,0,0,0,0,0],"id":20,"left_children":[1,3,5,7,9,-1,11,13,15,17,19,21,-1,-1,-1,-1,-1,-1,-1,-1,-1,-1,-1],"loss_changes":[1.368362E-1,7.78949E-2,5.820732E-2,7.840936E-2,1.14460915E-1,0E0,2.1850467E-2,2.8008282E-2,4.230783E-2,4.727051E-2,5.422212E-2,1.1574626E-2,0E0,0E0,0E0,0E0,0E0,0E0,0E0,0E0,0E0,0E0,0E0],"parents":[2147483647,0,0,1,1,2,2,3,3,4,4,6,6,7,7,8,8,9,9,10,10,11,11],"right_children":[2,4,6,8,10,-1,12,14,16,18,20,22,-1,-1,-1,-1,-1,-1,-1,-1,-1,-1,-1],"split_conditions":[1.5678907E-2,1.6757483E2,3.92475E-1,1.0294651E0,-3.154697E-2,7.125219E-3,1.7448083E2,1.13464E2,1.033485E0,1.4037089E-1,1.4059189E-2,1.794206E-2,-1.1344168E-3,1.109032E-3,-7.656721E-4,2.4174664E-3,1.9280857E-4,1.6590533E-3,-2.5107278E-4,1.8138869E-3,6.483336E-3,1.4864298E-3,3.2018356E-3],"split_indices":[8,12,31,14,16,0,12,10,14,4,1,1,0,0,0,0,0,0,0,0,0,0,0],"split_type":[0,0,0,0,0,0,0,0,0,0,0,0,0,0,0,0,0,0,0,0,0,0,0],"sum_hessian":[8.18E2,7.61E2,5.7E1,5.69E2,1.92E2,5E0,5.2E1,4.65E2,1.04E2,1.65E2,2.7E1,4.7E1,5E0,2E1,4.45E2,2.9E1,7.5E1,4.3E1,1.22E2,1.7E1,1E1,3E1,1.7E1],"tree_param":{"num_deleted":"0","num_feature":"33","num_nodes":"23","size_leaf_vector":"1"}},{"base_weights":[1.068611E-3,-1.2235119E-3,7.985125E-2,-6.363097E-3,2.1148898E-2,6.2743197E-3,4.714674E-2,-1.419349E-2,4.5360154E-3,9.38425E-3,6.031906E-2,1.2353932E-3,2.9680338E-3,1.1436332E-3,-7.740914E-4,8.224393E-4,-4.5035474E-4,-1.085864E-3,8.080272E-4,7.7474276E-3,1.9330288E-3],"categories":[],"categories_nodes":[],"categories_segments":[],"categories_sizes":[],"default_left":[1,1,0,0,0,0,0,0,0,0,0,0,0,0,0,0,0,0,0,0,0],"id":21,"left_children":[1,3,5,7,9,-1,11,13,15,17,19,-1,-1,-1,-1,-1,-1,-1,-1,-1,-1],"loss_changes":[1.469088E-1,9.108763E-2,2.8410658E-2,5.502613E-2,6.763577E-2,0E0,2.6443265E-3,1.8261753E-2,4.3708865E-2,2.4587572E-2,6.3693665E-2,0E0,0E0,0E0,0E0,0E0,0E0,0E0,0E0,0E0,0E0],"parents":[2147483647,0,0,1,1,2,2,3,3,4,4,6,6,7,7,8,8,9,9,10,10],"right_children":[2,4,6,8,10,-1,12,14,16,18,20,-1,-1,-1,-1,-1,-1,-1,-1,-1,-1],"split_conditions":[3.1747E-1,1.0309064E0,6.337645E-2,1.659855E2,3.3877622E-2,6.2743197E-3,3.6557704E-2,9.705787E-1,1.0844479E-2,-6.06884E-1,-1.3273306E-2,1.2353932E-3,2.9680338E-3,1.1436332E-3,-7.740914E-4,8.224393E-4,-4.5035474E-4,-1.085864E-3,8.080272E-4,7.7474276E-3,1.9330288E-3],"split_indices":[26,14,32,12,9,0,1,14,8,32,16,0,0,0,0,0,0,0,0,0,0],"split_type":[0,0,0,0,0,0,0,0,0,0,0,0,0,0,0,0,0,0,0,0,0],"sum_hessian":[8.12E2,7.9E2,2.2E1,6.43E2,1.47E2,8E0,1.4E1,3.74E2,2.69E2,1.14E2,3.3E1,6E0,8E0,1.2E1,3.62E2,1.43E2,1.26E2,2E1,9.4E1,5E0,2.8E1],"tree_param":{"num_deleted":"0","num_feature":"33","num_nodes":"21","size_leaf_vector":"1"}},{"base_weights":[1.5006473E-3,2.7633097E-4,6.0954113E-3,-2.193449E-3,5.684837E-2,-6.692842E-3,1.06961075E-2,6.4186067E-3,3.9491553E-2,-4.0065518E-4,1.8013439E-3,2.0634502E-3,1.171416E-4,1.2296084E-3,3.4106672E-3],"categories":[],"categories_nodes":[],"categories_segments":[],"categories_sizes":[],"default_left":[1,1,0,1,0,1,0,0,0,0,0,0,0,0,0],"id":22,"left_children":[1,3,-1,5,7,9,11,-1,13,-1,-1,-1,-1,-1,-1],"loss_changes":[1.171628E-1,1.1022445E-1,0E0,4.391595E-2,3.5897397E-2,3.1929754E-2,4.9958546E-2,0E0,1.0304723E-2,0E0,0E0,0E0,0E0,0E0,0E0],"parents":[2147483647,0,0,1,1,3,3,4,4,5,5,6,6,8,8],"right_children":[2,4,-1,6,8,10,12,-1,14,-1,-1,-1,-1,-1,-1],"split_conditions":[1.0524969E0,1.9708052E-2,6.0954113E-3,1.5033159E-1,-6.4463384E-2,1.7133869E-1,1.4037089E-1,6.4186067E-3,3.7797302E-1,-4.0065518E-4,1.8013439E-3,2.0634502E-3,1.171416E-4,1.2296084E-3,3.4106672E-3],"split_indices":[13,8,0,5,9,28,28,0,2,0,0,0,0,0,0],"split_type":[0,0,0,0,0,0,0,0,0,0,0,0,0,0,0],"sum_hessian":[7.94E2,7.87E2,7E0,7.55E2,3.2E1,5.6E2,1.95E2,5E0,2.7E1,5.44E2,1.6E1,4.1E1,1.54E2,1.9E1,8E0],"tree_param":{"num_deleted":"0","num_feature":"33","num_nodes":"15","size_leaf_vector":"1"}},{"base_weights":[-4.7088557E-4,-2.741033E-3,4.917014E-2,-3.692821E-3,5.1921434E-3,7.324638E-2,2.3773165E-2,-6.9987383E-3,1.3070411E-2,8.668246E-2,1.9874666E-3,1.9166385E-3,1.2085666E-2,-5.439411E-4,5.528577E-4,3.2555565E-4,5.573295E-3,2.7309333E-3,5.4821577E-3,1.2252328E-3,-1.4285317E-5],"categories":[],"categories_nodes":[],"categories_segments":[],"categories_sizes":[],"default_left":[1,1,0,1,0,0,0,1,0,0,0,0,0,0,0,0,0,0,0,0,0],"id":23,"left_children":[1,3,5,7,-1,9,11,13,15,17,-1,-1,19,-1,-1,-1,-1,-1,-1,-1,-1],"loss_changes":[9.276797E-2,8.022089E-2,2.027139E-2,4.3372825E-2,0E0,4.655674E-3,2.769865E-3,4.5868393E-2,8.253152E-2,2.8459206E-3,0E0,0E0,1.8506806E-3,0E0,0E0,0E0,0E0,0E0,0E0,0E0,0E0],"parents":[2147483647,0,0,1,1,2,2,3,3,5,5,6,6,7,7,8,8,9,9,12,12],"right_children":[2,4,6,8,-1,10,12,14,16,18,-1,-1,20,-1,-1,-1,-1,-1,-1,-1,-1],"split_conditions":[3.1251672E-1,1.84666E2,2.0740314E-1,1.7125917E2,5.1921434E-3,4.4467628E-2,-9.169374E-3,1.0294651E0,-2.9398281E-2,3.0201322E-1,1.9874666E-3,1.9166385E-3,2.2234458E-2,-5.439411E-4,5.528577E-4,3.2555565E-4,5.573295E-3,2.7309333E-3,5.4821577E-3,1.2252328E-3,-1.4285317E-5],"split_indices":[25,10,32,12,0,22,29,14,16,4,0,0,9,0,0,0,0,0,0,0,0],"split_type":[0,0,0,0,0,0,0,0,0,0,0,0,0,0,0,0,0,0,0,0,0],"sum_hessian":[8.21E2,7.86E2,3.5E1,7.8E2,6E0,1.7E1,1.8E1,6.52E2,1.28E2,1.1E1,6E0,7E0,1.1E1,5.37E2,1.15E2,1.21E2,7E0,6E0,5E0,5E0,6E0],"tree_param":{"num_deleted":"0","num_feature":"33","num_nodes":"21","size_leaf_vector":"1"}},{"base_weights":[8.9593546E-4,-3.3499778E-4,6.1553973E-3,6.24653E-3,-1.4459284E-3,-6.818927E-3,1.2658665E-2,-4.990198E-4,6.2341243E-4,2.6067344E-3,3.637531E-4],"categories":[],"categories_nodes":[],"categories_segments":[],"categories_sizes":[],"default_left":[1,0,0,0,1,1,0,0,0,0,0],"id":24,"left_children":[1,3,-1,-1,5,7,9,-1,-1,-1,-1],"loss_changes":[1.20689966E-1,1.1081393E-1,0E0,0E0,5.9879865E-2,3.500259E-2,4.5950778E-2,0E0,0E0,0E0,0E0],"parents":[2147483647,0,0,1,1,4,4,5,5,6,6],"right_children":[2,4,-1,-1,6,8,10,-1,-1,-1,-1],"split_conditions":[1.84666E2,-1.1834544E-1,6.1553973E-3,6.24653E-3,1.501098E-1,1.0294651E0,1.0844479E-2,-4.990198E-4,6.2341243E-4,2.6067344E-3,3.637531E-4],"split_indices":[10,21,0,0,5,14,8,0,0,0,0],"split_type":[0,0,0,0,0,0,0,0,0,0,0],"sum_hessian":[8.01E2,7.94E2,7E0,6E0,7.88E2,5.71E2,2.17E2,4.91E2,8E1,2.5E1,1.92E2],"tree_param":{"num_deleted":"0","num_feature":"33","num_nodes":"11","size_leaf_vector":"1"}},{"base_weights":[3.4678087E-4,-1.6073618E-3,5.794496E-2,-4.4677947E-3,2.5160417E-2,5.636023E-3,4.0372323E-2,3.2298246E-3,-5.236443E-3,5.7168417E-3,1.0143984E-2,4.7658913E-2,6.499134E-4,-4.0101632E-4,3.53881E-4,-6.1921484E-4,1.5547554E-3,2.8914274E-3,1.2434825E-3],"categories":[],"categories_nodes":[],"categories_segments":[],"categories_sizes":[],"default_left":[1,1,0,0,0,0,0,0,1,0,0,0,0,0,0,0,0,0,0],"id":25,"left_children":[1,3,5,7,9,-1,11,-1,13,-1,15,17,-1,-1,-1,-1,-1,-1,-1],"loss_changes":[9.26134E-2,6.1060093E-2,2.1438055E-2,3.8560294E-2,1.0195176E-1,0E0,3.768716E-3,0E0,2.4499057E-2,0E0,3.2008603E-2,2.501715E-3,0E0,0E0,0E0,0E0,0E0,0E0,0E0],"parents":[2147483647,0,0,1,1,2,2,3,3,4,4,6,6,8,8,10,10,11,11],"right_children":[2,4,6,8,10,-1,12,-1,14,-1,16,18,-1,-1,-1,-1,-1,-1,-1],"split_conditions":[3.1747E-1,1.761165E2,-4.877971E-2,-7.306624E-2,1.6231495E-1,5.636023E-3,1.8803718E-2,3.2298246E-3,1.5033159E-1,5.7168417E-3,5.019626E-4,2.5666565E-1,6.499134E-4,-4.0101632E-4,3.53881E-4,-6.1921484E-4,1.5547554E-3,2.8914274E-3,1.2434825E-3],"split_indices":[26,11,9,21,5,0,6,0,5,0,30,5,0,0,0,0,0,0,0],"split_type":[0,0,0,0,0,0,0,0,0,0,0,0,0,0,0,0,0,0,0],"sum_hessian":[8.21E2,7.95E2,2.6E1,7.19E2,7.6E1,5E0,2.1E1,7E0,7.12E2,1E1,6.6E1,1.6E1,5E0,5.81E2,1.31E2,3.2E1,3.4E1,1E1,6E0],"tree_param":{"num_deleted":"0","num_feature":"33","num_nodes":"19","size_leaf_vector":"1"}},{"base_weights":[7.696395E-5,-3.8267E-3,2.9693056E-2,-5.256252E-3,3.8356073E-2,8.226657E-2,2.0778697E-2,-4.085097E-2,-4.2760377E-3,4.241361E-3,7.91632E-3,5.3856536E-3,2.253385E-3,-1.989886E-2,2.6874047E-2,-1.0438818E-3,-2.5831654E-3,-6.61103E-4,5.787607E-6,-9.842647E-4,1.4252325E-3,-3.915416E-4,-1.4325206E-3,9.0033497E-4,3.218441E-3],"categories":[],"categories_nodes":[],"categories_segments":[],"categories_sizes":[],"default_left":[0,1,0,0,0,0,0,0,1,0,0,0,0,0,0,0,0,0,0,0,0,0,0,0,0],"id":26,"left_children":[1,3,5,7,9,11,13,15,17,-1,19,-1,-1,21,23,-1,-1,-1,-1,-1,-1,-1,-1,-1,-1],"loss_changes":[9.133092E-2,4.229273E-2,4.1407242E-2,2.3411267E-2,3.1863593E-2,7.451184E-3,2.0370275E-2,2.8086435E-3,2.589301E-2,0E0,9.085188E-3,0E0,0E0,9.373971E-4,2.211447E-2,0E0,0E0,0E0,0E0,0E0,0E0,0E0,0E0,0E0,0E0],"parents":[2147483647,0,0,1,1,2,2,3,3,4,4,5,5,6,6,7,7,8,8,10,10,13,13,14,14],"right_children":[2,4,6,8,10,12,14,16,18,-1,20,-1,-1,22,24,-1,-1,-1,-1,-1,-1,-1,-1,-1,-1],"split_conditions":[1.2939103E-2,3.6557704E-2,-7.021173E-2,2.0490903E-2,1.0213674E0,1.50159E2,-2.132714E-2,3.3393968E-3,9.262362E-2,4.241361E-3,-1.2422325E-2,5.3856536E-3,2.253385E-3,-3.4537435E-2,1.9197263E-2,-1.0438818E-3,-2.5831654E-3,-6.61103E-4,5.787607E-6,-9.842647E-4,1.4252325E-3,-3.915416E-4,-1.4325206E-3,9.0033497E-4,3.218441E-3],"split_indices":[6,1,29,27,13,11,20,20,4,0,29,0,0,1,6,0,0,0,0,0,0,0,0,0,0],"split_type":[0,0,0,0,0,0,0,0,0,0,0,0,0,0,0,0,0,0,0,0,0,0,0,0,0],"sum_hessian":[7.88E2,6.97E2,9.1E1,6.75E2,2.2E1,1.2E1,7.9E1,1.7E1,6.58E2,8E0,1.4E1,6E0,6E0,1E1,6.9E1,7E0,1E1,2.16E2,4.42E2,6E0,8E0,5E0,5E0,5.7E1,1.2E1],"tree_param":{"num_deleted":"0","num_feature":"33","num_nodes":"25","size_leaf_vector":"1"}},{"base_weights":[1.9465891E-3,-7.911811E-3,1.1119655E-2,-1.0231123E-2,2.0338286E-2,6.9304995E-2,6.1422433E-3,2.530746E-2,-1.2493932E-2,3.5005804E-2,-1.2186555E-3,9.184152E-2,3.9619837E-2,4.256633E-3,4.253722E-3,3.8087387E-3,2.932808E-4,-4.2980924E-4,-1.4947574E-3,2.4341482E-3,-1.6054921E-4,6.175453E-3,3.50805E-3,6.855283E-4,2.507518E-3,-2.383702E-4,6.652881E-4],"categories":[],"categories_nodes":[],"categories_segments":[],"categories_sizes":[],"default_left":[0,0,0,0,0,0,1,0,0,0,0,0,0,1,0,0,0,0,0,0,0,0,0,0,0,0,0],"id":27,"left_children":[1,3,5,7,9,11,13,15,17,19,-1,21,23,25,-1,-1,-1,-1,-1,-1,-1,-1,-1,-1,-1,-1,-1],"loss_changes":[7.33377E-2,2.5826715E-2,1.2121152E-1,2.9427148E-2,2.0527354E-2,1.843825E-2,5.7385985E-2,2.1310188E-2,2.2871528E-2,1.2178354E-2,0E0,3.6927313E-3,3.6778226E-3,3.1094113E-2,0E0,0E0,0E0,0E0,0E0,0E0,0E0,0E0,0E0,0E0,0E0,0E0,0E0],"parents":[2147483647,0,0,1,1,2,2,3,3,4,4,5,5,6,6,7,7,8,8,9,9,11,11,12,12,13,13],"right_children":[2,4,6,8,10,12,14,16,18,20,-1,22,24,26,-1,-1,-1,-1,-1,-1,-1,-1,-1,-1,-1,-1,-1],"split_conditions":[1.4332483E2,1.0442688E0,1.4970349E2,1.13464E2,1.7559597E-1,-1.056214E-2,1.84666E2,1.142495E2,1.4251041E-2,1.0188102E0,-1.2186555E-3,2.0136751E-1,1.85339E-2,1.491938E-3,4.253722E-3,3.8087387E-3,2.932808E-4,-4.2980924E-4,-1.4947574E-3,2.4341482E-3,-1.6054921E-4,6.175453E-3,3.50805E-3,6.855283E-4,2.507518E-3,-2.383702E-4,6.652881E-4],"split_indices":[12,14,12,10,2,21,10,12,30,13,0,2,1,30,0,0,0,0,0,0,0,0,0,0,0,0,0],"split_type":[0,0,0,0,0,0,0,0,0,0,0,0,0,0,0,0,0,0,0,0,0,0,0,0,0,0,0],"sum_hessian":[8.09E2,3.9E2,4.19E2,3.61E2,2.9E1,3.2E1,3.87E2,2.1E1,3.4E2,2.2E1,7E0,1.7E1,1.5E1,3.79E2,8E0,5E0,1.6E1,2.79E2,6.1E1,1.6E1,6E0,5E0,1.2E1,5E0,1E1,1.9E2,1.89E2],"tree_param":{"num_deleted":"0","num_feature":"33","num_nodes":"27","size_leaf_vector":"1"}},{"base_weights":[3.3511358E-4,-4.162998E-3,2.2073558E-2,-5.144554E-3,3.041985E-3,1.7896215E-2,4.3859184E-3,-7.3722103E-3,9.757673E-3,6.718841E-2,1.1896324E-2,-2.6455752E-4,-1.5549444E-3,-1.0183426E-3,1.1218836E-3,4.6557467E-3,8.550278E-4,1.2258729E-3,5.0573612E-6],"categories":[],"categories_nodes":[],"categories_segments":[],"categories_sizes":[],"default_left":[0,1,0,1,0,0,0,1,0,0,0,0,0,0,0,0,0,0,0],"id":28,"left_children":[1,3,5,7,-1,9,-1,11,13,15,17,-1,-1,-1,-1,-1,-1,-1,-1],"loss_changes":[7.8708574E-2,4.287012E-2,3.627266E-2,2.1915587E-2,0E0,3.7943654E-2,0E0,2.8128263E-2,3.330718E-2,1.6588137E-2,1.7564004E-2,0E0,0E0,0E0,0E0,0E0,0E0,0E0,0E0],"parents":[2147483647,0,0,1,1,2,2,3,3,5,5,7,7,8,8,9,9,10,10],"right_children":[2,4,6,8,-1,10,-1,12,14,16,18,-1,-1,-1,-1,-1,-1,-1,-1],"split_conditions":[1.1775207E-2,3.895302E-2,1.84666E2,1.7230284E2,3.041985E-3,-2.6267484E-2,4.3859184E-3,1.69587E2,-2.1032211E-3,6.337645E-2,1.5360935E-1,-2.6455752E-4,-1.5549444E-3,-1.0183426E-3,1.1218836E-3,4.6557467E-3,8.550278E-4,1.2258729E-3,5.0573612E-6],"split_indices":[6,1,10,12,0,23,0,12,30,32,4,0,0,0,0,0,0,0,0],"split_type":[0,0,0,0,0,0,0,0,0,0,0,0,0,0,0,0,0,0,0],"sum_hessian":[8.03E2,6.66E2,1.37E2,6.57E2,9E0,1.3E2,7E0,5.72E2,8.5E1,1.3E1,1.17E2,5.27E2,4.5E1,2.5E1,6E1,8E0,5E0,5.6E1,6.1E1],"tree_param":{"num_deleted":"0","num_feature":"33","num_nodes":"19","size_leaf_vector":"1"}},{"base_weights":[3.8223164E-4,-8.296208E-3,1.0286205E-2,-1.145667E-2,9.212032E-3,6.2188942E-2,5.096208E-3,3.0765435E-2,-1.3238547E-2,4.2801157E-2,-6.3223965E-3,3.407392E-2,8.528708E-2,3.169746E-3,3.8011556E-3,2.9494737E-3,5.3772336E-4,3.1432737E-5,-8.486185E-4,2.9307185E-3,4.888948E-4,-1.5334013E-3,2.643596E-4,4.8407106E-5,2.3893658E-3,5.1377504E-3,2.5303897E-3,-1.00205376E-4,1.0088146E-3],"categories":[],"categories_nodes":[],"categories_segments":[],"categories_sizes":[],"default_left":[1,1,0,0,0,0,0,0,1,0,0,0,0,0,0,0,0,0,0,0,0,0,0,0,0,0,0,0,0],"id":29,"left_children":[1,3,5,7,9,11,13,15,17,19,21,23,25,27,-1,-1,-1,-1,-1,-1,-1,-1,-1,-1,-1,-1,-1,-1,-1],"loss_changes":[6.901807E-2,2.3788545E-2,1.00698724E-1,2.7717441E-2,3.4708604E-2,1.9173682E-2,4.6489216E-2,7.837454E-3,1.8081076E-2,1.0393154E-2,1.3163714E-2,7.6716077E-3,5.7037473E-3,2.9428888E-2,0E0,0E0,0E0,0E0,0E0,0E0,0E0,0E0,0E0,0E0,0E0,0E0,0E0,0E0,0E0],"parents":[2147483647,0,0,1,1,2,2,3,3,4,4,5,5,6,6,7,7,8,8,9,9,10,10,11,11,12,12,13,13],"right_children":[2,4,6,8,10,12,14,16,18,20,22,24,26,28,-1,-1,-1,-1,-1,-1,-1,-1,-1,-1,-1,-1,-1,-1,-1],"split_conditions":[1.476385E2,1.0335112E-2,1.57534E2,1.13292E2,1.34692E2,1.49523E2,1.84666E2,-5.9075915E-4,8.239183E-2,1.5676503E-1,1.3860244E-1,8.3517665E-3,1.0952706E-2,3.0532714E-2,3.8011556E-3,2.9494737E-3,5.3772336E-4,3.1432737E-5,-8.486185E-4,2.9307185E-3,4.888948E-4,-1.5334013E-3,2.643596E-4,4.8407106E-5,2.3893658E-3,5.1377504E-3,2.5303897E-3,-1.00205376E-4,1.0088146E-3],"split_indices":[11,8,10,10,10,11,10,17,5,2,26,1,18,29,0,0,0,0,0,0,0,0,0,0,0,0,0,0,0],"split_type":[0,0,0,0,0,0,0,0,0,0,0,0,0,0,0,0,0,0,0,0,0,0,0,0,0,0,0,0,0],"sum_hessian":[8.01E2,4.27E2,3.74E2,3.62E2,6.5E1,3.3E1,3.41E2,1.4E1,3.48E2,2E1,4.5E1,1.6E1,1.7E1,3.33E2,8E0,5E0,9E0,7.4E1,2.74E2,1.3E1,7E0,1.4E1,3.1E1,5E0,1.1E1,1E1,7E0,2.56E2,7.7E1],"tree_param":{"num_deleted":"0","num_feature":"33","num_nodes":"29","size_leaf_vector":"1"}},{"base_weights":[9.935892E-4,6.4056667E-6,4.448095E-3,5.127237E-2,-1.3014077E-3,7.3928535E-2,4.0235254E-4,-1.2757891E-2,3.4195203E-3,2.0914471E-3,4.7733453E-3,4.4587502E-4,-8.696229E-4,8.291776E-5,1.8931946E-3],"categories":[],"categories_nodes":[],"categories_segments":[],"categories_sizes":[],"default_left":[1,0,0,0,1,0,0,0,0,0,0,0,0,0,0],"id":30,"left_children":[1,3,-1,5,7,9,-1,11,13,-1,-1,-1,-1,-1,-1],"loss_changes":[7.042737E-2,5.3904913E-2,0E0,1.8991493E-2,4.2446446E-2,4.9945638E-3,0E0,2.3159534E-2,3.366541E-2,0E0,0E0,0E0,0E0,0E0,0E0],"parents":[2147483647,0,0,1,1,3,3,4,4,5,5,7,7,8,8],"right_children":[2,4,-1,6,8,10,-1,12,14,-1,-1,-1,-1,-1,-1],"split_conditions":[1.84666E2,-1.0472518E-2,4.448095E-3,1.4835883E2,9.262362E-2,-7.2001286E-2,4.0235254E-4,7.467911E-2,3.6557704E-2,2.0914471E-3,4.7733453E-3,4.4587502E-4,-8.696229E-4,8.291776E-5,1.8931946E-3],"split_indices":[10,19,0,12,4,30,0,4,1,0,0,0,0,0,0],"split_type":[0,0,0,0,0,0,0,0,0,0,0,0,0,0,0],"sum_hessian":[8.1E2,8.02E2,8E0,1.9E1,7.83E2,1.2E1,7E0,2.28E2,5.55E2,6E0,6E0,4E1,1.88E2,5.29E2,2.6E1],"tree_param":{"num_deleted":"0","num_feature":"33","num_nodes":"15","size_leaf_vector":"1"}},{"base_weights":[-4.485913E-4,4.6636905E-3,-1.2549974E-3,-2.1006719E-3,3.7262663E-3,-3.5410756E-3,3.280474E-2,-3.422737E-4,2.4861336E-4,2.7248429E-3,3.8532872E-4],"categories":[],"categories_nodes":[],"categories_segments":[],"categories_sizes":[],"default_left":[0,0,1,1,0,1,0,0,0,0,0],"id":31,"left_children":[1,-1,3,5,-1,7,9,-1,-1,-1,-1],"loss_changes":[6.20157E-2,0E0,5.2258044E-2,4.058986E-2,0E0,2.1807801E-2,1.7001852E-2,0E0,0E0,0E0,0E0],"parents":[2147483647,0,0,2,2,3,3,5,5,6,6],"right_children":[2,-1,4,6,-1,8,10,-1,-1,-1,-1],"split_conditions":[-6.632115E-2,4.6636905E-3,1.84666E2,3.6557704E-2,3.7262663E-3,1.4953236E-1,7.572831E-1,-3.422737E-4,2.4861336E-4,2.7248429E-3,3.8532872E-4],"split_indices":[23,0,10,1,0,5,31,0,0,0,0],"split_type":[0,0,0,0,0,0,0,0,0,0,0],"sum_hessian":[8.18E2,6E0,8.12E2,8.04E2,8E0,7.73E2,3.1E1,5.57E2,2.16E2,1.6E1,1.5E1],"tree_param":{"num_deleted":"0","num_feature":"33","num_nodes":"11","size_leaf_vector":"1"}},{"base_weights":[3.0746762E-4,-4.8345616E-4,3.9878436E-3,-2.282851E-3,2.4062537E-2,-4.1748255E-2,-1.3105997E-3,4.622782E-2,7.884838E-3,-2.442309E-3,-1.180818E-3,-1.035172E-4,1.7596927E-3,2.733232E-3,6.6063646E-4,-6.8536965E-4,8.2765333E-4],"categories":[],"categories_nodes":[],"categories_segments":[],"categories_sizes":[],"default_left":[1,1,0,0,0,0,1,0,0,0,0,0,0,0,0,0,0],"id":32,"left_children":[1,3,-1,5,7,9,11,13,15,-1,-1,-1,-1,-1,-1,-1,-1],"loss_changes":[5.100052E-2,3.556595E-2,0E0,2.8723005E-2,1.935758E-2,1.1630096E-3,2.0401921E-2,5.6842044E-3,6.40339E-3,0E0,0E0,0E0,0E0,0E0,0E0,0E0,0E0],"parents":[2147483647,0,0,1,1,3,3,4,4,5,5,6,6,7,7,8,8],"right_children":[2,4,-1,6,8,10,12,14,16,-1,-1,-1,-1,-1,-1,-1,-1],"split_conditions":[1.84666E2,2.1200567E-1,3.9878436E-3,2.0490903E-2,1.62483E-1,1.2748574E-1,1.9064333E-2,1.0182196E-2,5.474337E-2,-2.442309E-3,-1.180818E-3,-1.035172E-4,1.7596927E-3,2.733232E-3,6.6063646E-4,-6.8536965E-4,8.2765333E-4],"split_indices":[10,4,0,27,32,2,23,30,27,0,0,0,0,0,0,0,0],"split_type":[0,0,0,0,0,0,0,0,0,0,0,0,0,0,0,0,0],"sum_hessian":[8.1E2,8.03E2,7E0,7.49E2,5.4E1,1.7E1,7.32E2,2.2E1,3.2E1,1.1E1,6E0,7.18E2,1.4E1,1.7E1,5E0,9E0,2.3E1],"tree_param":{"num_deleted":"0","num_feature":"33","num_nodes":"17","size_leaf_vector":"1"}},{"base_weights":[4.649979E-4,-2.776056E-3,2.2990528E-2,-3.98646E-3,4.4382203E-2,1.3102584E-2,5.8800567E-2,-3.8072348E-2,-3.0809874E-3,1.0367847E-2,4.2802086E-3,3.443351E-3,6.143361E-3,8.512449E-2,5.6594214E-4,-7.8427774E-4,-2.397931E-3,-3.8247646E-4,2.601974E-4,1.7458737E-3,-7.954878E-4,1.0779438E-3,-2.4285963E-4,1.5022726E-3,5.619279E-3],"categories":[],"categories_nodes":[],"categories_segments":[],"categories_sizes":[],"default_left":[0,1,1,0,0,0,0,0,1,0,0,0,0,0,0,0,0,0,0,0,0,0,0,0,0],"id":33,"left_children":[1,3,5,7,9,11,13,15,17,19,-1,-1,21,23,-1,-1,-1,-1,-1,-1,-1,-1,-1,-1,-1],"loss_changes":[5.97831E-2,4.104661E-2,3.57006E-2,2.1456528E-2,2.4350964E-2,3.139925E-2,2.65344E-2,3.2315366E-3,2.5853558E-2,7.6516876E-3,0E0,0E0,1.2653577E-2,1.764454E-2,0E0,0E0,0E0,0E0,0E0,0E0,0E0,0E0,0E0,0E0,0E0],"parents":[2147483647,0,0,1,1,2,2,3,3,4,4,5,5,6,6,7,7,8,8,9,9,12,12,13,13],"right_children":[2,4,6,8,10,12,14,16,18,20,-1,-1,22,24,-1,-1,-1,-1,-1,-1,-1,-1,-1,-1,-1],"split_conditions":[1.2939103E-2,3.78663E-2,1.0234717E0,2.0490903E-2,1.610235E-1,9.737874E-1,1.4927481E-1,1.316845E-1,1.0260202E0,-9.7067916E-4,4.2802086E-3,3.443351E-3,8.5402656E-1,1.4594316E-1,5.6594214E-4,-7.8427774E-4,-2.397931E-3,-3.8247646E-4,2.601974E-4,1.7458737E-3,-7.954878E-4,1.0779438E-3,-2.4285963E-4,1.5022726E-3,5.619279E-3],"split_indices":[6,1,13,27,32,13,4,26,31,17,0,0,31,2,0,0,0,0,0,0,0,0,0,0,0],"split_type":[0,0,0,0,0,0,0,0,0,0,0,0,0,0,0,0,0,0,0,0,0,0,0,0,0],"sum_hessian":[8.17E2,7.15E2,1.02E2,6.98E2,1.7E1,8.1E1,2.1E1,1.7E1,6.81E2,1E1,7E0,8E0,7.3E1,1.3E1,8E0,6E0,1.1E1,4.39E2,2.42E2,5E0,5E0,3E1,4.3E1,5E0,8E0],"tree_param":{"num_deleted":"0","num_feature":"33","num_nodes":"25","size_leaf_vector":"1"}},{"base_weights":[-1.6935193E-4,-1.6673428E-3,4.183394E-2,-3.408426E-3,1.9814601E-2,3.9929864E-3,2.2630643E-2,-7.333654E-3,6.69073E-3,3.4443296E-2,-1.0433521E-2,1.1583163E-2,2.3238785E-3,-6.0733425E-4,1.7967651E-4,8.256699E-4,-5.9710303E-4,-5.5328105E-4,2.2216013E-3,-1.1305254E-3,7.705479E-4,1.0666323E-3,1.9289275E-5],"categories":[],"categories_nodes":[],"categories_segments":[],"categories_sizes":[],"default_left":[1,1,0,1,0,0,0,0,0,0,0,0,0,0,0,0,0,0,0,0,0,0,0],"id":34,"left_children":[1,3,5,7,9,-1,11,13,15,17,19,21,-1,-1,-1,-1,-1,-1,-1,-1,-1,-1,-1],"loss_changes":[5.116124E-2,2.9427988E-2,1.8638901E-2,2.886843E-2,2.646631E-2,0E0,4.730611E-3,2.7602311E-2,3.7534043E-2,1.867472E-2,6.6426075E-3,1.6293E-3,0E0,0E0,0E0,0E0,0E0,0E0,0E0,0E0,0E0,0E0,0E0],"parents":[2147483647,0,0,1,1,2,2,3,3,4,4,6,6,7,7,8,8,9,9,10,10,11,11],"right_children":[2,4,6,8,10,-1,12,14,16,18,20,22,-1,-1,-1,-1,-1,-1,-1,-1,-1,-1,-1],"split_conditions":[3.1747E-1,3.3877622E-2,6.337645E-2,1.6757483E2,1.3388723E-1,3.9929864E-3,7.662628E-2,1.0253787E0,1.733678E-1,1.2585E2,1.6642883E2,1.494E2,2.3238785E-3,-6.0733425E-4,1.7967651E-4,8.256699E-4,-5.9710303E-4,-5.5328105E-4,2.2216013E-3,-1.1305254E-3,7.705479E-4,1.0666323E-3,1.9289275E-5],"split_indices":[26,9,32,12,5,0,9,14,2,10,12,11,0,0,0,0,0,0,0,0,0,0,0],"split_type":[0,0,0,0,0,0,0,0,0,0,0,0,0,0,0,0,0,0,0,0,0,0,0],"sum_hessian":[8.11E2,7.84E2,2.7E1,7.26E2,5.8E1,8E0,1.9E1,5.23E2,2.03E2,3.9E1,1.9E1,1.4E1,5E0,3.63E2,1.6E2,1.33E2,7E1,7E0,3.2E1,1.3E1,6E0,7E0,7E0],"tree_param":{"num_deleted":"0","num_feature":"33","num_nodes":"23","size_leaf_vector":"1"}},{"base_weights":[1.1944664E-3,3.7277813E-4,4.335308E-3,-1.2215583E-3,3.2904036E-2,-4.331274E-3,1.2423218E-2,4.3334197E-3,2.2448441E-2,-3.823428E-4,6.082351E-4,1.7029375E-3,2.835878E-4,7.6041615E-4,1.9151947E-3],"categories":[],"categories_nodes":[],"categories_segments":[],"categories_sizes":[],"default_left":[1,1,0,1,0,1,0,0,0,0,0,0,0,0,0],"id":35,"left_children":[1,3,-1,5,7,9,11,-1,13,-1,-1,-1,-1,-1,-1],"loss_changes":[5.9059657E-2,4.3296248E-2,0E0,3.3829182E-2,1.9977823E-2,3.5589278E-2,2.1425404E-2,0E0,3.3205058E-3,0E0,0E0,0E0,0E0,0E0,0E0],"parents":[2147483647,0,0,1,1,3,3,4,4,5,5,6,6,8,8],"right_children":[2,4,-1,6,8,10,12,-1,14,-1,-1,-1,-1,-1,-1],"split_conditions":[1.84666E2,3.1251672E-1,4.335308E-3,1.0294651E0,-4.877971E-2,1.7125917E2,1.0331587E0,4.3334197E-3,3.014725E-1,-3.823428E-4,6.082351E-4,1.7029375E-3,2.835878E-4,7.6041615E-4,1.9151947E-3],"split_indices":[10,25,0,14,9,12,14,0,2,0,0,0,0,0,0],"split_type":[0,0,0,0,0,0,0,0,0,0,0,0,0,0,0],"sum_hessian":[8.4E2,8.33E2,7E0,7.95E2,3.8E1,6.48E2,1.47E2,5E0,3.3E1,5.4E2,1.08E2,3.4E1,1.13E2,2.4E1,9E0],"tree_param":{"num_deleted":"0","num_feature":"33","num_nodes":"15","size_leaf_vector":"1"}},{"base_weights":[-4.7765076E-4,-1.0998356E-3,4.091703E-3,4.8865203E-2,-2.0605233E-3,4.030994E-3,-6.1017275E-4,-1.1014656E-2,1.1565706E-3,1.0373061E-5,-1.1813608E-3,-1.4608594E-3,1.4426511E-4],"categories":[],"categories_nodes":[],"categories_segments":[],"categories_sizes":[],"default_left":[1,0,0,0,0,0,0,1,0,0,0,0,0],"id":36,"left_children":[1,3,-1,5,7,-1,-1,9,11,-1,-1,-1,-1],"loss_changes":[4.0958058E-2,3.8165323E-2,0E0,3.007207E-2,2.2452835E-2,0E0,0E0,2.9162064E-2,3.0223938E-2,0E0,0E0,0E0,0E0],"parents":[2147483647,0,0,1,1,3,3,4,4,7,7,8,8],"right_children":[2,4,-1,6,8,-1,-1,10,12,-1,-1,-1,-1],"split_conditions":[1.0544095E0,-7.306624E-2,4.091703E-3,-1.3273306E-2,9.211828E-2,4.030994E-3,-6.1017275E-4,1.2414633E2,2.307102E-2,1.0373061E-5,-1.1813608E-3,-1.4608594E-3,1.4426511E-4],"split_indices":[13,21,0,16,4,0,0,12,27,0,0,0,0],"split_type":[0,0,0,0,0,0,0,0,0,0,0,0,0],"sum_hessian":[7.97E2,7.92E2,5E0,1.4E1,7.78E2,9E0,5E0,2.05E2,5.73E2,1.09E2,9.6E1,3E1,5.43E2],"tree_param":{"num_deleted":"0","num_feature":"33","num_nodes":"13","size_leaf_vector":"1"}},{"base_weights":[-6.838577E-4,-2.4771157E-3,2.3332627E-2,-4.2931763E-3,1.6766636E-2,2.8479937E-2,-1.2583078E-3,2.8271659E-3,-4.9023707E-3,6.005952E-3,6.325962E-3,-4.2909026E-4,3.2605268E-2,-1.6883614E-3,-2.0406996E-4,-2.394376E-4,4.637608E-3,2.5145863E-3,1.092723E-3],"categories":[],"categories_nodes":[],"categories_segments":[],"categories_sizes":[],"default_left":[1,1,0,0,0,0,0,0,0,0,0,0,0,0,0,0,0,0,0],"id":37,"left_children":[1,3,5,7,9,11,-1,-1,13,-1,15,-1,17,-1,-1,-1,-1,-1,-1],"loss_changes":[3.5330284E-2,2.673717E-2,1.4946111E-2,2.6145931E-2,7.045867E-2,8.230191E-3,0E0,0E0,1.6260657E-2,0E0,5.904091E-2,0E0,7.837657E-3,0E0,0E0,0E0,0E0,0E0,0E0],"parents":[2147483647,0,0,1,1,2,2,3,3,4,4,5,5,8,8,10,10,12,12],"right_children":[2,4,6,8,10,12,-1,-1,14,-1,16,-1,18,-1,-1,-1,-1,-1,-1],"split_conditions":[1.5678907E-2,1.761165E2,1.7448083E2,-7.306624E-2,9.7221425E-3,-1.9333333E-2,-1.2583078E-3,2.8271659E-3,2.0490903E-2,6.005952E-3,-4.2615574E-2,-4.2909026E-4,1.9808625E-1,-1.6883614E-3,-2.0406996E-4,-2.394376E-4,4.637608E-3,2.5145863E-3,1.092723E-3],"split_indices":[8,11,12,21,8,7,0,0,27,0,16,0,5,0,0,0,0,0,0],"split_type":[0,0,0,0,0,0,0,0,0,0,0,0,0,0,0,0,0,0,0],"sum_hessian":[8.18E2,7.62E2,5.6E1,6.97E2,6.5E1,5.1E1,5E0,6E0,6.91E2,5E0,6E1,5E0,4.6E1,1.8E1,6.73E2,5.4E1,6E0,1.6E1,3E1],"tree_param":{"num_deleted":"0","num_feature":"33","num_nodes":"19","size_leaf_vector":"1"}},{"base_weights":[5.7774637E-4,-1.3348779E-3,2.723753E-2,-2.429347E-3,4.1074056E-2,3.593351E-3,1.9061498E-2,-7.141183E-3,6.6848756E-3,2.3521249E-4,6.7097165E-2,3.9163727E-2,8.414714E-3,3.1691554E-3,-4.00393E-4,1.7749231E-4,2.1358484E-3,4.1836784E-3,1.966895E-3,9.954856E-4,3.3967735E-3,8.7407134E-5,1.0491441E-3],"categories":[],"categories_nodes":[],"categories_segments":[],"categories_sizes":[],"default_left":[1,1,0,1,0,0,0,0,0,0,0,0,0,0,0,0,0,0,0,0,0,0,0],"id":38,"left_children":[1,3,5,7,9,-1,11,13,15,-1,17,19,21,-1,-1,-1,-1,-1,-1,-1,-1,-1,-1],"loss_changes":[4.113442E-2,3.5050478E-2,1.833428E-2,3.161211E-2,1.7667014E-2,0E0,9.729583E-3,3.0151602E-2,2.820174E-2,0E0,1.7700903E-3,7.5109694E-3,2.6444893E-3,0E0,0E0,0E0,0E0,0E0,0E0,0E0,0E0,0E0,0E0],"parents":[2147483647,0,0,1,1,2,2,3,3,4,4,6,6,7,7,8,8,10,10,11,11,12,12],"right_children":[2,4,6,8,10,-1,12,14,16,-1,18,20,22,-1,-1,-1,-1,-1,-1,-1,-1,-1,-1],"split_conditions":[1.5678907E-2,3.78663E-2,3.9745194E-1,1.0592542E0,8.066579E-2,3.593351E-3,1.8831237E-1,-9.766599E-2,5.1811334E-2,2.3521249E-4,9.2503715E-1,1.8234799E2,8.478464E-3,3.1691554E-3,-4.00393E-4,1.7749231E-4,2.1358484E-3,4.1836784E-3,1.966895E-3,9.954856E-4,3.3967735E-3,8.7407134E-5,1.0491441E-3],"split_indices":[8,1,31,31,2,0,5,29,27,0,31,10,22,0,0,0,0,0,0,0,0,0,0],"split_type":[0,0,0,0,0,0,0,0,0,0,0,0,0,0,0,0,0,0,0,0,0,0,0],"sum_hessian":[8.05E2,7.52E2,5.3E1,7.34E2,1.8E1,7E0,4.6E1,4.84E2,2.5E2,8E0,1E1,1.5E1,3.1E1,5E0,4.79E2,2.31E2,1.9E1,5E0,5E0,1E1,5E0,2.1E1,1E1],"tree_param":{"num_deleted":"0","num_feature":"33","num_nodes":"23","size_leaf_vector":"1"}},{"base_weights":[-5.5783432E-5,-1.4593601E-3,3.395942E-2,-4.3922905E-3,1.29787065E-2,2.9695262E-3,1.827434E-2,-7.993586E-3,6.882451E-3,3.981997E-2,5.373626E-3,9.200607E-3,1.8956477E-3,1.4833988E-4,-5.833146E-4,-9.7518694E-4,8.811339E-4,-1.331675E-3,3.003747E-3,1.3565525E-3,-4.247818E-4,9.828965E-4,1.0030769E-4],"categories":[],"categories_nodes":[],"categories_segments":[],"categories_sizes":[],"default_left":[1,1,0,1,0,0,0,1,0,0,0,0,0,0,0,0,0,0,0,0,0,0,0],"id":39,"left_children":[1,3,5,7,9,-1,11,13,15,17,19,21,-1,-1,-1,-1,-1,-1,-1,-1,-1,-1,-1],"loss_changes":[3.6143232E-2,3.0842436E-2,1.0881342E-2,2.462024E-2,2.4894008E-2,0E0,3.2150885E-3,1.8511318E-2,4.2002574E-2,3.794235E-2,2.9501157E-2,1.0890841E-3,0E0,0E0,0E0,0E0,0E0,0E0,0E0,0E0,0E0,0E0,0E0],"parents":[2147483647,0,0,1,1,2,2,3,3,4,4,6,6,7,7,8,8,9,9,10,10,11,11],"right_children":[2,4,6,8,10,-1,12,14,16,18,20,22,-1,-1,-1,-1,-1,-1,-1,-1,-1,-1,-1],"split_conditions":[3.1251672E-1,1.0294651E0,6.337645E-2,1.67476E2,1.033485E0,2.9695262E-3,5.5191748E-2,8.955311E-2,9.865519E-1,9.211828E-2,1.1293806E-1,1.9486594E-1,1.8956477E-3,1.4833988E-4,-5.833146E-4,-9.7518694E-4,8.811339E-4,-1.331675E-3,3.003747E-3,1.3565525E-3,-4.247818E-4,9.828965E-4,1.0030769E-4],"split_indices":[25,14,32,10,14,0,9,5,14,4,25,2,0,0,0,0,0,0,0,0,0,0,0],"split_type":[0,0,0,0,0,0,0,0,0,0,0,0,0,0,0,0,0,0,0,0,0,0,0],"sum_hessian":[7.55E2,7.26E2,2.9E1,6.04E2,1.22E2,1E1,1.9E1,4.58E2,1.46E2,2.6E1,9.6E1,1.4E1,5E0,1.15E2,3.43E2,4.2E1,1.04E2,6E0,2E1,3.7E1,5.9E1,5E0,9E0],"tree_param":{"num_deleted":"0","num_feature":"33","num_nodes":"23","size_leaf_vector":"1"}},{"base_weights":[2.8157164E-4,-7.472418E-3,7.065661E-3,-2.3354148E-2,-4.8674974E-3,5.325988E-2,4.575786E-3,-3.5978819E-3,-3.0353887E-2,2.3712547E-2,-6.225937E-3,3.7807394E-2,4.4082636E-3,2.5906062E-2,1.8824297E-3,-1.183014E-3,4.3996726E-4,4.3549437E-5,-1.8605775E-3,-5.02513E-4,2.0799488E-3,-8.5119996E-4,-8.858299E-5,3.154449E-3,1.1007994E-3,-1.8473255E-3,2.21957E-3,-2.5614563E-4,6.236757E-4],"categories":[],"categories_nodes":[],"categories_segments":[],"categories_sizes":[],"default_left":[0,0,0,0,0,0,0,0,0,0,0,0,0,0,1,0,0,0,0,0,0,0,0,0,0,0,0,0,0],"id":40,"left_children":[1,3,5,7,9,11,13,15,17,19,21,23,-1,25,27,-1,-1,-1,-1,-1,-1,-1,-1,-1,-1,-1,-1,-1,-1],"loss_changes":[4.2609237E-2,1.55244265E-2,4.944399E-2,7.2200913E-3,1.2804342E-2,8.532945E-3,2.3563199E-2,3.9389664E-3,8.383464E-3,9.476523E-3,1.4976277E-2,5.3979754E-3,0E0,5.5085264E-2,2.7218966E-2,0E0,0E0,0E0,0E0,0E0,0E0,0E0,0E0,0E0,0E0,0E0,0E0,0E0,0E0],"parents":[2147483647,0,0,1,1,2,2,3,3,4,4,5,5,6,6,7,7,8,8,9,9,10,10,11,11,13,13,14,14],"right_children":[2,4,6,8,10,12,14,16,18,20,22,24,-1,26,28,-1,-1,-1,-1,-1,-1,-1,-1,-1,-1,-1,-1,-1,-1],"split_conditions":[1.4332483E2,-1.3587246E-2,1.4835883E2,-3.4333782E-3,9.705787E-1,3.2938413E-2,9.48919E-2,8.581283E-2,1.2181367E2,1.139075E2,9.927473E-1,1.0300238E0,4.4082636E-3,1.659855E2,6.417025E-3,-1.183014E-3,4.3996726E-4,4.3549437E-5,-1.8605775E-3,-5.02513E-4,2.0799488E-3,-8.5119996E-4,-8.858299E-5,3.154449E-3,1.1007994E-3,-1.8473255E-3,2.21957E-3,-2.5614563E-4,6.236757E-4],"split_indices":[12,1,12,23,14,9,26,26,12,11,14,14,0,12,30,0,0,0,0,0,0,0,0,0,0,0,0,0,0],"split_type":[0,0,0,0,0,0,0,0,0,0,0,0,0,0,0,0,0,0,0,0,0,0,0,0,0,0,0,0,0],"sum_hessian":[8.08E2,3.77E2,4.31E2,5.2E1,3.25E2,2.1E1,4.1E2,1.4E1,3.8E1,1.4E1,3.11E2,1.6E1,5E0,4.5E1,3.65E2,5E0,9E0,7E0,3.1E1,5E0,9E0,9E1,2.21E2,5E0,1.1E1,1E1,3.5E1,2.2E2,1.45E2],"tree_param":{"num_deleted":"0","num_feature":"33","num_nodes":"29","size_leaf_vector":"1"}},{"base_weights":[1.2083898E-3,-7.417178E-4,2.1153124E-2,-2.1235235E-3,3.1893622E-2,5.41863E-2,-3.7321507E-3,-3.4548342E-3,1.5465623E-2,3.4168952E-3,2.1871248E-2,8.442542E-2,-7.277603E-4,2.6095442E-2,-1.3868757E-2,-5.598946E-4,5.7722897E-5,1.2001506E-3,-2.0203672E-3,1.7540166E-3,4.4934728E-4,5.077001E-4,5.776537E-3,-1.2514108E-3,1.0102584E-3,1.958126E-3,4.3395627E-4,-1.448288E-3,8.793023E-4],"categories":[],"categories_nodes":[],"categories_segments":[],"categories_sizes":[],"default_left":[1,1,0,1,0,0,0,1,0,0,0,0,0,0,0,0,0,0,0,0,0,0,0,0,0,0,0,0,0],"id":41,"left_children":[1,3,5,7,9,11,13,15,17,-1,19,21,23,25,27,-1,-1,-1,-1,-1,-1,-1,-1,-1,-1,-1,-1,-1,-1],"loss_changes":[3.1442348E-2,3.3303257E-2,5.938909E-2,1.6632399E-2,9.463109E-3,5.1538587E-2,1.3060634E-2,2.3532648E-2,2.482036E-2,0E0,3.9394815E-3,4.5031622E-2,6.6098557E-3,2.163488E-3,1.5705338E-2,0E0,0E0,0E0,0E0,0E0,0E0,0E0,0E0,0E0,0E0,0E0,0E0,0E0,0E0],"parents":[2147483647,0,0,1,1,2,2,3,3,4,4,5,5,6,6,7,7,8,8,10,10,11,11,12,12,13,13,14,14],"right_children":[2,4,6,8,10,12,14,16,18,-1,20,22,24,26,28,-1,-1,-1,-1,-1,-1,-1,-1,-1,-1,-1,-1,-1,-1],"split_conditions":[1.763315E2,2.4254271E-1,1.5055245E-1,1.7174017E2,9.613738E-1,1.8080516E2,1.779345E2,9.9799913E-1,1.0028701E0,3.4168952E-3,1.307868E-2,-2.7765573E-3,9.839766E-1,9.913497E-1,2.098988E-2,-5.598946E-4,5.7722897E-5,1.2001506E-3,-2.0203672E-3,1.7540166E-3,4.4934728E-4,5.077001E-4,5.776537E-3,-1.2514108E-3,1.0102584E-3,1.958126E-3,4.3395627E-4,-1.448288E-3,8.793023E-4],"split_indices":[11,3,4,12,13,12,11,13,14,0,6,30,14,13,8,0,0,0,0,0,0,0,0,0,0,0,0,0,0],"split_type":[0,0,0,0,0,0,0,0,0,0,0,0,0,0,0,0,0,0,0,0,0,0,0,0,0,0,0,0,0],"sum_hessian":[8.07E2,7.36E2,7.1E1,7.07E2,2.9E1,3E1,4.1E1,6.58E2,4.9E1,5E0,2.4E1,1.9E1,1.1E1,1E1,3.1E1,2.45E2,4.13E2,4.3E1,6E0,1.1E1,1.3E1,6E0,1.3E1,5E0,6E0,5E0,5E0,2.1E1,1E1],"tree_param":{"num_deleted":"0","num_feature":"33","num_nodes":"29","size_leaf_vector":"1"}},{"base_weights":[4.867676E-4,-1.989558E-3,1.4680312E-2,2.694197E-2,-3.5348393E-3,4.320981E-3,5.8181792E-2,4.1536473E-2,-6.848964E-4,-7.018389E-3,9.304897E-3,4.6114594E-2,-9.856875E-3,1.562393E-4,7.330181E-2,-7.6150545E-4,2.7888785E-3,6.787114E-5,-5.0288293E-4,-3.8757522E-4,1.0216293E-3,9.698337E-4,5.6023435E-3,-2.6754453E-5,-1.4053086E-3,1.1461729E-3,4.545738E-3],"categories":[],"categories_nodes":[],"categories_segments":[],"categories_sizes":[],"default_left":[1,0,0,0,1,0,0,0,0,0,0,0,0,0,0,0,0,0,0,0,0,0,0,0,0,0,0],"id":42,"left_children":[1,3,5,7,9,11,13,15,-1,17,19,21,23,-1,25,-1,-1,-1,-1,-1,-1,-1,-1,-1,-1,-1,-1],"loss_changes":[2.839351E-2,3.0853892E-2,5.3826142E-2,2.1328133E-2,2.9317327E-2,5.8523845E-2,1.891759E-2,2.1868378E-2,0E0,1.3123671E-2,2.6730152E-2,4.186599E-2,1.2573547E-2,0E0,1.3887517E-2,0E0,0E0,0E0,0E0,0E0,0E0,0E0,0E0,0E0,0E0,0E0,0E0],"parents":[2147483647,0,0,1,1,2,2,3,3,4,4,5,5,6,6,7,7,9,9,10,10,11,11,12,12,14,14],"right_children":[2,4,6,8,10,12,14,16,-1,18,20,22,24,-1,26,-1,-1,-1,-1,-1,-1,-1,-1,-1,-1,-1,-1],"split_conditions":[1.73173E2,-2.981398E-2,1.8989196E-2,1.0319211E0,1.0253787E0,1.3052371E-1,1.134323E-1,9.114167E-2,-6.848964E-4,3.140068E-2,1.16130166E-1,1.0114439E-2,-7.372405E-3,1.562393E-4,-2.967752E-2,-7.6150545E-4,2.7888785E-3,6.787114E-5,-5.0288293E-4,-3.8757522E-4,1.0216293E-3,9.698337E-4,5.6023435E-3,-2.6754453E-5,-1.4053086E-3,1.1461729E-3,4.545738E-3],"split_indices":[11,22,9,14,14,3,4,2,0,27,4,17,9,0,16,0,0,0,0,0,0,0,0,0,0,0,0],"split_type":[0,0,0,0,0,0,0,0,0,0,0,0,0,0,0,0,0,0,0,0,0,0,0,0,0,0,0],"sum_hessian":[8.06E2,6.87E2,1.19E2,3.4E1,6.53E2,9.7E1,2.2E1,2.5E1,9E0,5.14E2,1.39E2,2.4E1,7.3E1,5E0,1.7E1,5E0,2E1,1.37E2,3.77E2,5.5E1,8.4E1,1.8E1,6E0,4.9E1,2.4E1,5E0,1.2E1],"tree_param":{"num_deleted":"0","num_feature":"33","num_nodes":"27","size_leaf_vector":"1"}},{"base_weights":[6.445881E-4,1.5315432E-4,3.3071784E-3,2.5582768E-3,-4.2599393E-4,-3.527982E-3,6.445315E-3,-4.0053498E-4,3.9303192E-4,1.1994585E-4,2.2874707E-3],"categories":[],"categories_nodes":[],"categories_segments":[],"categories_sizes":[],"default_left":[1,0,0,0,0,0,1,0,0,0,0],"id":43,"left_children":[1,3,-1,-1,5,7,9,-1,-1,-1,-1],"loss_changes":[2.5933726E-2,2.3686325E-2,0E0,0E0,1.692531E-2,2.7988398E-2,3.9173137E-2,0E0,0E0,0E0,0E0],"parents":[2147483647,0,0,1,1,4,4,5,5,6,6],"right_children":[2,4,-1,-1,6,8,10,-1,-1,-1,-1],"split_conditions":[1.0544095E0,-6.632115E-2,3.3071784E-3,2.5582768E-3,1.6757483E2,1.0253787E0,-2.9398281E-2,-4.0053498E-4,3.9303192E-4,1.1994585E-4,2.2874707E-3],"split_indices":[13,23,0,0,12,14,16,0,0,0,0],"split_type":[0,0,0,0,0,0,0,0,0,0,0],"sum_hessian":[8.05E2,8E2,5E0,8E0,7.92E2,5.46E2,2.46E2,3.92E2,1.54E2,2.24E2,2.2E1],"tree_param":{"num_deleted":"0","num_feature":"33","num_nodes":"11","size_leaf_vector":"1"}},{"base_weights":[7.961423E-4,-6.8723864E-4,2.4448436E-2,-1.8038254E-3,3.2420278E-2,1.657901E-2,3.7074056E-3,2.851689E-2,-2.6325264E-3,1.1212412E-2,4.708757E-3,4.542244E-2,-5.915678E-5,3.6555973E-3,3.683902E-4,-4.8685135E-4,6.127708E-5,-5.009876E-4,2.0829553E-3,2.3642337E-4,3.6013187E-3,-7.499228E-4,7.442184E-4],"categories":[],"categories_nodes":[],"categories_segments":[],"categories_sizes":[],"default_left":[1,1,0,0,0,0,0,0,0,0,0,0,0,0,0,0,0,0,0,0,0,0,0],"id":44,"left_children":[1,3,5,7,9,11,-1,13,15,17,-1,19,21,-1,-1,-1,-1,-1,-1,-1,-1,-1,-1],"loss_changes":[2.7348299E-2,2.7192565E-2,1.676166E-2,1.794023E-2,3.0376602E-2,1.9678662E-2,0E0,1.7381076E-2,1.9006815E-2,1.2699949E-2,0E0,1.589872E-2,6.2508793E-3,0E0,0E0,0E0,0E0,0E0,0E0,0E0,0E0,0E0,0E0],"parents":[2147483647,0,0,1,1,2,2,3,3,4,4,5,5,7,7,8,8,9,9,11,11,12,12],"right_children":[2,4,6,8,10,12,-1,14,16,18,-1,20,22,-1,-1,-1,-1,-1,-1,-1,-1,-1,-1],"split_conditions":[4.1845445E-2,1.7501878E-2,1.0504353E0,1.13464E2,1.772205E2,1.0074712E-1,3.7074056E-3,1.142495E2,1.1284457E-1,2.3549186E-1,4.708757E-3,1.0263255E0,6.624488E-2,3.6555973E-3,3.683902E-4,-4.8685135E-4,6.127708E-5,-5.009876E-4,2.0829553E-3,2.3642337E-4,3.6013187E-3,-7.499228E-4,7.442184E-4],"split_indices":[9,17,14,10,12,5,0,12,5,2,0,14,27,0,0,0,0,0,0,0,0,0,0],"split_type":[0,0,0,0,0,0,0,0,0,0,0,0,0,0,0,0,0,0,0,0,0,0,0],"sum_hessian":[7.78E2,7.33E2,4.5E1,7.1E2,2.3E1,4E1,5E0,1.8E1,6.92E2,1.8E1,5E0,1.4E1,2.6E1,5E0,1.3E1,2.43E2,4.49E2,1.1E1,7E0,6E0,8E0,1.3E1,1.3E1],"tree_param":{"num_deleted":"0","num_feature":"33","num_nodes":"23","size_leaf_vector":"1"}},{"base_weights":[-5.061516E-4,-2.5350617E-3,1.34425955E-2,-3.3130588E-3,3.3266198E-2,2.5371907E-3,9.287167E-3,2.464023E-2,-4.274882E-3,2.9138585E-3,-6.981559E-4,2.5192674E-2,-4.895422E-3,4.0647667E-4,3.5032805E-3,-1.380295E-4,-8.764439E-4,7.321574E-5,2.8168566E-3,-6.737685E-4,7.08959E-4],"categories":[],"categories_nodes":[],"categories_segments":[],"categories_sizes":[],"default_left":[0,1,0,0,0,0,0,0,1,0,0,1,0,0,0,0,0,0,0,0,0],"id":45,"left_children":[1,3,5,7,9,-1,11,13,15,-1,-1,17,19,-1,-1,-1,-1,-1,-1,-1,-1],"loss_changes":[2.2731282E-2,1.9635355E-2,1.5338989E-2,1.8576104E-2,1.8532498E-2,0E0,2.110239E-2,1.6680507E-2,1.3298438E-2,0E0,0E0,3.2433808E-2,8.374024E-3,0E0,0E0,0E0,0E0,0E0,0E0,0E0,0E0],"parents":[2147483647,0,0,1,1,2,2,3,3,4,4,6,6,7,7,8,8,11,11,12,12],"right_children":[2,4,6,8,10,-1,12,14,16,-1,-1,18,20,-1,-1,-1,-1,-1,-1,-1,-1],"split_conditions":[1.2939103E-2,3.6557704E-2,9.737874E-1,1.13464E2,1.0322053E0,2.5371907E-3,1.544362E-1,9.9243176E-1,4.4126374E-1,2.9138585E-3,-6.981559E-4,1.0300238E0,9.599507E-3,4.0647667E-4,3.5032805E-3,-1.380295E-4,-8.764439E-4,7.321574E-5,2.8168566E-3,-6.737685E-4,7.08959E-4],"split_indices":[6,24,13,10,14,0,4,14,32,0,0,14,22,0,0,0,0,0,0,0,0],"split_type":[0,0,0,0,0,0,0,0,0,0,0,0,0,0,0,0,0,0,0,0,0],"sum_hessian":[8.01E2,7E2,1.01E2,6.86E2,1.4E1,9E0,9.2E1,2.2E1,6.64E2,9E0,5E0,4.3E1,4.9E1,1.7E1,5E0,5.97E2,6.7E1,2.5E1,1.8E1,3.4E1,1.5E1],"tree_param":{"num_deleted":"0","num_feature":"33","num_nodes":"21","size_leaf_vector":"1"}},{"base_weights":[-1.1437942E-3,2.6475003E-3,-1.6766418E-3,-4.81357E-3,4.056554E-3,-6.2256414E-3,2.7690312E-2,1.5603053E-2,-4.8230113E-3,-3.4124227E-5,-6.454237E-4,2.6748104E-3,6.040574E-4,4.6084283E-4,2.5373108E-3,3.075421E-4,-9.389085E-4],"categories":[],"categories_nodes":[],"categories_segments":[],"categories_sizes":[],"default_left":[0,0,1,1,0,1,0,0,0,0,0,0,0,0,0,0,0],"id":46,"left_children":[1,-1,3,5,7,9,11,13,15,-1,-1,-1,-1,-1,-1,-1,-1],"loss_changes":[2.363778E-2,0E0,1.4587073E-2,2.4222832E-2,2.9500762E-2,1.8624317E-2,8.215491E-3,2.7586177E-2,2.5077626E-2,0E0,0E0,0E0,0E0,0E0,0E0,0E0,0E0],"parents":[2147483647,0,0,2,2,3,3,4,4,5,5,6,6,7,7,8,8],"right_children":[2,-1,4,6,8,10,12,14,16,-1,-1,-1,-1,-1,-1,-1,-1],"split_conditions":[-1.1834544E-1,2.6475003E-3,1.0592542E0,3.6557704E-2,1.0934303E-1,7.1046025E-1,1.0192741E0,1.73008E2,1.4796412E0,-3.4124227E-5,-6.454237E-4,2.6748104E-3,6.040574E-4,4.6084283E-4,2.5373108E-3,3.075421E-4,-9.389085E-4],"split_indices":[21,0,31,1,26,31,13,10,31,0,0,0,0,0,0,0,0],"split_type":[0,0,0,0,0,0,0,0,0,0,0,0,0,0,0,0,0],"sum_hessian":[8.16E2,7E0,8.09E2,5.23E2,2.86E2,5.02E2,2.1E1,1.24E2,1.62E2,2.75E2,2.27E2,7E0,1.4E1,1.06E2,1.8E1,9.1E1,7.1E1],"tree_param":{"num_deleted":"0","num_feature":"33","num_nodes":"17","size_leaf_vector":"1"}},{"base_weights":[1.4843796E-3,-8.718145E-4,1.7119061E-2,-2.4357284E-3,1.8383728E-2,2.9207484E-3,4.710017E-2,-1.3543863E-3,-3.0674418E-2,3.080797E-3,1.1553746E-2,2.0402698E-2,-1.4640139E-2,6.4394414E-2,-8.5777085E-4,1.4080347E-4,-3.3839958E-4,-1.9768726E-3,-4.0030875E-4,2.424658E-3,3.0007988E-4,-5.821855E-4,1.8125362E-3,-1.0904007E-3,1.3014273E-3,-6.333888E-5,3.9687497E-3],"categories":[],"categories_nodes":[],"categories_segments":[],"categories_sizes":[],"default_left":[1,1,0,1,0,0,0,0,0,0,0,0,0,0,0,0,0,0,0,0,0,0,0,0,0,0,0],"id":47,"left_children":[1,3,5,7,9,11,13,15,17,-1,19,21,23,25,-1,-1,-1,-1,-1,-1,-1,-1,-1,-1,-1,-1,-1],"loss_changes":[2.9817145E-2,2.1245044E-2,4.4984646E-2,1.9867724E-2,1.4937693E-2,2.2709593E-2,3.888727E-2,1.4220118E-2,4.5052785E-3,0E0,9.34834E-3,1.9213364E-2,1.1353427E-2,2.66589E-2,0E0,0E0,0E0,0E0,0E0,0E0,0E0,0E0,0E0,0E0,0E0,0E0,0E0],"parents":[2147483647,0,0,1,1,2,2,3,3,4,4,5,5,6,6,7,7,8,8,10,10,11,11,12,12,13,13],"right_children":[2,4,6,8,10,12,14,16,18,-1,20,22,24,26,-1,-1,-1,-1,-1,-1,-1,-1,-1,-1,-1,-1,-1],"split_conditions":[1.73922E2,1.8683034E-1,-4.9739506E-2,1.6611826E-1,-2.7754301E-2,9.936183E-1,1.8939534E-1,8.715839E-3,3.601657E-4,3.080797E-3,1.1771634E-2,-3.7722502E-2,2.098988E-2,1.2262034E-1,-8.5777085E-4,1.4080347E-4,-3.3839958E-4,-1.9768726E-3,-4.0030875E-4,2.424658E-3,3.0007988E-4,-5.821855E-4,1.8125362E-3,-1.0904007E-3,1.3014273E-3,-6.333888E-5,3.9687497E-3],"split_indices":[11,5,16,5,9,13,4,21,23,0,8,9,8,5,0,0,0,0,0,0,0,0,0,0,0,0,0],"split_type":[0,0,0,0,0,0,0,0,0,0,0,0,0,0,0,0,0,0,0,0,0,0,0,0,0,0,0],"sum_hessian":[8.08E2,7.03E2,1.05E2,6.51E2,5.2E1,7.2E1,3.3E1,6.28E2,2.3E1,6E0,4.6E1,3.6E1,3.6E1,2.6E1,7E0,3.55E2,2.73E2,1.6E1,7E0,5E0,4.1E1,1.2E1,2.4E1,3.1E1,5E0,5E0,2.1E1],"tree_param":{"num_deleted":"0","num_feature":"33","num_nodes":"27","size_leaf_vector":"1"}},{"base_weights":[7.8290177E-4,-6.728073E-4,1.929908E-2,6.586848E-4,-1.8961104E-2,-9.7614835E-4,2.3255251E-2,1.8692452E-5,3.739401E-3,-2.582853E-2,1.3947681E-3,2.8051399E-3,1.7169388E-2,-2.8969282E-5,2.286818E-3,-9.138877E-4,-2.700039E-3,2.6038594E-3,5.8868824E-4],"categories":[],"categories_nodes":[],"categories_segments":[],"categories_sizes":[],"default_left":[1,0,0,0,1,0,0,1,0,1,0,0,0,0,0,0,0,0,0],"id":48,"left_children":[1,3,5,7,9,-1,11,13,-1,15,-1,-1,17,-1,-1,-1,-1,-1,-1],"loss_changes":[2.181891E-2,1.8299881E-2,9.515619E-3,3.3255585E-2,1.7131448E-2,0E0,9.831658E-3,1.9057041E-2,0E0,8.58549E-3,0E0,0E0,8.239276E-3,0E0,0E0,0E0,0E0,0E0,0E0],"parents":[2147483647,0,0,1,1,2,2,3,3,4,4,6,6,7,7,9,9,12,12],"right_children":[2,4,6,8,10,-1,12,14,-1,16,-1,-1,18,-1,-1,-1,-1,-1,-1],"split_conditions":[1.5678907E-2,2.0503552E-1,-2.290223E-2,1.980638E-1,1.020168E0,-9.7614835E-4,4.0205273E-1,1.0504353E0,3.739401E-3,1.3916239E-2,1.3947681E-3,2.8051399E-3,1.0880537E-1,-2.8969282E-5,2.286818E-3,-9.138877E-4,-2.700039E-3,2.6038594E-3,5.8868824E-4],"split_indices":[8,2,20,2,13,0,31,14,0,8,0,0,26,0,0,0,0,0,0],"split_type":[0,0,0,0,0,0,0,0,0,0,0,0,0,0,0,0,0,0,0],"sum_hessian":[8.08E2,7.5E2,5.8E1,7E2,5E1,5E0,5.3E1,6.95E2,5E0,4.4E1,6E0,7E0,4.6E1,6.87E2,8E0,3.6E1,8E0,5E0,4.1E1],"tree_param":{"num_deleted":"0","num_feature":"33","num_nodes":"19","size_leaf_vector":"1"}},{"base_weights":[8.12654E-4,1.259732E-4,3.738145E-2,-2.1184143E-3,9.865775E-3,9.77633E-4,3.043293E-3,-4.9291313E-5,-1.7542146E-2,-1.7168215E-3,1.2269634E-2,-1.0221553E-4,8.884572E-4,-4.102978E-4,-1.5947655E-3,1.4142852E-3,9.690816E-5],"categories":[],"categories_nodes":[],"categories_segments":[],"categories_sizes":[],"default_left":[1,1,0,1,0,0,0,1,0,0,0,0,0,0,0,0,0],"id":49,"left_children":[1,3,5,7,9,-1,-1,11,13,-1,15,-1,-1,-1,-1,-1,-1],"loss_changes":[2.0435719E-2,1.750881E-2,5.0903913E-3,2.0774888E-2,1.6359676E-2,0E0,0E0,2.0476494E-2,1.0056563E-2,0E0,2.3607327E-2,0E0,0E0,0E0,0E0,0E0,0E0],"parents":[2147483647,0,0,1,1,2,2,3,3,4,4,7,7,8,8,10,10],"right_children":[2,4,6,8,10,-1,-1,12,14,-1,16,-1,-1,-1,-1,-1,-1],"split_conditions":[8.201411E-1,1.0300238E0,1.49523E2,7.4446574E-2,4.44708E-3,9.77633E-4,3.043293E-3,1.736005E2,1.619955E2,-1.7168215E-3,1.5181154E-1,-1.0221553E-4,8.884572E-4,-4.102978E-4,-1.5947655E-3,1.4142852E-3,9.690816E-5],"split_indices":[25,14,11,27,6,0,0,11,11,0,4,0,0,0,0,0,0],"split_type":[0,0,0,0,0,0,0,0,0,0,0,0,0,0,0,0,0],"sum_hessian":[8.13E2,7.99E2,1.4E1,6.5E2,1.49E2,9E0,5E0,5.74E2,7.6E1,7E0,1.42E2,5.17E2,5.7E1,4.7E1,2.9E1,5.5E1,8.7E1],"tree_param":{"num_deleted":"0","num_feature":"33","num_nodes":"17","size_leaf_vector":"1"}},{"base_weights":[8.265651E-4,-1.1683132E-4,3.117735E-2,3.0440196E-2,-6.38677E-4,3.0497694E-3,9.220167E-3,4.597442E-4,2.1284579E-3,-5.225444E-3,3.1176475E-3,-6.9612655E-4,1.1091885E-3,-4.993537E-4,2.475672E-4,8.2345115E-4,-1.2751414E-4],"categories":[],"categories_nodes":[],"categories_segments":[],"categories_sizes":[],"default_left":[1,0,0,0,0,0,0,0,0,0,0,0,0,0,0,0,0],"id":50,"left_children":[1,3,5,7,9,-1,11,-1,-1,13,15,-1,-1,-1,-1,-1,-1],"loss_changes":[2.279537E-2,1.2345741E-2,1.5150895E-2,2.9584682E-3,1.3127854E-2,0E0,4.8090452E-3,0E0,0E0,1.6670575E-2,3.174968E-2,0E0,0E0,0E0,0E0,0E0,0E0],"parents":[2147483647,0,0,1,1,2,2,3,3,4,4,6,6,9,9,10,10],"right_children":[2,4,6,8,10,-1,12,-1,-1,14,16,-1,-1,-1,-1,-1,-1],"split_conditions":[1.0509579E0,6.965229E-2,1.7916681E-1,1.0087377E0,1.41757E2,3.0497694E-3,-1.7668074E-3,4.597442E-4,2.1284579E-3,1.013974E0,1.6204E2,-6.9612655E-4,1.1091885E-3,-4.993537E-4,2.475672E-4,8.2345115E-4,-1.2751414E-4],"split_indices":[14,4,4,13,12,0,17,0,0,14,11,0,0,0,0,0,0],"split_type":[0,0,0,0,0,0,0,0,0,0,0,0,0,0,0,0,0],"sum_hessian":[7.95E2,7.72E2,2.3E1,1.2E1,7.6E2,9E0,1.4E1,5E0,7E0,3.42E2,4.18E2,5E0,9E0,2.33E2,1.09E2,1.24E2,2.94E2],"tree_param":{"num_deleted":"0","num_feature":"33","num_nodes":"17","size_leaf_vector":"1"}},{"base_weights":[-3.9010036E-5,-3.3627763E-2,6.820099E-4,-7.2281825E-4,-2.1385336E-3,-1.8498964E-3,9.117971E-3,-5.241238E-3,8.0533745E-3,3.0080799E-2,-2.1381874E-3,-9.983178E-4,-1.5410988E-4,-6.2278035E-4,7.267393E-4,-5.2651245E-4,2.31005E-3,1.469673E-3,-4.1804538E-4],"categories":[],"categories_nodes":[],"categories_segments":[],"categories_sizes":[],"default_left":[0,0,1,0,0,1,0,1,0,0,0,0,0,0,0,0,0,0,0],"id":51,"left_children":[1,3,5,-1,-1,7,9,11,13,15,17,-1,-1,-1,-1,-1,-1,-1,-1],"loss_changes":[1.9591209E-2,2.3614913E-3,1.6933246E-2,0E0,0E0,2.052929E-2,4.3245167E-2,1.4403876E-2,2.0917673E-2,4.2384624E-2,2.379127E-2,0E0,0E0,0E0,0E0,0E0,0E0,0E0,0E0],"parents":[2147483647,0,0,1,1,2,2,5,5,6,6,7,7,8,8,9,9,10,10],"right_children":[2,4,6,-1,-1,8,10,12,14,16,18,-1,-1,-1,-1,-1,-1,-1,-1],"split_conditions":[2.0490903E-2,6.3427403E-3,1.6757483E2,-7.2281825E-4,-2.1385336E-3,1.0253787E0,1.4037089E-1,-1.3353445E-2,9.505004E-2,9.865519E-1,1.6978267E2,-9.983178E-4,-1.5410988E-4,-6.2278035E-4,7.267393E-4,-5.2651245E-4,2.31005E-3,1.469673E-3,-4.1804538E-4],"split_indices":[27,6,12,0,0,14,28,1,28,14,12,0,0,0,0,0,0,0,0],"split_type":[0,0,0,0,0,0,0,0,0,0,0,0,0,0,0,0,0,0,0],"sum_hessian":[8.07E2,1.6E1,7.91E2,6E0,1E1,6.09E2,1.82E2,4.54E2,1.55E2,6.3E1,1.19E2,5.7E1,3.97E2,3.7E1,1.18E2,1.8E1,4.5E1,1.9E1,1E2],"tree_param":{"num_deleted":"0","num_feature":"33","num_nodes":"19","size_leaf_vector":"1"}},{"base_weights":[-4.7892955E-4,1.4287506E-3,-1.2465785E-2,3.6914807E-2,5.498381E-4,-1.7772716E-2,3.787718E-2,2.9547939E-3,5.316049E-4,-1.1415288E-3,1.5264133E-2,1.1131905E-2,-2.2884224E-2,3.461932E-3,1.0142786E-5,3.657644E-5,-6.0691306E-4,-5.3764303E-5,1.4740963E-3,-9.221187E-4,2.58953E-3,-6.3893787E-4,-1.8766476E-3],"categories":[],"categories_nodes":[],"categories_segments":[],"categories_sizes":[],"default_left":[1,0,0,0,1,0,0,0,0,0,0,0,0,0,0,0,0,0,0,0,0,0,0],"id":52,"left_children":[1,3,5,7,9,11,13,-1,-1,15,17,19,21,-1,-1,-1,-1,-1,-1,-1,-1,-1,-1],"loss_changes":[1.8654488E-2,2.1936854E-2,3.0595833E-2,9.282321E-3,1.7139869E-2,1.5324857E-2,1.2982696E-2,0E0,0E0,1.2738143E-2,1.6525745E-2,2.0194368E-2,1.2399178E-2,0E0,0E0,0E0,0E0,0E0,0E0,0E0,0E0,0E0,0E0],"parents":[2147483647,0,0,1,1,2,2,3,3,4,4,5,5,6,6,9,9,10,10,11,11,12,12],"right_children":[2,4,6,8,10,12,14,-1,-1,16,18,20,22,-1,-1,-1,-1,-1,-1,-1,-1,-1,-1],"split_conditions":[4.0841848E-1,-8.3131686E-2,9.108266E-3,1.9473545E-3,1.0199369E0,5.1526185E-3,1.1659155E-2,2.9547939E-3,5.316049E-4,1.733678E-1,8.748907E-3,3.991175E-3,1.6477882E-3,3.461932E-3,1.0142786E-5,3.657644E-5,-6.0691306E-4,-5.3764303E-5,1.4740963E-3,-9.221187E-4,2.58953E-3,-6.3893787E-4,-1.8766476E-3],"split_indices":[32,16,23,30,13,6,8,0,0,2,6,0,18,0,0,0,0,0,0,0,0,0,0],"split_type":[0,0,0,0,0,0,0,0,0,0,0,0,0,0,0,0,0,0,0,0,0,0,0],"sum_hessian":[8.14E2,7.03E2,1.11E2,1.6E1,6.87E2,1.01E2,1E1,8E0,8E0,6.17E2,7E1,1.5E1,8.6E1,5E0,5E0,5.28E2,8.9E1,3.3E1,3.7E1,9E0,6E0,5.2E1,3.4E1],"tree_param":{"num_deleted":"0","num_feature":"33","num_nodes":"23","size_leaf_vector":"1"}},{"base_weights":[4.388433E-4,2.465518E-3,1.0669012E-5,-7.034332E-4,2.4165487E-2,3.116172E-2,-1.2010582E-3,5.888779E-3,4.3568373E-2,2.082668E-3,6.863927E-4,5.2217854E-4,-1.16526746E-4,1.1699799E-3,-6.231647E-4,3.0029742E-3,9.907932E-4],"categories":[],"categories_nodes":[],"categories_segments":[],"categories_sizes":[],"default_left":[0,0,1,0,0,0,0,0,0,0,0,0,0,0,0,0,0],"id":53,"left_children":[1,-1,3,5,7,9,11,13,15,-1,-1,-1,-1,-1,-1,-1,-1],"loss_changes":[1.6865449E-2,0E0,1.3816205E-2,1.2374094E-2,7.8997165E-3,1.6231071E-3,1.0112182E-2,4.4693137E-3,3.1186268E-3,0E0,0E0,0E0,0E0,0E0,0E0,0E0,0E0],"parents":[2147483647,0,0,2,2,3,3,4,4,5,5,6,6,7,7,8,8],"right_children":[2,-1,4,6,8,10,12,14,16,-1,-1,-1,-1,-1,-1,-1,-1],"split_conditions":[-1.1834544E-1,2.465518E-3,3.895302E-2,6.965229E-2,4.9585954E-4,1.1035634E-1,-2.3921847E-2,6.625831E-3,1.4102407E-1,2.082668E-3,6.863927E-4,5.2217854E-4,-1.16526746E-4,1.1699799E-3,-6.231647E-4,3.0029742E-3,9.907932E-4],"split_indices":[21,0,1,4,18,26,22,0,2,0,0,0,0,0,0,0,0],"split_type":[0,0,0,0,0,0,0,0,0,0,0,0,0,0,0,0,0],"sum_hessian":[8.05E2,6E0,7.99E2,7.77E2,2.2E1,1.1E1,7.66E2,1.2E1,1E1,6E0,5E0,6.7E1,6.99E2,6E0,6E0,5E0,5E0],"tree_param":{"num_deleted":"0","num_feature":"33","num_nodes":"17","size_leaf_vector":"1"}},{"base_weights":[7.1303354E-4,3.3453513E-2,8.889619E-5,7.118516E-4,2.99527E-3,-6.6472264E-4,2.6358748E-2,-3.6257035E-3,5.9721787E-3,4.5454133E-2,-5.5056513E-5,-8.897003E-5,-8.781696E-4,9.765875E-4,-2.3888248E-4,1.0464329E-3,2.9083237E-3],"categories":[],"categories_nodes":[],"categories_segments":[],"categories_sizes":[],"default_left":[0,0,1,0,0,0,0,0,0,0,0,0,0,0,0,0,0],"id":54,"left_children":[1,3,5,-1,-1,7,9,11,13,15,-1,-1,-1,-1,-1,-1,-1],"loss_changes":[1.638554E-2,6.7718066E-3,1.5617915E-2,0E0,0E0,1.5094536E-2,1.1585904E-2,1.3633074E-2,3.463916E-2,2.835745E-3,0E0,0E0,0E0,0E0,0E0,0E0,0E0],"parents":[2147483647,0,0,1,1,2,2,5,5,6,6,7,7,8,8,9,9],"right_children":[2,4,6,-1,-1,8,10,12,14,16,-1,-1,-1,-1,-1,-1,-1],"split_conditions":[-7.306624E-2,1.9403711E-2,1.0504353E0,7.118516E-4,2.99527E-3,1.578393E-1,1.6942772E-1,3.964974E-1,1.5531456E-1,1.7416201E-3,-5.5056513E-5,-8.897003E-5,-8.781696E-4,9.765875E-4,-2.3888248E-4,1.0464329E-3,2.9083237E-3],"split_indices":[21,22,14,0,0,5,2,32,4,23,0,0,0,0,0,0,0],"split_type":[0,0,0,0,0,0,0,0,0,0,0,0,0,0,0,0,0],"sum_hessian":[8.01E2,1.4E1,7.87E2,9E0,5E0,7.66E2,2.1E1,5.3E2,2.36E2,1.2E1,9E0,4.69E2,6.1E1,1.04E2,1.32E2,5E0,7E0],"tree_param":{"num_deleted":"0","num_feature":"33","num_nodes":"17","size_leaf_vector":"1"}},{"base_weights":[6.2391373E-6,-2.6241126E-3,7.6696374E-3,-4.3174876E-3,1.4418925E-2,3.0288175E-3,4.1519288E-2,-2.0980516E-2,-1.9330526E-3,2.2052473E-3,9.170861E-3,1.0610131E-2,-1.32131195E-2,6.0175444E-6,3.049703E-3,-1.6598378E-3,-4.758955E-4,-2.27482E-5,-1.1059905E-3,1.9342192E-3,1.5942224E-4,-3.3973446E-4,1.2315527E-3,1.1574676E-3,-9.276624E-4],"categories":[],"categories_nodes":[],"categories_segments":[],"categories_sizes":[],"default_left":[1,1,0,1,0,0,0,0,1,0,0,0,0,0,0,0,0,0,0,0,0,0,0,0,0],"id":55,"left_children":[1,3,5,7,9,11,13,15,17,-1,19,21,23,-1,-1,-1,-1,-1,-1,-1,-1,-1,-1,-1,-1],"loss_changes":[1.640812E-2,1.7551567E-2,3.2548994E-2,2.1891452E-2,8.164198E-3,2.279707E-2,2.0148523E-2,9.346105E-3,1.4431439E-2,0E0,8.351641E-3,3.0915342E-2,1.1886131E-2,0E0,0E0,0E0,0E0,0E0,0E0,0E0,0E0,0E0,0E0,0E0,0E0],"parents":[2147483647,0,0,1,1,2,2,3,3,4,4,5,5,6,6,7,7,8,8,10,10,11,11,12,12],"right_children":[2,4,6,8,10,12,14,16,18,-1,20,22,24,-1,-1,-1,-1,-1,-1,-1,-1,-1,-1,-1,-1],"split_conditions":[1.6757483E2,1.7235667E-1,-2.967752E-2,-1.3353445E-2,3.9745194E-1,1.7141044E-1,1.1648702E-1,1.0024225E0,1.1607045E-1,2.2052473E-3,1.5676503E-1,9.873272E-1,-5.2746367E-3,6.0175444E-6,3.049703E-3,-1.6598378E-3,-4.758955E-4,-2.27482E-5,-1.1059905E-3,1.9342192E-3,1.5942224E-4,-3.3973446E-4,1.2315527E-3,1.1574676E-3,-9.276624E-4],"split_indices":[12,28,16,1,31,2,28,14,27,0,2,14,23,0,0,0,0,0,0,0,0,0,0,0,0],"split_type":[0,0,0,0,0,0,0,0,0,0,0,0,0,0,0,0,0,0,0,0,0,0,0,0,0],"sum_hessian":[8.12E2,6.05E2,2.07E2,5.51E2,5.4E1,1.83E2,2.4E1,6.8E1,4.83E2,7E0,4.7E1,1.25E2,5.8E1,8E0,1.6E1,3.2E1,3.6E1,4.51E2,3.2E1,7E0,4E1,5.6E1,6.9E1,7E0,5.1E1],"tree_param":{"num_deleted":"0","num_feature":"33","num_nodes":"25","size_leaf_vector":"1"}},{"base_weights":[6.4366084E-4,-2.3549133E-4,2.4671763E-2,-2.6065206E-2,4.5638255E-4,3.1108523E-2,2.3456504E-4,-1.1790353E-2,-1.9580512E-3,9.648187E-3,-1.8116899E-3,4.348258E-4,3.756874E-2,-1.5080251E-3,4.2724275E-4,8.2563015E-4,-2.965938E-4,1.9851707E-4,-3.167929E-4,2.2609753E-3,1.0636057E-3],"categories":[],"categories_nodes":[],"categories_segments":[],"categories_sizes":[],"default_left":[1,0,0,0,0,0,0,0,0,0,0,0,0,0,0,0,0,0,0,0,0],"id":56,"left_children":[1,3,5,7,9,11,-1,13,-1,15,17,-1,19,-1,-1,-1,-1,-1,-1,-1,-1],"loss_changes":[1.6757427E-2,1.3701009E-2,3.4551248E-3,3.277095E-3,1.55906975E-2,2.7137976E-3,0E0,4.366886E-3,0E0,1.5926257E-2,1.5720483E-2,0E0,1.0329932E-3,0E0,0E0,0E0,0E0,0E0,0E0,0E0,0E0],"parents":[2147483647,0,0,1,1,2,2,3,3,4,4,5,5,7,7,9,9,10,10,12,12],"right_children":[2,4,6,8,10,12,-1,14,-1,16,18,-1,20,-1,-1,-1,-1,-1,-1,-1,-1],"split_conditions":[2.098988E-2,2.0490903E-2,3.6990392E-1,-5.4924935E-4,3.140068E-2,-1.35304285E-2,2.3456504E-4,1.0359713E-3,-1.9580512E-3,1.1491196E-1,7.1633637E-1,4.348258E-4,2.4204948E-3,-1.5080251E-3,4.2724275E-4,8.2563015E-4,-2.965938E-4,1.9851707E-4,-3.167929E-4,2.2609753E-3,1.0636057E-3],"split_indices":[8,27,28,7,27,7,0,23,0,26,31,0,18,0,0,0,0,0,0,0,0],"split_type":[0,0,0,0,0,0,0,0,0,0,0,0,0,0,0,0,0,0,0,0,0],"sum_hessian":[7.92E2,7.65E2,2.7E1,1.9E1,7.46E2,2E1,7E0,1E1,9E0,1.47E2,5.99E2,5E0,1.5E1,5E0,5E0,1.02E2,4.5E1,2.63E2,3.36E2,9E0,6E0],"tree_param":{"num_deleted":"0","num_feature":"33","num_nodes":"21","size_leaf_vector":"1"}},{"base_weights":[-5.2146625E-5,-9.832289E-4,2.2956278E-2,1.0819781E-3,-1.2804255E-2,4.0414245E-3,8.71822E-3,1.7422907E-2,-8.160852E-4,1.48398895E-2,-1.8142113E-2,-4.1096606E-3,1.4826898E-3,1.0746527E-3,-1.0557974E-3,-1.3535934E-4,8.391081E-4,2.2281185E-3,-3.105877E-4,1.2465545E-3,-1.0391371E-3,3.8254363E-4,-9.14831E-4],"categories":[],"categories_nodes":[],"categories_segments":[],"categories_sizes":[],"default_left":[1,1,0,0,0,0,0,0,1,0,0,0,0,0,0,0,0,0,0,0,0,0,0],"id":57,"left_children":[1,3,5,7,9,-1,11,13,15,17,19,21,-1,-1,-1,-1,-1,-1,-1,-1,-1,-1,-1],"loss_changes":[1.7075071E-2,1.871411E-2,2.4838943E-2,2.0267742E-2,1.7091129E-2,0E0,7.1044024E-3,1.1120243E-2,1.9547557E-2,1.2165245E-2,1.1437204E-2,2.9763705E-3,0E0,0E0,0E0,0E0,0E0,0E0,0E0,0E0,0E0,0E0,0E0],"parents":[2147483647,0,0,1,1,2,2,3,3,4,4,6,6,7,7,8,8,9,9,10,10,11,11],"right_children":[2,4,6,8,10,-1,12,14,16,18,20,22,-1,-1,-1,-1,-1,-1,-1,-1,-1,-1,-1],"split_conditions":[1.7501878E-2,3.964974E-1,9.910724E-1,-6.653199E-2,7.7800356E-2,4.0414245E-3,2.5220495E-1,1.7963716E2,3.3877622E-2,2.7446754E-3,1.13142E2,3.0002522E-3,1.4826898E-3,1.0746527E-3,-1.0557974E-3,-1.3535934E-4,8.391081E-4,2.2281185E-3,-3.105877E-4,1.2465545E-3,-1.0391371E-3,3.8254363E-4,-9.14831E-4],"split_indices":[17,32,14,16,3,0,3,12,9,29,10,22,0,0,0,0,0,0,0,0,0,0,0],"split_type":[0,0,0,0,0,0,0,0,0,0,0,0,0,0,0,0,0,0,0,0,0,0,0],"sum_hessian":[7.95E2,7.65E2,3E1,6.52E2,1.13E2,5E0,2.5E1,6.7E1,5.85E2,1.8E1,9.5E1,1.6E1,9E0,6.1E1,6E0,5.29E2,5.6E1,7E0,1.1E1,5E0,9E1,9E0,7E0],"tree_param":{"num_deleted":"0","num_feature":"33","num_nodes":"23","size_leaf_vector":"1"}},{"base_weights":[1.6920853E-3,-6.0642646E-3,4.3905172E-3,1.6390795E-2,-9.923152E-3,9.590491E-3,-1.0629429E-3,3.012889E-2,-1.4619508E-3,-6.1779213E-3,-3.67373E-2,8.275884E-3,3.143526E-3,-2.00969E-2,1.9589565E-3,2.0494082E-3,4.3800962E-4,6.635191E-4,-9.045025E-4,-1.5055506E-4,-1.3543362E-3,-2.1087804E-3,-1.32688E-3,1.328138E-3,2.5423363E-4,-3.6362864E-5,-1.3375505E-3,6.6244695E-4,-3.6350332E-4],"categories":[],"categories_nodes":[],"categories_segments":[],"categories_sizes":[],"default_left":[1,0,1,0,0,0,0,0,0,0,0,0,0,0,0,0,0,0,0,0,0,0,0,0,0,0,0,0,0],"id":58,"left_children":[1,3,5,7,9,11,13,15,17,19,21,23,-1,25,27,-1,-1,-1,-1,-1,-1,-1,-1,-1,-1,-1,-1,-1,-1],"loss_changes":[1.6372943E-2,1.7666258E-2,1.6457746E-2,7.40193E-3,1.7146595E-2,2.0282254E-2,1.637468E-2,3.5857586E-3,3.6696515E-3,1.0049243E-2,4.561059E-5,1.684691E-2,0E0,5.0071646E-3,2.5728416E-2,0E0,0E0,0E0,0E0,0E0,0E0,0E0,0E0,0E0,0E0,0E0,0E0,0E0,0E0],"parents":[2147483647,0,0,1,1,2,2,3,3,4,4,5,5,6,6,7,7,8,8,9,9,10,10,11,11,13,13,14,14],"right_children":[2,4,6,8,10,12,14,16,18,20,22,24,-1,26,28,-1,-1,-1,-1,-1,-1,-1,-1,-1,-1,-1,-1,-1,-1],"split_conditions":[1.24484E2,7.5426064E-2,1.2758099E-1,1.20322E2,1.1453896E-1,1.7501878E-2,1.40962E2,-2.9677994E-4,6.3559064E-3,1.17037416E-1,8.143761E-1,7.331007E-2,3.143526E-3,2.2206376E-3,1.6204E2,2.0494082E-3,4.3800962E-4,6.635191E-4,-9.045025E-4,-1.5055506E-4,-1.3543362E-3,-2.1087804E-3,-1.32688E-3,1.328138E-3,2.5423363E-4,-3.6362864E-5,-1.3375505E-3,6.6244695E-4,-3.6350332E-4],"split_indices":[10,4,26,10,26,17,10,17,8,4,31,2,0,21,11,0,0,0,0,0,0,0,0,0,0,0,0,0,0],"split_type":[0,0,0,0,0,0,0,0,0,0,0,0,0,0,0,0,0,0,0,0,0,0,0,0,0,0,0,0,0],"sum_hessian":[7.8E2,2.01E2,5.79E2,2.9E1,1.72E2,2.96E2,2.83E2,1.6E1,1.3E1,1.52E2,2E1,2.9E2,6E0,3.8E1,2.45E2,1E1,6E0,7E0,6E0,1.33E2,1.9E1,1.1E1,9E0,4.2E1,2.48E2,1E1,2.8E1,1.1E2,1.35E2],"tree_param":{"num_deleted":"0","num_feature":"33","num_nodes":"29","size_leaf_vector":"1"}},{"base_weights":[-5.563088E-4,1.976123E-2,-1.6388352E-3,3.7085652E-2,-2.836939E-4,-3.0067151E-2,-9.948509E-4,3.6342512E-4,4.7812805E-2,-1.2724451E-3,1.8613853E-2,-8.060515E-4,-2.0336239E-3,1.9700726E-2,-1.8213018E-3,3.2756464E-3,1.5320721E-3,2.0572392E-3,-1.6787484E-4,3.364228E-4,2.9754757E-3,7.003923E-4,-1.3708147E-4],"categories":[],"categories_nodes":[],"categories_segments":[],"categories_sizes":[],"default_left":[0,0,0,1,0,0,0,0,0,0,0,0,0,0,0,0,0,0,0,0,0,0,0],"id":59,"left_children":[1,3,5,7,9,11,13,-1,15,-1,17,-1,-1,19,21,-1,-1,-1,-1,-1,-1,-1,-1],"loss_changes":[1.7825754E-2,1.4248457E-2,1.4048473E-2,6.6892393E-3,9.984916E-3,1.8586712E-3,1.2915102E-2,0E0,2.8555505E-3,0E0,6.0785627E-3,0E0,0E0,1.4575494E-2,1.0600204E-2,0E0,0E0,0E0,0E0,0E0,0E0,0E0,0E0],"parents":[2147483647,0,0,1,1,2,2,3,3,4,4,5,5,6,6,8,8,10,10,13,13,14,14],"right_children":[2,4,6,8,10,12,14,-1,16,-1,18,-1,-1,20,22,-1,-1,-1,-1,-1,-1,-1,-1],"split_conditions":[-2.981398E-2,-8.9052867E-4,2.0490903E-2,-9.061436E-2,-4.3194056E-3,1.3312352E-1,-9.708738E-3,3.6342512E-4,1.3589081E-1,-1.2724451E-3,1.273271E-2,-8.060515E-4,-2.0336239E-3,-3.4779354E-3,7.388934E-2,3.2756464E-3,1.5320721E-3,2.0572392E-3,-1.6787484E-4,3.364228E-4,2.9754757E-3,7.003923E-4,-1.3708147E-4],"split_indices":[22,23,27,16,20,26,7,0,3,0,8,0,0,20,28,0,0,0,0,0,0,0,0],"split_type":[0,0,0,0,0,0,0,0,0,0,0,0,0,0,0,0,0,0,0,0,0,0,0],"sum_hessian":[8.08E2,4E1,7.68E2,2.1E1,1.9E1,1.6E1,7.52E2,6E0,1.5E1,8E0,1.1E1,8E0,8E0,2.8E1,7.24E2,6E0,9E0,5E0,6E0,2.2E1,6E0,3.9E1,6.85E2],"tree_param":{"num_deleted":"0","num_feature":"33","num_nodes":"23","size_leaf_vector":"1"}},{"base_weights":[-5.028252E-5,-2.7506584E-3,5.880152E-3,3.1351253E-2,-3.554626E-3,1.0243702E-3,4.5210086E-2,2.2111621E-3,4.481695E-4,-7.103479E-3,4.7981977E-3,1.2199412E-2,-9.134829E-3,5.6682695E-2,4.721612E-4,7.807401E-4,-4.2950205E-4,4.152872E-4,-8.5328537E-4,9.5720636E-5,1.568287E-3,3.2137625E-4,-7.196849E-4,1.8031057E-3,3.3299138E-3],"categories":[],"categories_nodes":[],"categories_segments":[],"categories_sizes":[],"default_left":[0,0,1,0,0,0,0,0,0,0,0,1,0,0,0,0,0,0,0,0,0,0,0,0,0],"id":60,"left_children":[1,3,5,7,9,11,13,-1,-1,15,17,19,21,23,-1,-1,-1,-1,-1,-1,-1,-1,-1,-1,-1],"loss_changes":[1.3051899E-2,1.54648665E-2,4.8652973E-2,3.349902E-3,1.6278418E-2,2.5996162E-2,1.0954231E-2,0E0,0E0,1.3136402E-2,1.2718685E-2,2.1426652E-2,9.913362E-3,1.8920898E-3,0E0,0E0,0E0,0E0,0E0,0E0,0E0,0E0,0E0,0E0,0E0],"parents":[2147483647,0,0,1,1,2,2,3,3,4,4,5,5,6,6,9,9,10,10,11,11,12,12,13,13],"right_children":[2,4,6,8,10,12,14,-1,-1,16,18,20,22,24,-1,-1,-1,-1,-1,-1,-1,-1,-1,-1,-1],"split_conditions":[1.6757483E2,1.13292E2,-2.9970245E-2,2.4263645E-3,1.0253787E0,1.3813187E-1,-1.3500418E-2,2.2111621E-3,4.481695E-4,7.242263E-2,1.619955E2,9.873272E-1,-7.6184534E-3,-6.452987E-3,4.721612E-4,7.807401E-4,-4.2950205E-4,4.152872E-4,-8.5328537E-4,9.5720636E-5,1.568287E-3,3.2137625E-4,-7.196849E-4,1.8031057E-3,3.3299138E-3],"split_indices":[12,10,16,17,14,3,16,0,0,4,11,14,18,22,0,0,0,0,0,0,0,0,0,0,0],"split_type":[0,0,0,0,0,0,0,0,0,0,0,0,0,0,0,0,0,0,0,0,0,0,0,0,0],"sum_hessian":[8.13E2,5.59E2,2.54E2,1.2E1,5.47E2,2.27E2,2.7E1,7E0,5E0,3.84E2,1.63E2,1.08E2,1.19E2,2E1,7E0,2.3E1,3.61E2,1.41E2,2.2E1,7.1E1,3.7E1,3E1,8.9E1,8E0,1.2E1],"tree_param":{"num_deleted":"0","num_feature":"33","num_nodes":"25","size_leaf_vector":"1"}},{"base_weights":[4.1007204E-4,-2.472147E-3,5.3993845E-3,-5.8497456E-3,8.36725E-3,7.5550674E-4,1.7027507E-2,5.50537E-3,-9.327149E-3,3.7379034E-2,3.0378108E-3,1.4785275E-2,-5.329096E-3,4.1748684E-2,9.762881E-3,5.3246494E-4,-1.0976506E-3,-5.27795E-4,1.3803971E-3,-2.707876E-4,2.8773535E-3,5.449182E-4,-6.497339E-4,9.922548E-4,-4.608015E-4,2.1667208E-4,-6.918993E-4,1.393846E-3,2.7032164E-3,1.3942735E-3,-1.2048121E-4],"categories":[],"categories_nodes":[],"categories_segments":[],"categories_sizes":[],"default_left":[0,0,1,0,0,0,0,0,0,0,0,0,1,0,0,0,0,0,0,0,0,0,0,0,0,0,0,0,0,0,0],"id":61,"left_children":[1,3,5,7,9,11,13,15,17,19,21,23,25,27,29,-1,-1,-1,-1,-1,-1,-1,-1,-1,-1,-1,-1,-1,-1,-1,-1],"loss_changes":[1.1704525E-2,1.8940289E-2,1.6079009E-2,1.5608963E-2,1.890428E-2,1.8347025E-2,1.485757E-2,1.3369471E-2,1.3997391E-2,1.671031E-2,1.3374164E-2,8.076645E-3,1.2392586E-2,1.738809E-3,1.4847212E-2,0E0,0E0,0E0,0E0,0E0,0E0,0E0,0E0,0E0,0E0,0E0,0E0,0E0,0E0,0E0,0E0],"parents":[2147483647,0,0,1,1,2,2,3,3,4,4,5,5,6,6,7,7,8,8,9,9,10,10,11,11,12,12,13,13,14,14],"right_children":[2,4,6,8,10,12,14,16,18,20,22,24,26,28,30,-1,-1,-1,-1,-1,-1,-1,-1,-1,-1,-1,-1,-1,-1,-1,-1],"split_conditions":[1.0592542E0,9.849628E-3,-3.3582363E-2,7.8259595E-2,1.0749357E-1,1.2901762E0,-6.2343427E-3,1.4247368E-2,4.6537194E-2,1.2287E2,-9.677143E-3,1.4251041E-2,1.0934303E-1,7.845742E-3,1.0274178E-1,5.3246494E-4,-1.0976506E-3,-5.27795E-4,1.3803971E-3,-2.707876E-4,2.8773535E-3,5.449182E-4,-6.497339E-4,9.922548E-4,-4.608015E-4,2.1667208E-4,-6.918993E-4,1.393846E-3,2.7032164E-3,1.3942735E-3,-1.2048121E-4],"split_indices":[31,6,16,3,5,31,22,1,21,11,16,30,26,1,26,0,0,0,0,0,0,0,0,0,0,0,0,0,0,0,0],"split_type":[0,0,0,0,0,0,0,0,0,0,0,0,0,0,0,0,0,0,0,0,0,0,0,0,0,0,0,0,0,0,0],"sum_hessian":[8.12E2,5.15E2,2.97E2,3.93E2,1.22E2,2.13E2,8.4E1,9.2E1,3.01E2,1.8E1,1.04E2,6.4E1,1.49E2,1.8E1,6.6E1,7.8E1,1.4E1,2.92E2,9E0,6E0,1.2E1,7E1,3.4E1,5.3E1,1.1E1,7E1,7.9E1,1E1,8E0,2.6E1,4E1],"tree_param":{"num_deleted":"0","num_feature":"33","num_nodes":"31","size_leaf_vector":"1"}},{"base_weights":[1.2677386E-3,-1.9780921E-3,8.462785E-3,-4.9698446E-3,7.45504E-3,3.721658E-3,5.550611E-2,2.3541205E-2,-6.142749E-3,3.658196E-2,2.3688893E-3,1.41889425E-2,-4.297045E-3,6.652608E-2,1.8718252E-3,2.312064E-3,-1.2891239E-3,2.2039957E-4,-4.6093497E-4,1.0068879E-3,3.5797737E-3,-5.337078E-4,6.2058563E-4,9.3436174E-5,1.9573045E-3,6.9682626E-4,-6.088989E-4,2.0031545E-3,3.902878E-3],"categories":[],"categories_nodes":[],"categories_segments":[],"categories_sizes":[],"default_left":[0,0,1,0,0,0,0,0,0,0,0,1,0,0,0,0,0,0,0,0,0,0,0,0,0,0,0,0,0],"id":62,"left_children":[1,3,5,7,9,11,13,15,17,19,21,23,25,27,-1,-1,-1,-1,-1,-1,-1,-1,-1,-1,-1,-1,-1,-1,-1],"loss_changes":[1.89334E-2,1.5812922E-2,5.5999093E-2,1.4356924E-2,1.9912768E-2,1.9365802E-2,2.0894036E-3,2.0226285E-2,1.3314137E-2,1.0073617E-2,1.5327208E-2,3.06746E-2,1.8994095E-2,8.3981827E-4,0E0,0E0,0E0,0E0,0E0,0E0,0E0,0E0,0E0,0E0,0E0,0E0,0E0,0E0,0E0],"parents":[2147483647,0,0,1,1,2,2,3,3,4,4,5,5,6,6,7,7,8,8,9,9,10,10,11,11,12,12,13,13],"right_children":[2,4,6,8,10,12,14,16,18,20,22,24,26,28,-1,-1,-1,-1,-1,-1,-1,-1,-1,-1,-1,-1,-1,-1,-1],"split_conditions":[1.6757483E2,1.4106712E-1,-2.7898822E-2,1.142495E2,1.4857721E-1,1.3270514E-1,-1.8942384E-2,1.0798716E-1,9.0815365E-2,1.4398179E-2,-2.1966666E-2,9.8795104E-1,1.1612797E-1,1.4773342E-3,1.8718252E-3,2.312064E-3,-1.2891239E-3,2.2039957E-4,-4.6093497E-4,1.0068879E-3,3.5797737E-3,-5.337078E-4,6.2058563E-4,9.3436174E-5,1.9573045E-3,6.9682626E-4,-6.088989E-4,2.0031545E-3,3.902878E-3],"split_indices":[12,3,16,12,3,3,16,5,5,22,32,14,32,23,0,0,0,0,0,0,0,0,0,0,0,0,0,0,0],"split_type":[0,0,0,0,0,0,0,0,0,0,0,0,0,0,0,0,0,0,0,0,0,0,0,0,0,0,0,0,0],"sum_hessian":[8.09E2,5.58E2,2.51E2,4.24E2,1.34E2,2.29E2,2.2E1,1.6E1,4.08E2,1.9E1,1.15E2,9.9E1,1.3E2,1.2E1,1E1,1.1E1,5E0,9.2E1,3.16E2,1.4E1,5E0,5E1,6.5E1,6.7E1,3.2E1,3.9E1,9.1E1,5E0,7E0],"tree_param":{"num_deleted":"0","num_feature":"33","num_nodes":"29","size_leaf_vector":"1"}},{"base_weights":[1.8002484E-4,-6.588024E-4,2.2330426E-2,-8.975781E-3,1.1188097E-3,2.4465017E-3,3.3567755E-3,2.6604107E-3,-1.9818822E-2,1.9576937E-2,-1.6143023E-4,2.1692887E-2,-1.1137488E-3,7.5105956E-4,-4.707532E-4,-6.157018E-5,-1.2878794E-3,5.576172E-4,2.0769627E-3,-2.548246E-4,2.7345214E-4,5.3271925E-4,1.4557954E-3],"categories":[],"categories_nodes":[],"categories_segments":[],"categories_sizes":[],"default_left":[1,0,0,0,0,0,0,0,0,1,0,0,0,0,0,0,0,0,0,0,0,0,0],"id":63,"left_children":[1,3,5,7,9,-1,11,13,15,17,19,21,-1,-1,-1,-1,-1,-1,-1,-1,-1,-1,-1],"loss_changes":[1.4767517E-2,1.1334863E-2,1.4471809E-2,1.7085906E-2,1.4937846E-2,0E0,8.942968E-3,9.992737E-3,7.6953284E-3,7.122703E-3,1.6477618E-2,5.911174E-4,0E0,0E0,0E0,0E0,0E0,0E0,0E0,0E0,0E0,0E0,0E0],"parents":[2147483647,0,0,1,1,2,2,3,3,4,4,6,6,7,7,8,8,9,9,10,10,11,11],"right_children":[2,4,6,8,10,-1,12,14,16,18,20,22,-1,-1,-1,-1,-1,-1,-1,-1,-1,-1,-1],"split_conditions":[1.0504353E0,-3.3310118E-1,2.1109548E0,1.4773342E-3,-2.5430705E-2,2.4465017E-3,6.1860774E-3,1.0050988E0,8.494243E-2,-4.406877E-2,-3.154697E-2,6.7790076E-3,-1.1137488E-3,7.5105956E-4,-4.707532E-4,-6.157018E-5,-1.2878794E-3,5.576172E-4,2.0769627E-3,-2.548246E-4,2.7345214E-4,5.3271925E-4,1.4557954E-3],"split_indices":[14,32,31,23,22,0,1,13,3,16,16,30,0,0,0,0,0,0,0,0,0,0,0],"split_type":[0,0,0,0,0,0,0,0,0,0,0,0,0,0,0,0,0,0,0,0,0,0,0],"sum_hessian":[7.93E2,7.65E2,2.8E1,1.34E2,6.31E2,1.1E1,1.7E1,6.5E1,6.9E1,4E1,5.91E2,1E1,7E0,3.2E1,3.3E1,1.7E1,5.2E1,3E1,1E1,3.15E2,2.76E2,5E0,5E0],"tree_param":{"num_deleted":"0","num_feature":"33","num_nodes":"23","size_leaf_vector":"1"}},{"base_weights":[8.047816E-4,3.2658465E-2,2.9001402E-4,1.0422729E-4,2.57533E-3,-2.505112E-2,8.677712E-4,-3.3132177E-2,-3.8095753E-4,-1.6204375E-3,8.559962E-3,-2.1071953E-3,-8.54823E-4,-1.469326E-4,7.715704E-4,1.3844001E-3,-2.4463403E-5],"categories":[],"categories_nodes":[],"categories_segments":[],"categories_sizes":[],"default_left":[0,0,0,0,0,0,1,0,0,1,0,0,0,0,0,0,0],"id":64,"left_children":[1,3,5,-1,-1,7,9,11,-1,13,15,-1,-1,-1,-1,-1,-1],"loss_changes":[1.3403474E-2,7.3840283E-3,1.18224025E-2,0E0,0E0,2.2831988E-3,1.5115154E-2,1.0136021E-3,0E0,1.3464705E-2,3.3420693E-2,0E0,0E0,0E0,0E0,0E0,0E0],"parents":[2147483647,0,0,1,1,2,2,5,5,6,6,7,7,9,9,10,10],"right_children":[2,4,6,-1,-1,8,10,12,-1,14,16,-1,-1,-1,-1,-1,-1],"split_conditions":[-7.306624E-2,-7.2001286E-2,2.0490903E-2,1.0422729E-4,2.57533E-3,1.71949E2,1.6757483E2,9.822046E-1,-3.8095753E-4,1.7133869E-1,1.4037089E-1,-2.1071953E-3,-8.54823E-4,-1.469326E-4,7.715704E-4,1.3844001E-3,-2.4463403E-5],"split_indices":[21,30,27,0,0,11,12,13,0,4,4,0,0,0,0,0,0],"split_type":[0,0,0,0,0,0,0,0,0,0,0,0,0,0,0,0,0],"sum_hessian":[8.17E2,1.2E1,8.05E2,5E0,7E0,1.7E1,7.88E2,1.1E1,6E0,5.96E2,1.92E2,6E0,5E0,5.54E2,4.2E1,6.1E1,1.31E2],"tree_param":{"num_deleted":"0","num_feature":"33","num_nodes":"17","size_leaf_vector":"1"}},{"base_weights":[-6.1262073E-4,-1.9033245E-3,1.2023625E-2,1.4055342E-2,-2.8818906E-3,4.572373E-3,4.9429494E-3,2.6199171E-2,-2.254992E-2,-1.3283108E-3,-1.6687248E-2,-1.1447485E-2,3.2490492E-2,7.9491746E-4,2.7557171E-3,-1.6719869E-3,-3.950892E-4,-5.673399E-4,3.664409E-5,-3.2977387E-4,-1.5614466E-3,-8.8936504E-4,1.2302006E-3,2.8432256E-3,6.85135E-4],"categories":[],"categories_nodes":[],"categories_segments":[],"categories_sizes":[],"default_left":[1,0,0,0,1,0,0,0,0,1,0,0,0,0,0,0,0,0,0,0,0,0,0,0,0],"id":65,"left_children":[1,3,5,7,9,-1,11,13,15,17,19,21,23,-1,-1,-1,-1,-1,-1,-1,-1,-1,-1,-1,-1],"loss_changes":[1.3021676E-2,1.1346932E-2,4.1163683E-2,1.9260967E-2,1.4626631E-2,0E0,3.152655E-2,8.654974E-3,1.490437E-3,1.2708086E-2,9.919874E-3,1.0494271E-2,