{"learner":{"attributes":{"best_iteration":"1","best_score":"0.04638067675875342","scikit_learn":"{\"_estimator_type\": \"regressor\"}"},"feature_names":["log_ret_1d","log_ret_5d","vol_5d","vol_10d","vol_20d","vol_60d","hl_range","co_range","atr_14","mom_10d","ma_5","ma_20","ma_60","ma_ratio_5_20","ma_ratio_20_60","drawdown_20","drawdown_60","ctx_equity_proxy_log_ret_1d","ctx_duration_proxy_log_ret_1d","ctx_credit_proxy_log_ret_1d","ctx_real_asset_proxy_log_ret_1d","ctx_equity_proxy_log_ret_5d","ctx_duration_proxy_log_ret_5d","ctx_credit_proxy_log_ret_5d","ctx_real_asset_proxy_log_ret_5d","ctx_equity_proxy_vol_20d","ctx_duration_proxy_vol_20d","ctx_credit_proxy_vol_20d","ctx_real_asset_proxy_vol_20d","ctx_equity_duration_ret_5d_spread","ctx_credit_duration_ret_5d_spread","ctx_rel_vol_20d_vs_equity_proxy","ctx_corr_20d_vs_equity_proxy"],"feature_types":["float","float","float","float","float","float","float","float","float","float","float","float","float","float","float","float","float","float","float","float","float","float","float","float","float","float","float","float","float","float","float","float","float"],"gradient_booster":{"model":{"cats":{"enc":[],"feature_segments":[],"sorted_idx":[]},"gbtree_model_param":{"num_parallel_tree":"1","num_trees":"52"},"iteration_indptr":[0,1,2,3,4,5,6,7,8,9,10,11,12,13,14,15,16,17,18,19,20,21,22,23,24,25,26,27,28,29,30,31,32,33,34,35,36,37,38,39,40,41,42,43,44,45,46,47,48,49,50,51,52],"tree_info":[0,0,0,0,0,0,0,0,0,0,0,0,0,0,0,0,0,0,0,0,0,0,0,0,0,0,0,0,0,0,0,0,0,0,0,0,0,0,0,0,0,0,0,0,0,0,0,0,0,0,0,0],"trees":[{"base_weights":[-3.1573963E-4,-5.277444E-3,2.993418E-1,-2.146203E-2,4.376073E-2,1.8350068E-2,8.734212E-3,-2.9855281E-2,-1.1288189E-2,7.2528996E-2,2.2036167E-2,-3.625366E-4,-1.5816452E-3,9.830251E-4,-6.5275887E-4,3.4103082E-3,8.173416E-3,3.1369497E-4,2.3628103E-3],"categories":[],"categories_nodes":[],"categories_segments":[],"categories_sizes":[],"default_left":[1,1,0,1,0,0,0,0,0,0,1,0,0,0,0,0,0,0,0],"id":0,"left_children":[1,3,5,7,9,-1,-1,11,13,15,17,-1,-1,-1,-1,-1,-1,-1,-1],"loss_changes":[2.0994718E0,1.1033366E0,1.29879E-1,8.88972E-2,2.1401918E-1,0E0,0E0,2.2754967E-2,2.6177824E-2,4.703152E-2,7.841348E-2,0E0,0E0,0E0,0E0,0E0,0E0,0E0,0E0],"parents":[2147483647,0,0,1,1,2,2,3,3,4,4,7,7,8,8,9,9,10,10],"right_children":[2,4,6,8,10,-1,-1,12,14,16,18,-1,-1,-1,-1,-1,-1,-1,-1],"split_conditions":[2.614953E-1,7.6950245E-2,6.6758995E-3,4.7557127E-2,-2.2104679E-2,1.8350068E-2,8.734212E-3,-7.553857E-3,-2.8810048E-2,8.48055E1,1.3619658E-1,-3.625366E-4,-1.5816452E-3,9.830251E-4,-6.5275887E-4,3.4103082E-3,8.173416E-3,3.1369497E-4,2.3628103E-3],"split_indices":[26,4,1,4,15,0,0,1,30,12,5,0,0,0,0,0,0,0,0],"split_type":[0,0,0,0,0,0,0,0,0,0,0,0,0,0,0,0,0,0,0],"sum_hessian":[1.41E3,1.388E3,2.2E1,1.044E3,3.44E2,1.3E1,9E0,5.71E2,4.73E2,1.47E2,1.97E2,4.2E1,5.29E2,2.5E1,4.48E2,1.42E2,5E0,1.22E2,7.5E1],"tree_param":{"num_deleted":"0","num_feature":"33","num_nodes":"19","size_leaf_vector":"1"}},{"base_weights":[-4.337E-4,2.85783E-1,-4.388379E-3,1.6910402E-2,5.791371E-3,-2.0007953E-2,4.266529E-2,-2.8117748E-2,-1.045906E-2,3.802791E-2,1.4839688E-2,-3.954328E-4,-1.4852553E-3,-5.7581684E-4,3.1011829E-3,3.1707291E-3,1.041638E-3],"categories":[],"categories_nodes":[],"categories_segments":[],"categories_sizes":[],"default_left":[0,0,1,0,0,1,0,0,1,0,0,0,0,0,0,0,0],"id":1,"left_children":[1,3,5,-1,-1,7,9,11,13,15,-1,-1,-1,-1,-1,-1,-1],"loss_changes":[1.577984E0,1.301148E-1,1.0114213E0,0E0,0E0,7.970101E-2,3.9293617E-1,1.7665178E-2,3.7192207E-2,1.462253E-1,0E0,0E0,0E0,0E0,0E0,0E0,0E0],"parents":[2147483647,0,0,1,1,2,2,5,5,6,6,7,7,8,8,9,9],"right_children":[2,4,6,-1,-1,8,10,12,14,16,-1,-1,-1,-1,-1,-1,-1],"split_conditions":[-7.719167E-2,5.093326E-1,7.753842E-2,1.6910402E-2,5.791371E-3,4.7557127E-2,8.6236E1,-7.420966E-3,8.77735E1,-2.1806853E-2,1.4839688E-2,-3.954328E-4,-1.4852553E-3,-5.7581684E-4,3.1011829E-3,3.1707291E-3,1.041638E-3],"split_indices":[15,31,4,0,0,4,11,1,12,15,0,0,0,0,0,0,0],"split_type":[0,0,0,0,0,0,0,0,0,0,0,0,0,0,0,0,0],"sum_hessian":[1.392E3,1.8E1,1.374E3,1.3E1,5E0,1.032E3,3.42E2,5.57E2,4.75E2,3.37E2,5E0,4.1E1,5.16E2,4.69E2,6E0,1.35E2,2.02E2],"tree_param":{"num_deleted":"0","num_feature":"33","num_nodes":"17","size_leaf_vector":"1"}},{"base_weights":[6.680548E-4,-6.041734E-3,2.3119238E-1,-1.9776212E-2,3.2863725E-2,1.6924145E-2,8.721554E-2,-2.706704E-2,-1.1022181E-2,5.6161825E-2,1.761489E-2,5.7049547E-3,3.4049433E-3,-8.232863E-4,-1.5245447E-3,-2.0231283E-4,-9.1156317E-4,3.41281E-3,1.6400751E-3,2.3503977E-4,2.1158627E-3],"categories":[],"categories_nodes":[],"categories_segments":[],"categories_sizes":[],"default_left":[1,1,0,0,0,0,0,1,0,0,1,0,0,0,0,0,0,0,0,0,0],"id":2,"left_children":[1,3,5,7,9,-1,11,13,15,17,19,-1,-1,-1,-1,-1,-1,-1,-1,-1,-1],"loss_changes":[2.1328454E0,7.166738E-1,5.7292557E-1,6.2951356E-2,1.2335482E-1,0E0,1.4806241E-3,1.909852E-2,2.265732E-2,3.675002E-2,6.7749925E-2,0E0,0E0,0E0,0E0,0E0,0E0,0E0,0E0,0E0,0E0],"parents":[2147483647,0,0,1,1,2,2,3,3,4,4,6,6,7,7,8,8,9,9,10,10],"right_children":[2,4,6,8,10,-1,12,14,16,18,20,-1,-1,-1,-1,-1,-1,-1,-1,-1,-1],"split_conditions":[3.557984E-1,7.5133905E-2,3.0484578E-1,3.1055901E-3,-2.2104679E-2,1.6924145E-2,1.8641949E-1,8.4702E1,-8.500233E-3,5.877145E-1,1.3394971E-1,5.7049547E-3,3.4049433E-3,-8.232863E-4,-1.5245447E-3,-2.0231283E-4,-9.1156317E-4,3.41281E-3,1.6400751E-3,2.3503977E-4,2.1158627E-3],"split_indices":[25,4,5,6,15,0,3,10,15,31,5,0,0,0,0,0,0,0,0,0,0],"split_type":[0,0,0,0,0,0,0,0,0,0,0,0,0,0,0,0,0,0,0,0,0],"sum_hessian":[1.377E3,1.339E3,3.8E1,9.9E2,3.49E2,2.1E1,1.7E1,5.39E2,4.51E2,1.37E2,2.12E2,5E0,1.2E1,1.33E2,4.06E2,2.3E2,2.21E2,8.9E1,4.8E1,1.4E2,7.2E1],"tree_param":{"num_deleted":"0","num_feature":"33","num_nodes":"21","size_leaf_vector":"1"}},{"base_weights":[1.2913167E-3,-5.310641E-3,2.2737609E-1,-1.6885744E-2,3.9208878E-2,3.179365E-1,8.6151E-2,-2.4363335E-2,-5.7756766E-3,6.1575286E-2,2.9458357E-2,1.7534193E-2,9.41548E-3,4.9976083E-3,2.9065334E-3,-1.3188991E-3,-9.195489E-6,4.57429E-5,-7.1148894E-4,1.3379537E-3,4.0533417E-3,1.6766958E-3,-3.3418505E-4],"categories":[],"categories_nodes":[],"categories_segments":[],"categories_sizes":[],"default_left":[1,1,0,1,0,0,0,0,0,1,1,0,0,0,0,0,0,0,0,0,0,0,0],"id":3,"left_children":[1,3,5,7,9,11,13,15,17,19,21,-1,-1,-1,-1,-1,-1,-1,-1,-1,-1,-1,-1],"loss_changes":[2.1042836E0,7.0664775E-1,4.841857E-1,9.024656E-2,5.990392E-2,3.5841465E-2,7.638484E-4,3.165862E-2,2.4843939E-2,5.551356E-2,2.953665E-2,0E0,0E0,0E0,0E0,0E0,0E0,0E0,0E0,0E0,0E0,0E0,0E0],"parents":[2147483647,0,0,1,1,2,2,3,3,4,4,5,5,6,6,7,7,8,8,9,9,10,10],"right_children":[2,4,6,8,10,12,14,16,18,20,22,-1,-1,-1,-1,-1,-1,-1,-1,-1,-1,-1,-1],"split_conditions":[3.557984E-1,7.638754E-3,3.0484578E-1,4.426644E-3,-1.7208468E-2,4.080706E-2,5.552418E-3,4.784689E-3,2.2130345E-3,1.195632E-1,-8.176221E-3,1.7534193E-2,9.41548E-3,4.9976083E-3,2.9065334E-3,-1.3188991E-3,-9.195489E-6,4.57429E-5,-7.1148894E-4,1.3379537E-3,4.0533417E-3,1.6766958E-3,-3.3418505E-4],"split_indices":[25,8,5,8,22,8,20,6,1,5,16,0,0,0,0,0,0,0,0,0,0,0,0],"split_type":[0,0,0,0,0,0,0,0,0,0,0,0,0,0,0,0,0,0,0,0,0,0,0],"sum_hessian":[1.408E3,1.369E3,3.9E1,1.087E3,2.82E2,2.3E1,1.6E1,6.49E2,4.38E2,8.4E1,1.98E2,1.7E1,6E0,9E0,7E0,5.99E2,5E1,2.45E2,1.93E2,3.1E1,5.3E1,1.78E2,2E1],"tree_param":{"num_deleted":"0","num_feature":"33","num_nodes":"23","size_leaf_vector":"1"}},{"base_weights":[-1.0884728E-3,-6.4777103E-3,2.1530557E-1,-1.6976925E-2,3.616532E-2,3.0672893E-1,3.952704E-3,-2.3198629E-2,-6.90771E-3,6.085281E-2,2.2634197E-2,1.6887752E-2,8.902109E-3,2.0859849E-4,-1.2281509E-3,2.2807873E-3,-4.0844228E-4,5.419335E-3,2.4166687E-3,1.3611563E-3,-5.3628604E-4],"categories":[],"categories_nodes":[],"categories_segments":[],"categories_sizes":[],"default_left":[1,1,0,1,0,0,0,0,0,0,1,0,0,0,0,0,0,0,0,0,0],"id":4,"left_children":[1,3,5,7,9,11,-1,13,15,17,19,-1,-1,-1,-1,-1,-1,-1,-1,-1,-1],"loss_changes":[1.6317407E0,6.1174953E-1,3.9927518E-1,6.850162E-2,8.881602E-2,1.971817E-2,0E0,2.5384456E-2,2.8193096E-2,5.129555E-2,2.723518E-2,0E0,0E0,0E0,0E0,0E0,0E0,0E0,0E0,0E0,0E0],"parents":[2147483647,0,0,1,1,2,2,3,3,4,4,5,5,7,7,8,8,9,9,10,10],"right_children":[2,4,6,8,10,12,-1,14,16,18,20,-1,-1,-1,-1,-1,-1,-1,-1,-1,-1],"split_conditions":[3.557984E-1,7.638754E-3,3.0484578E-1,4.4769323E-3,-1.1738046E-2,-1.1443527E-2,3.952704E-3,-1.0407136E-2,-4.9971346E-2,4.8669837E-3,-8.176221E-3,1.6887752E-2,8.902109E-3,2.0859849E-4,-1.2281509E-3,2.2807873E-3,-4.0844228E-4,5.419335E-3,2.4166687E-3,1.3611563E-3,-5.3628604E-4],"split_indices":[25,8,5,8,22,1,0,1,16,30,16,0,0,0,0,0,0,0,0,0,0],"split_type":[0,0,0,0,0,0,0,0,0,0,0,0,0,0,0,0,0,0,0,0,0],"sum_hessian":[1.397E3,1.364E3,3.3E1,1.095E3,2.69E2,1.9E1,1.4E1,6.76E2,4.19E2,9.4E1,1.75E2,1.4E1,5E0,3.2E1,6.44E2,9E0,4.1E2,1.8E1,7.6E1,1.54E2,2.1E1],"tree_param":{"num_deleted":"0","num_feature":"33","num_nodes":"21","size_leaf_vector":"1"}},{"base_weights":[-7.269961E-4,-5.2553467E-3,1.74641E-1,-1.6523162E-2,3.170953E-2,7.139295E-2,1.42918145E-2,-2.1155085E-2,-4.0668347E-3,4.919884E-2,2.0588322E-2,8.214885E-2,1.63022E-3,-6.273109E-4,-1.2599915E-3,2.2449119E-3,-2.7159063E-4,1.0319432E-3,3.551604E-3,1.1679576E-3,-9.045265E-4,5.0122887E-3,2.6891658E-3],"categories":[],"categories_nodes":[],"categories_segments":[],"categories_sizes":[],"default_left":[1,1,0,0,0,0,0,1,0,1,1,0,0,0,0,0,0,0,0,0,0,0,0],"id":5,"left_children":[1,3,5,7,9,11,-1,13,15,17,19,21,-1,-1,-1,-1,-1,-1,-1,-1,-1,-1,-1],"loss_changes":[1.1357262E0,5.811436E-1,3.9289832E-1,6.1591804E-2,6.2394828E-2,5.6656897E-3,0E0,2.6809156E-2,1.969322E-2,7.7102154E-2,2.1964237E-2,2.3083836E-3,0E0,0E0,0E0,0E0,0E0,0E0,0E0,0E0,0E0,0E0,0E0],"parents":[2147483647,0,0,1,1,2,2,3,3,4,4,5,5,7,7,8,8,9,9,10,10,11,11],"right_children":[2,4,6,8,10,12,-1,14,16,18,20,22,-1,-1,-1,-1,-1,-1,-1,-1,-1,-1,-1],"split_conditions":[3.386053E-1,6.887603E-3,8.306416E1,4.0502227E-3,-1.1738046E-2,7.748273E-1,1.42918145E-2,8.4702E1,-7.486043E-2,1.195632E-1,-5.255551E-3,7.933E1,1.63022E-3,-6.273109E-4,-1.2599915E-3,2.2449119E-3,-2.7159063E-4,1.0319432E-3,3.551604E-3,1.1679576E-3,-9.045265E-4,5.0122887E-3,2.6891658E-3],"split_indices":[25,8,12,6,22,32,0,10,29,5,16,10,0,0,0,0,0,0,0,0,0,0,0],"split_type":[0,0,0,0,0,0,0,0,0,0,0,0,0,0,0,0,0,0,0,0,0,0,0],"sum_hessian":[1.428E3,1.393E3,3.5E1,1.068E3,3.25E2,1.9E1,1.6E1,7.78E2,2.9E2,1.25E2,2E2,1.4E1,5E0,2.5E2,5.28E2,7E0,2.83E2,5.5E1,7E1,1.87E2,1.3E1,7E0,7E0],"tree_param":{"num_deleted":"0","num_feature":"33","num_nodes":"23","size_leaf_vector":"1"}},{"base_weights":[3.852278E-4,-4.240687E-3,1.9842017E-1,-1.6253084E-2,3.3067986E-2,1.3459585E-2,5.8034994E-2,-2.2620624E-2,-8.4630195E-3,3.044875E-2,8.558906E-3,1.8194374E-3,3.4149103E-3,-1.2448272E-3,-3.9728163E-4,1.4325E-3,-5.091901E-4,2.4769194E-3,8.023085E-4],"categories":[],"categories_nodes":[],"categories_segments":[],"categories_sizes":[],"default_left":[1,1,0,1,0,0,0,0,0,0,0,0,0,0,0,0,0,0,0],"id":6,"left_children":[1,3,5,7,9,-1,11,13,15,17,-1,-1,-1,-1,-1,-1,-1,-1,-1],"loss_changes":[1.2842875E0,6.145257E-1,3.0230606E-1,5.1247448E-2,1.1561003E-1,0E0,1.806356E-4,1.8839687E-2,3.0179847E-2,8.966038E-2,0E0,0E0,0E0,0E0,0E0,0E0,0E0,0E0,0E0],"parents":[2147483647,0,0,1,1,2,2,3,3,4,4,6,6,7,7,8,8,9,9],"right_children":[2,4,6,8,10,-1,12,14,16,18,-1,-1,-1,-1,-1,-1,-1,-1,-1],"split_conditions":[2.3614381E-1,7.753842E-2,5.2564526E-1,4.8245642E-2,8.6168E1,1.3459585E-2,8.2144E1,3.907148E-3,-2.0156099E-2,-2.1806853E-2,8.558906E-3,1.8194374E-3,3.4149103E-3,-1.2448272E-3,-3.9728163E-4,1.4325E-3,-5.091901E-4,2.4769194E-3,8.023085E-4],"split_indices":[3,27,31,27,10,0,12,6,9,15,0,0,0,0,0,0,0,0,0],"split_type":[0,0,0,0,0,0,0,0,0,0,0,0,0,0,0,0,0,0,0],"sum_hessian":[1.4E3,1.369E3,3.1E1,1.036E3,3.33E2,2E1,1.1E1,5.69E2,4.67E2,3.28E2,5E0,5E0,6E0,4.92E2,7.7E1,2E1,4.47E2,1.4E2,1.88E2],"tree_param":{"num_deleted":"0","num_feature":"33","num_nodes":"19","size_leaf_vector":"1"}},{"base_weights":[5.56262E-4,-4.6307542E-3,1.9952051E-1,-1.4242057E-2,3.552368E-2,6.859975E-2,2.6212257E-1,-1.4810099E-2,3.8893335E-3,5.2159015E-2,2.5568517E-2,1.7790532E-3,4.2394404E-3,1.4652143E-2,8.182581E-3,-1.0184358E-3,-3.042471E-4,2.1648568E-3,4.6178843E-3,1.1350255E-3,4.9849628E-3],"categories":[],"categories_nodes":[],"categories_segments":[],"categories_sizes":[],"default_left":[1,1,0,1,0,0,0,1,0,0,0,0,0,0,0,0,0,0,0,0,0],"id":7,"left_children":[1,3,5,7,9,11,13,15,-1,17,19,-1,-1,-1,-1,-1,-1,-1,-1,-1,-1],"loss_changes":[1.4622794E0,5.3348404E-1,2.7707112E-1,5.944003E-2,4.2883575E-2,3.9321594E-3,2.5117159E-2,5.366233E-2,0E0,3.1268507E-2,3.3667415E-2,0E0,0E0,0E0,0E0,0E0,0E0,0E0,0E0,0E0,0E0],"parents":[2147483647,0,0,1,1,2,2,3,3,4,4,5,5,6,6,7,7,9,9,10,10],"right_children":[2,4,6,8,10,12,14,16,-1,18,20,-1,-1,-1,-1,-1,-1,-1,-1,-1,-1],"split_conditions":[3.557984E-1,7.727384E-3,8.282633E1,8.77735E1,-7.2438684E-3,-5.812264E-4,4.080706E-2,4.426644E-3,3.8893335E-3,9.98853E-1,1.0245583E0,1.7790532E-3,4.2394404E-3,1.4652143E-2,8.182581E-3,-1.0184358E-3,-3.042471E-4,2.1648568E-3,4.6178843E-3,1.1350255E-3,4.9849628E-3],"split_indices":[25,8,12,12,1,24,8,8,0,13,13,0,0,0,0,0,0,0,0,0,0],"split_type":[0,0,0,0,0,0,0,0,0,0,0,0,0,0,0,0,0,0,0,0,0],"sum_hessian":[1.415E3,1.38E3,3.5E1,1.114E3,2.66E2,1.2E1,2.3E1,1.108E3,6E0,9.8E1,1.68E2,5E0,7E0,1.6E1,7E0,6.76E2,4.32E2,8.2E1,1.6E1,1.63E2,5E0],"tree_param":{"num_deleted":"0","num_feature":"33","num_nodes":"21","size_leaf_vector":"1"}},{"base_weights":[-3.914495E-4,6.2850595E-2,-8.7554045E-3,4.9527757E-2,1.829914E-1,-1.4369242E-2,1.6359955E-2,6.349372E-2,2.714758E-2,1.0906785E-2,4.4030817E-3,-2.0328084E-2,-7.148533E-3,1.1136934E-2,8.946055E-3,5.231486E-3,2.3598399E-3,-3.5414385E-4,1.672536E-3,-6.2374654E-4,-1.15246E-3,9.925007E-4,-4.6407795E-4,-2.8653754E-4,1.1384584E-3],"categories":[],"categories_nodes":[],"categories_segments":[],"categories_sizes":[],"default_left":[0,0,1,0,0,0,0,0,0,0,0,1,0,1,0,0,0,0,0,0,0,0,0,0,0],"id":8,"left_children":[1,3,5,7,9,11,13,15,17,-1,-1,19,21,23,-1,-1,-1,-1,-1,-1,-1,-1,-1,-1,-1],"loss_changes":[7.426722E-1,2.53438E-1,1.7506708E-1,4.4847906E-2,3.417051E-2,4.3484136E-2,1.9074406E-1,5.6067318E-2,1.2966722E-2,0E0,0E0,1.157245E-2,2.6674999E-2,4.349263E-2,0E0,0E0,0E0,0E0,0E0,0E0,0E0,0E0,0E0,0E0,0E0],"parents":[2147483647,0,0,1,1,2,2,3,3,4,4,5,5,6,6,7,7,8,8,11,11,12,12,13,13],"right_children":[2,4,6,8,10,12,14,16,18,-1,-1,20,22,24,-1,-1,-1,-1,-1,-1,-1,-1,-1,-1,-1],"split_conditions":[-4.7284767E-2,1.802035E-2,7.444457E-2,7.86065E1,-2.138916E-2,3.1055901E-3,8.6461E1,5.131145E-1,7.9178E1,1.0906785E-2,4.4030817E-3,8.4878E1,7.4412E1,9.836523E-2,8.946055E-3,5.231486E-3,2.3598399E-3,-3.5414385E-4,1.672536E-3,-6.2374654E-4,-1.15246E-3,9.925007E-4,-4.6407795E-4,-2.8653754E-4,1.1384584E-3],"split_indices":[16,6,4,11,1,6,11,31,10,0,0,11,10,5,0,0,0,0,0,0,0,0,0,0,0],"split_type":[0,0,0,0,0,0,0,0,0,0,0,0,0,0,0,0,0,0,0,0,0,0,0,0,0],"sum_hessian":[1.402E3,1.63E2,1.239E3,1.48E2,1.5E1,1.013E3,2.26E2,9E1,5.8E1,1E1,5E0,5.54E2,4.59E2,2.2E2,6E0,2.4E1,6.6E1,9E0,4.9E1,1.44E2,4.1E2,3.3E1,4.26E2,9E1,1.3E2],"tree_param":{"num_deleted":"0","num_feature":"33","num_nodes":"25","size_leaf_vector":"1"}},{"base_weights":[-5.61744E-4,-3.8073394E-3,2.017234E-1,-1.4100323E-2,2.769193E-2,1.2077982E-2,2.7616755E-3,-1.6541805E-2,1.7552671E-4,2.525266E-2,7.922803E-3,-2.3757321E-4,-9.1593823E-4,1.3080154E-3,-1.0185945E-4,2.3402486E-3,8.162561E-4],"categories":[],"categories_nodes":[],"categories_segments":[],"categories_sizes":[],"default_left":[1,1,0,0,1,0,0,0,0,0,0,0,0,0,0,0,0],"id":9,"left_children":[1,3,5,7,9,-1,-1,11,13,15,-1,-1,-1,-1,-1,-1,-1],"loss_changes":[9.146658E-1,4.448981E-1,1.1504114E-1,3.604217E-2,1.038101E-1,0E0,0E0,1.8412665E-2,8.792827E-3,6.3308105E-2,0E0,0E0,0E0,0E0,0E0,0E0,0E0],"parents":[2147483647,0,0,1,1,2,2,3,3,4,4,7,7,8,8,9,9],"right_children":[2,4,6,8,10,-1,-1,12,14,16,-1,-1,-1,-1,-1,-1,-1],"split_conditions":[2.614953E-1,6.7645162E-3,3.0484578E-1,5.0578997E-3,8.616617E1,1.2077982E-2,2.7616755E-3,7.688233E1,-2.0156099E-2,-6.238296E-2,7.922803E-3,-2.3757321E-4,-9.1593823E-4,1.3080154E-3,-1.0185945E-4,2.3402486E-3,8.162561E-4],"split_indices":[26,8,5,6,12,0,0,12,9,16,0,0,0,0,0,0,0],"split_type":[0,0,0,0,0,0,0,0,0,0,0,0,0,0,0,0,0],"sum_hessian":[1.391E3,1.37E3,2.1E1,1.033E3,3.37E2,1.6E1,5E0,8.82E2,1.51E2,3.32E2,5E0,1.16E2,7.66E2,1.1E1,1.4E2,9.6E1,2.36E2],"tree_param":{"num_deleted":"0","num_feature":"33","num_nodes":"17","size_leaf_vector":"1"}},{"base_weights":[4.6945657E-4,-4.478875E-3,1.6242534E-1,-1.3366453E-2,2.1344293E-2,7.329063E-2,2.289964E-1,2.2226997E-4,-1.5996793E-2,4.126355E-2,1.4750134E-2,5.2432325E-3,1.7193772E-3,1.273151E-2,5.6964452E-3,1.4201257E-3,-1.1026579E-4,-4.9859314E-4,-9.939569E-4,6.313962E-3,1.7185789E-3,6.1406085E-4,4.549295E-3],"categories":[],"categories_nodes":[],"categories_segments":[],"categories_sizes":[],"default_left":[1,1,0,0,0,0,0,0,0,0,0,0,0,0,0,0,0,0,0,0,0,0,0],"id":10,"left_children":[1,3,5,7,9,11,13,15,17,19,21,-1,-1,-1,-1,-1,-1,-1,-1,-1,-1,-1,-1],"loss_changes":[1.108278E0,3.0828157E-1,2.2650206E-1,3.571078E-2,4.4576004E-2,1.9732177E-2,3.883159E-2,1.1213458E-2,1.9379914E-2,4.546325E-2,4.781975E-2,0E0,0E0,0E0,0E0,0E0,0E0,0E0,0E0,0E0,0E0,0E0,0E0],"parents":[2147483647,0,0,1,1,2,2,3,3,4,4,5,5,6,6,7,7,8,8,9,9,10,10],"right_children":[2,4,6,8,10,12,14,16,18,20,22,-1,-1,-1,-1,-1,-1,-1,-1,-1,-1,-1,-1],"split_conditions":[3.386053E-1,6.3923057E-3,8.306416E1,-7.0737232E-3,-6.238296E-2,-8.13076E-4,4.080706E-2,-2.0156099E-2,8.4878E1,7.4113335E1,1.0245583E0,5.2432325E-3,1.7193772E-3,1.273151E-2,5.6964452E-3,1.4201257E-3,-1.1026579E-4,-4.9859314E-4,-9.939569E-4,6.313962E-3,1.7185789E-3,6.1406085E-4,4.549295E-3],"split_indices":[25,8,12,9,16,20,8,9,11,12,13,0,0,0,0,0,0,0,0,0,0,0,0],"split_type":[0,0,0,0,0,0,0,0,0,0,0,0,0,0,0,0,0,0,0,0,0,0,0],"sum_hessian":[1.381E3,1.341E3,4E1,9.98E2,3.43E2,1.8E1,2.2E1,1.62E2,8.36E2,8.4E1,2.59E2,9E0,9E0,1.7E1,5E0,1.2E1,1.5E2,3.29E2,5.07E2,5E0,7.9E1,2.52E2,7E0],"tree_param":{"num_deleted":"0","num_feature":"33","num_nodes":"23","size_leaf_vector":"1"}},{"base_weights":[-1.1362752E-4,-3.4431743E-3,1.6315714E-1,-1.178419E-2,2.7746841E-2,2.2306558E-1,2.514633E-3,-1.2324258E-2,3.6534835E-3,2.5517426E-2,5.1572025E-3,1.391007E-2,5.968532E-3,-8.7344943E-4,-2.3249454E-4,2.7693205E-3,1.1140074E-3],"categories":[],"categories_nodes":[],"categories_segments":[],"categories_sizes":[],"default_left":[1,1,0,1,0,0,0,1,0,0,0,0,0,0,0,0,0],"id":11,"left_children":[1,3,5,7,9,11,-1,13,-1,15,-1,-1,-1,-1,-1,-1,-1],"loss_changes":[7.616265E-1,3.5752174E-1,1.781044E-1,5.0576806E-2,4.6114624E-2,6.970239E-2,0E0,4.248096E-2,0E0,2.6130438E-2,0E0,0E0,0E0,0E0,0E0,0E0,0E0],"parents":[2147483647,0,0,1,1,2,2,3,3,4,4,5,5,7,7,9,9],"right_children":[2,4,6,8,10,12,-1,14,-1,16,-1,-1,-1,-1,-1,-1,-1],"split_conditions":[3.557984E-1,7.638754E-3,5.2564526E-1,8.77735E1,2.0573564E-2,4.080706E-2,2.514633E-3,4.4434313E-3,3.6534835E-3,-2.138916E-2,5.1572025E-3,1.391007E-2,5.968532E-3,-8.7344943E-4,-2.3249454E-4,2.7693205E-3,1.1140074E-3],"split_indices":[25,8,31,12,20,8,0,8,0,1,0,0,0,0,0,0,0],"split_type":[0,0,0,0,0,0,0,0,0,0,0,0,0,0,0,0,0],"sum_hessian":[1.399E3,1.372E3,2.7E1,1.083E3,2.89E2,1.7E1,1E1,1.077E3,6E0,2.82E2,7E0,1E1,7E0,6.44E2,4.33E2,2.6E1,2.56E2],"tree_param":{"num_deleted":"0","num_feature":"33","num_nodes":"17","size_leaf_vector":"1"}},{"base_weights":[4.8906848E-5,-3.354207E-3,1.5033323E-1,-1.0650675E-2,2.7808998E-2,2.038052E-1,1.7291857E-3,-1.4968045E-2,-5.318599E-4,2.4595208E-2,7.988012E-3,1.2002385E-2,6.440495E-3,-2.54377E-4,-8.850786E-4,-9.127624E-5,3.513857E-3,2.2619714E-3,7.621083E-4],"categories":[],"categories_nodes":[],"categories_segments":[],"categories_sizes":[],"default_left":[1,1,0,0,0,0,0,1,1,0,0,0,0,0,0,0,0,0,0],"id":12,"left_children":[1,3,5,7,9,11,-1,13,15,17,-1,-1,-1,-1,-1,-1,-1,-1,-1],"loss_changes":[7.160012E-1,3.1158116E-1,1.8482167E-1,4.848425E-2,1.06327206E-1,2.6157796E-2,0E0,2.0922646E-2,3.0632129E-2,4.8547447E-2,0E0,0E0,0E0,0E0,0E0,0E0,0E0,0E0,0E0],"parents":[2147483647,0,0,1,1,2,2,3,3,4,4,5,5,7,7,8,8,9,9],"right_children":[2,4,6,8,10,12,-1,14,16,18,-1,-1,-1,-1,-1,-1,-1,-1,-1],"split_conditions":[2.3614381E-1,7.638754E-3,5.2564526E-1,4.0502227E-3,8.6086E1,4.080706E-2,1.7291857E-3,7.742233E1,8.77735E1,9.819652E-1,7.988012E-3,1.2002385E-2,6.440495E-3,-2.54377E-4,-8.850786E-4,-9.127624E-5,3.513857E-3,2.2619714E-3,7.621083E-4],"split_indices":[3,8,31,6,10,8,0,12,12,14,0,0,0,0,0,0,0,0,0],"split_type":[0,0,0,0,0,0,0,0,0,0,0,0,0,0,0,0,0,0,0],"sum_hessian":[1.398E3,1.368E3,3E1,1.109E3,2.59E2,2E1,1E1,7.77E2,3.32E2,2.54E2,5E0,1.2E1,8E0,1.69E2,6.08E2,3.27E2,5E0,7.8E1,1.76E2],"tree_param":{"num_deleted":"0","num_feature":"33","num_nodes":"19","size_leaf_vector":"1"}},{"base_weights":[6.9614896E-4,-3.2573682E-3,1.3945688E-1,-1.1655695E-2,2.0225095E-2,1.9453296E-1,4.812672E-2,-2.227393E-3,-1.5455388E-2,4.5058876E-2,1.1933677E-2,4.52143E-3,2.1716945E-1,2.9833596E-3,1.2382541E-3,1.3157052E-4,-6.3001184E-4,-4.698597E-4,-9.593242E-4,3.3408373E-3,1.5327794E-3,5.079274E-4,3.8841895E-3,1.302431E-2,8.099291E-3],"categories":[],"categories_nodes":[],"categories_segments":[],"categories_sizes":[],"default_left":[1,1,0,1,0,0,0,0,0,0,0,0,0,0,0,0,0,0,0,0,0,0,0,0,0],"id":13,"left_children":[1,3,5,7,9,11,13,15,17,19,21,-1,23,-1,-1,-1,-1,-1,-1,-1,-1,-1,-1,-1,-1],"loss_changes":[7.7232456E-1,2.7022088E-1,1.8681186E-1,3.611265E-2,7.37948E-2,3.6919057E-2,2.8360114E-3,1.4699442E-2,1.6071767E-2,2.6156336E-2,3.0957319E-2,0E0,3.2220483E-3,0E0,0E0,0E0,0E0,0E0,0E0,0E0,0E0,0E0,0E0,0E0,0E0],"parents":[2147483647,0,0,1,1,2,2,3,3,4,4,5,5,6,6,7,7,8,8,9,9,10,10,12,12],"right_children":[2,4,6,8,10,12,14,16,18,20,22,-1,24,-1,-1,-1,-1,-1,-1,-1,-1,-1,-1,-1,-1],"split_conditions":[3.557984E-1,7.5133905E-2,3.0484578E-1,-1.3688402E-2,-9.214505E-3,7.35E1,2.1107331E-1,9.978632E-1,8.5226E1,9.819652E-1,1.0245583E0,4.52143E-3,-3.9229877E-2,2.9833596E-3,1.2382541E-3,1.3157052E-4,-6.3001184E-4,-4.698597E-4,-9.593242E-4,3.3408373E-3,1.5327794E-3,5.079274E-4,3.8841895E-3,1.302431E-2,8.099291E-3],"split_indices":[25,4,5,16,1,10,2,13,10,14,13,0,30,0,0,0,0,0,0,0,0,0,0,0,0],"split_type":[0,0,0,0,0,0,0,0,0,0,0,0,0,0,0,0,0,0,0,0,0,0,0,0,0],"sum_hessian":[1.406E3,1.368E3,3.8E1,1.008E3,3.6E2,2.3E1,1.5E1,2.9E2,7.18E2,8.9E1,2.71E2,5E0,1.8E1,9E0,6E0,1.98E2,9.2E1,2.75E2,4.43E2,3.4E1,5.5E1,2.65E2,6E0,8E0,1E1],"tree_param":{"num_deleted":"0","num_feature":"33","num_nodes":"25","size_leaf_vector":"1"}},{"base_weights":[7.1127014E-4,-2.3336497E-3,1.3047875E-1,-9.692355E-3,2.5192944E-2,1.7648996E-1,4.965545E-2,-1.0232421E-2,3.1876476E-3,4.4214502E-2,1.3362977E-2,1.0674591E-2,5.377207E-3,2.9967832E-3,1.61408E-3,-2.3951566E-4,-7.454517E-4,3.0014657E-3,6.3349376E-4,5.1413773E-4,4.3789744E-3],"categories":[],"categories_nodes":[],"categories_segments":[],"categories_sizes":[],"default_left":[1,1,0,1,0,0,0,0,0,0,1,0,0,0,0,0,0,0,0,0,0],"id":14,"left_children":[1,3,5,7,9,11,13,15,-1,17,19,-1,-1,-1,-1,-1,-1,-1,-1,-1,-1],"loss_changes":[5.515131E-1,2.7653614E-1,1.1023724E-1,4.337185E-2,6.421617E-2,2.8062701E-2,3.8707256E-4,2.7160741E-2,0E0,5.41154E-2,4.0019445E-2,0E0,0E0,0E0,0E0,0E0,0E0,0E0,0E0,0E0,0E0],"parents":[2147483647,0,0,1,1,2,2,3,3,4,4,5,5,6,6,7,7,9,9,10,10],"right_children":[2,4,6,8,10,12,14,16,-1,18,20,-1,-1,-1,-1,-1,-1,-1,-1,-1,-1],"split_conditions":[1.4820607E-2,7.638754E-3,5.2564526E-1,8.77735E1,-1.1738046E-2,4.1239968E-1,7.553022E-1,8.5226E1,3.1876476E-3,7.962283E1,8.48055E1,1.0674591E-2,5.377207E-3,2.9967832E-3,1.61408E-3,-2.3951566E-4,-7.454517E-4,3.0014657E-3,6.3349376E-4,5.1413773E-4,4.3789744E-3],"split_indices":[8,8,31,12,22,2,32,10,0,12,12,0,0,0,0,0,0,0,0,0,0],"split_type":[0,0,0,0,0,0,0,0,0,0,0,0,0,0,0,0,0,0,0,0,0],"sum_hessian":[1.394E3,1.363E3,3.1E1,1.076E3,2.87E2,1.9E1,1.2E1,1.069E3,7E0,1.09E2,1.78E2,1.1E1,8E0,6E0,6E0,4.95E2,5.74E2,7.2E1,3.7E1,1.72E2,6E0],"tree_param":{"num_deleted":"0","num_feature":"33","num_nodes":"21","size_leaf_vector":"1"}},{"base_weights":[2.862686E-4,-2.9046324E-3,1.3788493E-1,-9.687018E-3,2.3775049E-2,1.8400611E-1,4.5682438E-2,-1.378647E-2,-3.4502065E-3,3.812363E-2,1.42664155E-2,1.2521656E-2,1.4073975E-1,1.4991382E-3,2.8192492E-3,-4.1289683E-4,-9.645065E-4,9.262068E-5,-4.855883E-4,2.5772217E-3,4.3659197E-4,8.7087014E-4,-1.2563803E-3,8.084298E-3,4.1186395E-3],"categories":[],"categories_nodes":[],"categories_segments":[],"categories_sizes":[],"default_left":[1,1,0,1,0,0,0,1,0,0,1,0,0,0,0,0,0,0,0,0,0,0,0,0,0],"id":15,"left_children":[1,3,5,7,9,11,13,15,17,19,21,-1,23,-1,-1,-1,-1,-1,-1,-1,-1,-1,-1,-1,-1],"loss_changes":[6.1991936E-1,2.4994388E-1,1.2767375E-1,2.8102249E-2,3.765802E-2,2.5109291E-2,3.257431E-4,2.0044342E-2,1.4560759E-2,4.333514E-2,2.1539763E-2,0E0,5.019963E-3,0E0,0E0,0E0,0E0,0E0,0E0,0E0,0E0,0E0,0E0,0E0,0E0],"parents":[2147483647,0,0,1,1,2,2,3,3,4,4,5,5,6,6,7,7,8,8,9,9,10,10,12,12],"right_children":[2,4,6,8,10,12,14,16,18,20,22,-1,24,-1,-1,-1,-1,-1,-1,-1,-1,-1,-1,-1,-1],"split_conditions":[3.557984E-1,7.638754E-3,5.2564526E-1,4.426644E-3,-1.1738046E-2,3.9183435E-1,2.841995E-3,3.482905E-4,2.2130345E-3,7.962283E1,-4.108946E-3,1.2521656E-2,6.6758995E-3,1.4991382E-3,2.8192492E-3,-4.1289683E-4,-9.645065E-4,9.262068E-5,-4.855883E-4,2.5772217E-3,4.3659197E-4,8.7087014E-4,-1.2563803E-3,8.084298E-3,4.1186395E-3],"split_indices":[25,8,31,8,22,3,17,1,1,12,16,0,1,0,0,0,0,0,0,0,0,0,0,0,0],"split_type":[0,0,0,0,0,0,0,0,0,0,0,0,0,0,0,0,0,0,0,0,0,0,0,0,0],"sum_hessian":[1.41E3,1.379E3,3.1E1,1.1E3,2.79E2,2E1,1.1E1,6.63E2,4.37E2,1.1E2,1.69E2,6E0,1.4E1,6E0,5E0,3.32E2,3.31E2,2.37E2,2E2,7.5E1,3.5E1,1.57E2,1.2E1,9E0,5E0],"tree_param":{"num_deleted":"0","num_feature":"33","num_nodes":"25","size_leaf_vector":"1"}},{"base_weights":[9.57981E-4,-2.4363766E-3,1.2187909E-1,-8.333209E-3,2.2766571E-2,1.7337498E-1,4.0236305E-2,5.7126037E-3,-1.16222445E-2,4.145366E-2,1.1552208E-2,4.815707E-3,1.8943E-1,7.173827E-4,5.0699543E-2,1.6078398E-4,1.8895889E-3,-3.0941956E-4,-7.4850506E-4,2.5492467E-3,4.4927528E-4,9.5325225E-4,-5.1834853E-4,1.0602865E-2,6.1789434E-3,3.0596587E-3,1.5877994E-3],"categories":[],"categories_nodes":[],"categories_segments":[],"categories_sizes":[],"default_left":[1,1,0,0,0,0,0,0,0,0,0,0,0,0,0,0,0,0,0,0,0,0,0,0,0,0,0],"id":16,"left_children":[1,3,5,7,9,11,13,15,17,19,21,-1,23,-1,25,-1,-1,-1,-1,-1,-1,-1,-1,-1,-1,-1,-1],"loss_changes":[5.712322E-1,2.0141788E-1,1.5278625E-1,5.07909E-2,5.3379014E-2,1.02110505E-2,3.6066473E-3,1.661922E-2,1.609803E-2,2.9250294E-2,2.6875034E-2,0E0,6.148219E-4,0E0,2.4340302E-4,0E0,0E0,0E0,0E0,0E0,0E0,0E0,0E0,0E0,0E0,0E0,0E0],"parents":[2147483647,0,0,1,1,2,2,3,3,4,4,5,5,6,6,7,7,8,8,9,9,10,10,12,12,14,14],"right_children":[2,4,6,8,10,12,14,16,18,20,22,-1,24,-1,26,-1,-1,-1,-1,-1,-1,-1,-1,-1,-1,-1,-1],"split_conditions":[3.557984E-1,9.732154E-2,3.0484578E-1,-1.3295175E-2,-1.1738046E-2,7.35E1,4.891252E-3,1.8414709E-1,8.4702E1,1.4846916E-1,8.0114E1,4.815707E-3,4.1239968E-1,7.173827E-4,-1.9959364E-2,1.6078398E-4,1.8895889E-3,-3.0941956E-4,-7.4850506E-4,2.5492467E-3,4.4927528E-4,9.5325225E-4,-5.1834853E-4,1.0602865E-2,6.1789434E-3,3.0596587E-3,1.5877994E-3],"split_indices":[25,5,5,15,22,10,21,28,10,2,10,0,2,0,15,0,0,0,0,0,0,0,0,0,0,0,0],"split_type":[0,0,0,0,0,0,0,0,0,0,0,0,0,0,0,0,0,0,0,0,0,0,0,0,0,0,0],"sum_hessian":[1.39E3,1.353E3,3.7E1,1.097E3,2.56E2,2.2E1,1.5E1,2.08E2,8.89E2,9.5E1,1.61E2,5E0,1.7E1,5E0,1E1,1.94E2,1.4E1,3.4E2,5.49E2,7.3E1,2.2E1,1.2E2,4.1E1,1.1E1,6E0,5E0,5E0],"tree_param":{"num_deleted":"0","num_feature":"33","num_nodes":"27","size_leaf_vector":"1"}},{"base_weights":[7.369336E-4,-2.529281E-3,1.1709793E-1,2.19557E-2,-7.744049E-3,4.016941E-2,1.7746057E-1,3.4204777E-2,1.2193693E-2,-8.322862E-3,4.2614057E-3,5.184771E-2,4.0857587E-4,9.889364E-3,4.68396E-3,2.8210802E-3,9.83243E-4,1.0422718E-3,2.3393006E-4,2.5116376E-4,-5.394856E-4,3.2950055E-3,1.2234948E-3],"categories":[],"categories_nodes":[],"categories_segments":[],"categories_sizes":[],"default_left":[1,0,0,0,1,0,0,0,0,0,0,0,0,0,0,0,0,0,0,0,0,0,0],"id":17,"left_children":[1,3,5,7,9,11,13,15,17,19,-1,21,-1,-1,-1,-1,-1,-1,-1,-1,-1,-1,-1],"loss_changes":[5.289596E-1,1.730535E-1,1.6932863E-1,2.8041907E-2,6.0819E-2,6.302586E-3,1.7234445E-2,3.2808714E-2,8.6149685E-3,3.6631554E-2,0E0,3.3888444E-3,0E0,0E0,0E0,0E0,0E0,0E0,0E0,0E0,0E0,0E0,0E0],"parents":[2147483647,0,0,1,1,2,2,3,3,4,4,5,5,6,6,7,7,8,8,9,9,11,11],"right_children":[2,4,6,8,10,12,14,16,18,20,-1,22,-1,-1,-1,-1,-1,-1,-1,-1,-1,-1,-1],"split_conditions":[3.386053E-1,-3.212435E-2,8.2672185E-1,-1.1738046E-2,1.0245583E0,9.6868217E-1,4.080706E-2,5.166671E-1,9.8413193E-1,7.6302E1,4.2614057E-3,7.6260217E-3,4.0857587E-4,9.889364E-3,4.68396E-3,2.8210802E-3,9.83243E-4,1.0422718E-3,2.3393006E-4,2.5116376E-4,-5.394856E-4,3.2950055E-3,1.2234948E-3],"split_indices":[25,16,32,22,13,14,8,31,14,10,0,20,0,0,0,0,0,0,0,0,0,0,0],"split_type":[0,0,0,0,0,0,0,0,0,0,0,0,0,0,0,0,0,0,0,0,0,0,0],"sum_hessian":[1.39E3,1.353E3,3.7E1,2.37E2,1.116E3,1.7E1,2E1,1.04E2,1.33E2,1.11E3,6E0,1.2E1,5E0,1.5E1,5E0,4E1,6.4E1,6.1E1,7.2E1,1.73E2,9.37E2,7E0,5E0],"tree_param":{"num_deleted":"0","num_feature":"33","num_nodes":"23","size_leaf_vector":"1"}},{"base_weights":[-5.328982E-4,-2.7089773E-3,1.0431246E-1,-8.108202E-3,2.0172045E-2,1.51264E-1,4.320266E-2,3.4068353E-2,-8.782412E-3,3.4857444E-2,1.1026966E-2,9.0563195E-3,3.5652814E-3,3.169434E-3,1.0069782E-3,4.4208477E-4,3.6223573E-3,-6.577789E-4,-2.0295005E-4,2.4243807E-3,2.444341E-4,3.8288087E-3,4.2578237E-4],"categories":[],"categories_nodes":[],"categories_segments":[],"categories_sizes":[],"default_left":[1,1,0,0,0,0,0,0,0,0,0,0,0,0,0,0,0,0,0,0,0,0,0],"id":18,"left_children":[1,3,5,7,9,11,13,15,17,19,21,-1,-1,-1,-1,-1,-1,-1,-1,-1,-1,-1,-1],"loss_changes":[3.2539886E-1,1.7274864E-1,7.667178E-2,3.2460146E-2,3.5473496E-2,2.5288612E-2,5.241111E-3,1.6786478E-2,2.2957683E-2,4.142786E-2,2.6673978E-2,0E0,0E0,0E0,0E0,0E0,0E0,0E0,0E0,0E0,0E0,0E0,0E0],"parents":[2147483647,0,0,1,1,2,2,3,3,4,4,5,5,6,6,7,7,8,8,9,9,10,10],"right_children":[2,4,6,8,10,12,14,16,18,20,22,-1,-1,-1,-1,-1,-1,-1,-1,-1,-1,-1,-1],"split_conditions":[3.557984E-1,7.983917E-3,3.0484578E-1,-2.1689821E-2,-1.1738046E-2,4.080706E-2,-8.13076E-4,1.0337323E-2,3.1055901E-3,7.962283E1,3.137844E-1,9.0563195E-3,3.5652814E-3,3.169434E-3,1.0069782E-3,4.4208477E-4,3.6223573E-3,-6.577789E-4,-2.0295005E-4,2.4243807E-3,2.444341E-4,3.8288087E-3,4.2578237E-4],"split_indices":[25,8,5,9,22,8,20,6,6,12,31,0,0,0,0,0,0,0,0,0,0,0,0],"split_type":[0,0,0,0,0,0,0,0,0,0,0,0,0,0,0,0,0,0,0,0,0,0,0],"sum_hessian":[1.424E3,1.396E3,2.8E1,1.13E3,2.66E2,1.5E1,1.3E1,1.7E1,1.113E3,1.01E2,1.65E2,1E1,5E0,6E0,7E0,1.1E1,6E0,5.77E2,5.36E2,6.9E1,3.2E1,5E0,1.6E2],"tree_param":{"num_deleted":"0","num_feature":"33","num_nodes":"23","size_leaf_vector":"1"}},{"base_weights":[5.0812178E-5,-2.5239505E-3,1.1124679E-1,-7.363388E-3,2.3070548E-2,2.4039203E-2,1.5578222E-1,1.9545534E-4,-1.1765266E-2,3.38835E-2,1.0229255E-2,5.1450304E-4,1.6195005E-3,9.130727E-3,4.467646E-3,1.5652044E-3,-8.626566E-5,1.5067409E-5,-6.5991457E-4,1.4905158E-3,4.739793E-3,3.5536077E-4,2.949868E-3],"categories":[],"categories_nodes":[],"categories_segments":[],"categories_sizes":[],"default_left":[1,1,0,0,0,0,0,0,0,0,0,0,0,0,0,0,0,0,0,0,0,0,0],"id":19,"left_children":[1,3,5,7,9,11,13,15,17,19,21,-1,-1,-1,-1,-1,-1,-1,-1,-1,-1,-1,-1],"loss_changes":[4.048273E-1,1.7134851E-1,1.2053758E-1,3.8698927E-2,3.0200906E-2,1.0445025E-3,2.111435E-2,2.5687823E-2,1.2713417E-2,2.6698887E-2,1.5110804E-2,0E0,0E0,0E0,0E0,0E0,0E0,0E0,0E0,0E0,0E0,0E0,0E0],"parents":[2147483647,0,0,1,1,2,2,3,3,4,4,5,5,6,6,7,7,8,8,9,9,10,10],"right_children":[2,4,6,8,10,12,14,16,18,20,22,-1,-1,-1,-1,-1,-1,-1,-1,-1,-1,-1,-1],"split_conditions":[2.3614381E-1,8.820672E-3,8.3430344E-1,-8.096229E-3,8.301849E-3,3.2381284E-1,4.080706E-2,-5.7585567E-2,7.6302E1,3.6303837E-2,1.0245583E0,5.1450304E-4,1.6195005E-3,9.130727E-3,4.467646E-3,1.5652044E-3,-8.626566E-5,1.5067409E-5,-6.5991457E-4,1.4905158E-3,4.739793E-3,3.5536077E-4,2.949868E-3],"split_indices":[3,8,32,15,21,5,8,16,10,24,13,0,0,0,0,0,0,0,0,0,0,0,0],"split_type":[0,0,0,0,0,0,0,0,0,0,0,0,0,0,0,0,0,0,0,0,0,0,0],"sum_hessian":[1.412E3,1.381E3,3.1E1,1.162E3,2.19E2,1.1E1,2E1,4.28E2,7.34E2,1.18E2,1.01E2,5E0,6E0,1.3E1,7E0,2.4E1,4.04E2,7.8E1,6.56E2,1.12E2,6E0,9.6E1,5E0],"tree_param":{"num_deleted":"0","num_feature":"33","num_nodes":"23","size_leaf_vector":"1"}},{"base_weights":[1.0257382E-3,-1.6498829E-3,1.0122534E-1,1.6812062E-2,-7.3436624E-3,3.7771553E-2,1.4777243E-1,4.5643006E-2,1.3420688E-2,-8.412664E-3,2.0857947E-2,5.07525E-4,4.8434447E-2,8.211103E-3,4.5706434E-3,3.0213003E-3,2.060605E-4,5.995731E-4,4.001248E-3,-1.9180962E-4,-6.221335E-4,4.1793962E-4,3.0796523E-3,3.029459E-3,1.3090762E-3],"categories":[],"categories_nodes":[],"categories_segments":[],"categories_sizes":[],"default_left":[1,0,0,0,1,0,0,0,0,0,0,0,0,0,0,0,0,0,0,0,0,0,0,0,0],"id":20,"left_children":[1,3,5,7,9,11,13,15,17,19,21,-1,23,-1,-1,-1,-1,-1,-1,-1,-1,-1,-1,-1,-1],"loss_changes":[3.8139975E-1,1.4581735E-1,1.03701234E-1,3.1360365E-2,3.2131877E-2,4.515212E-3,4.4569373E-3,2.0620733E-2,2.7026989E-2,1.880122E-2,1.9342175E-2,0E0,1.6594213E-3,0E0,0E0,0E0,0E0,0E0,0E0,0E0,0E0,0E0,0E0,0E0,0E0],"parents":[2147483647,0,0,1,1,2,2,3,3,4,4,5,5,6,6,7,7,8,8,9,9,10,10,12,12],"right_children":[2,4,6,8,10,12,14,16,18,20,22,-1,24,-1,-1,-1,-1,-1,-1,-1,-1,-1,-1,-1,-1],"split_conditions":[3.557984E-1,-2.3834197E-2,8.306416E1,-2.138916E-2,8.903862E-3,4.891252E-3,4.080706E-2,1.4673446E-1,8.708933E1,4.023875E-4,8.3218E1,5.07525E-4,-1.9959364E-2,8.211103E-3,4.5706434E-3,3.0213003E-3,2.060605E-4,5.995731E-4,4.001248E-3,-1.9180962E-4,-6.221335E-4,4.1793962E-4,3.0796523E-3,3.029459E-3,1.3090762E-3],"split_indices":[25,16,12,1,8,21,8,3,12,1,10,0,15,0,0,0,0,0,0,0,0,0,0,0,0],"split_type":[0,0,0,0,0,0,0,0,0,0,0,0,0,0,0,0,0,0,0,0,0,0,0,0,0],"sum_hessian":[1.421E3,1.385E3,3.6E1,3.26E2,1.059E3,1.6E1,2E1,3.3E1,2.93E2,1.021E3,3.8E1,5E0,1.1E1,1.4E1,6E0,2.4E1,9E0,2.88E2,5E0,4.79E2,5.42E2,3E1,8E0,6E0,5E0],"tree_param":{"num_deleted":"0","num_feature":"33","num_nodes":"25","size_leaf_vector":"1"}},{"base_weights":[2.8447693E-4,-2.1786215E-3,1.0665065E-1,1.5047312E-2,-7.4680825E-3,4.8953176E-2,1.4355138E-1,1.3160213E-2,3.992161E-3,-7.880805E-3,3.3104697E-3,1.2324116E-3,3.2050428E-3,9.728773E-3,9.757272E-2,2.1408647E-3,5.292415E-4,-6.114006E-4,-1.496464E-4,6.0759396E-3,3.1554278E-3],"categories":[],"categories_nodes":[],"categories_segments":[],"categories_sizes":[],"default_left":[1,0,0,0,1,0,0,0,0,1,0,0,0,0,0,0,0,0,0,0,0],"id":21,"left_children":[1,3,5,7,9,11,13,15,-1,17,-1,-1,-1,-1,19,-1,-1,-1,-1,-1,-1],"loss_changes":[3.7042472E-1,1.2603456E-1,6.1103225E-2,3.8689047E-2,3.269383E-2,3.5743155E-3,2.5589079E-2,2.3758713E-2,0E0,2.233819E-2,0E0,0E0,0E0,0E0,2.2345036E-3,0E0,0E0,0E0,0E0,0E0,0E0],"parents":[2147483647,0,0,1,1,2,2,3,3,4,4,5,5,6,6,7,7,9,9,14,14],"right_children":[2,4,6,8,10,12,14,16,-1,18,-1,-1,-1,-1,20,-1,-1,-1,-1,-1,-1],"split_conditions":[3.557984E-1,-2.3834197E-2,1.3775579E-2,1.8875608E-2,2.7955517E-1,4.891252E-3,4.4030702E-1,-2.138916E-2,3.992161E-3,4.860136E-2,3.3104697E-3,1.2324116E-3,3.2050428E-3,9.728773E-3,-2.2043781E-3,2.1408647E-3,5.292415E-4,-6.114006E-4,-1.496464E-4,6.0759396E-3,3.1554278E-3],"split_indices":[25,16,6,20,5,21,3,1,0,4,0,0,0,0,18,0,0,0,0,0,0],"split_type":[0,0,0,0,0,0,0,0,0,0,0,0,0,0,0,0,0,0,0,0,0],"sum_hessian":[1.412E3,1.381E3,3.1E1,3.24E2,1.057E3,1.3E1,1.8E1,3.16E2,8E0,1.052E3,5E0,6E0,7E0,7E0,1.1E1,2.4E1,2.92E2,5.56E2,4.96E2,5E0,6E0],"tree_param":{"num_deleted":"0","num_feature":"33","num_nodes":"21","size_leaf_vector":"1"}},{"base_weights":[1.049669E-4,-2.19379E-3,9.252543E-2,-6.765053E-3,1.4227168E-2,1.5167364E-1,5.3368513E-2,1.7018121E-3,-8.445161E-3,1.2527067E-2,3.714496E-3,4.757272E-3,9.326709E-3,3.5887182E-4,6.653192E-2,1.5923327E-3,4.7949047E-6,-1.9082724E-4,-5.9647934E-4,7.505992E-4,-7.256464E-4,4.409326E-3,1.5573595E-3],"categories":[],"categories_nodes":[],"categories_segments":[],"categories_sizes":[],"default_left":[1,1,0,0,0,0,0,0,0,1,0,0,0,0,0,0,0,0,0,0,0,0,0],"id":22,"left_children":[1,3,5,7,9,11,13,15,17,19,-1,-1,-1,-1,21,-1,-1,-1,-1,-1,-1,-1,-1],"loss_changes":[2.9763603E-1,1.0270944E-1,7.06515E-2,1.5235402E-2,2.949895E-2,7.869959E-3,1.2899175E-2,8.613931E-3,1.4356837E-2,1.9770782E-2,0E0,0E0,0E0,0E0,1.027935E-2,0E0,0E0,0E0,0E0,0E0,0E0,0E0,0E0],"parents":[2147483647,0,0,1,1,2,2,3,3,4,4,5,5,6,6,7,7,8,8,9,9,14,14],"right_children":[2,4,6,8,10,12,14,16,18,20,-1,-1,-1,-1,22,-1,-1,-1,-1,-1,-1,-1,-1],"split_conditions":[3.557984E-1,7.3147714E-3,2.6297385E-1,-7.6469816E-3,2.1461967E-2,-9.883865E-4,-1.2810947E-2,-5.6098383E-2,8.4878E1,-7.632718E-3,3.714496E-3,4.757272E-3,9.326709E-3,3.5887182E-4,1.0089742E0,1.5923327E-3,4.7949047E-6,-1.9082724E-4,-5.9647934E-4,7.505992E-4,-7.256464E-4,4.409326E-3,1.5573595E-3],"split_indices":[25,8,5,9,20,7,0,21,11,16,0,0,0,0,13,0,0,0,0,0,0,0,0],"split_type":[0,0,0,0,0,0,0,0,0,0,0,0,0,0,0,0,0,0,0,0,0,0,0],"sum_hessian":[1.399E3,1.366E3,3.3E1,1.069E3,2.97E2,1.2E1,2.1E1,1.77E2,8.92E2,2.9E2,7E0,6E0,6E0,5E0,1.6E1,8E0,1.69E2,3.84E2,5.08E2,2.66E2,2.4E1,9E0,7E0],"tree_param":{"num_deleted":"0","num_feature":"33","num_nodes":"23","size_leaf_vector":"1"}},{"base_weights":[8.247049E-4,-1.565741E-3,9.573599E-2,-7.949339E-3,1.2189325E-2,1.301824E-1,2.7428053E-2,6.749987E-3,-9.609627E-3,1.0897991E-2,5.199736E-3,1.5560964E-1,3.1527558E-3,1.8100368E-3,5.5799016E-4,1.3263902E-3,-8.301271E-5,-4.939302E-4,1.5026117E-3,1.207997E-3,1.6368591E-4,8.922766E-3,4.3895477E-3],"categories":[],"categories_nodes":[],"categories_segments":[],"categories_sizes":[],"default_left":[1,1,0,1,0,0,0,0,0,0,0,0,0,0,0,0,0,0,0,0,0,0,0],"id":23,"left_children":[1,3,5,7,9,11,13,15,17,19,-1,21,-1,-1,-1,-1,-1,-1,-1,-1,-1,-1,-1],"loss_changes":[3.2322744E-1,1.2214837E-1,7.8783065E-2,2.3249716E-2,5.114785E-2,2.9445827E-2,1.4513182E-3,1.6178656E-2,9.407453E-3,4.400605E-2,0E0,9.123057E-3,0E0,0E0,0E0,0E0,0E0,0E0,0E0,0E0,0E0,0E0,0E0],"parents":[2147483647,0,0,1,1,2,2,3,3,4,4,5,5,6,6,7,7,8,8,9,9,11,11],"right_children":[2,4,6,8,10,12,14,16,18,20,-1,22,-1,-1,-1,-1,-1,-1,-1,-1,-1,-1,-1],"split_conditions":[3.557984E-1,5.8005136E-3,3.0484578E-1,7.474516E1,8.69795E1,4.9891197E-3,7.539282E-1,5.9612095E-2,8.8122E1,-4.7284767E-2,5.199736E-3,-2.0513857E-2,3.1527558E-3,1.8100368E-3,5.5799016E-4,1.3263902E-3,-8.301271E-5,-4.939302E-4,1.5026117E-3,1.207997E-3,1.6368591E-4,8.922766E-3,4.3895477E-3],"split_indices":[25,8,5,12,11,20,32,4,11,16,0,30,0,0,0,0,0,0,0,0,0,0,0],"split_type":[0,0,0,0,0,0,0,0,0,0,0,0,0,0,0,0,0,0,0,0,0,0,0],"sum_hessian":[1.423E3,1.389E3,3.4E1,9.49E2,4.4E2,2.2E1,1.2E1,9.6E1,8.53E2,4.35E2,5E0,1.5E1,7E0,7E0,5E0,2.8E1,6.8E1,8.48E2,5E0,1.58E2,2.77E2,1E1,5E0],"tree_param":{"num_deleted":"0","num_feature":"33","num_nodes":"23","size_leaf_vector":"1"}},{"base_weights":[7.124157E-4,-5.1713795E-3,2.6518183E-2,5.93904E-3,-7.7835666E-3,2.0867202E-2,1.1893332E-1,4.470652E-3,2.8905577E-3,2.1938118E-3,-9.166595E-3,4.542176E-3,1.8477581E-2,7.652491E-3,3.959173E-3,1.105437E-3,3.5063884E-5,-7.7902696E-5,1.4686066E-3,-4.726303E-4,1.278268E-3,2.0862103E-3,6.0426915E-4],"categories":[],"categories_nodes":[],"categories_segments":[],"categories_sizes":[],"default_left":[1,0,0,1,0,0,0,1,0,0,1,0,0,0,0,0,0,0,0,0,0,0,0],"id":24,"left_children":[1,3,5,7,9,11,13,15,-1,17,19,-1,21,-1,-1,-1,-1,-1,-1,-1,-1,-1,-1],"loss_changes":[2.1589588E-1,3.3654273E-2,1.3538855E-1,1.6574755E-2,1.29635595E-2,4.012563E-2,8.222878E-3,1.4345159E-2,0E0,1.1772246E-2,8.427054E-3,0E0,3.5604835E-2,0E0,0E0,0E0,0E0,0E0,0E0,0E0,0E0,0E0,0E0],"parents":[2147483647,0,0,1,1,2,2,3,3,4,4,5,5,6,6,7,7,9,9,10,10,12,12],"right_children":[2,4,6,8,10,12,14,16,-1,18,20,-1,22,-1,-1,-1,-1,-1,-1,-1,-1,-1,-1],"split_conditions":[8.820672E-3,-1.37978615E-2,8.4965836E1,8.7607E1,7.6302E1,-1.1757608E-1,2.673329E-2,-5.7585567E-2,2.8905577E-3,7.5844E1,8.8122E1,4.542176E-3,-2.5201792E-2,7.652491E-3,3.959173E-3,1.105437E-3,3.5063884E-5,-7.7902696E-5,1.4686066E-3,-4.726303E-4,1.278268E-3,2.0862103E-3,6.0426915E-4],"split_indices":[8,15,12,12,10,16,6,16,0,10,11,0,22,0,0,0,0,0,0,0,0,0,0],"split_type":[0,0,0,0,0,0,0,0,0,0,0,0,0,0,0,0,0,0,0,0,0,0,0],"sum_hessian":[1.42E3,1.157E3,2.63E2,2.2E2,9.37E2,2.49E2,1.4E1,2.15E2,5E0,1.14E2,8.23E2,7E0,2.42E2,6E0,8E0,3.7E1,1.78E2,1.01E2,1.3E1,8.17E2,6E0,5.1E1,1.91E2],"tree_param":{"num_deleted":"0","num_feature":"33","num_nodes":"23","size_leaf_vector":"1"}},{"base_weights":[3.7911214E-4,-1.9252588E-3,8.30904E-2,2.1718398E-2,-4.886291E-3,1.1051966E-1,3.6753353E-2,4.7558118E-3,1.8658098E-2,-5.455505E-3,3.297861E-3,1.2878652E-1,2.8943825E-3,2.8567999E-3,2.2294335E-2,3.8710267E-3,7.846307E-4,-3.4270826E-4,9.334665E-4,7.347764E-3,3.5492282E-3,6.249536E-4,1.4186938E-3],"categories":[],"categories_nodes":[],"categories_segments":[],"categories_sizes":[],"default_left":[1,0,0,0,1,0,0,0,0,1,0,0,0,0,0,0,0,0,0,0,0,0,0],"id":25,"left_children":[1,3,5,7,9,11,13,-1,15,17,-1,19,-1,-1,21,-1,-1,-1,-1,-1,-1,-1,-1],"loss_changes":[2.7423915E-1,9.81196E-2,4.5506686E-2,3.326595E-2,5.0564617E-2,1.561898E-2,3.4415983E-3,0E0,2.509819E-2,4.1833617E-2,0E0,7.4216723E-3,0E0,0E0,3.0041067E-4,0E0,0E0,0E0,0E0,0E0,0E0,0E0,0E0],"parents":[2147483647,0,0,1,1,2,2,3,3,4,4,5,5,6,6,8,8,9,9,11,11,14,14],"right_children":[2,4,6,8,10,12,14,-1,16,18,-1,20,-1,-1,22,-1,-1,-1,-1,-1,-1,-1,-1],"split_conditions":[3.557984E-1,-4.5827802E-2,3.0484578E-1,7.4113335E1,8.772183E1,6.463916E-3,1.8641949E-1,4.7558118E-3,6.334433E-1,1.3394971E-1,3.297861E-3,5.053266E-1,2.8943825E-3,2.8567999E-3,7.9878E1,3.8710267E-3,7.846307E-4,-3.4270826E-4,9.334665E-4,7.347764E-3,3.5492282E-3,6.249536E-4,1.4186938E-3],"split_indices":[25,16,5,12,12,18,3,0,32,5,0,2,0,0,10,0,0,0,0,0,0,0,0],"split_type":[0,0,0,0,0,0,0,0,0,0,0,0,0,0,0,0,0,0,0,0,0,0,0],"sum_hessian":[1.437E3,1.399E3,3.8E1,1.55E2,1.244E3,2.3E1,1.5E1,5E0,1.5E2,1.235E3,9E0,1.6E1,7E0,5E0,1E1,6E0,1.44E2,1.168E3,6.7E1,1.1E1,5E0,5E0,5E0],"tree_param":{"num_deleted":"0","num_feature":"33","num_nodes":"23","size_leaf_vector":"1"}},{"base_weights":[2.9596052E-4,-1.7470643E-3,8.436056E-2,1.0605322E-2,-7.0818705E-3,1.1070812E-1,3.530984E-2,9.507355E-3,4.1475245E-3,-7.5325086E-3,1.7993145E-3,6.7116157E-3,3.2213912E-3,2.3258885E-3,7.2404824E-4,4.4906763E-5,8.0269726E-4,-3.9384505E-4,2.3695384E-3],"categories":[],"categories_nodes":[],"categories_segments":[],"categories_sizes":[],"default_left":[1,1,0,1,0,0,0,1,0,0,0,0,0,0,0,0,0,0,0],"id":26,"left_children":[1,3,5,7,9,11,13,15,-1,17,-1,-1,-1,-1,-1,-1,-1,-1,-1],"loss_changes":[2.388744E-1,8.9564025E-2,3.873904E-2,3.17787E-2,1.8689405E-2,1.42145455E-2,2.3612082E-3,2.28118E-2,0E0,1.8153552E-2,0E0,0E0,0E0,0E0,0E0,0E0,0E0,0E0,0E0],"parents":[2147483647,0,0,1,1,2,2,3,3,4,4,5,5,6,6,7,7,9,9],"right_children":[2,4,6,8,10,12,14,16,-1,18,-1,-1,-1,-1,-1,-1,-1,-1,-1],"split_conditions":[3.557984E-1,-2.0577105E-2,5.2564526E-1,8.722583E1,8.772183E1,6.1954355E-1,7.553022E-1,1.6506048E-1,4.1475245E-3,1.0223833E0,1.7993145E-3,6.7116157E-3,3.2213912E-3,2.3258885E-3,7.2404824E-4,4.4906763E-5,8.0269726E-4,-3.9384505E-4,2.3695384E-3],"split_indices":[25,16,31,12,12,26,32,26,0,13,0,0,0,0,0,0,0,0,0],"split_type":[0,0,0,0,0,0,0,0,0,0,0,0,0,0,0,0,0,0,0],"sum_hessian":[1.389E3,1.357E3,3.2E1,4.09E2,9.48E2,2E1,1.2E1,4.04E2,5E0,9.39E2,9E0,1.2E1,8E0,7E0,5E0,1.75E2,2.29E2,9.34E2,5E0],"tree_param":{"num_deleted":"0","num_feature":"33","num_nodes":"19","size_leaf_vector":"1"}},{"base_weights":[7.338552E-4,3.139903E-2,-3.2049255E-3,2.0163879E-2,8.30053E-2,-3.9115404E-3,4.1401405E-2,3.9872482E-2,4.079815E-3,9.826878E-2,1.0497997E-3,-4.3175016E-3,3.462815E-3,1.4262514E-2,5.1174196E-3,4.462931E-4,3.2929871E-3,4.354203E-4,-1.817588E-3,5.819743E-3,3.153269E-3,2.0477509E-4,-3.741906E-4,-3.278009E-4,1.6649116E-3],"categories":[],"categories_nodes":[],"categories_segments":[],"categories_sizes":[],"default_left":[0,0,1,0,0,1,0,0,0,0,0,1,0,0,0,0,0,0,0,0,0,0,0,0,0],"id":27,"left_children":[1,3,5,7,9,11,13,15,17,19,-1,21,-1,23,-1,-1,-1,-1,-1,-1,-1,-1,-1,-1,-1],"loss_changes":[1.7402872E-1,9.341422E-2,4.0412348E-2,4.2948574E-2,2.538459E-2,3.766576E-2,3.162093E-2,4.846944E-2,1.4539298E-2,7.335812E-3,0E0,3.3381656E-2,0E0,6.1627394E-3,0E0,0E0,0E0,0E0,0E0,0E0,0E0,0E0,0E0,0E0,0E0],"parents":[2147483647,0,0,1,1,2,2,3,3,4,4,5,5,6,6,7,7,8,8,9,9,11,11,13,13],"right_children":[2,4,6,8,10,12,14,16,18,20,-1,22,-1,24,-1,-1,-1,-1,-1,-1,-1,-1,-1,-1,-1],"split_conditions":[-5.409742E-2,2.410116E-1,8.771716E1,5.372147E-1,-3.4043092E-2,1.0245583E0,1.0052177E-1,3.958343E-1,-4.648212E-3,2.4017124E-3,1.0497997E-3,7.676234E1,3.462815E-3,2.7947238E-2,5.1174196E-3,4.462931E-4,3.2929871E-3,4.354203E-4,-1.817588E-3,5.819743E-3,3.153269E-3,2.0477509E-4,-3.741906E-4,-3.278009E-4,1.6649116E-3],"split_indices":[16,26,12,31,15,13,2,31,15,18,0,12,0,4,0,0,0,0,0,0,0,0,0,0,0],"split_type":[0,0,0,0,0,0,0,0,0,0,0,0,0,0,0,0,0,0,0,0,0,0,0,0,0],"sum_hessian":[1.439E3,1.63E2,1.276E3,1.35E2,2.8E1,1.257E3,1.9E1,6E1,7.5E1,2.2E1,6E0,1.251E3,6E0,1.4E1,5E0,2.8E1,3.2E1,6.8E1,7E0,1.3E1,9E0,3.42E2,9.09E2,7E0,7E0],"tree_param":{"num_deleted":"0","num_feature":"33","num_nodes":"25","size_leaf_vector":"1"}},{"base_weights":[1.7593341E-4,-1.7275789E-3,7.446227E-2,-6.003074E-3,8.187045E-3,1.00630395E-1,2.2436954E-2,-7.1687237E-3,6.329643E-3,6.7144805E-3,4.0856134E-3,1.1975413E-1,2.878818E-3,1.6658001E-3,4.1763135E-4,-1.8739318E-4,-5.0673616E-4,-2.757265E-4,8.226968E-4,9.763458E-4,1.5995657E-4,6.935205E-3,3.9141076E-3],"categories":[],"categories_nodes":[],"categories_segments":[],"categories_sizes":[],"default_left":[1,0,0,0,1,0,0,0,1,0,0,0,0,0,0,0,0,0,0,0,0,0,0],"id":28,"left_children":[1,3,5,7,9,11,13,15,17,19,-1,21,-1,-1,-1,-1,-1,-1,-1,-1,-1,-1,-1],"loss_changes":[1.9809559E-1,5.795379E-2,4.539135E-2,1.3774101E-2,4.405886E-2,1.204212E-2,1.7136373E-3,8.81971E-3,1.0043586E-2,1.8178808E-2,0E0,9.303242E-4,0E0,0E0,0E0,0E0,0E0,0E0,0E0,0E0,0E0,0E0,0E0],"parents":[2147483647,0,0,1,1,2,2,3,3,4,4,5,5,6,6,7,7,8,8,9,9,11,11],"right_children":[2,4,6,8,10,12,14,16,18,20,-1,22,-1,-1,-1,-1,-1,-1,-1,-1,-1,-1,-1],"split_conditions":[3.557984E-1,5.0955415E-3,3.0484578E-1,9.732154E-2,8.772183E1,6.1954355E-1,-8.13076E-4,6.6938886E-4,1.1549823E-1,-6.238296E-2,4.0856134E-3,4.313931E-4,2.878818E-3,1.6658001E-3,4.1763135E-4,-1.8739318E-4,-5.0673616E-4,-2.757265E-4,8.226968E-4,9.763458E-4,1.5995657E-4,6.935205E-3,3.9141076E-3],"split_indices":[25,6,5,5,12,26,20,1,28,16,0,20,0,0,0,0,0,0,0,0,0,0,0],"split_type":[0,0,0,0,0,0,0,0,0,0,0,0,0,0,0,0,0,0,0,0,0,0,0],"sum_hessian":[1.399E3,1.365E3,3.4E1,9.54E2,4.11E2,2.2E1,1.2E1,8.72E2,8.2E1,4.04E2,7E0,1.4E1,8E0,6E0,6E0,4.06E2,4.66E2,3.8E1,4.4E1,8.6E1,3.18E2,8E0,6E0],"tree_param":{"num_deleted":"0","num_feature":"33","num_nodes":"23","size_leaf_vector":"1"}},{"base_weights":[2.751266E-4,-1.5225995E-3,7.302207E-2,-5.799531E-3,7.805221E-3,4.655135E-2,6.5948325E-3,-1.1701193E-3,-8.821599E-3,6.3417233E-3,5.4599617E-2,6.593762E-2,2.3584204E-2,1.1540486E-3,-1.1592195E-4,3.3287908E-4,-4.89172E-4,8.9186983E-4,7.410623E-5,5.0504203E-3,6.484037E-4,1.9497905E-3,4.172989E-3,2.8616042E-4,1.9038012E-3],"categories":[],"categories_nodes":[],"categories_segments":[],"categories_sizes":[],"default_left":[1,0,0,0,0,0,0,0,0,0,0,0,0,0,0,0,0,0,0,0,0,0,0,0,0],"id":29,"left_children":[1,3,5,7,9,11,-1,13,15,17,19,21,23,-1,-1,-1,-1,-1,-1,-1,-1,-1,-1,-1,-1],"loss_changes":[1.8437889E-1,5.494003E-2,4.6847433E-2,1.3196614E-2,2.930709E-2,9.576097E-3,0E0,1.0468665E-2,8.566476E-3,2.349246E-2,2.3807019E-2,2.8824396E-3,3.1469818E-3,0E0,0E0,0E0,0E0,0E0,0E0,0E0,0E0,0E0,0E0,0E0,0E0],"parents":[2147483647,0,0,1,1,2,2,3,3,4,4,5,5,7,7,8,8,9,9,10,10,11,11,12,12],"right_children":[2,4,6,8,10,12,-1,14,16,18,20,22,24,-1,-1,-1,-1,-1,-1,-1,-1,-1,-1,-1,-1],"split_conditions":[3.557984E-1,5.0955415E-3,8.0972E1,8.4702E1,8.7385E1,4.9891197E-3,6.5948325E-3,3.5057127E-2,-3.4111705E-2,9.859523E-1,2.9846692E-1,-9.172093E-3,1.5238643E-2,1.1540486E-3,-1.1592195E-4,3.3287908E-4,-4.89172E-4,8.9186983E-4,7.410623E-5,5.0504203E-3,6.484037E-4,1.9497905E-3,4.172989E-3,2.8616042E-4,1.9038012E-3],"split_indices":[25,6,11,10,11,20,0,27,29,14,31,17,17,0,0,0,0,0,0,0,0,0,0,0,0],"split_type":[0,0,0,0,0,0,0,0,0,0,0,0,0,0,0,0,0,0,0,0,0,0,0,0,0],"sum_hessian":[1.408E3,1.375E3,3.3E1,9.43E2,4.32E2,2.4E1,9E0,3.73E2,5.7E2,4.2E2,1.2E1,1.2E1,1.2E1,1.6E1,3.57E2,3.3E1,5.37E2,1.24E2,2.96E2,5E0,7E0,6E0,6E0,6E0,6E0],"tree_param":{"num_deleted":"0","num_feature":"33","num_nodes":"25","size_leaf_vector":"1"}},{"base_weights":[8.1870455E-4,-1.1656183E-3,5.9985492E-2,2.1481626E-2,-3.1176626E-3,4.5303654E-2,6.7656175E-3,3.5461336E-2,4.276343E-3,-3.623492E-3,4.9959175E-2,5.9466027E-2,-5.042594E-4,2.6896917E-3,7.667855E-4,1.508741E-3,-4.989842E-4,6.130922E-4,-2.5360004E-4,6.45637E-4,3.7288123E-3,4.139682E-3,1.5481911E-3],"categories":[],"categories_nodes":[],"categories_segments":[],"categories_sizes":[],"default_left":[1,0,0,0,1,0,0,0,0,0,0,0,0,0,0,0,0,0,0,0,0,0,0],"id":30,"left_children":[1,3,5,7,9,11,-1,13,15,17,19,21,-1,-1,-1,-1,-1,-1,-1,-1,-1,-1,-1],"loss_changes":[1.6643423E-1,6.0720935E-2,4.474294E-2,2.606557E-2,3.4116693E-2,3.197723E-2,0E0,2.1312214E-2,1.8761605E-2,2.8893787E-2,9.98071E-3,1.8712811E-2,0E0,0E0,0E0,0E0,0E0,0E0,0E0,0E0,0E0,0E0,0E0],"parents":[2147483647,0,0,1,1,2,2,3,3,4,4,5,5,7,7,8,8,9,9,10,10,11,11],"right_children":[2,4,6,8,10,12,-1,14,16,18,20,22,-1,-1,-1,-1,-1,-1,-1,-1,-1,-1,-1],"split_conditions":[3.386053E-1,9.830582E-1,8.131E1,2.81975E-1,8.772183E1,9.6868217E-1,6.7656175E-3,7.9472E1,1.2488878E-1,7.4522E1,4.194698E-3,7.6592E1,-5.042594E-4,2.6896917E-3,7.667855E-4,1.508741E-3,-4.989842E-4,6.130922E-4,-2.5360004E-4,6.45637E-4,3.7288123E-3,4.139682E-3,1.5481911E-3],"split_indices":[25,14,10,25,12,14,0,10,3,10,20,10,0,0,0,0,0,0,0,0,0,0,0],"split_type":[0,0,0,0,0,0,0,0,0,0,0,0,0,0,0,0,0,0,0,0,0,0,0],"sum_hessian":[1.416E3,1.371E3,4.5E1,1.08E2,1.263E3,3.9E1,6E0,5.9E1,4.9E1,1.252E3,1.1E1,3.1E1,8E0,3E1,2.9E1,1.7E1,3.2E1,1.04E2,1.148E3,5E0,6E0,1.6E1,1.5E1],"tree_param":{"num_deleted":"0","num_feature":"33","num_nodes":"23","size_leaf_vector":"1"}},{"base_weights":[1.09718676E-4,2.5692588E-2,-3.3108625E-3,1.5682401E-2,7.155037E-2,-4.829631E-3,1.5217797E-2,2.3910511E-2,-6.239382E-3,3.7878025E-2,9.5071696E-2,5.675243E-3,-5.915203E-3,1.0656518E-2,4.093045E-3,1.4511169E-3,-8.4233575E-4,4.3146053E-4,-7.455481E-4,2.7229418E-3,9.317533E-4,7.320065E-3,3.0742125E-3,1.6508084E-3,5.053581E-5,-1.3974372E-4,-4.4072312E-4,1.1036282E-3,-3.6988955E-4],"categories":[],"categories_nodes":[],"categories_segments":[],"categories_sizes":[],"default_left":[0,0,1,0,0,1,0,0,0,0,0,0,0,0,0,0,0,0,0,0,0,0,0,0,0,0,0,0,0],"id":31,"left_children":[1,3,5,7,9,11,13,15,17,19,21,23,25,27,-1,-1,-1,-1,-1,-1,-1,-1,-1,-1,-1,-1,-1,-1,-1],"loss_changes":[1.2539692E-1,7.645652E-2,3.5643395E-2,2.5401663E-2,2.0159408E-2,1.3364613E-2,2.8309518E-2,2.1740008E-2,5.1571038E-3,3.4520514E-3,2.0307139E-2,1.3995204E-2,9.564806E-3,1.8919189E-2,0E0,0E0,0E0,0E0,0E0,0E0,0E0,0E0,0E0,0E0,0E0,0E0,0E0,0E0,0E0],"parents":[2147483647,0,0,1,1,2,2,3,3,4,4,5,5,6,6,7,7,8,8,9,9,10,10,11,11,12,12,13,13],"right_children":[2,4,6,8,10,12,14,16,18,20,22,24,26,28,-1,-1,-1,-1,-1,-1,-1,-1,-1,-1,-1,-1,-1,-1,-1],"split_conditions":[-2.649967E-2,2.1300675E-1,1.3619658E-1,2.9525778E-1,1.3775579E-2,9.8670685E-1,8.3218E1,1.594532E-1,8.016517E1,7.9066E1,3.9183435E-1,-1.0195201E-2,4.023875E-4,1.5081693E-1,4.093045E-3,1.4511169E-3,-8.4233575E-4,4.3146053E-4,-7.455481E-4,2.7229418E-3,9.317533E-4,7.320065E-3,3.0742125E-3,1.6508084E-3,5.053581E-5,-1.3974372E-4,-4.4072312E-4,1.1036282E-3,-3.6988955E-4],"split_indices":[15,28,5,25,6,14,10,3,12,10,3,1,1,5,0,0,0,0,0,0,0,0,0,0,0,0,0,0,0],"split_type":[0,0,0,0,0,0,0,0,0,0,0,0,0,0,0,0,0,0,0,0,0,0,0,0,0,0,0,0,0],"sum_hessian":[1.431E3,1.68E2,1.263E3,1.39E2,2.9E1,1.168E3,9.5E1,1.01E2,3.8E1,1.3E1,1.6E1,1.09E2,1.059E3,9E1,5E0,9E1,1.1E1,1.4E1,2.4E1,6E0,7E0,5E0,1.1E1,1.5E1,9.4E1,5.11E2,5.48E2,5.5E1,3.5E1],"tree_param":{"num_deleted":"0","num_feature":"33","num_nodes":"29","size_leaf_vector":"1"}},{"base_weights":[7.67036E-5,5.3576592E-2,-1.5634949E-3,7.2555326E-2,1.0436606E-2,-3.993135E-3,1.2753597E-2,8.78964E-2,1.4348888E-3,1.2444548E-3,-1.7569494E-4,7.6700295E-3,-5.306155E-3,1.0210905E-2,4.83482E-2,5.0281533E-3,1.973461E-3,2.0353596E-4,3.7389293E-3,-1.8988154E-4,-5.80568E-4,1.9401197E-3,4.1017347E-4,-8.179787E-4,4.541775E-3],"categories":[],"categories_nodes":[],"categories_segments":[],"categories_sizes":[],"default_left":[0,0,1,0,0,0,0,0,0,0,0,0,0,0,0,0,0,0,0,0,0,0,0,0,0],"id":32,"left_children":[1,3,5,7,9,11,13,15,-1,-1,-1,17,19,21,23,-1,-1,-1,-1,-1,-1,-1,-1,-1,-1],"loss_changes":[1.23899624E-1,3.362996E-2,4.770689E-2,1.6989395E-2,2.9101311E-3,1.7988672E-2,1.7517041E-2,8.912489E-3,0E0,0E0,0E0,2.8439395E-2,9.981085E-3,1.041466E-2,3.7226394E-2,0E0,0E0,0E0,0E0,0E0,0E0,0E0,0E0,0E0,0E0],"parents":[2147483647,0,0,1,1,2,2,3,3,4,4,5,5,6,6,7,7,11,11,12,12,13,13,14,14],"right_children":[2,4,6,8,10,12,14,16,-1,-1,-1,18,20,22,24,-1,-1,-1,-1,-1,-1,-1,-1,-1,-1],"split_conditions":[-2.138916E-2,-6.3610315E-2,8.820672E-3,5.1268494E-1,9.582588E-3,9.930498E-1,8.3218E1,4.1239968E-1,1.4348888E-3,1.2444548E-3,-1.7569494E-4,1.811561E-1,-2.582978E-4,9.7429866E-1,8.144535E-2,5.0281533E-3,1.973461E-3,2.0353596E-4,3.7389293E-3,-1.8988154E-4,-5.80568E-4,1.9401197E-3,4.1017347E-4,-8.179787E-4,4.541775E-3],"split_indices":[23,16,8,31,8,13,10,2,0,0,0,28,15,13,4,0,0,0,0,0,0,0,0,0,0],"split_type":[0,0,0,0,0,0,0,0,0,0,0,0,0,0,0,0,0,0,0,0,0,0,0,0,0],"sum_hessian":[1.41E3,4.1E1,1.369E3,2.8E1,1.3E1,1.171E3,1.98E2,2E1,8E0,6E0,7E0,1.18E2,1.053E3,1.86E2,1.2E1,1.5E1,5E0,1.13E2,5E0,8.51E2,2.02E2,1.1E1,1.75E2,5E0,7E0],"tree_param":{"num_deleted":"0","num_feature":"33","num_nodes":"25","size_leaf_vector":"1"}},{"base_weights":[-2.2365035E-4,-1.8331116E-3,5.2625656E-2,-4.2374856E-3,9.770401E-3,2.6062375E-2,8.659545E-2,-4.7463384E-3,4.035866E-2,1.7648451E-2,-1.389392E-3,3.8495474E-2,-5.703903E-4,5.6538126E-3,2.3775313E-3,-9.213721E-5,-4.243358E-4,6.381835E-4,3.5212766E-3,-1.0099529E-3,1.0529389E-3,1.2446752E-4,-1.3620126E-3,2.6982694E-3,7.655265E-4],"categories":[],"categories_nodes":[],"categories_segments":[],"categories_sizes":[],"default_left":[1,1,0,1,0,0,0,0,0,0,0,0,0,0,0,0,0,0,0,0,0,0,0,0,0],"id":33,"left_children":[1,3,5,7,9,11,13,15,17,19,21,23,-1,-1,-1,-1,-1,-1,-1,-1,-1,-1,-1,-1,-1],"loss_changes":[1.2088012E-1,3.8514376E-2,3.5641782E-2,2.6129503E-2,2.0860946E-2,1.2085911E-2,1.3234049E-2,1.2267631E-2,9.887148E-3,1.8366419E-2,9.994423E-3,5.9884693E-3,0E0,0E0,0E0,0E0,0E0,0E0,0E0,0E0,0E0,0E0,0E0,0E0,0E0],"parents":[2147483647,0,0,1,1,2,2,3,3,4,4,5,5,6,6,7,7,8,8,9,9,10,10,11,11],"right_children":[2,4,6,8,10,12,14,16,18,20,22,24,-1,-1,-1,-1,-1,-1,-1,-1,-1,-1,-1,-1,-1],"split_conditions":[3.386053E-1,9.836523E-2,1.6093804E-3,8.772183E1,1.15202926E-1,9.6868217E-1,6.6758995E-3,-3.8318764E-3,8.536928E-2,9.2109695E-2,2.1470821E-1,1.0050241E0,-5.703903E-4,5.6538126E-3,2.3775313E-3,-9.213721E-5,-4.243358E-4,6.381835E-4,3.5212766E-3,-1.0099529E-3,1.0529389E-3,1.2446752E-4,-1.3620126E-3,2.6982694E-3,7.655265E-4],"split_indices":[25,5,7,12,2,14,1,15,2,28,5,13,0,0,0,0,0,0,0,0,0,0,0,0,0],"split_type":[0,0,0,0,0,0,0,0,0,0,0,0,0,0,0,0,0,0,0,0,0,0,0,0,0],"sum_hessian":[1.419E3,1.378E3,4.1E1,1.142E3,2.36E2,2.4E1,1.7E1,1.13E3,1.2E1,1.38E2,9.8E1,1.8E1,6E0,9E0,8E0,6.37E2,4.93E2,7E0,5E0,1.1E1,1.27E2,8.6E1,1.2E1,1E1,8E0],"tree_param":{"num_deleted":"0","num_feature":"33","num_nodes":"25","size_leaf_vector":"1"}},{"base_weights":[4.7960583E-4,-1.0532673E-3,6.0598325E-2,8.890404E-3,-4.7574993E-3,6.569241E-3,4.4421084E-2,1.9216415E-2,3.352406E-3,-5.154509E-3,3.0969528E-3,7.013186E-2,1.4034848E-2,1.2428309E-3,-2.7333508E-4,2.2358276E-4,-1.5112195E-3,2.3748481E-4,-3.3365746E-4,1.67151E-3,4.440492E-3,-6.827759E-4,1.4622792E-3],"categories":[],"categories_nodes":[],"categories_segments":[],"categories_sizes":[],"default_left":[1,1,0,0,0,0,0,0,1,0,0,0,0,0,0,0,0,0,0,0,0,0,0],"id":34,"left_children":[1,3,5,7,9,-1,11,13,15,17,-1,19,21,-1,-1,-1,-1,-1,-1,-1,-1,-1,-1],"loss_changes":[1.2972502E-1,5.0614923E-2,3.4243315E-2,2.1265741E-2,2.6824936E-2,0E0,2.245332E-2,1.8234197E-2,9.304866E-3,1.5012449E-2,0E0,7.999279E-3,6.7172255E-3,0E0,0E0,0E0,0E0,0E0,0E0,0E0,0E0,0E0,0E0],"parents":[2147483647,0,0,1,1,2,2,3,3,4,4,6,6,7,7,8,8,9,9,11,11,12,12],"right_children":[2,4,6,8,10,-1,12,14,16,18,-1,20,22,-1,-1,-1,-1,-1,-1,-1,-1,-1,-1],"split_conditions":[4.1743076E-1,-2.3834197E-2,4.099869E-1,-9.214505E-3,2.6297385E-1,6.569241E-3,7.6592E1,6.0380024E-1,3.3553857E-1,7.6302E1,3.0969528E-3,7.35E1,6.8315995E-1,1.2428309E-3,-2.7333508E-4,2.2358276E-4,-1.5112195E-3,2.3748481E-4,-3.3365746E-4,1.67151E-3,4.440492E-3,-6.827759E-4,1.4622792E-3],"split_indices":[25,16,31,1,5,0,10,31,5,10,0,10,31,0,0,0,0,0,0,0,0,0,0],"split_type":[0,0,0,0,0,0,0,0,0,0,0,0,0,0,0,0,0,0,0,0,0,0,0],"sum_hessian":[1.406E3,1.372E3,3.4E1,3.72E2,1E3,5E0,2.9E1,1.29E2,2.43E2,9.95E2,5E0,1.5E1,1.4E1,1.05E2,2.4E1,2.36E2,7E0,1.32E2,8.63E2,6E0,9E0,5E0,9E0],"tree_param":{"num_deleted":"0","num_feature":"33","num_nodes":"23","size_leaf_vector":"1"}},{"base_weights":[1.7264708E-4,-1.41109E-3,5.184266E-2,1.6877977E-2,-3.1817409E-3,2.0607283E-2,7.8107886E-2,2.7473982E-2,1.1724398E-3,-3.600579E-3,3.495037E-2,-1.9445202E-4,3.0665081E-2,1.0668039E-1,3.7239663E-2,2.465961E-3,1.0046744E-3,1.7246923E-3,-3.3945718E-4,-1.9285244E-4,2.155748E-3,4.944228E-4,3.3359097E-3,9.049479E-4,1.9699035E-3,6.3669975E-3,3.0677125E-3,3.0489438E-3,3.6469204E-4],"categories":[],"categories_nodes":[],"categories_segments":[],"categories_sizes":[],"default_left":[1,0,0,0,1,0,0,0,0,1,0,0,0,0,0,0,0,0,0,0,0,0,0,0,0,0,0,0,0],"id":35,"left_children":[1,3,5,7,9,11,13,15,17,19,21,-1,23,25,27,-1,-1,-1,-1,-1,-1,-1,-1,-1,-1,-1,-1,-1,-1],"loss_changes":[1.1831998E-1,4.548783E-2,3.3667795E-2,2.060337E-2,2.0568958E-2,5.2932194E-3,2.2884548E-2,1.0939926E-2,1.3764032E-2,1.5346369E-2,1.0486534E-2,0E0,9.330325E-4,4.3605715E-3,7.3750243E-3,0E0,0E0,0E0,0E0,0E0,0E0,0E0,0E0,0E0,0E0,0E0,0E0,0E0,0E0],"parents":[2147483647,0,0,1,1,2,2,3,3,4,4,5,5,6,6,7,7,8,8,9,9,10,10,12,12,13,13,14,14],"right_children":[2,4,6,8,10,12,14,16,18,20,22,-1,24,26,28,-1,-1,-1,-1,-1,-1,-1,-1,-1,-1,-1,-1,-1,-1],"split_conditions":[3.386053E-1,9.8413193E-1,8.2672185E-1,2.81975E-1,8.772183E1,-4.2601433E-2,4.1239968E-1,-1.6711969E-2,7.624061E-1,1.0245583E0,8.536928E-2,-1.9445202E-4,1.958932E-3,1.8007891E-3,-2.2043781E-3,2.465961E-3,1.0046744E-3,1.7246923E-3,-3.3945718E-4,-1.9285244E-4,2.155748E-3,4.944228E-4,3.3359097E-3,9.049479E-4,1.9699035E-3,6.3669975E-3,3.0677125E-3,3.0489438E-3,3.6469204E-4],"split_indices":[25,14,32,25,12,15,2,9,32,13,2,0,18,20,18,0,0,0,0,0,0,0,0,0,0,0,0,0,0],"split_type":[0,0,0,0,0,0,0,0,0,0,0,0,0,0,0,0,0,0,0,0,0,0,0,0,0,0,0,0,0],"sum_hessian":[1.444E3,1.402E3,4.2E1,1.23E2,1.279E3,2E1,2.2E1,7.3E1,5E1,1.266E3,1.3E1,6E0,1.4E1,1.2E1,1E1,1.7E1,5.6E1,9E0,4.1E1,1.26E3,6E0,8E0,5E0,7E0,7E0,7E0,5E0,5E0,5E0],"tree_param":{"num_deleted":"0","num_feature":"33","num_nodes":"29","size_leaf_vector":"1"}},{"base_weights":[-1.2792836E-4,-1.4187109E-3,5.1886782E-2,1.2275991E-2,-3.1758754E-3,3.587513E-2,5.426049E-3,4.0331865E-3,9.4773E-3,-3.6001322E-3,3.347645E-2,5.3456683E-2,3.8439443E-3,1.2273616E-3,1.7226662E-4,1.08226064E-4,-2.7986342E-4,4.724484E-4,3.1969135E-3,4.105902E-3,7.835549E-4,-1.2333208E-3,1.5856823E-3],"categories":[],"categories_nodes":[],"categories_segments":[],"categories_sizes":[],"default_left":[1,0,0,0,1,0,0,0,0,1,0,0,0,0,0,0,0,0,0,0,0,0,0],"id":36,"left_children":[1,3,5,7,9,11,-1,-1,13,15,17,19,21,-1,-1,-1,-1,-1,-1,-1,-1,-1,-1],"loss_changes":[9.427059E-2,3.300645E-2,2.693823E-2,2.9093323E-2,1.9013766E-2,1.5562937E-2,0E0,0E0,1.3641529E-2,1.3850497E-2,9.642739E-3,1.8206872E-2,9.52259E-3,0E0,0E0,0E0,0E0,0E0,0E0,0E0,0E0,0E0,0E0],"parents":[2147483647,0,0,1,1,2,2,3,3,4,4,5,5,8,8,9,9,10,10,11,11,12,12],"right_children":[2,4,6,8,10,12,-1,-1,14,16,18,20,22,-1,-1,-1,-1,-1,-1,-1,-1,-1,-1],"split_conditions":[3.386053E-1,-4.7284767E-2,8.131E1,7.4113335E1,8.772183E1,6.463916E-3,5.426049E-3,4.0331865E-3,1.2800631E-1,7.688233E1,6.691753E-2,-1.0790635E-1,-5.501496E-4,1.2273616E-3,1.7226662E-4,1.08226064E-4,-2.7986342E-4,4.724484E-4,3.1969135E-3,4.105902E-3,7.835549E-4,-1.2333208E-3,1.5856823E-3],"split_indices":[25,16,10,12,12,18,0,0,28,12,3,16,21,0,0,0,0,0,0,0,0,0,0],"split_type":[0,0,0,0,0,0,0,0,0,0,0,0,0,0,0,0,0,0,0,0,0,0,0],"sum_hessian":[1.402E3,1.369E3,3.3E1,1.55E2,1.214E3,2.7E1,6E0,5E0,1.5E2,1.201E3,1.3E1,1.7E1,1E1,4.2E1,1.08E2,3.09E2,8.92E2,8E0,5E0,9E0,8E0,5E0,5E0],"tree_param":{"num_deleted":"0","num_feature":"33","num_nodes":"23","size_leaf_vector":"1"}},{"base_weights":[3.7351577E-4,-1.0521983E-3,5.70248E-2,-3.697368E-3,1.1335809E-2,3.6374405E-2,5.250667E-3,-4.1747843E-3,4.180616E-2,3.4291547E-2,7.217636E-3,5.32063E-2,1.2303337E-2,-4.3057942E-5,-3.6091413E-4,2.4744755E-4,3.3712871E-3,3.7126876E-3,4.775723E-4,4.3944977E-4,-1.6680704E-3,1.5267049E-3,3.7377689E-3,1.1951034E-3,-1.639535E-4],"categories":[],"categories_nodes":[],"categories_segments":[],"categories_sizes":[],"default_left":[1,1,0,1,0,0,0,0,0,0,0,0,0,0,0,0,0,0,0,0,0,0,0,0,0],"id":37,"left_children":[1,3,5,7,9,11,-1,13,15,17,19,21,23,-1,-1,-1,-1,-1,-1,-1,-1,-1,-1,-1,-1],"loss_changes":[1.1515517E-1,4.562273E-2,3.0864567E-2,2.50921E-2,2.2913747E-2,9.879589E-3,0E0,1.1450363E-2,1.099751E-2,3.5871524E-2,1.3619949E-2,5.045887E-3,2.2472097E-3,0E0,0E0,0E0,0E0,0E0,0E0,0E0,0E0,0E0,0E0,0E0,0E0],"parents":[2147483647,0,0,1,1,2,2,3,3,4,4,5,5,7,7,8,8,9,9,10,10,11,11,12,12],"right_children":[2,4,6,8,10,12,-1,14,16,18,20,22,24,-1,-1,-1,-1,-1,-1,-1,-1,-1,-1,-1,-1],"split_conditions":[3.557984E-1,1.0085816E-1,8.0972E1,8.772183E1,7.176607E-1,4.9891197E-3,5.250667E-3,2.3185718E-4,8.536928E-2,4.7407427E-1,3.3553857E-1,9.1034806E-1,2.560583E-2,-4.3057942E-5,-3.6091413E-4,2.4744755E-4,3.3712871E-3,3.7126876E-3,4.775723E-4,4.3944977E-4,-1.6680704E-3,1.5267049E-3,3.7377689E-3,1.1951034E-3,-1.639535E-4],"split_indices":[25,5,11,12,32,20,0,1,2,31,5,32,24,0,0,0,0,0,0,0,0,0,0,0,0],"split_type":[0,0,0,0,0,0,0,0,0,0,0,0,0,0,0,0,0,0,0,0,0,0,0,0,0],"sum_hessian":[1.424E3,1.39E3,3.4E1,1.146E3,2.44E2,2.5E1,9E0,1.135E3,1.1E1,3.6E1,2.08E2,1.4E1,1.1E1,5.44E2,5.91E2,5E0,6E0,1.3E1,2.3E1,2.01E2,7E0,8E0,6E0,6E0,5E0],"tree_param":{"num_deleted":"0","num_feature":"33","num_nodes":"25","size_leaf_vector":"1"}},{"base_weights":[8.113431E-4,-2.684542E-3,1.726844E-2,-3.0983377E-3,3.41588E-2,1.4305157E-2,7.4107304E-2,6.062729E-3,-4.200355E-3,5.8297365E-4,2.9232386E-3,2.516318E-2,5.2581294E-3,4.9452684E-3,1.6412506E-3,6.2858633E-4,-3.7103248E-4,5.123852E-4,-2.4515062E-4,3.6651695E-3,8.564029E-4,2.3679389E-3,1.4195379E-4],"categories":[],"categories_nodes":[],"categories_segments":[],"categories_sizes":[],"default_left":[1,1,0,1,0,0,0,0,0,0,0,0,0,0,0,0,0,0,0,0,0,0,0],"id":38,"left_children":[1,3,5,7,9,11,13,15,17,-1,-1,19,21,-1,-1,-1,-1,-1,-1,-1,-1,-1,-1],"loss_changes":[8.1109114E-2,1.7836489E-2,4.0542006E-2,1.1645565E-2,6.427614E-3,2.3050632E-2,9.038083E-3,1.0975936E-2,1.048653E-2,0E0,0E0,4.0133394E-2,1.3105231E-2,0E0,0E0,0E0,0E0,0E0,0E0,0E0,0E0,0E0,0E0],"parents":[2147483647,0,0,1,1,2,2,3,3,4,4,5,5,6,6,7,7,8,8,11,11,12,12],"right_children":[2,4,6,8,10,12,14,16,18,-1,-1,20,22,-1,-1,-1,-1,-1,-1,-1,-1,-1,-1],"split_conditions":[8.820672E-3,8.772183E1,8.5594666E1,-3.6561627E-2,8.536928E-2,1.134409E-1,9.126268E-1,5.4683906E-1,7.4562E1,5.8297365E-4,2.9232386E-3,7.446444E-1,7.1736E1,4.9452684E-3,1.6412506E-3,6.2858633E-4,-3.7103248E-4,5.123852E-4,-2.4515062E-4,3.6651695E-3,8.564029E-4,2.3679389E-3,1.4195379E-4],"split_indices":[8,12,12,16,2,2,32,31,10,0,0,32,10,0,0,0,0,0,0,0,0,0,0],"split_type":[0,0,0,0,0,0,0,0,0,0,0,0,0,0,0,0,0,0,0,0,0,0,0],"sum_hessian":[1.408E3,1.162E3,2.46E2,1.15E3,1.2E1,2.35E2,1.1E1,1.23E2,1.027E3,7E0,5E0,1.06E2,1.29E2,6E0,5E0,8.3E1,4E1,4.7E1,9.8E2,1.4E1,9.2E1,6E0,1.23E2],"tree_param":{"num_deleted":"0","num_feature":"33","num_nodes":"23","size_leaf_vector":"1"}},{"base_weights":[-3.5163068E-4,-1.5508572E-3,4.352984E-2,-3.4561674E-3,1.02747055E-2,1.3612576E-2,6.4251095E-2,-1.4553245E-4,-7.1166363E-3,5.3926572E-2,5.4794746E-3,-8.058489E-4,1.4295594E-3,4.845091E-3,3.16879E-2,1.548792E-5,-1.9282149E-3,6.0666684E-4,-3.9216672E-4,5.859969E-3,1.0287769E-3,6.669618E-4,-2.0018265E-4,5.94006E-4,2.2069577E-3],"categories":[],"categories_nodes":[],"categories_segments":[],"categories_sizes":[],"default_left":[1,1,0,0,0,0,0,1,0,0,0,0,0,0,0,0,0,0,0,0,0,0,0,0,0],"id":39,"left_children":[1,3,5,7,9,11,13,15,17,19,21,-1,-1,-1,23,-1,-1,-1,-1,-1,-1,-1,-1,-1,-1],"loss_changes":[7.1214914E-2,2.9709317E-2,2.1442614E-2,1.3753435E-2,3.801021E-2,7.585724E-3,1.9256823E-2,1.0454497E-2,7.635189E-3,3.557241E-2,1.2426235E-2,0E0,0E0,0E0,2.4352027E-3,0E0,0E0,0E0,0E0,0E0,0E0,0E0,0E0,0E0,0E0],"parents":[2147483647,0,0,1,1,2,2,3,3,4,4,5,5,6,6,7,7,8,8,9,9,10,10,14,14],"right_children":[2,4,6,8,10,12,14,16,18,20,22,-1,-1,-1,24,-1,-1,-1,-1,-1,-1,-1,-1,-1,-1],"split_conditions":[3.386053E-1,1.154195E-1,8.248919E-1,6.6938886E-4,7.060896E-1,-1.4655724E-2,4.4030702E-1,3.060761E-1,-4.333175E-2,4.6946147E-1,1.19256385E-1,-8.058489E-4,1.4295594E-3,4.845091E-3,-2.4765825E-2,1.548792E-5,-1.9282149E-3,6.0666684E-4,-3.9216672E-4,5.859969E-3,1.0287769E-3,6.669618E-4,-2.0018265E-4,5.94006E-4,2.2069577E-3],"split_indices":[25,5,32,1,32,9,3,25,16,31,2,0,0,0,17,0,0,0,0,0,0,0,0,0,0],"split_type":[0,0,0,0,0,0,0,0,0,0,0,0,0,0,0,0,0,0,0,0,0,0,0,0,0],"sum_hessian":[1.351E3,1.316E3,3.5E1,1.134E3,1.82E2,1.5E1,2E1,5.96E2,5.38E2,1.7E1,1.65E2,5E0,1E1,9E0,1.1E1,5.9E2,6E0,1.9E1,5.19E2,5E0,1.2E1,9E1,7.5E1,5E0,6E0],"tree_param":{"num_deleted":"0","num_feature":"33","num_nodes":"25","size_leaf_vector":"1"}},{"base_weights":[-1.7207972E-4,-2.6211333E-3,1.6791377E-2,-2.9329655E-3,2.2474546E-3,1.228096E-2,8.333119E-2,-1.4354088E-3,-9.716703E-3,5.6102823E-2,6.235257E-3,5.3058746E-3,2.3328173E-3,-1.964491E-4,2.1321108E-4,1.0397605E-3,-5.263386E-4,4.4712564E-3,6.9190067E-4,2.3165121E-5,1.0092279E-3],"categories":[],"categories_nodes":[],"categories_segments":[],"categories_sizes":[],"default_left":[1,1,1,0,0,0,0,0,0,0,0,0,0,0,0,0,0,0,0,0,0],"id":40,"left_children":[1,3,5,7,-1,9,11,13,15,17,19,-1,-1,-1,-1,-1,-1,-1,-1,-1,-1],"loss_changes":[5.795692E-2,1.8214393E-2,5.1798146E-2,1.2298797E-2,0E0,4.362922E-2,4.241474E-3,1.4143925E-2,5.631877E-3,2.6929744E-2,1.1826313E-2,0E0,0E0,0E0,0E0,0E0,0E0,0E0,0E0,0E0,0E0],"parents":[2147483647,0,0,1,1,2,2,3,3,5,5,6,6,7,7,8,8,9,9,10,10],"right_children":[2,4,6,8,-1,10,12,14,16,18,20,-1,-1,-1,-1,-1,-1,-1,-1,-1,-1],"split_conditions":[2.4478953E-1,1.0245583E0,8.726783E1,-2.3209934E-4,2.2474546E-3,7.176607E-1,9.8519933E-1,1.5574056E-1,9.8514414E-1,1.2138439E-1,1.8211056E-1,5.3058746E-3,2.3328173E-3,-1.964491E-4,2.1321108E-4,1.0397605E-3,-5.263386E-4,4.4712564E-3,6.9190067E-4,2.3165121E-5,1.0092279E-3],"split_indices":[25,13,12,15,0,32,13,25,14,2,28,0,0,0,0,0,0,0,0,0,0],"split_type":[0,0,0,0,0,0,0,0,0,0,0,0,0,0,0,0,0,0,0,0,0],"sum_hessian":[1.393E3,1.218E3,1.75E2,1.211E3,7E0,1.65E2,1E1,9.93E2,2.18E2,1.9E1,1.46E2,5E0,5E0,6.91E2,3.02E2,5E0,2.13E2,1E1,9E0,1.04E2,4.2E1],"tree_param":{"num_deleted":"0","num_feature":"33","num_nodes":"21","size_leaf_vector":"1"}},{"base_weights":[2.0310776E-4,-1.4784472E-3,2.8679147E-2,1.22644855E-2,-2.7990956E-3,6.502296E-2,1.4148567E-2,3.1346112E-2,5.836853E-3,-3.1022266E-3,2.1491286E-3,7.427181E-4,8.7444685E-2,3.337034E-2,1.1128709E-3,4.265995E-4,3.395134E-3,6.440236E-4,-2.8644546E-4,1.9129862E-3,-1.67116E-4,2.0150389E-3,5.7198047E-3,2.6793347E-3,6.848622E-4,7.863198E-4,-9.7101275E-4],"categories":[],"categories_nodes":[],"categories_segments":[],"categories_sizes":[],"default_left":[0,0,0,0,1,0,0,0,0,0,0,0,0,0,0,0,0,0,0,0,0,0,0,0,0,0,0],"id":41,"left_children":[1,3,5,7,9,11,13,15,17,19,-1,-1,21,23,25,-1,-1,-1,-1,-1,-1,-1,-1,-1,-1,-1,-1],"loss_changes":[6.6984266E-2,2.4009924E-2,4.0271573E-2,1.4044398E-2,1.6870027E-2,2.3448125E-2,1.4245305E-2,2.3606833E-2,7.242695E-3,1.2034822E-2,0E0,0E0,1.44486725E-2,8.413531E-3,1.0807557E-2,0E0,0E0,0E0,0E0,0E0,0E0,0E0,0E0,0E0,0E0,0E0,0E0],"parents":[2147483647,0,0,1,1,2,2,3,3,4,4,5,5,6,6,7,7,8,8,9,9,12,12,13,13,14,14],"right_children":[2,4,6,8,10,12,14,16,18,20,-1,-1,22,24,26,-1,-1,-1,-1,-1,-1,-1,-1,-1,-1,-1,-1],"split_conditions":[1.2379643E-2,9.8514414E-1,-3.0051067E-2,7.060896E-1,1.0245583E0,9.280205E-2,-4.350161E-2,1.0010206E0,2.9767764E-1,7.33345E1,2.1491286E-3,7.427181E-4,-5.164545E-3,1.5782274E-1,8.175766E-1,4.265995E-4,3.395134E-3,6.440236E-4,-2.8644546E-4,1.9129862E-3,-1.67116E-4,2.0150389E-3,5.7198047E-3,2.6793347E-3,6.848622E-4,7.863198E-4,-9.7101275E-4],"split_indices":[6,14,30,32,13,3,15,13,25,12,0,0,7,28,32,0,0,0,0,0,0,0,0,0,0,0,0],"split_type":[0,0,0,0,0,0,0,0,0,0,0,0,0,0,0,0,0,0,0,0,0,0,0,0,0,0,0],"sum_hessian":[1.397E3,1.32E3,7.7E1,1.15E2,1.205E3,2.1E1,5.6E1,2.8E1,8.7E1,1.198E3,7E0,7E0,1.4E1,2.2E1,3.4E1,1.8E1,1E1,5.4E1,3.3E1,6E0,1.192E3,6E0,8E0,1E1,1.2E1,2E1,1.4E1],"tree_param":{"num_deleted":"0","num_feature":"33","num_nodes":"27","size_leaf_vector":"1"}},{"base_weights":[2.3815426E-4,2.3580097E-2,-1.576721E-3,4.455953E-3,1.9283047E-2,-3.7123878E-3,3.6323953E-3,-2.6464735E-3,3.0631809E-2,-4.1208807E-3,1.7236227E-2,2.5337164E-3,2.4442505E-3,1.8116109E-3,-7.0340344E-4,2.7947055E-4,2.1365916E-3,3.583036E-4,-2.384271E-4,1.6919943E-3,1.7969552E-4,1.7761496E-4,-8.3423284E-4],"categories":[],"categories_nodes":[],"categories_segments":[],"categories_sizes":[],"default_left":[0,0,0,0,0,1,1,0,0,0,0,0,0,0,0,0,0,0,0,0,0,0,0],"id":42,"left_children":[1,3,5,-1,7,9,11,13,15,17,19,21,-1,-1,-1,-1,-1,-1,-1,-1,-1,-1,-1],"loss_changes":[5.9895698E-2,2.7007174E-2,1.4609402E-2,0E0,2.4221737E-2,8.037935E-3,1.8868454E-2,1.5607644E-2,1.9154023E-2,6.715621E-3,3.955605E-3,7.380505E-3,0E0,0E0,0E0,0E0,0E0,0E0,0E0,0E0,0E0,0E0,0E0],"parents":[2147483647,0,0,1,1,2,2,4,4,5,5,6,6,7,7,8,8,9,9,10,10,11,11],"right_children":[2,4,6,-1,8,10,12,14,16,18,20,22,-1,-1,-1,-1,-1,-1,-1,-1,-1,-1,-1],"split_conditions":[-6.8641864E-2,-7.313497E-2,5.0578997E-3,4.455953E-3,-1.4253536E-2,1.3233972E-1,8.754567E1,1.3535865E-1,8.56531E-3,-2.6699495E-2,8.8447675E-2,1.7173E-1,2.4442505E-3,1.8116109E-3,-7.0340344E-4,2.7947055E-4,2.1365916E-3,3.583036E-4,-2.384271E-4,1.6919943E-3,1.7969552E-4,1.7761496E-4,-8.3423284E-4],"split_indices":[16,1,6,0,24,5,12,28,6,30,2,2,0,0,0,0,0,0,0,0,0,0,0],"split_type":[0,0,0,0,0,0,0,0,0,0,0,0,0,0,0,0,0,0,0,0,0,0,0],"sum_hessian":[1.412E3,1.01E2,1.311E3,5E0,9.6E1,9.3E2,3.81E2,3.3E1,6.3E1,9.13E2,1.7E1,3.73E2,8E0,7E0,2.6E1,2.1E1,4.2E1,4.9E1,8.64E2,7E0,1E1,3.55E2,1.8E1],"tree_param":{"num_deleted":"0","num_feature":"33","num_nodes":"23","size_leaf_vector":"1"}},{"base_weights":[2.5151056E-4,3.8573217E-2,-8.308921E-4,4.5376066E-3,2.4323076E-2,5.725648E-3,-3.9645205E-3,3.0153703E-3,1.3699485E-2,4.916954E-3,2.7927707E-3,-4.2697787E-3,2.200566E-3,1.3600048E-3,-3.591587E-4,2.9167076E-4,-8.471988E-4,2.4918577E-4,-2.4854447E-4],"categories":[],"categories_nodes":[],"categories_segments":[],"categories_sizes":[],"default_left":[0,0,1,0,0,1,0,0,0,1,0,0,0,0,0,0,0,0,0],"id":43,"left_children":[1,3,5,-1,7,9,11,-1,13,15,-1,17,-1,-1,-1,-1,-1,-1,-1],"loss_changes":[5.8891494E-2,2.6791345E-2,2.839639E-2,0E0,1.1406869E-2,1.7846579E-2,1.3881029E-2,0E0,7.525528E-3,8.934147E-3,0E0,6.0583577E-3,0E0,0E0,0E0,0E0,0E0,0E0,0E0],"parents":[2147483647,0,0,1,1,2,2,4,4,5,5,6,6,8,8,9,9,11,11],"right_children":[2,4,6,-1,8,10,12,-1,14,16,-1,18,-1,-1,-1,-1,-1,-1,-1],"split_conditions":[-5.2561462E-2,1.3233972E-1,-1.8705575E-2,4.5376066E-3,-7.313497E-2,8.771716E1,2.6297385E-1,3.0153703E-3,2.4017124E-3,3.324371E-1,2.7927707E-3,-2.5986103E-2,2.200566E-3,1.3600048E-3,-3.591587E-4,2.9167076E-4,-8.471988E-4,2.4918577E-4,-2.4854447E-4],"split_indices":[15,5,16,0,1,12,5,0,18,5,0,30,0,0,0,0,0,0,0],"split_type":[0,0,0,0,0,0,0,0,0,0,0,0,0,0,0,0,0,0,0],"sum_hessian":[1.418E3,3.8E1,1.38E3,7E0,3.1E1,4.46E2,9.34E2,6E0,2.5E1,4.4E2,6E0,9.29E2,5E0,1.5E1,1E1,4.23E2,1.7E1,6.5E1,8.64E2],"tree_param":{"num_deleted":"0","num_feature":"33","num_nodes":"19","size_leaf_vector":"1"}},{"base_weights":[3.196418E-5,-2.5195098E-3,1.0734656E-2,-3.0490602E-3,3.2018334E-2,3.4772176E-3,8.88384E-3,-2.7708206E-4,-5.7511195E-3,7.734067E-3,3.7625239E-3,1.5284518E-2,-4.1137723E-4,1.2540462E-3,-4.7131307E-5,-5.136355E-4,-1.4900304E-4,-2.298102E-4,1.0415186E-3,1.6876756E-3,3.9128886E-4,3.6977016E-4,-8.0067554E-4],"categories":[],"categories_nodes":[],"categories_segments":[],"categories_sizes":[],"default_left":[0,0,0,0,0,0,0,0,0,0,0,0,1,0,0,0,0,0,0,0,0,0,0],"id":44,"left_children":[1,3,5,7,9,-1,11,13,15,17,-1,19,21,-1,-1,-1,-1,-1,-1,-1,-1,-1,-1],"loss_changes":[3.7875433E-2,2.0581903E-2,2.8444048E-2,8.267422E-3,1.7265642E-2,0E0,1.5475167E-2,9.238415E-3,6.9734287E-3,2.0335126E-3,0E0,2.095019E-2,1.3151287E-2,0E0,0E0,0E0,0E0,0E0,0E0,0E0,0E0,0E0,0E0],"parents":[2147483647,0,0,1,1,2,2,3,3,4,4,6,6,7,7,8,8,9,9,11,11,12,12],"right_children":[2,4,6,8,10,-1,12,14,16,18,-1,20,22,-1,-1,-1,-1,-1,-1,-1,-1,-1,-1],"split_conditions":[1.154195E-1,8.771716E1,-2.3428721E-2,8.4951996E1,1.4271477E-1,3.4772176E-3,7.9066E1,3.4811005E-2,8.6272E1,2.1013506E-3,3.7625239E-3,5.3394264E-1,2.0711087E-3,1.2540462E-3,-4.7131307E-5,-5.136355E-4,-1.4900304E-4,-2.298102E-4,1.0415186E-3,1.6876756E-3,3.9128886E-4,3.6977016E-4,-8.0067554E-4],"split_indices":[5,12,18,10,26,0,10,4,10,20,0,31,0,0,0,0,0,0,0,0,0,0,0],"split_type":[0,0,0,0,0,0,0,0,0,0,0,0,0,0,0,0,0,0,0,0,0,0,0],"sum_hessian":[1.385E3,1.119E3,2.66E2,1.103E3,1.6E1,7E0,2.59E2,5.45E2,5.58E2,1.1E1,5E0,1.53E2,1.06E2,1.3E1,5.32E2,2.11E2,3.47E2,6E0,5E0,4.3E1,1.1E2,7.1E1,3.5E1],"tree_param":{"num_deleted":"0","num_feature":"33","num_nodes":"23","size_leaf_vector":"1"}},{"base_weights":[4.4799203E-4,-5.66086E-4,3.5955235E-2,1.1843853E-2,-1.7926587E-3,1.9560114E-2,5.830072E-2,8.996268E-3,3.2936197E-3,1.1111048E-2,-2.5366344E-3,6.3559525E-3,2.2586973E-3,3.7921479E-3,1.2455854E-3,7.3870784E-4,-4.22234E-4,1.3210142E-3,7.979526E-5,-1.3857464E-4,1.8557111E-3,-1.2079813E-3,1.2598572E-3],"categories":[],"categories_nodes":[],"categories_segments":[],"categories_sizes":[],"default_left":[1,0,0,0,0,0,0,0,0,1,1,0,0,0,0,0,0,0,0,0,0,0,0],"id":45,"left_children":[1,3,5,7,9,11,13,15,-1,17,19,21,-1,-1,-1,-1,-1,-1,-1,-1,-1,-1,-1],"loss_changes":[5.0574347E-2,2.0814067E-2,1.3147548E-2,1.833105E-2,1.197064E-2,7.829896E-3,7.4821077E-3,1.2015844E-2,0E0,9.863368E-3,1.106349E-2,1.03829E-2,0E0,0E0,0E0,0E0,0E0,0E0,0E0,0E0,0E0,0E0,0E0],"parents":[2147483647,0,0,1,1,2,2,3,3,4,4,5,5,6,6,7,7,9,9,10,10,11,11],"right_children":[2,4,6,8,10,12,14,16,-1,18,20,22,-1,-1,-1,-1,-1,-1,-1,-1,-1,-1,-1],"split_conditions":[3.386053E-1,-2.7513262E-2,1.6093804E-3,9.9943155E-1,-1.1443527E-2,5.422109E-1,1.8007891E-3,1.4673446E-1,3.2936197E-3,9.9896514E-1,1.0245583E0,-7.3146923E-3,2.2586973E-3,3.7921479E-3,1.2455854E-3,7.3870784E-4,-4.22234E-4,1.3210142E-3,7.979526E-5,-1.3857464E-4,1.8557111E-3,-1.2079813E-3,1.2598572E-3],"split_indices":[25,15,7,13,23,26,20,3,0,14,13,24,0,0,0,0,0,0,0,0,0,0,0],"split_type":[0,0,0,0,0,0,0,0,0,0,0,0,0,0,0,0,0,0,0,0,0,0,0],"sum_hessian":[1.403E3,1.365E3,3.8E1,1.22E2,1.243E3,2.3E1,1.5E1,1.17E2,5E0,6.7E1,1.176E3,1.6E1,7E0,9E0,6E0,8.8E1,2.9E1,2.5E1,4.2E1,1.17E3,6E0,6E0,1E1],"tree_param":{"num_deleted":"0","num_feature":"33","num_nodes":"23","size_leaf_vector":"1"}},{"base_weights":[1.1711213E-4,-2.0360553E-3,1.2018801E-2,1.7435912E-2,-2.7086462E-3,3.0119938E-3,9.631218E-3,8.419491E-3,2.9369558E-3,-3.5082958E-5,-5.242386E-3,2.1223607E-2,1.7006388E-3,6.750129E-4,-8.770396E-4,8.320558E-4,-4.2046533E-5,-3.899108E-4,1.3106502E-5,2.017932E-3,3.0157642E-4,2.0362642E-4,-1.4529671E-3],"categories":[],"categories_nodes":[],"categories_segments":[],"categories_sizes":[],"default_left":[1,0,0,0,0,0,0,0,0,0,0,0,0,0,0,0,0,0,0,0,0,0,0],"id":46,"left_children":[1,3,5,7,9,-1,11,13,-1,15,17,19,21,-1,-1,-1,-1,-1,-1,-1,-1,-1,-1],"loss_changes":[3.6131967E-2,1.5684653E-2,2.4288284E-2,1.4401728E-2,7.823917E-3,0E0,1.8994318E-2,4.7213417E-3,0E0,7.5798566E-3,8.344727E-3,2.417545E-2,9.165295E-3,0E0,0E0,0E0,0E0,0E0,0E0,0E0,0E0,0E0,0E0],"parents":[2147483647,0,0,1,1,2,2,3,3,4,4,6,6,7,7,9,9,10,10,11,11,12,12],"right_children":[2,4,6,8,10,-1,12,14,-1,16,18,20,22,-1,-1,-1,-1,-1,-1,-1,-1,-1,-1],"split_conditions":[1.1208433E-1,-3.5766397E-2,-2.3428721E-2,1.6916658E-1,8.5182E1,3.0119938E-3,5.3394264E-1,7.5940095E-2,2.9369558E-3,3.562661E-2,8.7045E1,-5.409742E-2,3.3553857E-1,6.750129E-4,-8.770396E-4,8.320558E-4,-4.2046533E-5,-3.899108E-4,1.3106502E-5,2.017932E-3,3.0157642E-4,2.0362642E-4,-1.4529671E-3],"split_indices":[5,30,18,28,10,0,31,3,0,4,12,16,5,0,0,0,0,0,0,0,0,0,0],"split_type":[0,0,0,0,0,0,0,0,0,0,0,0,0,0,0,0,0,0,0,0,0,0,0],"sum_hessian":[1.408E3,1.193E3,2.15E2,3.9E1,1.154E3,9E0,2.06E2,3.3E1,6E0,5.62E2,5.92E2,8.3E1,1.23E2,2.8E1,5E0,2.5E1,5.37E2,4.04E2,1.88E2,3.6E1,4.7E1,1.15E2,8E0],"tree_param":{"num_deleted":"0","num_feature":"33","num_nodes":"23","size_leaf_vector":"1"}},{"base_weights":[3.7427354E-4,4.655601E-2,-3.6169498E-4,5.4969154E-2,7.479719E-4,-2.1988978E-3,8.1237685E-3,6.4704455E-2,1.3168517E-3,1.3901707E-2,-2.7536056E-3,1.30713545E-2,-4.7573065E-3,4.3433574E-3,1.403195E-3,3.537072E-4,2.4568175E-3,1.9609915E-4,-1.7956072E-4,3.5503188E-3,5.3187687E-4,-5.227662E-4,1.0296128E-3],"categories":[],"categories_nodes":[],"categories_segments":[],"categories_sizes":[],"default_left":[0,0,1,0,0,0,0,0,0,0,1,0,0,0,0,0,0,0,0,0,0,0,0],"id":47,"left_children":[1,3,5,7,-1,9,11,13,-1,15,17,19,21,-1,-1,-1,-1,-1,-1,-1,-1,-1,-1],"loss_changes":[4.766844E-2,5.0258785E-3,2.1546984E-2,3.0344948E-3,0E0,1.0184048E-2,1.573982E-2,7.3068067E-3,0E0,8.793938E-3,6.159177E-3,2.434324E-2,1.01818135E-2,0E0,0E0,0E0,0E0,0E0,0E0,0E0,0E0,0E0,0E0],"parents":[2147483647,0,0,1,1,2,2,3,3,5,5,6,6,7,7,9,9,10,10,11,11,12,12],"right_children":[2,4,6,8,-1,10,12,14,-1,16,18,20,22,-1,-1,-1,-1,-1,-1,-1,-1,-1,-1],"split_conditions":[-4.426868E-2,-1.5357564E-2,1.0085816E-1,9.231348E-1,7.479719E-4,-3.5766397E-2,7.8386E1,4.645601E-1,1.3168517E-3,6.530809E-3,-3.501991E-2,6.5185726E-1,9.525265E-3,4.3433574E-3,1.403195E-3,3.537072E-4,2.4568175E-3,1.9609915E-4,-1.7956072E-4,3.5503188E-3,5.3187687E-4,-5.227662E-4,1.0296128E-3],"split_indices":[9,30,5,32,0,30,11,31,0,8,16,32,20,0,0,0,0,0,0,0,0,0,0],"split_type":[0,0,0,0,0,0,0,0,0,0,0,0,0,0,0,0,0,0,0,0,0,0,0],"sum_hessian":[1.401E3,2.1E1,1.38E3,1.6E1,5E0,1.135E3,2.45E2,1.1E1,5E0,3.7E1,1.098E3,1.77E2,6.8E1,6E0,5E0,3.2E1,5E0,1.22E2,9.76E2,6E0,1.71E2,5.6E1,1.2E1],"tree_param":{"num_deleted":"0","num_feature":"33","num_nodes":"23","size_leaf_vector":"1"}},{"base_weights":[2.3189821E-5,-1.0232365E-3,3.185729E-2,-3.573067E-3,2.7457234E-3,2.2248555E-2,3.6758308E-3,-3.870416E-3,1.3490067E-3,2.2585443E-3,2.3391899E-3,-5.030834E-4,2.986898E-2,-1.5658796E-4,-6.976609E-4,1.7902353E-4,-7.309715E-4,2.3002734E-3,5.932843E-4],"categories":[],"categories_nodes":[],"categories_segments":[],"categories_sizes":[],"default_left":[1,1,0,1,0,0,0,0,0,0,0,0,0,0,0,0,0,0,0],"id":48,"left_children":[1,3,5,7,9,11,-1,13,-1,15,-1,-1,17,-1,-1,-1,-1,-1,-1],"loss_changes":[4.710251E-2,1.3166188E-2,1.6377565E-2,7.5268336E-3,1.1758637E-2,9.656804E-3,0E0,5.988963E-3,0E0,1.2279012E-2,0E0,0E0,8.459918E-3,0E0,0E0,0E0,0E0,0E0,0E0],"parents":[2147483647,0,0,1,1,2,2,3,3,4,4,5,5,7,7,9,9,12,12],"right_children":[2,4,6,8,10,12,-1,14,-1,16,-1,-1,18,-1,-1,-1,-1,-1,-1],"split_conditions":[3.386053E-1,1.5291771E-1,8.538E1,8.8122E1,2.3343442E-2,-2.4765825E-2,3.6758308E-3,6.0757743E-3,1.3490067E-3,2.9767764E-1,2.3391899E-3,-5.030834E-4,-1.0575729E-1,-1.5658796E-4,-6.976609E-4,1.7902353E-4,-7.309715E-4,2.3002734E-3,5.932843E-4],"split_indices":[25,25,11,11,20,17,0,8,0,25,0,0,16,0,0,0,0,0,0],"split_type":[0,0,0,0,0,0,0,0,0,0,0,0,0,0,0,0,0,0,0],"sum_hessian":[1.412E3,1.368E3,4.4E1,8.16E2,5.52E2,3.7E1,7E0,8.09E2,7E0,5.47E2,5E0,7E0,3E1,7.55E2,5.4E1,5.08E2,3.9E1,1.5E1,1.5E1],"tree_param":{"num_deleted":"0","num_feature":"33","num_nodes":"19","size_leaf_vector":"1"}},{"base_weights":[6.899432E-4,-3.2165402E-4,3.53199E-2,-5.487043E-4,2.1983332E-3,1.4164774E-2,5.1984787E-2,5.935977E-3,-2.2066552E-3,2.065013E-2,-1.6642592E-4,6.909666E-4,6.2397018E-2,-1.17210375E-5,7.277639E-4,-9.204028E-5,-1.3290333E-3,1.6782115E-3,1.4705706E-4,1.8846861E-3,3.4774456E-3],"categories":[],"categories_nodes":[],"categories_segments":[],"categories_sizes":[],"default_left":[1,1,0,0,0,0,0,0,1,0,0,0,0,0,0,0,0,0,0,0,0],"id":49,"left_children":[1,3,5,7,-1,9,11,13,15,17,-1,-1,19,-1,-1,-1,-1,-1,-1,-1,-1],"loss_changes":[4.937084E-2,1.38004E-2,1.3365556E-2,1.46778505E-2,0E0,2.2242882E-3,7.880244E-3,1.4788708E-2,9.644091E-3,3.1030215E-3,0E0,0E0,3.819242E-4,0E0,0E0,0E0,0E0,0E0,0E0,0E0,0E0],"parents":[2147483647,0,0,1,1,2,2,3,3,5,5,6,6,7,7,8,8,9,9,12,12],"right_children":[2,4,6,8,-1,10,12,14,16,18,-1,-1,20,-1,-1,-1,-1,-1,-1,-1,-1],"split_conditions":[3.386053E-1,1.0245583E0,8.2672185E-1,7.6142E1,2.1983332E-3,7.748273E-1,7.35E1,9.9941176E-1,1.6784617E-1,1.8641949E-1,-1.6642592E-4,6.909666E-4,3.977688E-1,-1.17210375E-5,7.277639E-4,-9.204028E-5,-1.3290333E-3,1.6782115E-3,1.4705706E-4,1.8846861E-3,3.4774456E-3],"split_indices":[25,13,32,10,0,32,10,14,2,3,0,0,31,0,0,0,0,0,0,0,0],"split_type":[0,0,0,0,0,0,0,0,0,0,0,0,0,0,0,0,0,0,0,0,0],"sum_hessian":[1.408E3,1.369E3,3.9E1,1.363E3,6E0,1.8E1,2.1E1,2.77E2,1.086E3,1.3E1,5E0,5E0,1.6E1,1.62E2,1.15E2,1.071E3,1.5E1,7E0,6E0,5E0,1.1E1],"tree_param":{"num_deleted":"0","num_feature":"33","num_nodes":"21","size_leaf_vector":"1"}},{"base_weights":[-1.3842022E-4,1.3014639E-2,-1.4680489E-3,-1.8346182E-3,1.7730573E-2,2.5055653E-3,-1.7103842E-3,1.633949E-3,-1.1056178E-2,3.2988075E-2,1.0178773E-2,-2.0647922E-3,2.3075065E-2,1.2426963E-3,-1.0394863E-3,4.3877955E-3,9.797834E-4,-1.2996397E-3,6.7575363E-4,-1.1493723E-4,1.7330329E-3,-4.2827433E-4,1.9804565E-3],"categories":[],"categories_nodes":[],"categories_segments":[],"categories_sizes":[],"default_left":[0,0,0,0,0,0,1,0,0,0,0,1,0,0,0,0,0,0,0,0,0,0,0],"id":50,"left_children":[1,3,5,7,9,-1,11,-1,13,15,17,19,21,-1,-1,-1,-1,-1,-1,-1,-1,-1,-1],"loss_changes":[2.457322E-2,9.066155E-3,1.6035065E-2,1.054592E-2,1.0955941E-2,0E0,1.1212315E-2,0E0,9.604555E-3,2.1751508E-2,8.436803E-3,1.0854057E-2,9.755916E-3,0E0,0E0,0E0,0E0,0E0,0E0,0E0,0E0,0E0,0E0],"parents":[2147483647,0,0,1,1,2,2,3,3,4,4,6,6,8,8,9,9,10,10,11,11,12,12],"right_children":[2,4,6,8,10,-1,12,-1,14,16,18,20,22,-1,-1,-1,-1,-1,-1,-1,-1,-1,-1],"split_conditions":[9.819652E-1,9.836503E-1,9.7429866E-1,-1.4432757E-1,-1.177626E-2,2.5055653E-3,8.771716E1,1.633949E-3,7.564E1,1.346738E-1,-1.7155332E-2,1.0245583E0,2.8653549E-2,1.2426963E-3,-1.0394863E-3,4.3877955E-3,9.797834E-4,-1.2996397E-3,6.7575363E-4,-1.1493723E-4,1.7330329E-3,-4.2827433E-4,1.9804565E-3],"split_indices":[14,13,13,15,23,0,12,0,11,28,18,13,4,0,0,0,0,0,0,0,0,0,0],"split_type":[0,0,0,0,0,0,0,0,0,0,0,0,0,0,0,0,0,0,0,0,0,0,0],"sum_hessian":[1.403E3,1.28E2,1.275E3,3.1E1,9.7E1,5E0,1.27E3,6E0,2.5E1,3.1E1,6.6E1,1.253E3,1.7E1,5E0,2E1,5E0,2.6E1,5E0,6.1E1,1.246E3,7E0,6E0,1.1E1],"tree_param":{"num_deleted":"0","num_feature":"33","num_nodes":"23","size_leaf_vector":"1"}},{"base_weights":[3.9524544E-4,1.0960179E-2,-1.6678531E-3,8.485917E-3,3.9280113E-3,-1.9304801E-3,1.632949E-3,5.666051E-3,4.0286276E-2,4.6333084E-3,-3.24799E-3,1.8549534E-3,2.18697E-4,3.5769478E-3,5.4241136E-5,4.8334856E-4,-2.9498342E-4,-1.7448838E-4,1.3206541E-3],"categories":[],"categories_nodes":[],"categories_segments":[],"categories_sizes":[],"default_left":[0,1,1,0,0,0,0,0,0,0,1,0,0,0,0,0,0,0,0],"id":51,"left_children":[1,3,5,7,-1,9,-1,11,13,15,17,-1,-1,-1,-1,-1,-1,-1,-1],"loss_changes":[3.0685958E-2,3.7803203E-2,1.06828995E-2,1.9768761E-2,0E0,1.0133039E-2,0E0,8.204412E-3,2.1975102E-2,1.0448845E-2,7.08427E-3,0E0,0E0,0E0,0E0,0E0,0E0,0E0,0E0],"parents":[2147483647,0,0,1,1,2,2,3,3,5,5,7,7,8,8,9,9,10,10],"right_children":[2,4,6,8,-1,10,-1,12,14,16,18,-1,-1,-1,-1,-1,-1,-1,-1],"split_conditions":[-2.1806853E-2,8.726783E1,1.0245583E0,1.0017445E0,3.9280113E-3,7.6302E1,1.632949E-3,-2.3428721E-2,7.8923996E1,6.858865E-3,8.8122E1,1.8549534E-3,2.18697E-4,3.5769478E-3,5.4241136E-5,4.8334856E-4,-2.9498342E-4,-1.7448838E-4,1.3206541E-3],"split_indices":[15,12,13,13,0,10,0,18,10,24,11,0,0,0,0,0,0,0,0],"split_type":[0,0,0,0,0,0,0,0,0,0,0,0,0,0,0,0,0,0,0],"sum_hessian":[1.406E3,2.29E2,1.177E3,2.22E2,7E0,1.169E3,8E0,2.05E2,1.7E1,1.95E2,9.74E2,7E0,1.98E2,9E0,8E0,1.32E2,6.3E1,9.67E2,7E0],"tree_param":{"num_deleted":"0","num_feature":"33","num_nodes":"19","size_leaf_vector":"1"}}]},"name":"gbtree"},"learner_model_param":{"base_score":"[6.6700466E-2]","boost_from_average":"1","num_class":"0","num_feature":"33","num_target":"1"},"objective":{"name":"reg:squarederror","reg_loss_param":{"scale_pos_weight":"1"}}},"version":[3,2,0]}