{"learner":{"attributes":{"best_iteration":"4","best_score":"0.02831223435926036","scikit_learn":"{\"_estimator_type\": \"regressor\"}"},"feature_names":["log_ret_1d","log_ret_5d","vol_5d","vol_10d","vol_20d","vol_60d","hl_range","co_range","atr_14","mom_10d","ma_5","ma_20","ma_60","ma_ratio_5_20","ma_ratio_20_60","drawdown_20","drawdown_60","ctx_equity_proxy_log_ret_1d","ctx_duration_proxy_log_ret_1d","ctx_credit_proxy_log_ret_1d","ctx_real_asset_proxy_log_ret_1d","ctx_equity_proxy_log_ret_5d","ctx_duration_proxy_log_ret_5d","ctx_credit_proxy_log_ret_5d","ctx_real_asset_proxy_log_ret_5d","ctx_equity_proxy_vol_20d","ctx_duration_proxy_vol_20d","ctx_credit_proxy_vol_20d","ctx_real_asset_proxy_vol_20d","ctx_equity_duration_ret_5d_spread","ctx_credit_duration_ret_5d_spread","ctx_rel_vol_20d_vs_equity_proxy","ctx_corr_20d_vs_equity_proxy"],"feature_types":["float","float","float","float","float","float","float","float","float","float","float","float","float","float","float","float","float","float","float","float","float","float","float","float","float","float","float","float","float","float","float","float","float"],"gradient_booster":{"model":{"cats":{"enc":[],"feature_segments":[],"sorted_idx":[]},"gbtree_model_param":{"num_parallel_tree":"1","num_trees":"55"},"iteration_indptr":[0,1,2,3,4,5,6,7,8,9,10,11,12,13,14,15,16,17,18,19,20,21,22,23,24,25,26,27,28,29,30,31,32,33,34,35,36,37,38,39,40,41,42,43,44,45,46,47,48,49,50,51,52,53,54,55],"tree_info":[0,0,0,0,0,0,0,0,0,0,0,0,0,0,0,0,0,0,0,0,0,0,0,0,0,0,0,0,0,0,0,0,0,0,0,0,0,0,0,0,0,0,0,0,0,0,0,0,0,0,0,0,0,0,0],"trees":[{"base_weights":[-3.397902E-4,-7.358891E-3,2.874575E-1,-2.8730104E-2,4.701811E-2,1.7016301E-2,3.6065483E-3,-1.1486487E-2,-3.4167584E-2,7.2019175E-2,2.3589412E-2,4.6972293E-4,-8.180599E-4,-1.9182038E-3,-1.2360968E-3,3.3656552E-3,8.059826E-3,2.409239E-3,9.2243325E-5],"categories":[],"categories_nodes":[],"categories_segments":[],"categories_sizes":[],"default_left":[1,1,0,0,0,0,0,1,0,1,0,0,0,0,0,0,0,0,0],"id":0,"left_children":[1,3,5,7,9,-1,-1,11,13,15,17,-1,-1,-1,-1,-1,-1,-1,-1],"loss_changes":[2.0363338E0,1.1448597E0,2.4866796E-1,6.589711E-2,1.6113752E-1,0E0,0E0,1.755955E-2,2.0337522E-2,4.5385838E-2,7.7459306E-2,0E0,0E0,0E0,0E0,0E0,0E0,0E0,0E0],"parents":[2147483647,0,0,1,1,2,2,3,3,4,4,7,7,8,8,9,9,10,10],"right_children":[2,4,6,8,10,-1,-1,12,14,16,18,-1,-1,-1,-1,-1,-1,-1,-1],"split_conditions":[2.4843486E-1,7.4446574E-2,-3.423297E-2,-1.0050251E-2,-2.1776505E-2,1.7016301E-2,3.6065483E-3,-3.4649953E-2,4.694891E-2,8.4965836E1,7.8935165E1,4.6972293E-4,-8.180599E-4,-1.9182038E-3,-1.2360968E-3,3.3656552E-3,8.059826E-3,2.409239E-3,9.2243325E-5],"split_indices":[26,4,15,15,15,0,0,16,4,12,12,0,0,0,0,0,0,0,0],"split_type":[0,0,0,0,0,0,0,0,0,0,0,0,0,0,0,0,0,0,0],"sum_hessian":[1.006E3,9.83E2,2.3E1,7.06E2,2.77E2,1.8E1,5E0,1.7E2,5.36E2,1.33E2,1.44E2,3.2E1,1.38E2,3.69E2,1.67E2,1.28E2,5E0,6.7E1,7.7E1],"tree_param":{"num_deleted":"0","num_feature":"33","num_nodes":"19","size_leaf_vector":"1"}},{"base_weights":[-2.1128664E-4,-2.6534913E-2,6.499816E-2,-1.1057592E-2,-3.3426303E-2,5.1674783E-2,1.6989456E-2,2.6297705E-2,-1.3933215E-2,-3.4873404E-2,-1.0968301E-2,1.2461008E-2,4.321595E-2,7.777535E-5,2.5422734E-3,-1.3489463E-5,-9.879892E-4,-1.7769752E-3,-7.390268E-5,-6.153979E-5,-1.1352252E-3,3.088721E-3,1.127351E-3],"categories":[],"categories_nodes":[],"categories_segments":[],"categories_sizes":[],"default_left":[1,0,1,0,0,0,0,0,1,1,0,0,0,0,0,0,0,0,0,0,0,0,0],"id":1,"left_children":[1,3,5,7,9,11,-1,13,15,17,19,-1,21,-1,-1,-1,-1,-1,-1,-1,-1,-1,-1],"loss_changes":[1.7011082E0,7.4932545E-2,1.025867E0,2.3891341E-2,1.5476942E-2,4.454137E-1,0E0,9.638757E-3,1.6235288E-2,1.0135591E-2,3.5147765E-3,0E0,9.948966E-2,0E0,0E0,0E0,0E0,0E0,0E0,0E0,0E0,0E0,0E0],"parents":[2147483647,0,0,1,1,2,2,3,3,4,4,5,5,7,7,8,8,9,9,10,10,12,12],"right_children":[2,4,6,8,10,12,-1,14,16,18,20,-1,22,-1,-1,-1,-1,-1,-1,-1,-1,-1,-1],"split_conditions":[7.669679E-2,-8.792226E-3,8.6487335E1,-6.8827115E-2,5.0767413E-3,-7.943634E-2,1.6989456E-2,6.083563E-3,8.54815E1,8.8285995E1,3.2607429E-3,1.2461008E-2,7.8778E1,7.777535E-5,2.5422734E-3,-1.3489463E-5,-9.879892E-4,-1.7769752E-3,-7.390268E-5,-6.153979E-5,-1.1352252E-3,3.088721E-3,1.127351E-3],"split_indices":[4,15,12,29,6,15,0,6,12,10,7,0,11,0,0,0,0,0,0,0,0,0,0],"split_type":[0,0,0,0,0,0,0,0,0,0,0,0,0,0,0,0,0,0,0,0,0,0,0],"sum_hessian":[9.89E2,7.05E2,2.84E2,2.18E2,4.87E2,2.72E2,1.2E1,1.5E1,2.03E2,4.57E2,3E1,1E1,2.62E2,8E0,7E0,6.1E1,1.42E2,4.48E2,9E0,1.7E1,1.3E1,1.37E2,1.25E2],"tree_param":{"num_deleted":"0","num_feature":"33","num_nodes":"23","size_leaf_vector":"1"}},{"base_weights":[7.074783E-4,-8.745019E-3,2.1948095E-1,-2.565746E-2,3.6410358E-2,8.216316E-2,3.343389E-1,-1.1595094E-2,-3.132172E-2,6.688543E-2,2.3149554E-2,2.2800674E-3,9.131035E-2,1.8554376E-2,1.1182143E-2,1.2038344E-3,-6.899309E-4,-1.602717E-3,3.5979613E-4,4.185662E-3,1.5005033E-3,2.204155E-3,2.771609E-4,2.7380958E-3,5.2054184E-3],"categories":[],"categories_nodes":[],"categories_segments":[],"categories_sizes":[],"default_left":[1,1,0,0,0,0,0,0,1,0,0,0,0,0,0,0,0,0,0,0,0,0,0,0,0],"id":2,"left_children":[1,3,5,7,9,11,13,15,17,19,21,-1,23,-1,-1,-1,-1,-1,-1,-1,-1,-1,-1,-1,-1],"loss_changes":[2.0471277E0,7.256738E-1,6.191832E-1,5.467698E-2,1.0311973E-1,2.5248826E-3,6.5033436E-3,1.6052958E-2,1.41142905E-2,4.588923E-2,6.683411E-2,0E0,1.3150424E-3,0E0,0E0,0E0,0E0,0E0,0E0,0E0,0E0,0E0,0E0,0E0,0E0],"parents":[2147483647,0,0,1,1,2,2,3,3,4,4,5,5,6,6,7,7,8,8,9,9,10,10,12,12],"right_children":[2,4,6,8,10,12,14,16,18,20,22,-1,24,-1,-1,-1,-1,-1,-1,-1,-1,-1,-1,-1,-1],"split_conditions":[3.5133496E-1,7.4446574E-2,8.30105E1,-8.746035E-3,-9.154993E-3,2.089739E-1,-1.1547337E-2,-6.8827115E-2,8.8285995E1,1.4191253E-1,7.8935165E1,2.2800674E-3,7.08096E-1,1.8554376E-2,1.1182143E-2,1.2038344E-3,-6.899309E-4,-1.602717E-3,3.5979613E-4,4.185662E-3,1.5005033E-3,2.204155E-3,2.771609E-4,2.7380958E-3,5.2054184E-3],"split_indices":[25,4,12,15,1,28,1,29,10,2,12,0,31,0,0,0,0,0,0,0,0,0,0,0,0],"split_type":[0,0,0,0,0,0,0,0,0,0,0,0,0,0,0,0,0,0,0,0,0,0,0,0,0],"sum_hessian":[9.88E2,9.48E2,4E1,6.9E2,2.58E2,1.9E1,2.1E1,1.99E2,4.91E2,7.7E1,1.81E2,5E0,1.4E1,1.4E1,7E0,1.1E1,1.88E2,4.82E2,9E0,5.2E1,2.5E1,8.2E1,9.9E1,5E0,9E0],"tree_param":{"num_deleted":"0","num_feature":"33","num_nodes":"25","size_leaf_vector":"1"}},{"base_weights":[1.7870105E-3,-7.5223474E-3,2.1196374E-1,-2.416001E-2,3.6894068E-2,7.73725E-2,3.152913E-1,-2.8565159E-2,-8.921378E-3,5.3881224E-2,2.2464138E-2,2.3582107E-3,4.6790503E-3,1.7097764E-2,8.915339E-3,-1.6684363E-3,-8.405719E-4,-6.188405E-4,1.0436474E-3,6.053431E-3,2.33688E-3,5.0626714E-3,9.167359E-4],"categories":[],"categories_nodes":[],"categories_segments":[],"categories_sizes":[],"default_left":[1,1,0,0,0,0,0,1,1,0,0,0,0,0,0,0,0,0,0,0,0,0,0],"id":3,"left_children":[1,3,5,7,9,11,13,15,17,19,21,-1,-1,-1,-1,-1,-1,-1,-1,-1,-1,-1,-1],"loss_changes":[1.9836409E0,7.1844614E-1,5.736053E-1,4.720494E-2,6.374735E-2,5.3789467E-3,2.6688576E-2,3.0378968E-2,1.6730703E-2,5.241689E-2,4.5319878E-2,0E0,0E0,0E0,0E0,0E0,0E0,0E0,0E0,0E0,0E0,0E0,0E0],"parents":[2147483647,0,0,1,1,2,2,3,3,4,4,5,5,6,6,7,7,8,8,9,9,10,10],"right_children":[2,4,6,8,10,12,14,16,18,20,22,-1,-1,-1,-1,-1,-1,-1,-1,-1,-1,-1,-1],"split_conditions":[3.5133496E-1,6.8491995E-3,8.261243E-1,4.0518637E-3,7.78895E1,7.08096E-1,4.2053588E-2,4.694891E-2,8.73015E1,7.198888E-1,5.8747284E-2,2.3582107E-3,4.6790503E-3,1.7097764E-2,8.915339E-3,-1.6684363E-3,-8.405719E-4,-6.188405E-4,1.0436474E-3,6.053431E-3,2.33688E-3,5.0626714E-3,9.167359E-4],"split_indices":[25,8,32,6,11,31,8,4,11,32,5,0,0,0,0,0,0,0,0,0,0,0,0],"split_type":[0,0,0,0,0,0,0,0,0,0,0,0,0,0,0,0,0,0,0,0,0,0,0],"sum_hessian":[1.012E3,9.7E2,4.2E1,7.06E2,2.64E2,1.9E1,2.3E1,5.47E2,1.59E2,1.2E2,1.44E2,8E0,1.1E1,1.8E1,5E0,3.87E2,1.6E2,1.43E2,1.6E1,1E1,1.1E2,6E0,1.38E2],"tree_param":{"num_deleted":"0","num_feature":"33","num_nodes":"23","size_leaf_vector":"1"}},{"base_weights":[-1.2628441E-3,-9.49409E-3,1.9089729E-1,3.659827E-2,-2.338405E-2,7.104684E-2,3.016574E-1,6.306946E-2,2.0944115E-2,-2.841572E-2,-1.0895881E-2,4.0345145E-3,1.6744912E-3,1.6740244E-2,9.376661E-3,4.980498E-3,2.2647693E-3,1.688178E-3,4.2700992E-4,-1.4940532E-3,1.6786305E-4,-2.039821E-4,-1.0457142E-3],"categories":[],"categories_nodes":[],"categories_segments":[],"categories_sizes":[],"default_left":[1,0,0,0,1,0,0,0,0,1,0,0,0,0,0,0,0,0,0,0,0,0,0],"id":4,"left_children":[1,3,5,7,9,11,13,15,17,19,21,-1,-1,-1,-1,-1,-1,-1,-1,-1,-1,-1,-1],"loss_changes":[1.5787847E0,6.135473E-1,5.228287E-1,9.0672314E-2,4.5937955E-2,4.9034655E-3,1.6654491E-2,4.8744947E-2,2.2132251E-2,2.4496883E-2,1.4459984E-2,0E0,0E0,0E0,0E0,0E0,0E0,0E0,0E0,0E0,0E0,0E0,0E0],"parents":[2147483647,0,0,1,1,2,2,3,3,4,4,5,5,6,6,7,7,8,8,9,9,10,10],"right_children":[2,4,6,8,10,12,14,16,18,20,22,-1,-1,-1,-1,-1,-1,-1,-1,-1,-1,-1,-1],"split_conditions":[3.3551884E-1,8.31785E1,8.261243E-1,-1.1742507E-2,4.4899853E-3,7.8954864E-1,-1.1547337E-2,5.1146233E-1,-4.5212764E-2,8.79395E1,3.528233E-1,4.0345145E-3,1.6744912E-3,1.6740244E-2,9.376661E-3,4.980498E-3,2.2647693E-3,1.688178E-3,4.2700992E-4,-1.4940532E-3,1.6786305E-4,-2.039821E-4,-1.0457142E-3],"split_indices":[25,11,32,22,8,32,1,31,16,11,31,0,0,0,0,0,0,0,0,0,0,0,0],"split_type":[0,0,0,0,0,0,0,0,0,0,0,0,0,0,0,0,0,0,0,0,0,0,0],"sum_hessian":[9.96E2,9.56E2,4E1,2.21E2,7.35E2,2E1,2E1,8.1E1,1.4E2,5.23E2,2.12E2,1.5E1,5E0,1.4E1,6E0,2.5E1,5.6E1,6.8E1,7.2E1,5E2,2.3E1,1.27E2,8.5E1],"tree_param":{"num_deleted":"0","num_feature":"33","num_nodes":"23","size_leaf_vector":"1"}},{"base_weights":[-1.1338294E-3,-2.1858279E-2,5.1215325E-2,-6.8222443E-3,-2.6267074E-2,4.018054E-2,1.5221285E-2,2.8422466E-2,-9.472654E-3,-2.8109731E-2,-9.893815E-3,3.6006946E-2,9.890347E-3,4.3144947E-4,2.3388888E-3,-6.07949E-4,8.3842466E-4,-3.926504E-4,-1.456885E-3,-2.4240324E-4,-1.1575633E-3,6.5961946E-4,2.318661E-3],"categories":[],"categories_nodes":[],"categories_segments":[],"categories_sizes":[],"default_left":[1,0,1,0,0,0,0,0,0,0,0,0,0,0,0,0,0,0,0,0,0,0,0],"id":5,"left_children":[1,3,5,7,9,11,-1,13,15,17,19,21,-1,-1,-1,-1,-1,-1,-1,-1,-1,-1,-1],"loss_changes":[1.1131496E0,4.8544526E-2,8.0085737E-1,1.5962604E-2,1.6858608E-2,1.7708081E-1,0E0,3.95614E-3,1.1271173E-2,1.0391086E-2,3.834494E-3,6.418976E-2,0E0,0E0,0E0,0E0,0E0,0E0,0E0,0E0,0E0,0E0,0E0],"parents":[2147483647,0,0,1,1,2,2,3,3,4,4,5,5,7,7,8,8,9,9,10,10,11,11],"right_children":[2,4,6,8,10,12,-1,14,16,18,20,22,-1,-1,-1,-1,-1,-1,-1,-1,-1,-1,-1],"split_conditions":[6.945513E-3,-1.04298E-2,8.6487335E1,-2.0497313E-2,4.5828437E-3,3.9443396E-2,1.5221285E-2,5.6386646E-2,8.766717E1,8.4682E1,3.8418814E-3,1.6881137E-1,9.890347E-3,4.3144947E-4,2.3388888E-3,-6.07949E-4,8.3842466E-4,-3.926504E-4,-1.456885E-3,-2.4240324E-4,-1.1575633E-3,6.5961946E-4,2.318661E-3],"split_indices":[8,15,12,9,6,8,0,4,12,10,19,26,0,0,0,0,0,0,0,0,0,0,0],"split_type":[0,0,0,0,0,0,0,0,0,0,0,0,0,0,0,0,0,0,0,0,0,0,0],"sum_hessian":[1.024E3,7.34E2,2.9E2,1.67E2,5.67E2,2.79E2,1.1E1,1.1E1,1.56E2,5.09E2,5.8E1,2.73E2,6E0,6E0,5E0,1.42E2,1.4E1,2.5E1,4.84E2,4.3E1,1.5E1,8.6E1,1.87E2],"tree_param":{"num_deleted":"0","num_feature":"33","num_nodes":"23","size_leaf_vector":"1"}},{"base_weights":[6.8208796E-4,-4.9679847E-3,2.306587E-1,-2.187455E-2,3.7407134E-2,3.7597397E-3,1.3380632E-2,-6.9067855E-3,-2.5445016E-2,3.286507E-2,9.358072E-3,5.189031E-4,-5.742068E-4,-1.4453145E-3,-8.300769E-4,3.6622174E-4,2.283274E-3],"categories":[],"categories_nodes":[],"categories_segments":[],"categories_sizes":[],"default_left":[1,1,0,0,0,0,0,1,1,0,0,0,0,0,0,0,0],"id":6,"left_children":[1,3,5,7,9,-1,-1,11,13,15,-1,-1,-1,-1,-1,-1,-1],"loss_changes":[1.3005304E0,7.007584E-1,1.1775696E-1,3.7180156E-2,1.8362293E-1,0E0,0E0,1.087934E-2,1.6783983E-2,8.859062E-2,0E0,0E0,0E0,0E0,0E0,0E0,0E0],"parents":[2147483647,0,0,1,1,2,2,3,3,4,4,7,7,8,8,9,9],"right_children":[2,4,6,8,10,-1,-1,12,14,16,-1,-1,-1,-1,-1,-1,-1],"split_conditions":[3.4135982E-1,7.4446574E-2,9.103375E-1,-1.2262842E-2,8.64575E1,3.7597397E-3,1.3380632E-2,8.4628E1,4.8710596E-2,1.6881137E-1,9.358072E-3,5.189031E-4,-5.742068E-4,-1.4453145E-3,-8.300769E-4,3.6622174E-4,2.283274E-3],"split_indices":[26,27,32,15,11,0,0,12,27,26,0,0,0,0,0,0,0],"split_type":[0,0,0,0,0,0,0,0,0,0,0,0,0,0,0,0,0],"sum_hessian":[9.99E2,9.76E2,2.3E1,6.98E2,2.78E2,5E0,1.8E1,1.35E2,5.63E2,2.71E2,7E0,2.8E1,1.07E2,4.03E2,1.6E2,9.1E1,1.8E2],"tree_param":{"num_deleted":"0","num_feature":"33","num_nodes":"17","size_leaf_vector":"1"}},{"base_weights":[1.0843275E-3,-6.7139044E-3,1.8134621E-1,-2.054252E-2,3.1181047E-2,6.0867153E-2,2.608373E-1,1.3229746E-2,-2.2151258E-2,4.881053E-2,1.9857552E-2,1.4661677E-3,3.913736E-3,1.5304816E-2,9.314933E-3,-4.9982238E-5,2.3028655E-3,-1.3350717E-3,-7.571417E-4,3.4367118E-3,1.4734775E-3,8.344773E-4,4.9194056E-3],"categories":[],"categories_nodes":[],"categories_segments":[],"categories_sizes":[],"default_left":[1,1,0,0,0,0,0,0,0,0,0,0,0,0,0,0,0,0,0,0,0,0,0],"id":7,"left_children":[1,3,5,7,9,11,13,15,17,19,21,-1,-1,-1,-1,-1,-1,-1,-1,-1,-1,-1,-1],"loss_changes":[1.4238104E0,5.0947815E-1,3.8635802E-1,3.897655E-2,5.0933838E-2,7.5885355E-3,2.7313352E-2,1.5460877E-2,2.1280587E-2,3.6894172E-2,3.8163595E-2,0E0,0E0,0E0,0E0,0E0,0E0,0E0,0E0,0E0,0E0,0E0,0E0],"parents":[2147483647,0,0,1,1,2,2,3,3,4,4,5,5,6,6,7,7,8,8,9,9,10,10],"right_children":[2,4,6,8,10,12,14,16,18,20,22,-1,-1,-1,-1,-1,-1,-1,-1,-1,-1,-1,-1],"split_conditions":[3.3551884E-1,6.777646E-3,8.2849E1,-1.1547337E-2,-7.2438684E-3,1.0043284E0,4.3861163E-1,5.9637424E-2,2.915452E-3,7.78895E1,1.0245495E0,1.4661677E-3,3.913736E-3,1.5304816E-2,9.314933E-3,-4.9982238E-5,2.3028655E-3,-1.3350717E-3,-7.571417E-4,3.4367118E-3,1.4734775E-3,8.344773E-4,4.9194056E-3],"split_indices":[25,8,12,1,1,13,3,27,6,11,13,0,0,0,0,0,0,0,0,0,0,0,0],"split_type":[0,0,0,0,0,0,0,0,0,0,0,0,0,0,0,0,0,0,0,0,0,0,0],"sum_hessian":[1.011E3,9.7E2,4.1E1,7.11E2,2.59E2,1.7E1,2.4E1,3.2E1,6.79E2,1E2,1.59E2,7E0,1E1,1.3E1,1.1E1,2.3E1,9E0,4.1E2,2.69E2,4.8E1,5.2E1,1.54E2,5E0],"tree_param":{"num_deleted":"0","num_feature":"33","num_nodes":"23","size_leaf_vector":"1"}},{"base_weights":[-8.708914E-4,-1.7762953E-2,4.39116E-2,-2.1135984E-2,1.4101487E-3,3.6350574E-2,1.1103579E-2,-2.503028E-2,-1.3188076E-2,2.5107559E-2,-1.7477745E-3,9.161391E-3,3.106557E-2,6.8951945E-4,-1.291361E-3,-2.1280786E-4,-9.2988566E-4,1.3105974E-4,2.5452392E-3,-5.301068E-4,2.54116E-4,2.3726767E-3,6.2711915E-4],"categories":[],"categories_nodes":[],"categories_segments":[],"categories_sizes":[],"default_left":[1,0,1,0,0,0,0,1,0,0,0,0,0,0,0,0,0,0,0,0,0,0,0],"id":8,"left_children":[1,3,5,7,9,11,-1,13,15,17,19,-1,21,-1,-1,-1,-1,-1,-1,-1,-1,-1,-1],"loss_changes":[7.5951797E-1,4.717529E-2,3.6237234E-1,1.8859833E-2,8.275689E-3,2.0001331E-1,0E0,1.3195366E-2,9.874441E-3,7.407685E-3,5.9805433E-3,0E0,7.741906E-2,0E0,0E0,0E0,0E0,0E0,0E0,0E0,0E0,0E0,0E0],"parents":[2147483647,0,0,1,1,2,2,3,3,4,4,5,5,7,7,8,8,9,9,10,10,12,12],"right_children":[2,4,6,8,10,12,-1,14,16,18,20,-1,22,-1,-1,-1,-1,-1,-1,-1,-1,-1,-1],"split_conditions":[7.669679E-2,5.0767413E-3,8.6487335E1,4.694891E-2,-1.9436574E-2,-1.21451996E-1,1.1103579E-2,-2.2412807E-2,-1.342265E-3,9.896947E-1,1.0007546E0,9.161391E-3,-4.722063E-2,6.8951945E-4,-1.291361E-3,-2.1280786E-4,-9.2988566E-4,1.3105974E-4,2.5452392E-3,-5.301068E-4,2.54116E-4,2.3726767E-3,6.2711915E-4],"split_indices":[4,6,12,4,9,16,0,16,21,13,14,0,16,0,0,0,0,0,0,0,0,0,0],"split_type":[0,0,0,0,0,0,0,0,0,0,0,0,0,0,0,0,0,0,0,0,0,0,0],"sum_hessian":[1.002E3,7.28E2,2.74E2,6.19E2,1.09E2,2.64E2,1E1,4.14E2,2.05E2,1.2E1,9.7E1,8E0,2.56E2,8E0,4.06E2,7.8E1,1.27E2,7E0,5E0,4.2E1,5.5E1,1.35E2,1.21E2],"tree_param":{"num_deleted":"0","num_feature":"33","num_nodes":"23","size_leaf_vector":"1"}},{"base_weights":[-6.660577E-4,-5.859086E-3,1.7814627E-1,-1.8648274E-2,2.8300112E-2,1.2161692E-2,3.5546687E-3,-2.0952942E-2,-1.672589E-3,2.5516972E-2,7.162922E-3,-1.1765965E-3,-5.731091E-4,1.8061114E-3,-2.5001625E-4,2.2138276E-3,6.280328E-4],"categories":[],"categories_nodes":[],"categories_segments":[],"categories_sizes":[],"default_left":[1,1,0,0,1,0,0,1,0,0,0,0,0,0,0,0,0],"id":9,"left_children":[1,3,5,7,9,-1,-1,11,13,15,-1,-1,-1,-1,-1,-1,-1],"loss_changes":[9.2126393E-1,4.216689E-1,1.7780644E-1,2.7429506E-2,8.049001E-2,0E0,0E0,1.4856786E-2,1.0871172E-2,6.2152073E-2,0E0,0E0,0E0,0E0,0E0,0E0,0E0],"parents":[2147483647,0,0,1,1,2,2,3,3,4,4,7,7,8,8,9,9],"right_children":[2,4,6,8,10,-1,-1,12,14,16,-1,-1,-1,-1,-1,-1,-1],"split_conditions":[1.773614E-2,6.777646E-3,3.1973946E-1,5.0767413E-3,8.61665E1,1.2161692E-2,3.5546687E-3,4.4899853E-3,-2.0497313E-2,-1.1742507E-2,7.162922E-3,-1.1765965E-3,-5.731091E-4,1.8061114E-3,-2.5001625E-4,2.2138276E-3,6.280328E-4],"split_indices":[8,8,5,6,12,0,0,8,9,22,0,0,0,0,0,0,0],"split_type":[0,0,0,0,0,0,0,0,0,0,0,0,0,0,0,0,0],"sum_hessian":[9.9E2,9.63E2,2.7E1,7.01E2,2.62E2,1.6E1,1.1E1,6.17E2,8.4E1,2.57E2,5E0,4.84E2,1.33E2,6E0,7.8E1,1.04E2,1.53E2],"tree_param":{"num_deleted":"0","num_feature":"33","num_nodes":"17","size_leaf_vector":"1"}},{"base_weights":[6.813424E-4,-6.1371652E-3,1.6148172E-1,3.1623837E-2,-1.4637572E-2,5.8401134E-2,2.3206376E-1,5.110463E-2,1.9965814E-2,3.7745489E-3,-1.9579142E-2,1.2484117E-3,7.3036894E-2,1.3620155E-2,1.5962608E-1,3.3746865E-3,5.0175114E-4,1.3973614E-3,-1.1497533E-5,7.091408E-5,3.3578693E-3,-1.2223665E-3,-7.5055665E-4,4.3599606E-3,2.217069E-3,5.0374363E-3,9.594955E-3],"categories":[],"categories_nodes":[],"categories_segments":[],"categories_sizes":[],"default_left":[1,0,0,0,0,0,0,0,0,1,0,0,0,0,0,0,0,0,0,0,0,0,0,0,0,0,0],"id":10,"left_children":[1,3,5,7,9,11,13,15,17,19,21,-1,23,-1,25,-1,-1,-1,-1,-1,-1,-1,-1,-1,-1,-1,-1],"loss_changes":[1.1050847E0,3.108543E-1,2.8474832E-1,3.940481E-2,7.195188E-2,6.984081E-3,2.6647449E-2,4.374689E-2,1.822098E-2,2.4995033E-2,1.348722E-2,0E0,1.0102019E-3,0E0,1.5680492E-3,0E0,0E0,0E0,0E0,0E0,0E0,0E0,0E0,0E0,0E0,0E0,0E0],"parents":[2147483647,0,0,1,1,2,2,3,3,4,4,5,5,6,6,7,7,8,8,9,9,10,10,12,12,14,14],"right_children":[2,4,6,8,10,12,14,16,18,20,22,-1,24,-1,26,-1,-1,-1,-1,-1,-1,-1,-1,-1,-1,-1,-1],"split_conditions":[3.3551884E-1,8.2284E1,8.30105E1,-1.6944671E-2,-1.282049E-2,1.0337339E-2,4.3861163E-1,7.970717E1,1.0942002E-2,8.775117E1,2.4555658E-3,1.2484117E-3,-7.7710144E-4,1.3620155E-2,8.07705E1,3.3746865E-3,5.0175114E-4,1.3973614E-3,-1.1497533E-5,7.091408E-5,3.3578693E-3,-1.2223665E-3,-7.5055665E-4,4.3599606E-3,2.217069E-3,5.0374363E-3,9.594955E-3],"split_indices":[25,11,12,22,15,24,3,12,30,12,6,0,20,0,11,0,0,0,0,0,0,0,0,0,0,0,0],"split_type":[0,0,0,0,0,0,0,0,0,0,0,0,0,0,0,0,0,0,0,0,0,0,0,0,0,0,0],"sum_hessian":[1.006E3,9.66E2,4E1,1.77E2,7.89E2,1.7E1,2.3E1,6.5E1,1.12E2,1.67E2,6.22E2,6E0,1.1E1,1.3E1,1E1,4.6E1,1.9E1,8E1,3.2E1,1.62E2,5E0,2.99E2,3.23E2,6E0,5E0,5E0,5E0],"tree_param":{"num_deleted":"0","num_feature":"33","num_nodes":"27","size_leaf_vector":"1"}},{"base_weights":[-4.226291E-5,-4.834007E-3,1.536144E-1,-1.678921E-2,2.618726E-2,4.6938702E-2,2.2212383E-1,-2.042275E-2,-7.0241513E-3,2.3852505E-2,5.4916353E-3,1.0358741E-3,3.036864E-3,1.3076657E-2,4.9858186E-3,-7.429975E-4,-1.2634281E-3,2.2518537E-3,-4.3373276E-4,1.6782265E-3,5.374676E-4],"categories":[],"categories_nodes":[],"categories_segments":[],"categories_sizes":[],"default_left":[1,1,0,1,0,0,0,0,0,0,0,0,0,0,0,0,0,0,0,0,0],"id":11,"left_children":[1,3,5,7,9,11,13,15,17,19,-1,-1,-1,-1,-1,-1,-1,-1,-1,-1,-1],"loss_changes":[7.303994E-1,3.5721228E-1,2.0882249E-1,2.4516344E-2,4.9718335E-2,3.4452789E-3,6.075275E-2,1.3264388E-2,1.6716858E-2,3.298086E-2,0E0,0E0,0E0,0E0,0E0,0E0,0E0,0E0,0E0,0E0,0E0],"parents":[2147483647,0,0,1,1,2,2,3,3,4,4,5,5,6,6,7,7,8,8,9,9],"right_children":[2,4,6,8,10,12,14,16,18,20,-1,-1,-1,-1,-1,-1,-1,-1,-1,-1,-1],"split_conditions":[3.5133496E-1,6.945513E-3,8.30105E1,4.4899853E-3,1.9400476E-2,0E0,4.2053588E-2,6.903694E-4,-4.7182333E-2,8.020033E1,5.4916353E-3,1.0358741E-3,3.036864E-3,1.3076657E-2,4.9858186E-3,-7.429975E-4,-1.2634281E-3,2.2518537E-3,-4.3373276E-4,1.6782265E-3,5.374676E-4],"split_indices":[25,8,12,8,20,21,8,9,30,12,0,0,0,0,0,0,0,0,0,0,0],"split_type":[0,0,0,0,0,0,0,0,0,0,0,0,0,0,0,0,0,0,0,0,0],"sum_hessian":[9.9E2,9.61E2,2.9E1,6.94E2,2.67E2,1.2E1,1.7E1,5.05E2,1.89E2,2.61E2,6E0,5E0,7E0,1.2E1,5E0,2.37E2,2.68E2,5E0,1.84E2,1.49E2,1.12E2],"tree_param":{"num_deleted":"0","num_feature":"33","num_nodes":"21","size_leaf_vector":"1"}},{"base_weights":[-3.670826E-4,-5.1848325E-3,1.5085994E-1,-1.5669478E-2,2.5199441E-2,3.437818E-2,2.0469038E-1,-1.8279262E-2,6.460789E-5,2.1471536E-2,8.661115E-3,1.077969E-3,2.073364E-3,1.1570441E-2,5.909758E-3,-1.0199761E-3,-4.93566E-4,8.0398424E-4,-3.0236293E-4,1.7276675E-3,3.0679133E-4],"categories":[],"categories_nodes":[],"categories_segments":[],"categories_sizes":[],"default_left":[1,1,0,0,1,0,0,1,0,0,0,0,0,0,0,0,0,0,0,0,0],"id":12,"left_children":[1,3,5,7,9,11,13,15,17,19,-1,-1,-1,-1,-1,-1,-1,-1,-1,-1,-1],"loss_changes":[7.315419E-1,3.1036186E-1,1.8734133E-1,2.9730469E-2,1.3423438E-1,1.056036E-4,2.1179855E-2,1.086922E-2,1.0276968E-2,4.8939608E-2,0E0,0E0,0E0,0E0,0E0,0E0,0E0,0E0,0E0,0E0,0E0],"parents":[2147483647,0,0,1,1,2,2,3,3,4,4,5,5,6,6,7,7,8,8,9,9],"right_children":[2,4,6,8,10,12,14,16,18,20,-1,-1,-1,-1,-1,-1,-1,-1,-1,-1,-1],"split_conditions":[2.3614381E-1,6.8491995E-3,8.30105E1,5.0767413E-3,8.771817E1,3.9208686E-1,4.2053588E-2,4.4899853E-3,-1.2230753E-2,7.954E1,8.661115E-3,1.077969E-3,2.073364E-3,1.1570441E-2,5.909758E-3,-1.0199761E-3,-4.93566E-4,8.0398424E-4,-3.0236293E-4,1.7276675E-3,3.0679133E-4],"split_indices":[3,8,12,6,12,3,8,8,9,10,0,0,0,0,0,0,0,0,0,0,0],"split_type":[0,0,0,0,0,0,0,0,0,0,0,0,0,0,0,0,0,0,0,0,0],"sum_hessian":[1.002E3,9.72E2,3E1,7.23E2,2.49E2,1E1,2E1,6.2E2,1.03E2,2.44E2,5E0,5E0,5E0,1.4E1,6E0,4.94E2,1.26E2,2.8E1,7.5E1,1.31E2,1.13E2],"tree_param":{"num_deleted":"0","num_feature":"33","num_nodes":"21","size_leaf_vector":"1"}},{"base_weights":[7.0445496E-4,-5.2987533E-3,1.2875724E-1,2.3736084E-2,-1.4902669E-2,4.6409752E-2,1.9277884E-1,4.644647E-2,1.346919E-2,-1.5768647E-2,3.2178443E-3,5.503776E-2,7.833387E-4,4.5654196E-3,2.1358103E-1,4.319039E-3,1.5540209E-3,-7.4137567E-4,9.295748E-4,-2.8637782E-4,-9.518372E-4,3.7177359E-3,1.8006057E-3,1.2951246E-2,8.084985E-3],"categories":[],"categories_nodes":[],"categories_segments":[],"categories_sizes":[],"default_left":[1,0,0,0,1,0,0,0,0,0,0,0,0,0,0,0,0,0,0,0,0,0,0,0,0],"id":13,"left_children":[1,3,5,7,9,11,13,15,17,19,-1,21,-1,-1,23,-1,-1,-1,-1,-1,-1,-1,-1,-1,-1],"loss_changes":[7.724847E-1,2.6804793E-1,2.2829396E-1,5.510086E-2,5.0570726E-2,4.707996E-3,3.3268392E-2,4.2724073E-2,2.4336431E-2,2.335386E-2,0E0,3.2026097E-3,0E0,0E0,5.269587E-3,0E0,0E0,0E0,0E0,0E0,0E0,0E0,0E0,0E0,0E0],"parents":[2147483647,0,0,1,1,2,2,3,3,4,4,5,5,6,6,7,7,8,8,9,9,11,11,14,14],"right_children":[2,4,6,8,10,12,14,16,18,20,-1,22,-1,-1,24,-1,-1,-1,-1,-1,-1,-1,-1,-1,-1],"split_conditions":[3.3551884E-1,8.31785E1,8.30105E1,-1.0195201E-2,8.775117E1,7.747098E-1,7.3568E1,7.6734734E-1,1.3753797E-1,9.9711996E-1,3.2178443E-3,1.7901243E-1,7.833387E-4,4.5654196E-3,-3.9199803E-2,4.319039E-3,1.5540209E-3,-7.4137567E-4,9.295748E-4,-2.8637782E-4,-9.518372E-4,3.7177359E-3,1.8006057E-3,1.2951246E-2,8.084985E-3],"split_indices":[25,11,12,1,12,32,10,32,26,13,0,3,0,0,30,0,0,0,0,0,0,0,0,0,0],"split_type":[0,0,0,0,0,0,0,0,0,0,0,0,0,0,0,0,0,0,0,0,0,0,0,0,0],"sum_hessian":[1.003E3,9.59E2,4.4E1,2.38E2,7.21E2,2E1,2.4E1,7.3E1,1.65E2,7.14E2,7E0,1.5E1,5E0,5E0,1.9E1,1.9E1,5.4E1,2.5E1,1.4E2,1.76E2,5.38E2,6E0,9E0,8E0,1.1E1],"tree_param":{"num_deleted":"0","num_feature":"33","num_nodes":"25","size_leaf_vector":"1"}},{"base_weights":[1.0080509E-3,-2.8318148E-3,1.5616062E-1,-1.4125652E-2,2.4772033E-2,1.9056627E-1,3.1764258E-3,2.5369348E-3,-1.6074182E-2,4.5801006E-2,1.4837425E-2,1.1406773E-2,5.989201E-3,-1.1647565E-4,1.1605964E-3,-9.76907E-4,-4.8222812E-4,3.4679489E-3,1.1386125E-3,1.0547386E-3,-1.4993094E-4],"categories":[],"categories_nodes":[],"categories_segments":[],"categories_sizes":[],"default_left":[1,1,0,0,0,0,0,0,1,0,0,0,0,0,0,0,0,0,0,0,0],"id":14,"left_children":[1,3,5,7,9,11,-1,13,15,17,19,-1,-1,-1,-1,-1,-1,-1,-1,-1,-1],"loss_changes":[5.920369E-1,3.0275068E-1,6.438321E-2,2.241093E-2,5.823435E-2,1.7879963E-2,0E0,7.398878E-3,1.3553321E-2,4.72465E-2,2.1603283E-2,0E0,0E0,0E0,0E0,0E0,0E0,0E0,0E0,0E0,0E0],"parents":[2147483647,0,0,1,1,2,2,3,3,4,4,5,5,7,7,8,8,9,9,10,10],"right_children":[2,4,6,8,10,12,-1,14,16,18,20,-1,-1,-1,-1,-1,-1,-1,-1,-1,-1],"split_conditions":[2.73317E-1,6.777646E-3,3.8083967E-2,-7.6994803E-3,-1.0195201E-2,4.3861163E-1,3.1764258E-3,8.72505E1,4.694891E-2,7.84105E1,8.2284E1,1.1406773E-2,5.989201E-3,-1.1647565E-4,1.1605964E-3,-9.76907E-4,-4.8222812E-4,3.4679489E-3,1.1386125E-3,1.0547386E-3,-1.4993094E-4],"split_indices":[2,8,1,1,1,3,0,11,4,11,11,0,0,0,0,0,0,0,0,0,0],"split_type":[0,0,0,0,0,0,0,0,0,0,0,0,0,0,0,0,0,0,0,0,0],"sum_hessian":[9.92E2,9.69E2,2.3E1,6.88E2,2.81E2,1.6E1,7E0,7.2E1,6.16E2,8.9E1,1.92E2,9E0,7E0,5.9E1,1.3E1,3.99E2,2.17E2,4.3E1,4.6E1,1.42E2,5E1],"tree_param":{"num_deleted":"0","num_feature":"33","num_nodes":"21","size_leaf_vector":"1"}},{"base_weights":[4.6368994E-4,-4.12646E-3,1.3207935E-1,-1.3997719E-2,1.9585818E-2,4.2173024E-2,1.857274E-1,1.7988811E-3,-1.5674083E-2,3.1138899E-2,8.057014E-3,9.213967E-4,2.6658599E-3,1.1999904E-2,6.6934335E-3,-1.965474E-4,1.0154197E-3,-8.1110914E-4,6.792612E-4,6.0581597E-3,1.2094144E-3,6.4765353E-4,-1.0734921E-3],"categories":[],"categories_nodes":[],"categories_segments":[],"categories_sizes":[],"default_left":[1,1,0,0,0,0,0,0,1,0,0,0,0,0,0,0,0,0,0,0,0,0,0],"id":15,"left_children":[1,3,5,7,9,11,13,15,17,19,21,-1,-1,-1,-1,-1,-1,-1,-1,-1,-1,-1,-1],"loss_changes":[6.095137E-1,2.2849242E-1,1.5615946E-1,1.8273503E-2,3.797558E-2,2.7221441E-3,2.697432E-2,7.1856068E-3,1.0211453E-2,8.654778E-2,2.1240044E-2,0E0,0E0,0E0,0E0,0E0,0E0,0E0,0E0,0E0,0E0,0E0,0E0],"parents":[2147483647,0,0,1,1,2,2,3,3,4,4,5,5,6,6,7,7,8,8,9,9,10,10],"right_children":[2,4,6,8,10,12,14,16,18,20,22,-1,-1,-1,-1,-1,-1,-1,-1,-1,-1,-1,-1],"split_conditions":[3.5133496E-1,6.1382568E-3,8.2849E1,-7.6994803E-3,7.970717E1,-5.812264E-4,4.3861163E-1,8.712E1,8.8285995E1,4.6574897E-1,1.006801E0,9.213967E-4,2.6658599E-3,1.1999904E-2,6.6934335E-3,-1.965474E-4,1.0154197E-3,-8.1110914E-4,6.792612E-4,6.0581597E-3,1.2094144E-3,6.4765353E-4,-1.0734921E-3],"split_indices":[25,8,12,1,12,24,3,12,10,31,13,0,0,0,0,0,0,0,0,0,0,0,0],"split_type":[0,0,0,0,0,0,0,0,0,0,0,0,0,0,0,0,0,0,0,0,0,0,0],"sum_hessian":[1.007E3,9.74E2,3.3E1,6.88E2,2.86E2,1.3E1,2E1,6.6E1,6.22E2,1.42E2,1.44E2,5E0,8E0,8E0,1.2E1,5.1E1,1.5E1,6.11E2,1.1E1,9E0,1.33E2,1.24E2,2E1],"tree_param":{"num_deleted":"0","num_feature":"33","num_nodes":"23","size_leaf_vector":"1"}},{"base_weights":[1.527752E-3,-2.6484947E-3,1.3511671E-1,2.4601504E-2,-1.1565071E-2,1.6969423E-1,1.7790478E-3,5.2457806E-2,1.4862318E-2,-1.8847747E-3,-1.6154937E-2,9.623664E-3,4.66929E-3,3.930708E-3,1.1404549E-3,1.4072595E-3,1.2811244E-4,-2.0384396E-4,3.4892224E-3,-8.4409484E-4,8.550847E-4],"categories":[],"categories_nodes":[],"categories_segments":[],"categories_sizes":[],"default_left":[1,0,0,0,0,0,0,0,0,1,1,0,0,0,0,0,0,0,0,0,0],"id":16,"left_children":[1,3,5,7,9,11,-1,13,15,17,19,-1,-1,-1,-1,-1,-1,-1,-1,-1,-1],"loss_changes":[5.521214E-1,2.3354214E-1,9.721303E-2,6.351791E-2,3.213778E-2,2.026689E-2,0E0,4.5512512E-2,2.8846186E-2,3.70474E-2,1.2159243E-2,0E0,0E0,0E0,0E0,0E0,0E0,0E0,0E0,0E0,0E0],"parents":[2147483647,0,0,1,1,2,2,3,3,4,4,5,5,7,7,8,8,9,9,10,10],"right_children":[2,4,6,8,10,12,-1,14,16,18,20,-1,-1,-1,-1,-1,-1,-1,-1,-1,-1],"split_conditions":[4.918072E-1,8.31785E1,3.1973946E-1,7.7049667E-1,-8.594369E-3,6.463916E-3,1.7790478E-3,-2.8796887E-3,7.707333E1,8.771817E1,8.8285995E1,9.623664E-3,4.66929E-3,3.930708E-3,1.1404549E-3,1.4072595E-3,1.2811244E-4,-2.0384396E-4,3.4892224E-3,-8.4409484E-4,8.550847E-4],"split_indices":[25,11,5,32,15,18,0,1,12,12,10,0,0,0,0,0,0,0,0,0,0],"split_type":[0,0,0,0,0,0,0,0,0,0,0,0,0,0,0,0,0,0,0,0,0],"sum_hessian":[9.88E2,9.59E2,2.9E1,2.36E2,7.23E2,2.1E1,8E0,6E1,1.76E2,2.33E2,4.9E2,1.5E1,6E0,3.1E1,2.9E1,8.4E1,9.2E1,2.27E2,6E0,4.8E2,1E1],"tree_param":{"num_deleted":"0","num_feature":"33","num_nodes":"21","size_leaf_vector":"1"}},{"base_weights":[7.5831125E-4,-3.8753194E-3,1.1467866E-1,-1.2334896E-2,1.7646909E-2,3.9246462E-2,1.7746595E-1,-1.7139927E-2,-7.1764356E-3,3.324355E-2,6.4515145E-3,3.3598826E-3,2.4464063E-2,9.821877E-3,4.8648706E-3,-9.349994E-4,-1.9899801E-4,-4.4277898E-4,2.6933316E-4,2.7760917E-3,1.0376E-3,4.8808233E-4,-1.4264628E-3,1.7936121E-3,1.6372254E-4],"categories":[],"categories_nodes":[],"categories_segments":[],"categories_sizes":[],"default_left":[1,1,0,0,0,0,0,1,1,0,1,0,0,0,0,0,0,0,0,0,0,0,0,0,0],"id":17,"left_children":[1,3,5,7,9,11,13,15,17,19,21,-1,23,-1,-1,-1,-1,-1,-1,-1,-1,-1,-1,-1,-1],"loss_changes":[5.267256E-1,1.748218E-1,1.7774624E-1,1.6954936E-2,4.7104985E-2,6.2065963E-3,1.2826562E-2,7.234372E-3,7.093517E-3,3.0294627E-2,1.8689256E-2,0E0,3.2668263E-3,0E0,0E0,0E0,0E0,0E0,0E0,0E0,0E0,0E0,0E0,0E0,0E0],"parents":[2147483647,0,0,1,1,2,2,3,3,4,4,5,5,6,6,7,7,8,8,9,9,10,10,12,12],"right_children":[2,4,6,8,10,12,14,16,18,20,22,-1,24,-1,-1,-1,-1,-1,-1,-1,-1,-1,-1,-1,-1],"split_conditions":[3.3551884E-1,6.8491995E-3,8.261243E-1,2.734108E-3,-1.1742507E-2,-4.3944754E-3,4.681754E-1,5.670684E-2,2.011825E-2,7.7049667E-1,-6.3860337E-3,3.3598826E-3,9.6851647E-1,9.821877E-3,4.8648706E-3,-9.349994E-4,-1.9899801E-4,-4.4277898E-4,2.6933316E-4,2.7760917E-3,1.0376E-3,4.8808233E-4,-1.4264628E-3,1.7936121E-3,1.6372254E-4],"split_indices":[25,8,32,6,22,20,3,4,22,32,16,0,14,0,0,0,0,0,0,0,0,0,0,0,0],"split_type":[0,0,0,0,0,0,0,0,0,0,0,0,0,0,0,0,0,0,0,0,0,0,0,0,0],"sum_hessian":[9.96E2,9.58E2,3.8E1,6.88E2,2.7E2,1.8E1,2E1,3.55E2,3.33E2,1.12E2,1.58E2,5E0,1.3E1,1.5E1,5E0,3.17E2,3.8E1,2.94E2,3.9E1,3.9E1,7.3E1,1.45E2,1.3E1,8E0,5E0],"tree_param":{"num_deleted":"0","num_feature":"33","num_nodes":"25","size_leaf_vector":"1"}},{"base_weights":[-6.2826247E-4,-4.1105165E-3,9.10567E-2,-1.1864388E-2,1.7228441E-2,3.7323274E-2,1.52077E-1,-1.5958367E-2,-6.371549E-3,3.0931043E-2,8.041824E-3,4.948132E-2,2.9692103E-4,9.954881E-3,1.0832961E-1,-8.735993E-4,-3.7630083E-4,-4.1652852E-4,3.093645E-4,2.3916329E-3,2.920972E-4,4.06531E-3,2.5484513E-4,1.561084E-3,3.2944623E-3,3.3042512E-3,6.625963E-3],"categories":[],"categories_nodes":[],"categories_segments":[],"categories_sizes":[],"default_left":[1,1,0,0,0,0,0,0,1,0,0,0,0,0,0,0,0,0,0,0,0,0,0,0,0,0,0],"id":18,"left_children":[1,3,5,7,9,11,13,15,17,19,21,23,-1,-1,25,-1,-1,-1,-1,-1,-1,-1,-1,-1,-1,-1,-1],"loss_changes":[3.228373E-1,1.61362E-1,1.156407E-1,1.5976928E-2,3.2480195E-2,7.7193044E-3,1.34013295E-2,5.088724E-3,7.6046744E-3,4.382138E-2,3.345957E-2,2.4368726E-3,0E0,0E0,2.4831593E-3,0E0,0E0,0E0,0E0,0E0,0E0,0E0,0E0,0E0,0E0,0E0,0E0],"parents":[2147483647,0,0,1,1,2,2,3,3,4,4,5,5,6,6,7,7,8,8,9,9,10,10,11,11,14,14],"right_children":[2,4,6,8,10,12,14,16,18,20,22,24,-1,-1,26,-1,-1,-1,-1,-1,-1,-1,-1,-1,-1,-1,-1],"split_conditions":[3.3551884E-1,6.777646E-3,8.30105E1,2.915452E-3,-1.1742507E-2,7.8954864E-1,9.1336644E-1,5.553169E-2,2.2051329E-2,7.970717E1,5.932218E-2,1.0169941E-2,2.9692103E-4,9.954881E-3,9.4306314E-1,-8.735993E-4,-3.7630083E-4,-4.1652852E-4,3.093645E-4,2.3916329E-3,2.920972E-4,4.06531E-3,2.5484513E-4,1.561084E-3,3.2944623E-3,3.3042512E-3,6.625963E-3],"split_indices":[25,8,12,6,22,32,32,4,22,12,5,24,0,0,13,0,0,0,0,0,0,0,0,0,0,0,0],"split_type":[0,0,0,0,0,0,0,0,0,0,0,0,0,0,0,0,0,0,0,0,0,0,0,0,0,0,0],"sum_hessian":[1.009E3,9.73E2,3.6E1,7.14E2,2.59E2,2E1,1.6E1,4.08E2,3.06E2,1.03E2,1.56E2,1.4E1,6E0,6E0,1E1,3.45E2,6.3E1,2.65E2,4.1E1,6.1E1,4.2E1,5E0,1.51E2,8E0,6E0,5E0,5E0],"tree_param":{"num_deleted":"0","num_feature":"33","num_nodes":"27","size_leaf_vector":"1"}},{"base_weights":[3.5799033E-4,-2.9697926E-3,1.2603202E-1,-1.049979E-2,2.0613477E-2,-3.84187E-5,1.5625918E-1,-2.145566E-3,-1.4179902E-2,1.8312113E-2,5.327377E-3,1.7679101E-1,3.7732224E-3,1.7833142E-3,-1.7492454E-4,-7.6184835E-4,-4.166911E-5,2.6100664E-3,6.9016585E-4,9.856043E-3,5.5027227E-3],"categories":[],"categories_nodes":[],"categories_segments":[],"categories_sizes":[],"default_left":[1,1,0,0,1,0,0,0,0,0,0,0,0,0,0,0,0,0,0,0,0],"id":19,"left_children":[1,3,5,7,9,-1,11,13,15,17,-1,19,-1,-1,-1,-1,-1,-1,-1,-1,-1],"loss_changes":[4.215177E-1,1.7460194E-1,9.977326E-2,2.2874206E-2,4.5117095E-2,0E0,2.1494687E-2,1.1839635E-2,7.2812065E-3,3.4881756E-2,0E0,1.3947487E-5,0E0,0E0,0E0,0E0,0E0,0E0,0E0,0E0,0E0],"parents":[2147483647,0,0,1,1,2,2,3,3,4,4,6,6,7,7,8,8,9,9,11,11],"right_children":[2,4,6,8,10,-1,12,14,16,18,-1,20,-1,-1,-1,-1,-1,-1,-1,-1,-1],"split_conditions":[2.73317E-1,8.608886E-2,8.30105E1,-8.594369E-3,8.473983E1,-3.84187E-5,4.2053588E-2,-1.913934E-2,5.0767413E-3,7.198888E-1,5.327377E-3,-2.3730852E-2,3.7732224E-3,1.7833142E-3,-1.7492454E-4,-7.6184835E-4,-4.166911E-5,2.6100664E-3,6.9016585E-4,9.856043E-3,5.5027227E-3],"split_indices":[2,27,12,15,12,0,8,1,6,32,0,30,0,0,0,0,0,0,0,0,0],"split_type":[0,0,0,0,0,0,0,0,0,0,0,0,0,0,0,0,0,0,0,0,0],"sum_hessian":[1.006E3,9.81E2,2.5E1,7.44E2,2.37E2,5E0,2E1,2.28E2,5.16E2,2.32E2,5E0,1.5E1,5E0,7E0,2.21E2,4.78E2,3.8E1,2.6E1,2.06E2,1E1,5E0],"tree_param":{"num_deleted":"0","num_feature":"33","num_nodes":"21","size_leaf_vector":"1"}},{"base_weights":[1.2258034E-3,-2.8595189E-3,9.034937E-2,-1.0755447E-2,1.4372568E-2,3.3284653E-2,1.48495E-1,-1.830207E-3,-1.2864668E-2,2.751469E-2,4.15223E-3,2.953203E-4,4.4210613E-2,4.357315E-3,8.070624E-3,-2.981881E-4,4.5643118E-4,-6.7243085E-4,8.352982E-4,1.2130169E-3,4.671994E-3,9.544408E-5,2.537176E-3,2.689194E-3,8.8478246E-4],"categories":[],"categories_nodes":[],"categories_segments":[],"categories_sizes":[],"default_left":[1,0,0,1,0,0,0,1,0,0,1,0,0,0,0,0,0,0,0,0,0,0,0,0,0],"id":20,"left_children":[1,3,5,7,9,11,13,15,17,19,21,-1,23,-1,-1,-1,-1,-1,-1,-1,-1,-1,-1,-1,-1],"loss_changes":[3.7382337E-1,1.3376874E-1,1.4437032E-1,1.2664713E-2,4.1389696E-2,6.91808E-3,3.3678412E-3,5.943301E-3,9.635575E-3,2.6696533E-2,1.8194227E-2,0E0,3.3634529E-3,0E0,0E0,0E0,0E0,0E0,0E0,0E0,0E0,0E0,0E0,0E0,0E0],"parents":[2147483647,0,0,1,1,2,2,3,3,4,4,5,5,6,6,7,7,8,8,9,9,10,10,12,12],"right_children":[2,4,6,8,10,12,14,16,18,20,22,-1,24,-1,-1,-1,-1,-1,-1,-1,-1,-1,-1,-1,-1],"split_conditions":[3.3551884E-1,5.0972025E-3,8.30105E1,-1.7592274E-2,-2.1776505E-2,-4.2706456E-2,7.3568E1,3.7916178E-1,8.8285995E1,1.6033567E-2,1.0307552E0,2.953203E-4,7.503217E-3,4.357315E-3,8.070624E-3,-2.981881E-4,4.5643118E-4,-6.7243085E-4,8.352982E-4,1.2130169E-3,4.671994E-3,9.544408E-5,2.537176E-3,2.689194E-3,8.8478246E-4],"split_indices":[25,6,12,16,15,15,10,31,10,20,14,0,20,0,0,0,0,0,0,0,0,0,0,0,0],"split_type":[0,0,0,0,0,0,0,0,0,0,0,0,0,0,0,0,0,0,0,0,0,0,0,0,0],"sum_hessian":[1.025E3,9.81E2,4.4E1,6.73E2,3.08E2,2.3E1,2.1E1,1.29E2,5.44E2,1.34E2,1.74E2,7E0,1.6E1,5E0,1.6E1,9.4E1,3.5E1,5.34E2,1E1,1.29E2,5E0,1.67E2,7E0,1.1E1,5E0],"tree_param":{"num_deleted":"0","num_feature":"33","num_nodes":"25","size_leaf_vector":"1"}},{"base_weights":[3.5994468E-4,-3.45138E-3,9.277557E-2,-1.0241521E-2,1.3068295E-2,3.0622475E-2,1.373834E-1,8.02653E-4,-1.2864962E-2,1.0990028E-2,3.7559432E-3,3.6094626E-4,3.906854E-2,8.221292E-3,4.2892825E-3,2.5225425E-4,-5.170546E-4,-7.2730175E-4,-2.665141E-4,2.1601347E-3,4.215242E-4,2.359079E-3,1.268714E-3],"categories":[],"categories_nodes":[],"categories_segments":[],"categories_sizes":[],"default_left":[1,1,0,0,0,0,0,0,1,0,0,0,0,0,0,0,0,0,0,0,0,0,0],"id":21,"left_children":[1,3,5,7,9,11,13,15,17,19,-1,-1,21,-1,-1,-1,-1,-1,-1,-1,-1,-1,-1],"loss_changes":[3.5571617E-1,1.08939625E-1,1.06693566E-1,1.9944265E-2,3.566945E-2,3.2759868E-3,1.7987192E-2,6.339956E-3,6.9649443E-3,2.2309463E-2,0E0,0E0,2.471283E-4,0E0,0E0,0E0,0E0,0E0,0E0,0E0,0E0,0E0,0E0],"parents":[2147483647,0,0,1,1,2,2,3,3,4,4,5,5,6,6,7,7,8,8,9,9,12,12],"right_children":[2,4,6,8,10,12,14,16,18,20,-1,-1,22,-1,-1,-1,-1,-1,-1,-1,-1,-1,-1],"split_conditions":[3.3551884E-1,6.1382568E-3,8.2849E1,-1.1864948E-2,1.9400476E-2,8.614138E-3,5.932808E-1,1.3225779E-1,4.559799E-3,-2.2789467E-2,3.7559432E-3,3.6094626E-4,7.552299E-1,8.221292E-3,4.2892825E-3,2.5225425E-4,-5.170546E-4,-7.2730175E-4,-2.665141E-4,2.1601347E-3,4.215242E-4,2.359079E-3,1.268714E-3],"split_indices":[25,8,12,21,20,6,26,26,8,1,0,0,32,0,0,0,0,0,0,0,0,0,0],"split_type":[0,0,0,0,0,0,0,0,0,0,0,0,0,0,0,0,0,0,0,0,0,0,0],"sum_hessian":[1.008E3,9.69E2,3.9E1,6.87E2,2.82E2,1.7E1,2.2E1,1.32E2,5.55E2,2.74E2,8E0,5E0,1.2E1,1.3E1,9E0,9.6E1,3.6E1,4.53E2,1.02E2,1.9E1,2.55E2,6E0,6E0],"tree_param":{"num_deleted":"0","num_feature":"33","num_nodes":"23","size_leaf_vector":"1"}},{"base_weights":[2.2723628E-4,-3.3020119E-3,8.2341276E-2,1.3717572E-2,-8.821125E-3,3.1296782E-2,1.2946475E-1,2.1065095E-2,3.462216E-4,-1.0212487E-2,1.00551965E-2,4.25116E-2,-1.9127628E-4,1.5082556E-1,2.546258E-3,1.2103528E-4,1.6333376E-3,2.2227725E-4,-9.4035175E-4,-2.290622E-5,-5.8697455E-4,2.1595303E-4,2.5700177E-3,9.3791896E-4,2.9451032E-3,4.750528E-3,8.740675E-3],"categories":[],"categories_nodes":[],"categories_segments":[],"categories_sizes":[],"default_left":[1,0,0,0,1,0,0,0,0,0,0,0,0,0,0,0,0,0,0,0,0,0,0,0,0,0,0],"id":22,"left_children":[1,3,5,7,9,11,13,15,17,19,21,23,-1,25,-1,-1,-1,-1,-1,-1,-1,-1,-1,-1,-1,-1,-1],"loss_changes":[2.8833392E-1,8.97331E-2,9.4569325E-2,2.298234E-2,1.9038875E-2,8.434324E-3,2.755022E-2,3.2583095E-2,6.6789E-3,1.0004021E-2,1.1636069E-2,5.1243156E-3,0E0,4.813075E-3,0E0,0E0,0E0,0E0,0E0,0E0,0E0,0E0,0E0,0E0,0E0,0E0,0E0],"parents":[2147483647,0,0,1,1,2,2,3,3,4,4,5,5,6,6,7,7,8,8,9,9,10,10,11,11,13,13],"right_children":[2,4,6,8,10,12,14,16,18,20,22,24,-1,26,-1,-1,-1,-1,-1,-1,-1,-1,-1,-1,-1,-1,-1],"split_conditions":[3.3551884E-1,8.31785E1,8.261243E-1,2.765603E-1,2.4262343E-2,7.8954864E-1,6.6015734E-3,2.0485188E-1,-2.4940766E-2,8.481E1,1.3575512E-2,1.0169941E-2,-1.9127628E-4,-9.495388E-4,2.546258E-3,1.2103528E-4,1.6333376E-3,2.2227725E-4,-9.4035175E-4,-2.290622E-5,-5.8697455E-4,2.1595303E-4,2.5700177E-3,9.3791896E-4,2.9451032E-3,4.750528E-3,8.740675E-3],"split_indices":[25,11,32,25,22,32,1,25,16,11,20,24,0,7,0,0,0,0,0,0,0,0,0,0,0,0,0],"split_type":[0,0,0,0,0,0,0,0,0,0,0,0,0,0,0,0,0,0,0,0,0,0,0,0,0,0,0],"sum_hessian":[9.93E2,9.53E2,4E1,2.33E2,7.2E2,2E1,2E1,1.5E2,8.3E1,6.71E2,4.9E1,1.5E1,5E0,1.5E1,5E0,5.8E1,9.2E1,6.9E1,1.4E1,9.1E1,5.8E2,4.4E1,5E0,7E0,8E0,6E0,9E0],"tree_param":{"num_deleted":"0","num_feature":"33","num_nodes":"27","size_leaf_vector":"1"}},{"base_weights":[8.147091E-4,-2.6357227E-3,9.03229E-2,-9.73979E-3,1.4364506E-2,2.6691236E-2,1.3066132E-1,1.8433617E-4,-1.1308802E-2,1.2464017E-2,4.0018163E-3,2.1505033E-4,3.647761E-2,1.5604907E-1,3.1776582E-3,-5.119645E-4,3.595074E-4,-4.5419723E-4,-7.35565E-4,1.3092271E-3,3.2852372E-4,2.4935887E-3,8.5019245E-4,9.112938E-3,4.0994897E-3],"categories":[],"categories_nodes":[],"categories_segments":[],"categories_sizes":[],"default_left":[1,1,0,0,0,0,0,0,1,0,0,0,0,0,0,0,0,0,0,0,0,0,0,0,0],"id":23,"left_children":[1,3,5,7,9,11,13,15,17,19,-1,-1,21,23,-1,-1,-1,-1,-1,-1,-1,-1,-1,-1,-1],"loss_changes":[3.1618333E-1,1.1921989E-1,9.4050914E-2,1.0839552E-2,3.532173E-2,3.3490174E-3,2.9268295E-2,7.084114E-3,4.415974E-3,2.2792898E-2,0E0,0E0,2.0211702E-3,1.6113788E-2,0E0,0E0,0E0,0E0,0E0,0E0,0E0,0E0,0E0,0E0,0E0],"parents":[2147483647,0,0,1,1,2,2,3,3,4,4,5,5,6,6,7,7,8,8,9,9,12,12,13,13],"right_children":[2,4,6,8,10,12,14,16,18,20,-1,-1,22,24,-1,-1,-1,-1,-1,-1,-1,-1,-1,-1,-1],"split_conditions":[3.5133496E-1,6.1382568E-3,8.30105E1,-2.6144227E-2,1.9400476E-2,-2.0279065E-3,4.9472395E-3,4.389646E-2,2.1582334E-3,-1.6944671E-2,4.0018163E-3,2.1505033E-4,5.5826847E-3,-2.067867E-2,3.1776582E-3,-5.119645E-4,3.595074E-4,-4.5419723E-4,-7.35565E-4,1.3092271E-3,3.2852372E-4,2.4935887E-3,8.5019245E-4,9.112938E-3,4.0994897E-3],"split_indices":[25,8,12,29,20,21,20,4,23,22,0,0,20,30,0,0,0,0,0,0,0,0,0,0,0],"split_type":[0,0,0,0,0,0,0,0,0,0,0,0,0,0,0,0,0,0,0,0,0,0,0,0,0],"sum_hessian":[1.022E3,9.85E2,3.7E1,6.95E2,2.9E2,1.5E1,2.2E1,9.5E1,6E2,2.83E2,7E0,5E0,1E1,1.5E1,7E0,3.8E1,5.7E1,3.65E2,2.35E2,8.4E1,1.99E2,5E0,5E0,1E1,5E0],"tree_param":{"num_deleted":"0","num_feature":"33","num_nodes":"25","size_leaf_vector":"1"}},{"base_weights":[9.372333E-4,3.0937226E-2,-6.107701E-3,1.7128695E-2,7.597131E-2,1.1808622E-2,-8.521069E-3,3.2513354E-2,5.16244E-3,3.846892E-2,1.0718304E-1,3.7211638E-3,7.641992E-3,-8.985423E-3,2.431079E-3,-1.3971368E-5,2.523898E-3,4.854403E-4,-6.7970663E-4,1.2048613E-3,3.6388615E-3,6.7629665E-3,3.391757E-3,6.24444E-4,-1.481235E-3,-1.6051838E-4,-5.7434605E-4],"categories":[],"categories_nodes":[],"categories_segments":[],"categories_sizes":[],"default_left":[0,0,0,0,0,0,1,1,0,0,0,0,0,0,0,0,0,0,0,0,0,0,0,0,0,0,0],"id":24,"left_children":[1,3,5,7,9,11,13,15,17,19,21,-1,23,25,-1,-1,-1,-1,-1,-1,-1,-1,-1,-1,-1,-1,-1],"loss_changes":[2.144958E-1,1.1871666E-1,3.564282E-2,2.7262568E-2,4.854989E-2,2.4998683E-2,1.9674331E-2,3.830622E-2,7.3802946E-3,9.09378E-3,1.7338514E-2,0E0,1.7168332E-2,1.03644505E-2,0E0,0E0,0E0,0E0,0E0,0E0,0E0,0E0,0E0,0E0,0E0,0E0,0E0],"parents":[2147483647,0,0,1,1,2,2,3,3,4,4,5,5,6,6,7,7,8,8,9,9,10,10,12,12,13,13],"right_children":[2,4,6,8,10,12,14,16,18,20,22,-1,24,26,-1,-1,-1,-1,-1,-1,-1,-1,-1,-1,-1,-1,-1],"split_conditions":[-2.1776505E-2,1.8408893E-1,8.2018E1,-1.5556539E-2,1.3081395E-2,9.802934E-2,8.775117E1,1.195632E-1,1.5119143E-1,1.715514E-2,2.4086724E-3,3.7211638E-3,3.273023E-1,-8.282278E-3,2.431079E-3,-1.3971368E-5,2.523898E-3,4.854403E-4,-6.7970663E-4,1.2048613E-3,3.6388615E-3,6.7629665E-3,3.391757E-3,6.24444E-4,-1.481235E-3,-1.6051838E-4,-5.7434605E-4],"split_indices":[15,28,11,22,6,4,12,5,2,24,18,0,5,15,0,0,0,0,0,0,0,0,0,0,0,0,0],"split_type":[0,0,0,0,0,0,0,0,0,0,0,0,0,0,0,0,0,0,0,0,0,0,0,0,0,0,0],"sum_hessian":[1.013E3,1.92E2,8.21E2,1.48E2,4.4E1,9.7E1,7.24E2,6.4E1,8.4E1,2.1E1,2.3E1,5E0,9.2E1,7.19E2,5E0,2.3E1,4.1E1,6.8E1,1.6E1,1.6E1,5E0,1.2E1,1.1E1,8.2E1,1E1,2.18E2,5.01E2],"tree_param":{"num_deleted":"0","num_feature":"33","num_nodes":"27","size_leaf_vector":"1"}},{"base_weights":[4.4105016E-4,-2.8896588E-3,8.0367304E-2,1.4970066E-2,-8.450625E-3,3.3257365E-2,1.1235113E-1,3.854092E-2,7.1617076E-3,-9.238434E-3,3.293594E-3,2.4375166E-3,7.993979E-4,7.90657E-3,8.419857E-2,3.5327435E-3,6.897081E-4,7.257842E-4,-3.3564286E-4,-3.4557987E-4,-7.6006417E-4,1.6854616E-3,5.121335E-3],"categories":[],"categories_nodes":[],"categories_segments":[],"categories_sizes":[],"default_left":[1,0,0,0,1,0,0,0,0,0,0,0,0,0,0,0,0,0,0,0,0,0,0],"id":25,"left_children":[1,3,5,7,9,11,13,15,17,19,-1,-1,-1,-1,21,-1,-1,-1,-1,-1,-1,-1,-1],"loss_changes":[2.728324E-1,9.785477E-2,5.804047E-2,4.2791605E-2,4.458101E-2,4.036559E-3,1.7617524E-2,4.5118913E-2,1.8157326E-2,1.0217622E-2,0E0,0E0,0E0,0E0,1.2192808E-2,0E0,0E0,0E0,0E0,0E0,0E0,0E0,0E0],"parents":[2147483647,0,0,1,1,2,2,3,3,4,4,5,5,6,6,7,7,8,8,9,9,14,14],"right_children":[2,4,6,8,10,12,14,16,18,20,-1,-1,-1,-1,22,-1,-1,-1,-1,-1,-1,-1,-1],"split_conditions":[3.5133496E-1,8.31785E1,8.30105E1,7.751117E-1,8.775117E1,-7.7710144E-4,3.7968132E-1,-7.2438684E-3,2.8582895E-1,-1.4898006E-3,3.293594E-3,2.4375166E-3,7.993979E-4,7.90657E-3,-2.5416479E-2,3.5327435E-3,6.897081E-4,7.257842E-4,-3.3564286E-4,-3.4557987E-4,-7.6006417E-4,1.6854616E-3,5.121335E-3],"split_indices":[25,11,12,32,12,20,3,1,25,15,0,0,0,0,17,0,0,0,0,0,0,0,0],"split_type":[0,0,0,0,0,0,0,0,0,0,0,0,0,0,0,0,0,0,0,0,0,0,0],"sum_hessian":[1.023E3,9.83E2,4E1,2.33E2,7.5E2,1.7E1,2.3E1,5.7E1,1.76E2,7.43E2,7E0,8E0,9E0,7E0,1.6E1,2.4E1,3.3E1,1.15E2,6.1E1,5.36E2,2.07E2,5E0,1.1E1],"tree_param":{"num_deleted":"0","num_feature":"33","num_nodes":"23","size_leaf_vector":"1"}},{"base_weights":[4.2053772E-4,-2.6936892E-3,7.332876E-2,1.7565016E-2,-6.9204206E-3,2.9727448E-2,1.0963321E-1,1.4704118E-2,4.5702476E-3,6.766541E-3,-8.944716E-3,4.0037714E-2,-5.013955E-5,6.96463E-3,7.8384966E-2,3.9517893E-3,6.067783E-4,7.7219214E-4,-2.380367E-4,-4.643277E-4,1.5871719E-3,9.444784E-4,2.601882E-3,2.1726065E-3,5.5948957E-3],"categories":[],"categories_nodes":[],"categories_segments":[],"categories_sizes":[],"default_left":[1,0,0,0,1,0,0,0,0,0,0,0,0,0,0,0,0,0,0,0,0,0,0,0,0],"id":26,"left_children":[1,3,5,7,9,11,13,15,-1,17,19,21,-1,-1,23,-1,-1,-1,-1,-1,-1,-1,-1,-1,-1],"loss_changes":[2.2725031E-1,8.2324535E-2,6.164065E-2,3.3723228E-2,2.2087157E-2,6.3768867E-3,9.471238E-3,2.5644377E-2,0E0,1.0376166E-2,9.933531E-3,2.8236732E-3,0E0,0E0,1.0356933E-2,0E0,0E0,0E0,0E0,0E0,0E0,0E0,0E0,0E0,0E0],"parents":[2147483647,0,0,1,1,2,2,3,3,4,4,5,5,6,6,7,7,9,9,10,10,11,11,14,14],"right_children":[2,4,6,8,10,12,14,16,-1,18,20,22,-1,-1,24,-1,-1,-1,-1,-1,-1,-1,-1,-1,-1],"split_conditions":[3.3551884E-1,-2.09289E-2,8.30105E1,1.9400476E-2,7.8935165E1,7.8954864E-1,-5.213734E-2,6.3169813E-1,4.5702476E-3,2.1373339E-1,8.775117E1,5.013345E-3,-5.013955E-5,6.96463E-3,2.199467E-2,3.9517893E-3,6.067783E-4,7.7219214E-4,-2.380367E-4,-4.643277E-4,1.5871719E-3,9.444784E-4,2.601882E-3,2.1726065E-3,5.5948957E-3],"split_indices":[25,15,12,20,12,32,29,32,0,26,12,24,0,0,9,0,0,0,0,0,0,0,0,0,0],"split_type":[0,0,0,0,0,0,0,0,0,0,0,0,0,0,0,0,0,0,0,0,0,0,0,0,0],"sum_hessian":[9.99E2,9.59E2,4E1,1.65E2,7.94E2,1.9E1,2.1E1,1.6E2,5E0,1.02E2,6.92E2,1.4E1,5E0,9E0,1.2E1,5E0,1.55E2,5.8E1,4.4E1,6.87E2,5E0,6E0,8E0,7E0,5E0],"tree_param":{"num_deleted":"0","num_feature":"33","num_nodes":"25","size_leaf_vector":"1"}},{"base_weights":[1.1478335E-3,-9.2283404E-4,8.7291546E-2,-7.205505E-3,1.3601097E-2,1.0339737E-1,1.0870594E-3,-3.5589794E-3,-1.1452507E-2,1.1351746E-2,4.742291E-3,6.701755E-3,6.893038E-2,-2.2562456E-4,9.876637E-4,-7.220675E-4,-3.046109E-4,1.0566087E-3,1.2508348E-4,4.4420394E-3,1.8765787E-3],"categories":[],"categories_nodes":[],"categories_segments":[],"categories_sizes":[],"default_left":[1,1,0,1,0,0,0,1,0,0,0,0,0,0,0,0,0,0,0,0,0],"id":27,"left_children":[1,3,5,7,9,11,-1,13,15,17,-1,-1,19,-1,-1,-1,-1,-1,-1,-1,-1],"loss_changes":[1.8237978E-1,9.1255836E-2,2.3089841E-2,1.0769032E-2,5.4113217E-2,1.082474E-2,0E0,8.469285E-3,5.070798E-3,2.5481608E-2,0E0,0E0,3.5424568E-3,0E0,0E0,0E0,0E0,0E0,0E0,0E0,0E0],"parents":[2147483647,0,0,1,1,2,2,3,3,4,4,5,5,7,7,8,8,9,9,12,12],"right_children":[2,4,6,8,10,12,-1,14,16,18,-1,-1,20,-1,-1,-1,-1,-1,-1,-1,-1],"split_conditions":[2.4843486E-1,7.257523E-2,-3.423297E-2,6.9675996E-4,8.6577E1,5.932808E-1,1.0870594E-3,8.7954E1,4.694891E-2,7.84105E1,4.742291E-3,6.701755E-3,6.6015734E-3,-2.2562456E-4,9.876637E-4,-7.220675E-4,-3.046109E-4,1.0566087E-3,1.2508348E-4,4.4420394E-3,1.8765787E-3],"split_indices":[26,4,15,1,11,26,0,11,4,11,0,0,1,0,0,0,0,0,0,0,0],"split_type":[0,0,0,0,0,0,0,0,0,0,0,0,0,0,0,0,0,0,0,0,0],"sum_hessian":[1.021E3,9.98E2,2.3E1,6.97E2,3.01E2,1.8E1,5E0,3.76E2,3.21E2,2.94E2,7E0,8E0,1E1,3.62E2,1.4E1,2.05E2,1.16E2,1.39E2,1.55E2,5E0,5E0],"tree_param":{"num_deleted":"0","num_feature":"33","num_nodes":"21","size_leaf_vector":"1"}},{"base_weights":[4.0354807E-4,-2.4618653E-3,6.706698E-2,1.4993301E-2,-5.583516E-3,1.9414652E-2,1.0001177E-1,1.1754373E-2,3.858362E-3,1.0930442E-2,-7.136004E-3,3.3281052E-5,2.8733699E-2,6.2937E-3,6.366004E-2,1.034004E-3,2.456582E-4,2.6551393E-4,3.4996904E-3,8.0644786E-5,-4.291467E-4,2.035178E-3,4.989957E-4,3.9151004E-3,1.7983875E-3],"categories":[],"categories_nodes":[],"categories_segments":[],"categories_sizes":[],"default_left":[1,0,0,0,0,0,0,0,0,0,0,0,0,0,0,0,0,0,0,0,0,0,0,0,0],"id":28,"left_children":[1,3,5,7,9,11,13,15,-1,17,19,-1,21,-1,23,-1,-1,-1,-1,-1,-1,-1,-1,-1,-1],"loss_changes":[1.900373E-1,5.2066155E-2,6.242405E-2,2.82926E-2,2.0844556E-2,3.1258892E-3,1.4550149E-2,8.386102E-3,0E0,2.286452E-2,9.394195E-3,0E0,2.2875443E-3,0E0,2.0492896E-3,0E0,0E0,0E0,0E0,0E0,0E0,0E0,0E0,0E0,0E0],"parents":[2147483647,0,0,1,1,2,2,3,3,4,4,5,5,6,6,7,7,9,9,10,10,12,12,14,14],"right_children":[2,4,6,8,10,12,14,16,-1,18,20,-1,22,-1,24,-1,-1,-1,-1,-1,-1,-1,-1,-1,-1],"split_conditions":[3.3551884E-1,-2.1776505E-2,8.30105E1,1.9400476E-2,7.8935165E1,-4.2706456E-2,5.932808E-1,-6.272216E-2,3.858362E-3,8.278E1,-6.894994E-3,3.3281052E-5,7.503217E-3,6.2937E-3,6.6015734E-3,1.034004E-3,2.456582E-4,2.6551393E-4,3.4996904E-3,8.0644786E-5,-4.291467E-4,2.035178E-3,4.989957E-4,3.9151004E-3,1.7983875E-3],"split_indices":[25,15,12,20,12,15,26,16,0,10,9,0,20,0,1,0,0,0,0,0,0,0,0,0,0],"split_type":[0,0,0,0,0,0,0,0,0,0,0,0,0,0,0,0,0,0,0,0,0,0,0,0,0],"sum_hessian":[9.93E2,9.53E2,4E1,1.44E2,8.09E2,1.7E1,2.3E1,1.38E2,6E0,6.9E1,7.4E2,6E0,1.1E1,1.2E1,1.1E1,5.9E1,7.9E1,6.4E1,5E0,1.05E2,6.35E2,6E0,5E0,6E0,5E0],"tree_param":{"num_deleted":"0","num_feature":"33","num_nodes":"25","size_leaf_vector":"1"}},{"base_weights":[2.7129732E-4,-2.4884904E-3,6.3871376E-2,1.5390946E-2,-5.1092734E-3,4.041619E-2,6.314907E-3,3.6803227E-2,-2.7839208E-3,6.3242796E-3,-7.2158836E-3,2.333589E-2,3.7829631E-3,4.9873656E-3,1.2998055E-3,1.5947294E-3,-4.6564406E-4,1.3674097E-4,1.819148E-3,7.7776756E-4,-3.913572E-4,4.6035156E-4,1.8956095E-3],"categories":[],"categories_nodes":[],"categories_segments":[],"categories_sizes":[],"default_left":[1,0,0,0,0,0,0,0,0,0,0,0,0,0,0,0,0,0,0,0,0,0,0],"id":29,"left_children":[1,3,5,7,9,11,-1,13,15,17,19,21,-1,-1,-1,-1,-1,-1,-1,-1,-1,-1,-1],"loss_changes":[1.7726135E-1,4.54373E-2,5.639322E-2,4.8358954E-2,2.0398343E-2,1.7497215E-2,0E0,3.618087E-2,1.5693223E-2,1.4142564E-2,1.0060038E-2,4.3877102E-3,0E0,0E0,0E0,0E0,0E0,0E0,0E0,0E0,0E0,0E0,0E0],"parents":[2147483647,0,0,1,1,2,2,3,3,4,4,5,5,7,7,8,8,9,9,10,10,11,11],"right_children":[2,4,6,8,10,12,-1,14,16,18,20,22,-1,-1,-1,-1,-1,-1,-1,-1,-1,-1,-1],"split_conditions":[3.3551884E-1,7.78895E1,8.07705E1,1.19256385E-1,-7.5403373E-3,9.013289E-1,6.314907E-3,4.8235306E-1,9.764431E-1,8.73665E1,9.8073417E-1,7.08096E-1,3.7829631E-3,4.9873656E-3,1.2998055E-3,1.5947294E-3,-4.6564406E-4,1.3674097E-4,1.819148E-3,7.7776756E-4,-3.913572E-4,4.6035156E-4,1.8956095E-3],"split_indices":[25,11,11,2,1,25,0,31,13,11,14,31,0,0,0,0,0,0,0,0,0,0,0],"split_type":[0,0,0,0,0,0,0,0,0,0,0,0,0,0,0,0,0,0,0,0,0,0,0],"sum_hessian":[1.008E3,9.67E2,4.1E1,1.23E2,8.44E2,3.1E1,1E1,5.6E1,6.7E1,1.31E2,7.13E2,2.2E1,9E0,7E0,4.9E1,1E1,5.7E1,1.18E2,1.3E1,1.8E1,6.95E2,1.2E1,1E1],"tree_param":{"num_deleted":"0","num_feature":"33","num_nodes":"23","size_leaf_vector":"1"}},{"base_weights":[1.2775903E-3,-1.483969E-3,5.8068022E-2,1.8946422E-2,-4.936591E-3,2.375611E-2,8.996043E-2,9.604331E-2,1.0968251E-2,-5.6190058E-3,2.5723416E-3,3.3496805E-2,1.8998758E-4,6.46878E-3,6.2166877E-2,6.150456E-3,3.190677E-3,9.2794886E-4,-2.5082726E-4,2.1471719E-4,-3.817092E-4,2.575566E-3,8.7684806E-4,4.1638482E-3,1.5323587E-3],"categories":[],"categories_nodes":[],"categories_segments":[],"categories_sizes":[],"default_left":[1,0,0,0,1,0,0,0,0,1,0,0,0,0,0,0,0,0,0,0,0,0,0,0,0],"id":30,"left_children":[1,3,5,7,9,11,13,15,17,19,-1,21,-1,-1,23,-1,-1,-1,-1,-1,-1,-1,-1,-1,-1],"loss_changes":[1.589551E-1,6.830417E-2,4.9294516E-2,8.505948E-2,3.2147937E-2,4.538051E-3,1.8248811E-2,3.44868E-3,1.5624138E-2,1.6394084E-2,0E0,3.69679E-3,0E0,0E0,8.093931E-3,0E0,0E0,0E0,0E0,0E0,0E0,0E0,0E0,0E0,0E0],"parents":[2147483647,0,0,1,1,2,2,3,3,4,4,5,5,6,6,7,7,8,8,9,9,11,11,14,14],"right_children":[2,4,6,8,10,12,14,16,18,20,-1,22,-1,-1,24,-1,-1,-1,-1,-1,-1,-1,-1,-1,-1],"split_conditions":[3.3551884E-1,7.970717E1,8.30105E1,4.7298706E-1,8.775117E1,9.6851647E-1,3.7968132E-1,4.9721897E-3,1.0102751E0,-3.4649953E-2,2.5723416E-3,1.7901243E-1,1.8998758E-4,6.46878E-3,-1.4802669E-1,6.150456E-3,3.190677E-3,9.2794886E-4,-2.5082726E-4,2.1471719E-4,-3.817092E-4,2.575566E-3,8.7684806E-4,4.1638482E-3,1.5323587E-3],"split_indices":[25,12,12,31,12,14,3,9,14,16,0,3,0,0,16,0,0,0,0,0,0,0,0,0,0],"split_type":[0,0,0,0,0,0,0,0,0,0,0,0,0,0,0,0,0,0,0,0,0,0,0,0,0],"sum_hessian":[1.012E3,9.66E2,4.6E1,1.39E2,8.27E2,2.3E1,2.3E1,1.2E1,1.27E2,8.18E2,9E0,1.5E1,8E0,8E0,1.5E1,5E0,7E0,8.6E1,4.1E1,1.38E2,6.8E2,6E0,9E0,8E0,7E0],"tree_param":{"num_deleted":"0","num_feature":"33","num_nodes":"25","size_leaf_vector":"1"}},{"base_weights":[2.8981973E-4,2.358094E-2,-4.954516E-3,1.4610892E-2,6.527023E-2,-5.6039183E-3,4.0050644E-2,2.7889159E-2,4.301532E-3,3.3352703E-2,9.001524E-2,1.4967782E-2,-6.7279325E-3,4.015192E-3,-6.7932595E-4,4.49454E-3,7.82469E-4,4.324555E-4,-7.3102553E-4,2.757861E-3,7.377136E-4,6.838651E-3,3.075524E-3,9.7211153E-4,-2.0479683E-4,-8.011277E-5,-4.5597367E-4],"categories":[],"categories_nodes":[],"categories_segments":[],"categories_sizes":[],"default_left":[0,0,1,0,0,0,0,0,0,0,0,0,1,0,0,0,0,0,0,0,0,0,0,0,0,0,0],"id":31,"left_children":[1,3,5,7,9,11,13,15,17,19,21,23,25,-1,-1,-1,-1,-1,-1,-1,-1,-1,-1,-1,-1,-1,-1],"loss_changes":[1.2495051E-1,6.934986E-2,2.4628526E-2,2.123494E-2,2.3061141E-2,1.9153962E-2,2.6999857E-2,5.019753E-2,7.448045E-3,5.6746714E-3,1.5577763E-2,3.7475182E-3,9.571351E-3,0E0,0E0,0E0,0E0,0E0,0E0,0E0,0E0,0E0,0E0,0E0,0E0,0E0,0E0],"parents":[2147483647,0,0,1,1,2,2,3,3,4,4,5,5,6,6,7,7,8,8,9,9,10,10,11,11,12,12],"right_children":[2,4,6,8,10,12,14,16,18,20,22,24,26,-1,-1,-1,-1,-1,-1,-1,-1,-1,-1,-1,-1,-1,-1],"split_conditions":[-2.1776505E-2,2.1265626E-1,1.0307552E0,8.020033E1,1.3682093E-2,9.8073417E-1,1.2769985E-1,5.037406E-1,1.2650548E-1,7.9074E1,4.1249695E-1,9.823786E-3,-7.224672E-3,4.015192E-3,-6.7932595E-4,4.49454E-3,7.82469E-4,4.324555E-4,-7.3102553E-4,2.757861E-3,7.377136E-4,6.838651E-3,3.075524E-3,9.7211153E-4,-2.0479683E-4,-8.011277E-5,-4.5597367E-4],"split_indices":[15,28,14,12,6,14,4,31,3,10,31,20,30,0,0,0,0,0,0,0,0,0,0,0,0,0,0],"split_type":[0,0,0,0,0,0,0,0,0,0,0,0,0,0,0,0,0,0,0,0,0,0,0,0,0,0,0],"sum_hessian":[1.021E3,1.87E2,8.34E2,1.55E2,3.2E1,8.23E2,1.1E1,6.7E1,8.8E1,1.5E1,1.7E1,4.2E1,7.81E2,6E0,5E0,1E1,5.7E1,7.2E1,1.6E1,6E0,9E0,5E0,1.2E1,3.4E1,8E0,2.49E2,5.32E2],"tree_param":{"num_deleted":"0","num_feature":"33","num_nodes":"27","size_leaf_vector":"1"}},{"base_weights":[3.1827786E-4,5.386875E-2,-2.0297787E-3,7.040182E-2,1.1571759E-2,-6.488479E-3,8.681463E-3,8.4706046E-2,5.6506816E-4,1.154516E-3,-7.999539E-5,-7.125659E-3,1.5953096E-2,5.537045E-3,3.2239735E-2,2.0237677E-3,4.8600486E-3,-4.699918E-4,-1.3634523E-4,1.6446229E-3,1.6653814E-4,4.3794684E-4,-3.9290215E-4,4.456299E-3,9.449203E-4],"categories":[],"categories_nodes":[],"categories_segments":[],"categories_sizes":[],"default_left":[0,0,0,0,0,1,0,0,0,0,0,0,0,0,0,0,0,0,0,0,0,0,0,0,0],"id":32,"left_children":[1,3,5,7,9,11,13,15,-1,-1,-1,17,19,21,23,-1,-1,-1,-1,-1,-1,-1,-1,-1,-1],"loss_changes":[1.2572314E-1,2.85559E-2,4.5808703E-2,2.4404287E-2,2.0092847E-3,9.794315E-3,2.0711215E-2,9.329572E-3,0E0,0E0,0E0,6.5667033E-3,3.952914E-3,1.085821E-2,2.3360614E-2,0E0,0E0,0E0,0E0,0E0,0E0,0E0,0E0,0E0,0E0],"parents":[2147483647,0,0,1,1,2,2,3,3,4,4,5,5,6,6,7,7,11,11,12,12,13,13,14,14],"right_children":[2,4,6,8,10,12,14,16,-1,-1,-1,18,20,22,24,-1,-1,-1,-1,-1,-1,-1,-1,-1,-1],"split_conditions":[-2.111245E-2,-6.498567E-2,5.0767413E-3,5.746274E-1,8.673321E-2,1.3233972E-1,2.1265626E-1,2.5266242E-1,5.6506816E-4,1.154516E-3,-7.999539E-5,7.267349E-3,8.828565E-2,1.3928838E-1,-3.2216586E-2,2.0237677E-3,4.8600486E-3,-4.699918E-4,-1.3634523E-4,1.6446229E-3,1.6653814E-4,4.3794684E-4,-3.9290215E-4,4.456299E-3,9.449203E-4],"split_indices":[23,16,6,31,2,5,28,25,0,0,0,24,2,2,30,0,0,0,0,0,0,0,0,0,0],"split_type":[0,0,0,0,0,0,0,0,0,0,0,0,0,0,0,0,0,0,0,0,0,0,0,0,0],"sum_hessian":[9.98E2,4.1E1,9.57E2,2.9E1,1.2E1,6.76E2,2.81E2,2.3E1,6E0,6E0,6E0,6.58E2,1.8E1,2.49E2,3.2E1,6E0,1.7E1,4.33E2,2.25E2,7E0,1.1E1,2.01E2,4.8E1,5E0,2.7E1],"tree_param":{"num_deleted":"0","num_feature":"33","num_nodes":"25","size_leaf_vector":"1"}},{"base_weights":[-1.5617056E-4,-2.385726E-3,5.0401334E-2,9.323463E-3,-5.457627E-3,2.7429355E-2,7.797492E-2,2.7828164E-2,4.8931185E-3,-6.0337693E-3,2.9225382E-3,3.9336808E-2,-4.4046738E-4,5.311697E-3,2.095921E-3,2.0448684E-3,-2.4928304E-4,1.3332079E-4,2.7386034E-3,6.5371994E-4,-3.3743138E-4,2.7481613E-3,7.933546E-4],"categories":[],"categories_nodes":[],"categories_segments":[],"categories_sizes":[],"default_left":[1,0,0,0,1,0,0,0,1,0,0,0,0,0,0,0,0,0,0,0,0,0,0],"id":33,"left_children":[1,3,5,7,9,11,13,15,17,19,-1,21,-1,-1,-1,-1,-1,-1,-1,-1,-1,-1,-1],"loss_changes":[1.1475726E-1,3.5121117E-2,2.5098257E-2,1.650622E-2,2.8814787E-2,1.1134297E-2,1.4906332E-2,1.6929071E-2,1.8179778E-2,1.0565165E-2,0E0,6.0960967E-3,0E0,0E0,0E0,0E0,0E0,0E0,0E0,0E0,0E0,0E0,0E0],"parents":[2147483647,0,0,1,1,2,2,3,3,4,4,5,5,6,6,7,7,8,8,9,9,11,11],"right_children":[2,4,6,8,10,12,14,16,18,20,-1,22,-1,-1,-1,-1,-1,-1,-1,-1,-1,-1,-1],"split_conditions":[3.3551884E-1,-1.7287081E-2,1.573977E-3,7.5953835E1,1.0245495E0,9.6851647E-1,6.6015734E-3,1.5337881E-1,8.775117E1,9.8073417E-1,2.9225382E-3,1.0050462E0,-4.4046738E-4,5.311697E-3,2.095921E-3,2.0448684E-3,-2.4928304E-4,1.3332079E-4,2.7386034E-3,6.5371994E-4,-3.3743138E-4,2.7481613E-3,7.933546E-4],"split_indices":[25,15,7,12,13,14,1,3,12,14,0,13,0,0,0,0,0,0,0,0,0,0,0],"split_type":[0,0,0,0,0,0,0,0,0,0,0,0,0,0,0,0,0,0,0,0,0,0,0],"sum_hessian":[1.016E3,9.74E2,4.2E1,2.02E2,7.72E2,2.4E1,1.8E1,3.8E1,1.64E2,7.66E2,6E0,1.8E1,6E0,9E0,9E0,2.7E1,1.1E1,1.58E2,6E0,2.7E1,7.39E2,1E1,8E0],"tree_param":{"num_deleted":"0","num_feature":"33","num_nodes":"23","size_leaf_vector":"1"}},{"base_weights":[7.788662E-4,-1.3681041E-3,6.1055806E-2,8.535304E-3,-6.340399E-3,6.4959936E-3,4.52478E-2,1.9909414E-2,2.0800699E-3,-6.93903E-3,1.8699499E-3,7.146384E-2,1.426751E-2,1.5801017E-3,1.8498028E-4,3.0651008E-4,-4.229034E-4,-3.6522892E-4,1.376303E-3,1.6371667E-3,4.5710905E-3,-2.7036233E-4,1.6079415E-3],"categories":[],"categories_nodes":[],"categories_segments":[],"categories_sizes":[],"default_left":[1,0,0,0,1,0,0,0,0,1,0,0,0,0,0,0,0,0,0,0,0,0,0],"id":34,"left_children":[1,3,5,7,9,-1,11,13,15,17,-1,19,21,-1,-1,-1,-1,-1,-1,-1,-1,-1,-1],"loss_changes":[1.3169636E-1,4.8459657E-2,3.2222524E-2,2.4114603E-2,1.7409869E-2,0E0,2.3345802E-2,2.2437755E-2,9.057507E-3,8.352399E-3,0E0,9.371065E-3,5.454E-3,0E0,0E0,0E0,0E0,0E0,0E0,0E0,0E0,0E0,0E0],"parents":[2147483647,0,0,1,1,2,2,3,3,4,4,6,6,7,7,8,8,9,9,11,11,12,12],"right_children":[2,4,6,8,10,-1,12,14,16,18,-1,20,22,-1,-1,-1,-1,-1,-1,-1,-1,-1,-1],"split_conditions":[4.1743076E-1,8.4746E1,4.1249695E-1,-1.1742507E-2,8.775117E1,6.4959936E-3,7.6634E1,1.15202926E-1,1.0092089E0,8.81275E1,1.8699499E-3,7.3568E1,7.08096E-1,1.5801017E-3,1.8498028E-4,3.0651008E-4,-4.229034E-4,-3.6522892E-4,1.376303E-3,1.6371667E-3,4.5710905E-3,-2.7036233E-4,1.6079415E-3],"split_indices":[25,10,31,22,12,0,10,2,14,11,0,10,31,0,0,0,0,0,0,0,0,0,0],"split_type":[0,0,0,0,0,0,0,0,0,0,0,0,0,0,0,0,0,0,0,0,0,0,0],"sum_hessian":[1.016E3,9.82E2,3.4E1,3.28E2,6.54E2,5E0,2.9E1,1.18E2,2.1E2,6.46E2,8E0,1.5E1,1.4E1,6.8E1,5E1,1.52E2,5.8E1,6.4E2,6E0,6E0,9E0,7E0,7E0],"tree_param":{"num_deleted":"0","num_feature":"33","num_nodes":"23","size_leaf_vector":"1"}},{"base_weights":[4.3874452E-4,-1.6964591E-3,5.023341E-2,1.7133582E-2,-4.2023826E-3,1.9390061E-2,7.621066E-2,2.9118482E-2,1.3620077E-3,-4.754211E-3,2.230659E-3,2.2391496E-5,2.69371E-2,1.0417196E-1,4.1898474E-2,8.260635E-4,2.2527738E-3,1.3171935E-3,-5.762361E-4,-2.58739E-4,2.0788456E-3,1.732298E-3,6.5887754E-4,6.388318E-3,2.9641585E-3,2.9381204E-3,1.072909E-3],"categories":[],"categories_nodes":[],"categories_segments":[],"categories_sizes":[],"default_left":[1,0,0,0,1,0,0,0,0,1,0,0,0,0,0,0,0,0,0,0,0,0,0,0,0,0,0],"id":35,"left_children":[1,3,5,7,9,11,13,15,17,19,-1,-1,21,23,25,-1,-1,-1,-1,-1,-1,-1,-1,-1,-1,-1,-1],"loss_changes":[1.11191444E-1,4.7400206E-2,3.2974973E-2,2.2264786E-2,2.4078986E-2,2.9900484E-3,1.7701864E-2,1.270666E-2,1.70442E-2,1.7303862E-2,0E0,0E0,1.1345083E-3,5.135089E-3,2.8755087E-3,0E0,0E0,0E0,0E0,0E0,0E0,0E0,0E0,0E0,0E0,0E0,0E0],"parents":[2147483647,0,0,1,1,2,2,3,3,4,4,5,5,6,6,7,7,8,8,9,9,12,12,13,13,14,14],"right_children":[2,4,6,8,10,12,14,16,18,20,-1,-1,22,24,26,-1,-1,-1,-1,-1,-1,-1,-1,-1,-1,-1,-1],"split_conditions":[3.3551884E-1,9.8419553E-1,8.30105E1,2.8073698E-1,8.775117E1,-4.2706456E-2,4.0138856E-1,2.4516222E-1,1.237467E-1,1.0245495E0,2.230659E-3,2.2391496E-5,1.5425964E-1,1.6636961E-3,-2.2636263E-3,8.260635E-4,2.2527738E-3,1.3171935E-3,-5.762361E-4,-2.58739E-4,2.0788456E-3,1.732298E-3,6.5887754E-4,6.388318E-3,2.9641585E-3,2.9381204E-3,1.072909E-3],"split_indices":[25,14,12,25,12,15,2,25,3,13,0,0,2,20,18,0,0,0,0,0,0,0,0,0,0,0,0],"split_type":[0,0,0,0,0,0,0,0,0,0,0,0,0,0,0,0,0,0,0,0,0,0,0,0,0,0,0],"sum_hessian":[1.044E3,1.002E3,4.2E1,1.17E2,8.85E2,2E1,2.2E1,6.6E1,5.1E1,8.76E2,9E0,6E0,1.4E1,1.1E1,1.1E1,3.8E1,2.8E1,1.7E1,3.4E1,8.69E2,7E0,8E0,6E0,6E0,5E0,5E0,6E0],"tree_param":{"num_deleted":"0","num_feature":"33","num_nodes":"27","size_leaf_vector":"1"}},{"base_weights":[-1.4449515E-4,-1.8354206E-3,5.287886E-2,1.1657683E-2,-4.292444E-3,3.8297452E-2,5.3625912E-3,2.1907495E-2,2.4944823E-4,-4.9379487E-3,4.380646E-2,5.4587953E-2,3.3869297E-4,-3.02757E-4,1.7109733E-3,3.2345796E-4,-1.2990006E-3,-2.6025585E-4,1.3284074E-3,7.651449E-4,3.2504473E-3,1.248343E-3,3.907186E-3],"categories":[],"categories_nodes":[],"categories_segments":[],"categories_sizes":[],"default_left":[1,0,0,0,1,0,0,0,0,1,0,0,0,0,0,0,0,0,0,0,0,0,0],"id":36,"left_children":[1,3,5,7,9,11,-1,13,15,17,19,21,-1,-1,-1,-1,-1,-1,-1,-1,-1,-1,-1],"loss_changes":[8.9934915E-2,3.227463E-2,2.0470396E-2,1.7534377E-2,2.5768884E-2,1.2982141E-2,0E0,2.7404942E-2,1.1914124E-2,6.981658E-3,5.6529846E-3,9.910703E-3,0E0,0E0,0E0,0E0,0E0,0E0,0E0,0E0,0E0,0E0,0E0],"parents":[2147483647,0,0,1,1,2,2,3,3,4,4,5,5,7,7,8,8,9,9,10,10,11,11],"right_children":[2,4,6,8,10,12,-1,14,16,18,20,22,-1,-1,-1,-1,-1,-1,-1,-1,-1,-1,-1],"split_conditions":[3.5133496E-1,-4.722063E-2,8.1498E1,8.063558E-1,8.775117E1,7.9074E1,5.3625912E-3,2.2285101E-1,2.9897755E-1,8.81275E1,-4.391384E-2,-5.9406115E-3,3.3869297E-4,-3.02757E-4,1.7109733E-3,3.2345796E-4,-1.2990006E-3,-2.6025585E-4,1.3284074E-3,7.651449E-4,3.2504473E-3,1.248343E-3,3.907186E-3],"split_indices":[25,16,10,32,12,10,0,25,25,11,21,17,0,0,0,0,0,0,0,0,0,0,0],"split_type":[0,0,0,0,0,0,0,0,0,0,0,0,0,0,0,0,0,0,0,0,0,0,0],"sum_hessian":[1.001E3,9.71E2,3E1,1.49E2,8.22E2,2.5E1,5E0,7.8E1,7.1E1,8.12E2,1E1,1.6E1,9E0,2.4E1,5.4E1,5.8E1,1.3E1,8.06E2,6E0,5E0,5E0,8E0,8E0],"tree_param":{"num_deleted":"0","num_feature":"33","num_nodes":"23","size_leaf_vector":"1"}},{"base_weights":[6.878931E-4,-1.3056413E-3,5.2134454E-2,1.4757114E-2,-3.8642792E-3,3.3703823E-2,5.388859E-3,4.928025E-3,7.988933E-3,-4.3888227E-3,2.2732099E-3,4.8983753E-2,1.2742203E-2,1.0897674E-3,-1.8661217E-4,1.2485604E-4,-3.3826925E-4,1.3468934E-3,3.8314804E-3,1.1446448E-3,-2.3037691E-4],"categories":[],"categories_nodes":[],"categories_segments":[],"categories_sizes":[],"default_left":[1,0,0,0,1,0,0,0,0,0,0,0,0,0,0,0,0,0,0,0,0],"id":37,"left_children":[1,3,5,7,9,11,-1,-1,13,15,-1,17,19,-1,-1,-1,-1,-1,-1,-1,-1],"loss_changes":[1.0447464E-1,4.0374927E-2,3.5337657E-2,7.578415E-2,2.2115601E-2,8.984603E-3,0E0,0E0,2.0471603E-2,1.3747023E-2,0E0,8.296877E-3,2.5710466E-3,0E0,0E0,0E0,0E0,0E0,0E0,0E0,0E0],"parents":[2147483647,0,0,1,1,2,2,3,3,4,4,5,5,8,8,9,9,11,11,12,12],"right_children":[2,4,6,8,10,12,-1,-1,14,16,-1,18,20,-1,-1,-1,-1,-1,-1,-1,-1],"split_conditions":[3.5133496E-1,7.9546165E1,8.1635E1,4.7298706E-1,8.775117E1,4.9472395E-3,5.388859E-3,4.928025E-3,1.19256385E-1,-1.2262842E-2,2.2732099E-3,9.103375E-1,2.6197422E-2,1.0897674E-3,-1.8661217E-4,1.2485604E-4,-3.3826925E-4,1.3468934E-3,3.8314804E-3,1.1446448E-3,-2.3037691E-4],"split_indices":[25,12,11,31,12,20,0,0,2,15,0,32,24,0,0,0,0,0,0,0,0],"split_type":[0,0,0,0,0,0,0,0,0,0,0,0,0,0,0,0,0,0,0,0,0],"sum_hessian":[1.017E3,9.8E2,3.7E1,1.34E2,8.46E2,2.9E1,8E0,9E0,1.25E2,8.38E2,8E0,1.6E1,1.3E1,5.7E1,6.8E1,2.15E2,6.23E2,1E1,6E0,8E0,5E0],"tree_param":{"num_deleted":"0","num_feature":"33","num_nodes":"21","size_leaf_vector":"1"}},{"base_weights":[1.1137712E-3,-3.247199E-3,1.739088E-2,-3.7763058E-3,1.943847E-3,1.4328753E-2,6.7742646E-2,1.3766708E-2,-4.804574E-3,2.7058326E-2,3.950701E-3,4.593183E-3,1.4155515E-3,-2.2287655E-4,1.3277467E-3,-1.2544343E-4,-4.5099153E-4,4.2286282E-3,9.456849E-4,9.148052E-4,-3.271089E-4],"categories":[],"categories_nodes":[],"categories_segments":[],"categories_sizes":[],"default_left":[1,1,0,0,0,0,0,0,0,0,0,0,0,0,0,0,0,0,0,0,0],"id":38,"left_children":[1,3,5,7,-1,9,11,13,15,17,19,-1,-1,-1,-1,-1,-1,-1,-1,-1,-1],"loss_changes":[7.189228E-2,1.795505E-2,3.2024615E-2,1.4316892E-2,0E0,2.6711062E-2,8.812815E-3,1.0372819E-2,7.2060786E-3,4.102774E-2,1.7128972E-2,0E0,0E0,0E0,0E0,0E0,0E0,0E0,0E0,0E0,0E0],"parents":[2147483647,0,0,1,1,2,2,3,3,5,5,6,6,7,7,8,8,9,9,10,10],"right_children":[2,4,6,8,-1,10,12,14,16,18,20,-1,-1,-1,-1,-1,-1,-1,-1,-1,-1],"split_conditions":[8.875591E-3,8.775117E1,8.56015E1,-4.763111E-2,1.943847E-3,1.15202926E-1,9.1336644E-1,2.2285101E-1,-2.2954207E-3,7.4423635E-1,9.758764E-1,4.593183E-3,1.4155515E-3,-2.2287655E-4,1.3277467E-3,-1.2544343E-4,-4.5099153E-4,4.2286282E-3,9.456849E-4,9.148052E-4,-3.271089E-4],"split_indices":[8,12,12,16,0,2,32,25,15,32,14,0,0,0,0,0,0,0,0,0,0],"split_type":[0,0,0,0,0,0,0,0,0,0,0,0,0,0,0,0,0,0,0,0,0],"sum_hessian":[1.011E3,7.98E2,2.13E2,7.89E2,9E0,2.02E2,1.1E1,4.3E1,7.46E2,9E1,1.12E2,6E0,5E0,1.8E1,2.5E1,4.84E2,2.62E2,1E1,8E1,4.7E1,6.5E1],"tree_param":{"num_deleted":"0","num_feature":"33","num_nodes":"21","size_leaf_vector":"1"}},{"base_weights":[-1.4204059E-4,-1.4347305E-3,5.7112418E-2,-5.080875E-3,6.3534523E-3,5.12563E-3,3.651782E-2,-1.3031242E-4,-6.8509253E-3,5.158969E-3,3.1713021E-3,6.392345E-4,4.6143364E-2,-2.1703106E-4,5.091654E-4,4.958928E-4,-3.7146767E-4,6.336256E-4,-7.362663E-5,1.2169293E-3,3.012879E-3],"categories":[],"categories_nodes":[],"categories_segments":[],"categories_sizes":[],"default_left":[1,1,0,1,0,0,0,1,0,0,0,0,0,0,0,0,0,0,0,0,0],"id":39,"left_children":[1,3,5,7,9,-1,11,13,15,17,-1,-1,19,-1,-1,-1,-1,-1,-1,-1,-1],"loss_changes":[7.0393585E-2,2.644134E-2,1.5891425E-2,5.554689E-3,1.991994E-2,0E0,3.06518E-3,7.3393546E-3,4.603369E-3,1.4567874E-2,0E0,0E0,1.9187462E-3,0E0,0E0,0E0,0E0,0E0,0E0,0E0,0E0],"parents":[2147483647,0,0,1,1,2,2,3,3,4,4,6,6,7,7,8,8,9,9,12,12],"right_children":[2,4,6,8,10,-1,12,14,16,18,-1,-1,20,-1,-1,-1,-1,-1,-1,-1,-1],"split_conditions":[4.918072E-1,7.068386E-2,3.7968132E-1,-8.48714E-3,1.0245495E0,5.12563E-3,-2.5416479E-2,5.4441564E-2,1.9984457E-1,-1.8720217E-2,3.1713021E-3,6.392345E-4,9.187464E-1,-2.1703106E-4,5.091654E-4,4.958928E-4,-3.7146767E-4,6.336256E-4,-7.362663E-5,1.2169293E-3,3.012879E-3],"split_indices":[25,2,3,30,13,0,17,4,31,15,0,0,32,0,0,0,0,0,0,0,0],"split_type":[0,0,0,0,0,0,0,0,0,0,0,0,0,0,0,0,0,0,0,0,0],"sum_hessian":[9.49E2,9.29E2,2E1,6.33E2,2.96E2,5E0,1.5E1,1.67E2,4.66E2,2.91E2,5E0,5E0,1E1,1.19E2,4.8E1,1.5E1,4.51E2,1.36E2,1.55E2,5E0,5E0],"tree_param":{"num_deleted":"0","num_feature":"33","num_nodes":"21","size_leaf_vector":"1"}},{"base_weights":[-9.274116E-5,1.5057293E-2,-3.3443428E-3,1.11835655E-2,3.9121406E-3,-3.8806696E-3,2.02431E-3,4.7240336E-3,3.091959E-2,1.1055781E-2,-4.8765675E-3,1.4286254E-4,1.8158926E-3,3.2314546E-3,6.4802833E-4,1.1024654E-3,-1.1153298E-4,-1.6677275E-4,-6.06416E-4],"categories":[],"categories_nodes":[],"categories_segments":[],"categories_sizes":[],"default_left":[0,1,1,0,0,0,0,0,0,0,1,0,0,0,0,0,0,0,0],"id":40,"left_children":[1,3,5,7,-1,9,-1,11,13,15,17,-1,-1,-1,-1,-1,-1,-1,-1],"loss_changes":[4.9065925E-2,4.220334E-2,1.943326E-2,2.114401E-2,0E0,1.2117684E-2,0E0,7.386538E-3,2.3983344E-2,7.4984906E-3,8.464305E-3,0E0,0E0,0E0,0E0,0E0,0E0,0E0,0E0],"parents":[2147483647,0,0,1,1,2,2,3,3,5,5,7,7,8,8,9,9,10,10],"right_children":[2,4,6,8,-1,10,-1,12,14,16,18,-1,-1,-1,-1,-1,-1,-1,-1],"split_conditions":[-2.1776505E-2,8.7268E1,1.0307552E0,9.9439895E-1,3.9121406E-3,7.75215E1,2.02431E-3,4.1491736E-2,7.198888E-1,7.267349E-3,-1.16117044E-4,1.4286254E-4,1.8158926E-3,3.2314546E-3,6.4802833E-4,1.1024654E-3,-1.1153298E-4,-1.6677275E-4,-6.06416E-4],"split_indices":[15,12,14,13,0,11,0,30,32,24,15,0,0,0,0,0,0,0,0],"split_type":[0,0,0,0,0,0,0,0,0,0,0,0,0,0,0,0,0,0,0],"sum_hessian":[9.94E2,1.75E2,8.19E2,1.66E2,9E0,8.1E2,9E0,1.26E2,4E1,5E1,7.6E2,1.2E2,6E0,1.3E1,2.7E1,2.7E1,2.3E1,6.28E2,1.32E2],"tree_param":{"num_deleted":"0","num_feature":"33","num_nodes":"19","size_leaf_vector":"1"}},{"base_weights":[4.314902E-4,3.9474122E-2,-1.1822875E-3,1.7858366E-2,5.818084E-2,-3.8705885E-3,8.08421E-3,2.5390673E-3,1.2127789E-4,7.633509E-2,1.5288829E-3,-4.13009E-3,1.4519601E-3,6.240015E-3,3.6102876E-3,1.262582E-3,-8.3228864E-4,2.208268E-3,5.0571957E-3,1.3038168E-3,-2.2051227E-4,6.9654634E-4,-5.4405926E-5],"categories":[],"categories_nodes":[],"categories_segments":[],"categories_sizes":[],"default_left":[0,0,1,0,0,1,1,0,0,0,0,0,0,0,0,0,0,0,0,0,0,0,0],"id":41,"left_children":[1,3,5,7,9,11,13,-1,15,17,-1,19,-1,21,-1,-1,-1,-1,-1,-1,-1,-1,-1],"loss_changes":[6.349384E-2,1.5135378E-2,2.4145268E-2,1.1672995E-2,8.189276E-3,6.5335818E-3,2.5328506E-2,0E0,6.319402E-3,5.1100627E-3,0E0,6.428018E-3,0E0,1.2019844E-2,0E0,0E0,0E0,0E0,0E0,0E0,0E0,0E0,0E0],"parents":[2147483647,0,0,1,1,2,2,3,3,4,4,5,5,6,6,8,8,9,9,11,11,13,13],"right_children":[2,4,6,8,10,12,14,-1,16,18,-1,20,-1,22,-1,-1,-1,-1,-1,-1,-1,-1,-1],"split_conditions":[-2.1976015E-2,2.9436508E-1,8.750278E-2,7.751117E-1,3.7968132E-1,1.0307552E0,8.771817E1,2.5390673E-3,-4.7613233E-3,2.3614381E-1,1.5288829E-3,7.4325E1,1.4519601E-3,1.19256385E-1,3.6102876E-3,1.262582E-3,-8.3228864E-4,2.208268E-3,5.0571957E-3,1.3038168E-3,-2.2051227E-4,6.9654634E-4,-5.4405926E-5],"split_indices":[1,25,2,32,3,14,12,0,7,3,0,11,0,2,0,0,0,0,0,0,0,0,0],"split_type":[0,0,0,0,0,0,0,0,0,0,0,0,0,0,0,0,0,0,0,0,0,0,0],"sum_hessian":[1.006E3,3.9E1,9.67E2,1.9E1,2E1,7.5E2,2.17E2,6E0,1.3E1,1.1E1,9E0,7.45E2,5E0,2.12E2,5E0,5E0,8E0,6E0,5E0,6E0,7.39E2,1.03E2,1.09E2],"tree_param":{"num_deleted":"0","num_feature":"33","num_nodes":"23","size_leaf_vector":"1"}},{"base_weights":[6.6734006E-4,2.4243122E-2,-1.9300659E-3,1.5840566E-2,5.5498548E-2,-5.9810453E-3,1.6122793E-3,3.0525418E-3,9.341353E-3,4.2812824E-3,4.0732227E-2,-3.6941709E-3,-1.0238386E-2,2.0046632E-3,1.052405E-3,-6.1935345E-5,1.4640706E-3,3.0616242E-3,-1.8201415E-4,-3.4468397E-4,6.5659675E-5,-4.5695782E-4,-9.1179943E-4,1.0670092E-4,-9.445688E-4],"categories":[],"categories_nodes":[],"categories_segments":[],"categories_sizes":[],"default_left":[0,0,0,0,0,1,0,0,0,0,0,0,1,0,0,0,0,0,0,0,0,0,0,0,0],"id":42,"left_children":[1,3,5,7,9,11,13,-1,15,-1,17,19,21,-1,23,-1,-1,-1,-1,-1,-1,-1,-1,-1,-1],"loss_changes":[6.2323682E-2,2.564605E-2,1.3168564E-2,2.3230024E-2,5.854465E-3,4.1291853E-3,1.0514619E-2,0E0,1.5225898E-2,0E0,1.4777269E-2,4.4949623E-3,1.1432283E-3,0E0,1.0480899E-2,0E0,0E0,0E0,0E0,0E0,0E0,0E0,0E0,0E0,0E0],"parents":[2147483647,0,0,1,1,2,2,3,3,4,4,5,5,6,6,8,8,10,10,11,11,12,12,14,14],"right_children":[2,4,6,8,10,12,14,-1,16,-1,18,20,22,-1,24,-1,-1,-1,-1,-1,-1,-1,-1,-1,-1],"split_conditions":[-6.881745E-2,8.30105E1,3.0849548E-3,1.3479279E-1,-7.420814E-2,2.9458439E-3,-2.3428721E-2,3.0525418E-3,4.0571587E-3,4.2812824E-3,9.711946E-1,1.0032004E0,7.751683E-2,2.0046632E-3,1.6879074E-1,-6.1935345E-5,1.4640706E-3,3.0616242E-3,-1.8201415E-4,-3.4468397E-4,6.5659675E-5,-4.5695782E-4,-9.1179943E-4,1.0670092E-4,-9.445688E-4],"split_indices":[16,12,6,28,30,1,18,0,24,0,14,14,5,0,2,0,0,0,0,0,0,0,0,0,0],"split_type":[0,0,0,0,0,0,0,0,0,0,0,0,0,0,0,0,0,0,0,0,0,0,0,0,0],"sum_hessian":[1.016E3,1E2,9.16E2,8E1,2E1,4.27E2,4.89E2,9E0,7.1E1,5E0,1.5E1,2.79E2,1.48E2,6E0,4.83E2,4.7E1,2.4E1,1E1,5E0,1.7E2,1.09E2,1.32E2,1.6E1,4.59E2,2.4E1],"tree_param":{"num_deleted":"0","num_feature":"33","num_nodes":"25","size_leaf_vector":"1"}},{"base_weights":[6.332662E-4,3.714692E-2,-9.028292E-4,6.982759E-2,2.1216035E-2,9.779629E-3,-2.8722843E-3,4.6549696E-3,2.1822646E-3,2.4476626E-3,4.412729E-2,5.5622854E-3,4.0866394E-2,-3.3506975E-3,2.0411504E-3,1.1710072E-3,-4.1212747E-4,1.1336117E-3,3.268974E-3,1.4913332E-4,2.6153184E-3,3.514252E-3,1.8191511E-4,-1.4342682E-4,-1.363974E-3],"categories":[],"categories_nodes":[],"categories_segments":[],"categories_sizes":[],"default_left":[0,0,0,0,0,0,1,0,0,0,0,1,0,1,0,0,0,0,0,0,0,0,0,0,0],"id":43,"left_children":[1,3,5,7,9,11,13,-1,-1,15,17,19,21,23,-1,-1,-1,-1,-1,-1,-1,-1,-1,-1,-1],"loss_changes":[5.696332E-2,1.9864444E-2,2.0540744E-2,3.8576722E-3,1.236219E-2,1.9700428E-2,1.736202E-2,0E0,0E0,4.004446E-3,4.4452716E-3,1.6122546E-2,1.9457884E-2,9.336372E-3,0E0,0E0,0E0,0E0,0E0,0E0,0E0,0E0,0E0,0E0,0E0],"parents":[2147483647,0,0,1,1,2,2,3,3,4,4,5,5,6,6,9,9,10,10,11,11,12,12,13,13],"right_children":[2,4,6,8,10,12,14,-1,-1,16,18,20,22,24,-1,-1,-1,-1,-1,-1,-1,-1,-1,-1,-1],"split_conditions":[-5.1551826E-2,1.3746548E-1,-2.1776505E-2,-1.9153679E-2,3.2704853E-2,1.0017462E0,1.0282073E0,4.6549696E-3,2.1822646E-3,-2.9749315E-2,4.8192534E-1,8.771817E1,7.8951996E1,2.5241774E-1,2.0411504E-3,1.1710072E-3,-4.1212747E-4,1.1336117E-3,3.268974E-3,1.4913332E-4,2.6153184E-3,3.514252E-3,1.8191511E-4,-1.4342682E-4,-1.363974E-3],"split_indices":[15,5,15,30,8,13,13,0,0,30,2,12,10,5,0,0,0,0,0,0,0,0,0,0,0],"split_type":[0,0,0,0,0,0,0,0,0,0,0,0,0,0,0,0,0,0,0,0,0,0,0,0,0],"sum_hessian":[1.014E3,4E1,9.74E2,1.2E1,2.8E1,1.51E2,8.23E2,5E0,7E0,1.6E1,1.2E1,1.34E2,1.7E1,8.15E2,8E0,5E0,1.1E1,7E0,5E0,1.28E2,6E0,9E0,8E0,8E2,1.5E1],"tree_param":{"num_deleted":"0","num_feature":"33","num_nodes":"25","size_leaf_vector":"1"}},{"base_weights":[1.13283495E-4,1.2111804E-2,-2.7622883E-3,8.975543E-3,3.7268344E-3,-3.203218E-3,1.6129606E-3,2.684087E-2,4.8662326E-3,-2.7687566E-3,-2.8890837E-2,-5.786442E-4,1.9552798E-3,1.4051506E-3,5.3758296E-5,7.0860254E-4,-1.7227019E-4,-7.672116E-4,-2.106892E-3],"categories":[],"categories_nodes":[],"categories_segments":[],"categories_sizes":[],"default_left":[0,1,1,0,0,1,0,0,0,0,0,0,0,0,0,0,0,0,0],"id":44,"left_children":[1,3,5,7,-1,9,-1,11,13,15,17,-1,-1,-1,-1,-1,-1,-1,-1],"loss_changes":[3.408753E-2,3.6725104E-2,1.2410625E-2,1.3304182E-2,0E0,8.7143155E-3,0E0,1.647113E-2,1.3183612E-2,8.944077E-3,1.686302E-3,0E0,0E0,0E0,0E0,0E0,0E0,0E0,0E0],"parents":[2147483647,0,0,1,1,2,2,3,3,5,5,7,7,8,8,9,9,10,10],"right_children":[2,4,6,8,-1,10,-1,12,14,16,18,-1,-1,-1,-1,-1,-1,-1,-1],"split_conditions":[-2.1776505E-2,8.7268E1,1.0245495E0,7.592233E1,3.7268344E-3,2.5241774E-1,1.6129606E-3,9.711946E-1,9.6851647E-1,-4.763111E-2,2.4105221E-2,-5.786442E-4,1.9552798E-3,1.4051506E-3,5.3758296E-5,7.0860254E-4,-1.7227019E-4,-7.672116E-4,-2.106892E-3],"split_indices":[15,12,13,12,0,5,0,14,14,16,30,0,0,0,0,0,0,0,0],"split_type":[0,0,0,0,0,0,0,0,0,0,0,0,0,0,0,0,0,0,0],"sum_hessian":[9.86E2,1.9E2,7.96E2,1.82E2,8E0,7.87E2,9E0,3.3E1,1.49E2,7.75E2,1.2E1,8E0,2.5E1,2E1,1.29E2,2.9E1,7.46E2,7E0,5E0],"tree_param":{"num_deleted":"0","num_feature":"33","num_nodes":"19","size_leaf_vector":"1"}},{"base_weights":[5.35707E-4,-8.3532423E-4,3.416497E-2,9.403732E-3,-2.8106896E-3,1.26486495E-2,5.0216276E-2,6.398396E-3,2.6170628E-3,-3.187911E-3,1.7537087E-3,-3.3699995E-4,2.0624284E-2,7.0321865E-2,2.3717785E-2,2.3405351E-4,2.284458E-3,-1.3614185E-4,-1.4485557E-3,1.3922441E-3,3.7797194E-4,4.5064427E-3,1.7746702E-3,2.4909074E-3,-3.167771E-4],"categories":[],"categories_nodes":[],"categories_segments":[],"categories_sizes":[],"default_left":[1,0,0,0,1,0,0,0,0,1,0,0,0,0,0,0,0,0,0,0,0,0,0,0,0],"id":45,"left_children":[1,3,5,7,9,11,13,15,-1,17,-1,-1,19,21,23,-1,-1,-1,-1,-1,-1,-1,-1,-1,-1],"loss_changes":[4.590477E-2,1.9382594E-2,1.2834068E-2,1.9666553E-2,1.1587471E-2,2.9224693E-3,1.00530125E-2,9.637484E-3,0E0,9.466025E-3,0E0,0E0,1.0158764E-3,5.07918E-3,8.944055E-3,0E0,0E0,0E0,0E0,0E0,0E0,0E0,0E0,0E0,0E0],"parents":[2147483647,0,0,1,1,2,2,3,3,4,4,5,5,6,6,7,7,9,9,12,12,13,13,14,14],"right_children":[2,4,6,8,10,12,14,16,-1,18,-1,-1,20,22,24,-1,-1,-1,-1,-1,-1,-1,-1,-1,-1],"split_conditions":[3.3551884E-1,-2.1776505E-2,8.261243E-1,1.0017462E0,1.0245495E0,-7.5158267E-3,9.1731185E-1,1.7230906E-2,2.6170628E-3,2.5241774E-1,1.7537087E-3,-3.3699995E-4,1.7754981E-1,1.6636961E-3,-1.320468E-2,2.3405351E-4,2.284458E-3,-1.3614185E-4,-1.4485557E-3,1.3922441E-3,3.7797194E-4,4.5064427E-3,1.7746702E-3,2.4909074E-3,-3.167771E-4],"split_indices":[25,15,32,13,13,24,32,20,0,5,0,0,2,20,20,0,0,0,0,0,0,0,0,0,0],"split_type":[0,0,0,0,0,0,0,0,0,0,0,0,0,0,0,0,0,0,0,0,0,0,0,0,0],"sum_hessian":[9.94E2,9.56E2,3.8E1,1.54E2,8.02E2,1.7E1,2.1E1,1.45E2,9E0,7.95E2,7E0,5E0,1.2E1,1.1E1,1E1,1.4E2,5E0,7.82E2,1.3E1,7E0,5E0,6E0,5E0,5E0,5E0],"tree_param":{"num_deleted":"0","num_feature":"33","num_nodes":"25","size_leaf_vector":"1"}},{"base_weights":[1.5483693E-4,5.40326E-2,-4.35024E-4,3.7718955E-3,1.1810929E-3,1.1061818E-2,-2.2931336E-3,4.5146257E-2,5.983918E-3,1.477834E-2,-3.1594473E-3,3.6603229E-3,4.6010457E-5,1.8767102E-3,1.429848E-4,3.1712966E-3,1.6183271E-4,-1.7946422E-4,1.8105627E-3],"categories":[],"categories_nodes":[],"categories_segments":[],"categories_sizes":[],"default_left":[0,0,0,0,0,0,0,0,0,0,1,0,0,0,0,0,0,0,0],"id":46,"left_children":[1,3,5,-1,-1,7,9,11,13,15,17,-1,-1,-1,-1,-1,-1,-1,-1],"loss_changes":[3.22806E-2,5.378481E-3,2.149457E-2,0E0,0E0,2.3960685E-2,1.2854182E-2,2.2270478E-2,1.2016785E-2,2.337667E-2,1.4091432E-2,0E0,0E0,0E0,0E0,0E0,0E0,0E0,0E0],"parents":[2147483647,0,0,1,1,2,2,5,5,6,6,7,7,8,8,9,9,10,10],"right_children":[2,4,6,-1,-1,8,10,12,14,16,18,-1,-1,-1,-1,-1,-1,-1,-1],"split_conditions":[-2.3428721E-2,9.7530675E-1,7.9074E1,3.7718955E-3,1.1810929E-3,7.351268E-1,-3.4669984E-2,-8.657335E-3,-1.0890977E-1,9.864734E-1,1.0245495E0,3.6603229E-3,4.6010457E-5,1.8767102E-3,1.429848E-4,3.1712966E-3,1.6183271E-4,-1.7946422E-4,1.8105627E-3],"split_indices":[18,13,10,0,0,32,30,22,16,13,13,0,0,0,0,0,0,0,0],"split_type":[0,0,0,0,0,0,0,0,0,0,0,0,0,0,0,0,0,0,0],"sum_hessian":[1.014E3,1E1,1.004E3,5E0,5E0,1.39E2,8.65E2,1.7E1,1.22E2,4.1E1,8.24E2,1E1,7E0,1E1,1.12E2,7E0,3.4E1,8.16E2,8E0],"tree_param":{"num_deleted":"0","num_feature":"33","num_nodes":"19","size_leaf_vector":"1"}},{"base_weights":[2.379371E-4,4.5332275E-2,-8.1420055E-4,5.3527664E-2,6.5953605E-4,-4.218378E-3,4.162513E-3,6.668857E-2,8.0455525E-4,-2.024905E-3,-8.57261E-3,2.6698964E-2,2.8468175E-3,2.0116614E-3,3.9097E-3,-3.4207467E-4,9.1440816E-5,-4.6803543E-4,8.97197E-4,6.996942E-4,2.1747935E-3,4.707214E-4,-4.0524807E-5],"categories":[],"categories_nodes":[],"categories_segments":[],"categories_sizes":[],"default_left":[0,0,1,0,0,1,0,0,0,1,1,1,0,0,0,0,0,0,0,0,0,0,0],"id":47,"left_children":[1,3,5,7,-1,9,11,13,-1,15,17,19,21,-1,-1,-1,-1,-1,-1,-1,-1,-1,-1],"loss_changes":[4.7861923E-2,5.3524226E-3,1.6721994E-2,7.7954903E-3,0E0,5.5794623E-3,1.18140895E-2,8.1094354E-4,0E0,7.270171E-3,4.263906E-3,4.086256E-3,9.135159E-3,0E0,0E0,0E0,0E0,0E0,0E0,0E0,0E0,0E0,0E0],"parents":[2147483647,0,0,1,1,2,2,3,3,5,5,6,6,7,7,9,9,10,10,11,11,12,12],"right_children":[2,4,6,8,-1,10,12,14,-1,16,18,20,22,-1,-1,-1,-1,-1,-1,-1,-1,-1,-1],"split_conditions":[-4.2515475E-2,9.339632E-1,4.944731E-3,5.854001E-1,6.5953605E-4,2.1582334E-3,2.6282343E-1,-1.0111224E-2,8.0455525E-4,8.6627E1,2.3835991E-1,5.5919994E-2,7.84105E1,2.0116614E-3,3.9097E-3,-3.4207467E-4,9.1440816E-5,-4.6803543E-4,8.97197E-4,6.996942E-4,2.1747935E-3,4.707214E-4,-4.0524807E-5],"split_indices":[9,32,8,31,0,23,31,7,0,11,25,5,11,0,0,0,0,0,0,0,0,0,0],"split_type":[0,0,0,0,0,0,0,0,0,0,0,0,0,0,0,0,0,0,0,0,0,0,0],"sum_hessian":[1.007E3,2.2E1,9.85E2,1.7E1,5E0,5.85E2,4E2,1.2E1,5E0,3.9E2,1.95E2,2.1E1,3.79E2,5E0,7E0,1.73E2,2.17E2,1.9E2,5E0,1.3E1,8E0,1.35E2,2.44E2],"tree_param":{"num_deleted":"0","num_feature":"33","num_nodes":"23","size_leaf_vector":"1"}},{"base_weights":[1.776613E-4,-1.2602685E-3,3.0977366E-2,-1.556789E-3,2.3171823E-3,2.1989914E-2,3.4897798E-3,6.5842792E-3,-3.12239E-3,9.647831E-3,4.0271252E-2,7.591862E-4,-2.320621E-4,-1.15472685E-4,-1.0470503E-3,-6.274652E-4,8.074836E-4,3.1433606E-3,2.733137E-4],"categories":[],"categories_nodes":[],"categories_segments":[],"categories_sizes":[],"default_left":[1,1,0,1,0,0,0,0,0,0,0,0,0,0,0,0,0,0,0],"id":48,"left_children":[1,3,5,7,-1,9,-1,11,13,15,17,-1,-1,-1,-1,-1,-1,-1,-1],"loss_changes":[4.4681154E-2,1.3679524E-2,1.4164664E-2,1.2243651E-2,0E0,8.1854E-3,0E0,1.5033127E-2,1.1612386E-2,3.6664011E-3,1.14531275E-2,0E0,0E0,0E0,0E0,0E0,0E0,0E0,0E0],"parents":[2147483647,0,0,1,1,2,2,3,3,5,5,7,7,8,8,9,9,10,10],"right_children":[2,4,6,8,-1,10,-1,12,14,16,18,-1,-1,-1,-1,-1,-1,-1,-1],"split_conditions":[3.3551884E-1,1.0245495E0,8.5394E1,9.8419553E-1,2.3171823E-3,8.273047E-1,3.4897798E-3,2.741352E-1,1.3098578E-1,-9.343324E-3,4.9472395E-3,7.591862E-4,-2.320621E-4,-1.15472685E-4,-1.0470503E-3,-6.274652E-4,8.074836E-4,3.1433606E-3,2.733137E-4],"split_indices":[25,13,11,14,0,25,0,25,2,17,20,0,0,0,0,0,0,0,0],"split_type":[0,0,0,0,0,0,0,0,0,0,0,0,0,0,0,0,0,0,0],"sum_hessian":[1.007E3,9.63E2,4.4E1,9.58E2,5E0,3.7E1,7E0,1.54E2,8.04E2,2.3E1,1.4E1,8.7E1,6.7E1,7.7E2,3.4E1,5E0,1.8E1,8E0,6E0],"tree_param":{"num_deleted":"0","num_feature":"33","num_nodes":"19","size_leaf_vector":"1"}},{"base_weights":[7.886523E-4,-5.0782674E-4,3.6023773E-2,1.2060481E-2,-1.5488381E-3,1.1207651E-2,5.3215872E-2,2.7180731E-2,-1.0277317E-2,-1.8827465E-3,1.8062994E-3,2.130344E-2,-4.5846167E-4,8.0730644E-4,6.379104E-2,1.7742257E-3,-8.55689E-5,-1.7070806E-3,-2.4613755E-5,5.689442E-4,-1.3473484E-4,1.4946129E-3,4.5820247E-4,3.8410262E-3,2.2560689E-3],"categories":[],"categories_nodes":[],"categories_segments":[],"categories_sizes":[],"default_left":[1,0,0,0,1,0,0,0,0,0,0,0,0,0,0,0,0,0,0,0,0,0,0,0,0],"id":49,"left_children":[1,3,5,7,9,11,13,15,17,19,-1,21,-1,-1,23,-1,-1,-1,-1,-1,-1,-1,-1,-1,-1],"loss_changes":[4.633943E-2,1.2827673E-2,1.4762659E-2,2.561083E-2,1.1452863E-2,3.486867E-3,7.202409E-3,1.0856848E-2,7.2221E-3,9.700136E-3,0E0,8.729589E-4,0E0,0E0,4.2585284E-4,0E0,0E0,0E0,0E0,0E0,0E0,0E0,0E0,0E0,0E0],"parents":[2147483647,0,0,1,1,2,2,3,3,4,4,5,5,6,6,7,7,8,8,9,9,11,11,14,14],"right_children":[2,4,6,8,10,12,14,16,18,20,-1,22,-1,-1,24,-1,-1,-1,-1,-1,-1,-1,-1,-1,-1],"split_conditions":[3.5133496E-1,7.4998E1,8.261243E-1,1.5337881E-1,1.0245495E0,5.5826847E-3,7.3568E1,1.5630357E-1,-4.265382E-3,9.8073417E-1,1.8062994E-3,-2.9375786E-3,-4.5846167E-4,8.0730644E-4,-5.213734E-2,1.7742257E-3,-8.55689E-5,-1.7070806E-3,-2.4613755E-5,5.689442E-4,-1.3473484E-4,1.4946129E-3,4.5820247E-4,3.8410262E-3,2.2560689E-3],"split_indices":[25,10,32,3,13,20,10,4,0,14,0,9,0,0,29,0,0,0,0,0,0,0,0,0,0],"split_type":[0,0,0,0,0,0,0,0,0,0,0,0,0,0,0,0,0,0,0,0,0,0,0,0,0],"sum_hessian":[1.013E3,9.78E2,3.5E1,7.4E1,9.04E2,1.5E1,2E1,4.4E1,3E1,8.97E2,7E0,1E1,5E0,5E0,1.5E1,3.4E1,1E1,8E0,2.2E1,5.1E1,8.46E2,5E0,5E0,7E0,8E0],"tree_param":{"num_deleted":"0","num_feature":"33","num_nodes":"25","size_leaf_vector":"1"}},{"base_weights":[4.362372E-5,4.391027E-2,-4.892137E-4,3.0945411E-3,1.1112735E-3,1.0582236E-2,-2.19393E-3,-2.3034649E-2,1.3526526E-2,-2.7470384E-3,2.5297716E-2,-1.8084877E-3,-3.0302195E-4,1.7190218E-3,3.02232E-4,-1.5504698E-4,1.5156841E-3,3.9425702E-4,2.4523188E-3],"categories":[],"categories_nodes":[],"categories_segments":[],"categories_sizes":[],"default_left":[0,0,0,0,0,0,1,0,0,1,0,0,0,0,0,0,0,0,0],"id":50,"left_children":[1,3,5,-1,-1,7,9,11,13,15,17,-1,-1,-1,-1,-1,-1,-1,-1],"loss_changes":[2.3371896E-2,3.3033043E-3,1.8670416E-2,0E0,0E0,1.3376662E-2,1.3100913E-2,2.2333325E-3,1.8827429E-2,9.933885E-3,6.643193E-3,0E0,0E0,0E0,0E0,0E0,0E0,0E0,0E0],"parents":[2147483647,0,0,1,1,2,2,5,5,6,6,7,7,8,8,9,9,10,10],"right_children":[2,4,6,-1,-1,8,10,12,14,16,18,-1,-1,-1,-1,-1,-1,-1,-1],"split_conditions":[-2.3428721E-2,9.764431E-1,9.8300064E-1,3.0945411E-3,1.1112735E-3,-5.3133104E-2,8.771817E1,-2.4254546E-2,-1.3276077E-2,1.0245495E0,8.536928E-2,-1.8084877E-3,-3.0302195E-4,1.7190218E-3,3.02232E-4,-1.5504698E-4,1.5156841E-3,3.9425702E-4,2.4523188E-3],"split_indices":[18,13,14,0,0,21,12,22,23,13,2,0,0,0,0,0,0,0,0],"split_type":[0,0,0,0,0,0,0,0,0,0,0,0,0,0,0,0,0,0,0],"sum_hessian":[9.98E2,1.1E1,9.87E2,5E0,6E0,1.31E2,8.56E2,1E1,1.21E2,8.4E2,1.6E1,5E0,5E0,3.1E1,9E1,8.32E2,8E0,1E1,6E0],"tree_param":{"num_deleted":"0","num_feature":"33","num_nodes":"19","size_leaf_vector":"1"}},{"base_weights":[6.9619295E-5,1.1055273E-2,-2.4821458E-3,8.166254E-3,3.7879837E-3,-2.8537165E-3,1.3913069E-3,5.1491465E-3,3.553701E-2,1.0919093E-2,-3.3797813E-3,2.2411263E-3,1.6906271E-4,4.012423E-3,6.083669E-4,1.0551339E-3,-4.2945813E-4,-1.0636854E-4,-4.6738805E-4],"categories":[],"categories_nodes":[],"categories_segments":[],"categories_sizes":[],"default_left":[0,1,1,0,0,0,0,0,0,0,1,0,0,0,0,0,0,0,0],"id":51,"left_children":[1,3,5,7,-1,9,-1,11,13,15,17,-1,-1,-1,-1,-1,-1,-1,-1],"loss_changes":[2.8256478E-2,3.4898452E-2,9.291453E-3,1.4929246E-2,0E0,5.898425E-3,0E0,1.1491397E-2,1.7831644E-2,6.1411746E-3,5.8101146E-3,0E0,0E0,0E0,0E0,0E0,0E0,0E0,0E0],"parents":[2147483647,0,0,1,1,2,2,3,3,5,5,7,7,8,8,9,9,10,10],"right_children":[2,4,6,8,-1,10,-1,12,14,16,18,-1,-1,-1,-1,-1,-1,-1,-1],"split_conditions":[-2.1776505E-2,8.7268E1,1.0245495E0,1.0017462E0,3.7879837E-3,7.4998E1,1.3913069E-3,-2.3428721E-2,7.8574E1,1.3098578E-1,-1.16117044E-4,2.2411263E-3,1.6906271E-4,4.012423E-3,6.083669E-4,1.0551339E-3,-4.2945813E-4,-1.0636854E-4,-4.6738805E-4],"split_indices":[15,12,13,13,0,10,0,18,10,2,15,0,0,0,0,0,0,0,0],"split_type":[0,0,0,0,0,0,0,0,0,0,0,0,0,0,0,0,0,0,0],"sum_hessian":[1.006E3,1.89E2,8.17E2,1.82E2,7E0,8.08E2,9E0,1.65E2,1.7E1,2.9E1,7.79E2,6E0,1.59E2,5E0,1.2E1,1.9E1,1E1,6.45E2,1.34E2],"tree_param":{"num_deleted":"0","num_feature":"33","num_nodes":"19","size_leaf_vector":"1"}},{"base_weights":[1.7855821E-4,2.8428605E-2,-1.1904426E-3,3.7337374E-2,-4.1216714E-3,1.2213996E-2,-2.1825961E-3,1.6260914E-4,4.817718E-2,-9.675187E-4,5.896989E-4,2.1067388E-2,-3.502398E-3,-2.5666293E-3,2.074887E-2,2.7974972E-3,8.433011E-4,3.428665E-4,1.6015647E-3,3.4554885E-4,-8.692027E-4,4.6689832E-4,-1.5324367E-4,-4.018818E-4,2.0416474E-3],"categories":[],"categories_nodes":[],"categories_segments":[],"categories_sizes":[],"default_left":[0,0,0,0,0,0,1,0,0,0,0,0,0,0,0,0,0,0,0,0,0,0,0,0,0],"id":52,"left_children":[1,3,5,7,9,11,13,-1,15,-1,-1,17,19,21,23,-1,-1,-1,-1,-1,-1,-1,-1,-1,-1],"loss_changes":[3.932697E-2,1.378309E-2,1.2926943E-2,1.3513964E-2,2.8943396E-3,9.396394E-3,8.014278E-3,0E0,5.870834E-3,0E0,0E0,6.4796545E-3,3.7340133E-3,5.3075626E-3,9.000456E-3,0E0,0E0,0E0,0E0,0E0,0E0,0E0,0E0,0E0,0E0],"parents":[2147483647,0,0,1,1,2,2,3,3,4,4,5,5,6,6,8,8,11,11,12,12,13,13,14,14],"right_children":[2,4,6,8,10,12,14,-1,16,-1,-1,18,20,22,24,-1,-1,-1,-1,-1,-1,-1,-1,-1,-1],"split_conditions":[-2.111245E-2,5.854001E-1,7.4998E1,3.7884212E-1,9.876905E-1,1.5817581E-1,2.4861975E-2,1.6260914E-4,9.236382E-1,-9.675187E-4,5.896989E-4,-6.884709E-3,9.912873E-1,-5.5557016E-2,1.5336952E-1,2.7974972E-3,8.433011E-4,3.428665E-4,1.6015647E-3,3.4554885E-4,-8.692027E-4,4.6689832E-4,-1.5324367E-4,-4.018818E-4,2.0416474E-3],"split_indices":[23,31,10,31,13,4,17,0,32,0,0,24,13,29,28,0,0,0,0,0,0,0,0,0,0],"split_type":[0,0,0,0,0,0,0,0,0,0,0,0,0,0,0,0,0,0,0,0,0,0,0,0,0],"sum_hessian":[1.015E3,4.6E1,9.69E2,3.6E1,1E1,6.6E1,9.03E2,9E0,2.7E1,5E0,5E0,4.2E1,2.4E1,8.89E2,1.4E1,2.1E1,6E0,1.9E1,2.3E1,1.4E1,1E1,3.5E1,8.54E2,6E0,8E0],"tree_param":{"num_deleted":"0","num_feature":"33","num_nodes":"25","size_leaf_vector":"1"}},{"base_weights":[5.0635927E-4,-6.7144295E-4,3.124286E-2,7.059154E-3,-2.2843657E-3,4.323894E-2,5.770179E-3,3.8181152E-3,4.4487957E-3,-2.725548E-3,2.960821E-2,1.0128161E-3,4.943049E-2,1.4029372E-3,-5.833759E-4,6.039232E-4,-3.8662026E-4,-1.18997435E-4,-1.0855811E-3,2.2194665E-3,4.946195E-4,2.9540937E-3,9.336087E-4],"categories":[],"categories_nodes":[],"categories_segments":[],"categories_sizes":[],"default_left":[1,1,0,0,0,0,0,0,0,0,0,0,0,0,0,0,0,0,0,0,0,0,0],"id":53,"left_children":[1,3,5,7,9,11,13,-1,15,17,19,-1,21,-1,-1,-1,-1,-1,-1,-1,-1,-1,-1],"loss_changes":[3.6294904E-2,1.2061041E-2,1.105668E-2,2.9871594E-2,1.1337048E-2,2.5561675E-3,5.379972E-3,0E0,1.5149435E-2,5.1319683E-3,2.7665235E-3,0E0,4.5371577E-3,0E0,0E0,0E0,0E0,0E0,0E0,0E0,0E0,0E0,0E0],"parents":[2147483647,0,0,1,1,2,2,3,3,4,4,5,5,6,6,8,8,9,9,10,10,12,12],"right_children":[2,4,6,8,10,12,14,-1,16,18,20,-1,22,-1,-1,-1,-1,-1,-1,-1,-1,-1,-1],"split_conditions":[2.3690227E-1,7.9546165E1,1.2012157E-2,1.2502463E-1,8.775117E1,1.3928838E-1,1.2670292E-2,3.8181152E-3,1.1671639E-1,1.7296243E-1,1.4420058E-2,1.0128161E-3,1.6458284E-2,1.4029372E-3,-5.833759E-4,6.039232E-4,-3.8662026E-4,-1.18997435E-4,-1.0855811E-3,2.2194665E-3,4.946195E-4,2.9540937E-3,9.336087E-4],"split_indices":[26,12,1,5,12,2,22,0,2,2,24,0,20,0,0,0,0,0,0,0,0,0,0],"split_type":[0,0,0,0,0,0,0,0,0,0,0,0,0,0,0,0,0,0,0,0,0,0,0],"sum_hessian":[1.001E3,9.65E2,3.6E1,1.66E2,7.99E2,2.4E1,1.2E1,5E0,1.61E2,7.89E2,1E1,6E0,1.8E1,5E0,7E0,9.9E1,6.2E1,7.76E2,1.3E1,5E0,5E0,1.3E1,5E0],"tree_param":{"num_deleted":"0","num_feature":"33","num_nodes":"23","size_leaf_vector":"1"}},{"base_weights":[5.2823656E-4,2.2752142E-2,-4.887905E-4,2.8228653E-3,1.4849615E-2,-1.5775373E-3,9.581526E-3,2.6851257E-3,7.1006455E-3,1.7811818E-3,-1.834053E-3,-1.0851551E-3,2.604331E-2,-7.502127E-5,1.6545706E-3,-1.2695343E-4,4.7272543E-4,1.5162605E-4,-6.545664E-4,1.6819278E-3,-6.619779E-5],"categories":[],"categories_nodes":[],"categories_segments":[],"categories_sizes":[],"default_left":[0,0,0,0,0,0,1,0,0,0,1,1,0,0,0,0,0,0,0,0,0],"id":54,"left_children":[1,3,5,-1,7,9,11,-1,13,-1,15,17,19,-1,-1,-1,-1,-1,-1,-1,-1],"loss_changes":[2.2726446E-2,1.0881288E-2,1.0562507E-2,0E0,1.0758266E-2,8.357925E-3,1.6533967E-2,0E0,7.2032004E-3,0E0,6.9002453E-3,2.9070764E-3,7.735396E-3,0E0,0E0,0E0,0E0,0E0,0E0,0E0,0E0],"parents":[2147483647,0,0,1,1,2,2,4,4,5,5,6,6,8,8,10,10,11,11,12,12],"right_children":[2,4,6,-1,8,10,12,-1,14,-1,16,18,20,-1,-1,-1,-1,-1,-1,-1,-1],"split_conditions":[-2.111245E-2,7.519282E-1,1.0416224E-2,2.8228653E-3,-2.5880478E-2,-1.11781746E-1,8.275051E-3,2.6851257E-3,-3.765272E-2,1.7811818E-3,2.3251677E-2,5.8045417E-2,1.7754981E-1,-7.502127E-5,1.6545706E-3,-1.2695343E-4,4.7272543E-4,1.5162605E-4,-6.545664E-4,1.6819278E-3,-6.619779E-5],"split_indices":[23,32,18,0,18,16,8,0,21,0,22,5,2,0,0,0,0,0,0,0,0],"split_type":[0,0,0,0,0,0,0,0,0,0,0,0,0,0,0,0,0,0,0,0,0],"sum_hessian":[1.004E3,4.3E1,9.61E2,7E0,3.6E1,8.68E2,9.3E1,5E0,3.1E1,5E0,8.63E2,5.7E1,3.6E1,2.4E1,7E0,8.13E2,5E1,4.3E1,1.4E1,2.8E1,8E0],"tree_param":{"num_deleted":"0","num_feature":"33","num_nodes":"21","size_leaf_vector":"1"}}]},"name":"gbtree"},"learner_model_param":{"base_score":"[7.050561E-2]","boost_from_average":"1","num_class":"0","num_feature":"33","num_target":"1"},"objective":{"name":"reg:squarederror","reg_loss_param":{"scale_pos_weight":"1"}}},"version":[3,2,0]}