{"learner":{"attributes":{"best_iteration":"6","best_score":"0.07132012879157579","scikit_learn":"{\"_estimator_type\": \"regressor\"}"},"feature_names":["log_ret_1d","log_ret_5d","vol_5d","vol_10d","vol_20d","vol_60d","hl_range","co_range","atr_14","mom_10d","ma_5","ma_20","ma_60","ma_ratio_5_20","ma_ratio_20_60","drawdown_20","drawdown_60","ctx_equity_proxy_log_ret_1d","ctx_duration_proxy_log_ret_1d","ctx_credit_proxy_log_ret_1d","ctx_real_asset_proxy_log_ret_1d","ctx_equity_proxy_log_ret_5d","ctx_duration_proxy_log_ret_5d","ctx_credit_proxy_log_ret_5d","ctx_real_asset_proxy_log_ret_5d","ctx_equity_proxy_vol_20d","ctx_duration_proxy_vol_20d","ctx_credit_proxy_vol_20d","ctx_real_asset_proxy_vol_20d","ctx_equity_duration_ret_5d_spread","ctx_credit_duration_ret_5d_spread","ctx_rel_vol_20d_vs_equity_proxy","ctx_corr_20d_vs_equity_proxy"],"feature_types":["float","float","float","float","float","float","float","float","float","float","float","float","float","float","float","float","float","float","float","float","float","float","float","float","float","float","float","float","float","float","float","float","float"],"gradient_booster":{"model":{"cats":{"enc":[],"feature_segments":[],"sorted_idx":[]},"gbtree_model_param":{"num_parallel_tree":"1","num_trees":"57"},"iteration_indptr":[0,1,2,3,4,5,6,7,8,9,10,11,12,13,14,15,16,17,18,19,20,21,22,23,24,25,26,27,28,29,30,31,32,33,34,35,36,37,38,39,40,41,42,43,44,45,46,47,48,49,50,51,52,53,54,55,56,57],"tree_info":[0,0,0,0,0,0,0,0,0,0,0,0,0,0,0,0,0,0,0,0,0,0,0,0,0,0,0,0,0,0,0,0,0,0,0,0,0,0,0,0,0,0,0,0,0,0,0,0,0,0,0,0,0,0,0,0,0],"trees":[{"base_weights":[-7.460001E-4,-5.1986766E-3,2.46792E-2,-3.0737106E-2,3.666033E-2,-4.7232486E-2,-1.3269236E-2,6.818037E-2,1.7700216E-2,-2.5121036E-3,-1.3640353E-3,5.238039E-3,-8.4125856E-4,3.9851335E-3,5.5339653E-4,6.4065185E-4,1.02267815E-2],"categories":[],"categories_nodes":[],"categories_segments":[],"categories_sizes":[],"default_left":[0,1,0,1,0,0,0,0,0,0,0,0,0,0,0,0,0],"id":0,"left_children":[1,3,-1,5,7,9,11,13,15,-1,-1,-1,-1,-1,-1,-1,-1],"loss_changes":[2.2190652E0,1.069071E0,0E0,1.7830765E-1,2.2529256E-1,1.7784297E-2,1.2893385E-1,9.256321E-2,2.1469662E-1,0E0,0E0,0E0,0E0,0E0,0E0,0E0,0E0],"parents":[2147483647,0,0,1,1,3,3,4,4,5,5,6,6,7,7,8,8],"right_children":[2,4,-1,6,8,10,12,14,16,-1,-1,-1,-1,-1,-1,-1,-1],"split_conditions":[4.5913506E-2,1.448868E-1,2.46792E-2,1.322805E2,1.297365E2,2.9403081E-2,-1.1154501E-1,2.4267623E-1,1.0382237E0,-2.5121036E-3,-1.3640353E-3,5.238039E-3,-8.4125856E-4,3.9851335E-3,5.5339653E-4,6.4065185E-4,1.02267815E-2],"split_indices":[6,4,0,11,11,32,16,3,13,0,0,0,0,0,0,0,0],"split_type":[0,0,0,0,0,0,0,0,0,0,0,0,0,0,0,0,0],"sum_hessian":[1.006E3,9.98E2,8E0,6.2E2,3.78E2,3.18E2,3.02E2,1.41E2,2.37E2,2.75E2,4.3E1,8E0,2.94E2,1.17E2,2.4E1,2.32E2,5E0],"tree_param":{"num_deleted":"0","num_feature":"33","num_nodes":"17","size_leaf_vector":"1"}},{"base_weights":[-1.0537656E-3,-6.119048E-3,2.7587099E-2,-3.3190936E-2,3.2048732E-2,6.0142553E-3,-3.4748245E-2,4.9648456E-2,7.854606E-3,-1.9055859E-3,1.8545901E-3,3.7420918E-3,6.387521E-4,-2.0172547E-3,6.0114946E-4],"categories":[],"categories_nodes":[],"categories_segments":[],"categories_sizes":[],"default_left":[0,1,0,0,0,0,1,0,0,0,0,0,0,0,0],"id":1,"left_children":[1,3,-1,5,7,-1,9,11,13,-1,-1,-1,-1,-1,-1],"loss_changes":[2.775442E0,1.0157386E0,0E0,1.4161009E-1,1.733405E-1,0E0,1.3914388E-1,2.1827984E-1,3.5243332E-2,0E0,0E0,0E0,0E0,0E0,0E0],"parents":[2147483647,0,0,1,1,3,3,4,4,6,6,7,7,8,8],"right_children":[2,4,-1,6,8,-1,10,12,14,-1,-1,-1,-1,-1,-1],"split_conditions":[4.5913506E-2,1.4042082E-1,2.7587099E-2,9.725692E-1,9.4592303E-1,6.0142553E-3,3.5798155E-2,1.4475017E2,8.2537435E-2,-1.9055859E-3,1.8545901E-3,3.7420918E-3,6.387521E-4,-2.0172547E-3,6.0114946E-4],"split_indices":[6,4,0,13,31,0,9,12,28,0,0,0,0,0,0],"split_type":[0,0,0,0,0,0,0,0,0,0,0,0,0,0,0],"sum_hessian":[9.89E2,9.81E2,8E0,5.74E2,4.07E2,5E0,5.69E2,2.35E2,1.72E2,5.44E2,2.5E1,1.39E2,9.6E1,1.3E1,1.59E2],"tree_param":{"num_deleted":"0","num_feature":"33","num_nodes":"15","size_leaf_vector":"1"}},{"base_weights":[1.5635424E-3,-5.3107007E-3,4.8068482E-1,-3.1242728E-2,3.101993E-2,1.2847215E-2,2.8821787E-2,-4.593233E-2,-1.52060315E-2,6.3764974E-2,1.3984313E-2,-2.4599184E-3,-1.1188522E-3,5.0531104E-3,-9.093075E-4,3.7229192E-3,6.6276816E-6,5.3199707E-4,7.940299E-3],"categories":[],"categories_nodes":[],"categories_segments":[],"categories_sizes":[],"default_left":[0,1,0,1,0,0,0,0,0,0,0,0,0,0,0,0,0,0,0],"id":2,"left_children":[1,3,5,7,9,-1,-1,11,13,15,17,-1,-1,-1,-1,-1,-1,-1,-1],"loss_changes":[3.2599192E0,9.2048496E-1,1.5181518E-1,1.33578E-1,2.2614592E-1,0E0,0E0,2.1748006E-2,9.677705E-2,9.4572306E-2,1.285971E-1,0E0,0E0,0E0,0E0,0E0,0E0,0E0,0E0],"parents":[2147483647,0,0,1,1,2,2,3,3,4,4,7,7,8,8,9,9,10,10],"right_children":[2,4,6,8,10,-1,-1,12,14,16,18,-1,-1,-1,-1,-1,-1,-1,-1],"split_conditions":[3.0937327E-2,1.4042082E-1,1.5645999E2,1.32186E2,1.25098E2,1.2847215E-2,2.8821787E-2,5.934652E-2,-1.1154501E-1,2.4975339E-1,4.2790033E-2,-2.4599184E-3,-1.1188522E-3,5.0531104E-3,-9.093075E-4,3.7229192E-3,6.6276816E-6,5.3199707E-4,7.940299E-3],"split_indices":[6,4,10,10,10,0,0,32,16,3,1,0,0,0,0,0,0,0,0],"split_type":[0,0,0,0,0,0,0,0,0,0,0,0,0,0,0,0,0,0,0],"sum_hessian":[9.88E2,9.75E2,1.3E1,5.69E2,4.06E2,5E0,8E0,2.96E2,2.73E2,1.38E2,2.68E2,2.59E2,3.7E1,6E0,2.67E2,1.18E2,2E1,2.63E2,5E0],"tree_param":{"num_deleted":"0","num_feature":"33","num_nodes":"19","size_leaf_vector":"1"}},{"base_weights":[1.0439E-3,-5.4253023E-3,4.0449515E-1,-2.4249053E-2,4.061423E-2,2.5087997E-2,7.938026E-3,-4.1881498E-2,-8.162991E-3,5.5120315E-2,1.8060446E-2,-1.7713438E-3,-2.6163184E-3,-5.325223E-4,5.317375E-3,6.3190535E-3,2.2845713E-3,6.262484E-4,5.8267065E-3],"categories":[],"categories_nodes":[],"categories_segments":[],"categories_sizes":[],"default_left":[0,1,0,1,0,0,0,1,0,0,0,0,0,0,0,0,0,0,0],"id":3,"left_children":[1,3,5,7,9,-1,-1,11,13,15,17,-1,-1,-1,-1,-1,-1,-1,-1],"loss_changes":[2.6461325E0,8.658883E-1,3.027618E-1,2.0075649E-1,9.388295E-2,0E0,0E0,2.093339E-2,1.0709299E-1,1.12481534E-1,6.1226778E-2,0E0,0E0,0E0,0E0,0E0,0E0,0E0,0E0],"parents":[2147483647,0,0,1,1,2,2,3,3,4,4,7,7,8,8,9,9,10,10],"right_children":[2,4,6,8,10,-1,-1,12,14,16,18,-1,-1,-1,-1,-1,-1,-1,-1],"split_conditions":[3.0937327E-2,1.2961569E-2,5.362748E-1,1.36546E2,1.390445E2,2.5087997E-2,7.938026E-3,9.373332E-2,1.0313636E0,1.5321713E-2,4.2790033E-2,-1.7713438E-3,-2.6163184E-3,-5.325223E-4,5.317375E-3,6.3190535E-3,2.2845713E-3,6.262484E-4,5.8267065E-3],"split_indices":[6,8,4,10,11,0,0,5,13,8,1,0,0,0,0,0,0,0,0],"split_type":[0,0,0,0,0,0,0,0,0,0,0,0,0,0,0,0,0,0,0],"sum_hessian":[1.012E3,9.97E2,1.5E1,7.08E2,2.89E2,1E1,5E0,3.37E2,3.71E2,1.75E2,1.14E2,2.11E2,1.26E2,3.64E2,7E0,1.9E1,1.56E2,1.09E2,5E0],"tree_param":{"num_deleted":"0","num_feature":"33","num_nodes":"19","size_leaf_vector":"1"}},{"base_weights":[-1.8268971E-3,-6.3833008E-3,2.2426425E-2,-2.5189722E-2,3.5813343E-2,-4.0093325E-2,-9.724906E-3,1.6228674E-2,5.9396032E-2,-2.2254589E-3,-1.2842534E-3,4.5097894E-3,-5.750705E-4,1.1232671E-3,-1.8495814E-3,2.615745E-3,1.0323087E-2],"categories":[],"categories_nodes":[],"categories_segments":[],"categories_sizes":[],"default_left":[0,1,0,1,0,0,0,0,0,0,0,0,0,0,0,0,0],"id":4,"left_children":[1,3,-1,5,7,9,11,13,15,-1,-1,-1,-1,-1,-1,-1,-1],"loss_changes":[2.0487075E0,7.849472E-1,0E0,1.5725943E-1,1.399031E-1,2.099818E-2,6.0858082E-2,5.659313E-2,1.3291097E-1,0E0,0E0,0E0,0E0,0E0,0E0,0E0,0E0],"parents":[2147483647,0,0,1,1,3,3,4,4,5,5,6,6,7,7,8,8],"right_children":[2,4,-1,6,8,10,12,14,16,-1,-1,-1,-1,-1,-1,-1,-1],"split_conditions":[4.5913506E-2,1.2506482E-2,2.2426425E-2,1.36748E2,2.4334054E-1,-2.6410404E-3,-8.26744E-2,1.7427371E-1,1.0403163E0,-2.2254589E-3,-1.2842534E-3,4.5097894E-3,-5.750705E-4,1.1232671E-3,-1.8495814E-3,2.615745E-3,1.0323087E-2],"split_indices":[6,8,0,10,25,16,29,28,13,0,0,0,0,0,0,0,0],"split_type":[0,0,0,0,0,0,0,0,0,0,0,0,0,0,0,0,0],"sum_hessian":[9.96E2,9.87E2,9E0,6.83E2,3.04E2,3.47E2,3.36E2,1.67E2,1.37E2,2.64E2,8.3E1,5E0,3.31E2,1.5E2,1.7E1,1.32E2,5E0],"tree_param":{"num_deleted":"0","num_feature":"33","num_nodes":"17","size_leaf_vector":"1"}},{"base_weights":[-1.3054957E-3,-6.3804397E-3,3.9425015E-1,-2.7683835E-2,2.5277007E-2,8.935059E-3,2.5331533E-2,6.6373455E-3,-2.923941E-2,1.1034878E-2,5.1878218E-2,-1.5691158E-3,1.5719951E-3,-2.0433767E-3,7.1432407E-4,2.2436618E-3,7.520518E-3],"categories":[],"categories_nodes":[],"categories_segments":[],"categories_sizes":[],"default_left":[0,1,0,0,0,0,0,0,1,0,0,0,0,0,0,0,0],"id":5,"left_children":[1,3,5,7,9,-1,-1,-1,11,13,15,-1,-1,-1,-1,-1,-1],"loss_changes":[2.060124E0,6.838783E-1,2.2436976E-1,1.5511605E-1,1.540015E-1,0E0,0E0,0E0,7.9134524E-2,4.5644376E-2,9.126124E-2,0E0,0E0,0E0,0E0,0E0,0E0],"parents":[2147483647,0,0,1,1,2,2,3,3,4,4,8,8,9,9,10,10],"right_children":[2,4,6,8,10,-1,-1,-1,12,14,16,-1,-1,-1,-1,-1,-1],"split_conditions":[3.0937327E-2,1.4042082E-1,1.0117362E0,9.7169334E-1,2.4334054E-1,8.935059E-3,2.5331533E-2,6.6373455E-3,3.6408458E-2,8.2537435E-2,1.0367337E0,-1.5691158E-3,1.5719951E-3,-2.0433767E-3,7.1432407E-4,2.2436618E-3,7.520518E-3],"split_indices":[6,4,13,13,25,0,0,0,9,28,13,0,0,0,0,0,0],"split_type":[0,0,0,0,0,0,0,0,0,0,0,0,0,0,0,0,0],"sum_hessian":[1.024E3,1.012E3,1.2E1,6.05E2,4.07E2,5E0,7E0,5E0,6E2,2.66E2,1.41E2,5.8E2,2E1,1.5E1,2.51E2,1.33E2,8E0],"tree_param":{"num_deleted":"0","num_feature":"33","num_nodes":"17","size_leaf_vector":"1"}},{"base_weights":[1.1035921E-3,-3.925029E-3,3.5554257E-1,-2.5841111E-2,2.4877893E-2,5.3555244E-3,2.408296E-2,-3.7914786E-2,-1.24045005E-2,2.074398E-2,1.370398E-1,-1.6127974E-3,-2.4654549E-3,-9.079884E-4,1.5214116E-3,2.2512854E-3,3.066175E-4,2.3667053E-3,1.04807755E-2],"categories":[],"categories_nodes":[],"categories_segments":[],"categories_sizes":[],"default_left":[0,1,0,1,0,0,0,1,0,0,0,0,0,0,0,0,0,0,0],"id":6,"left_children":[1,3,5,7,9,-1,-1,11,13,15,17,-1,-1,-1,-1,-1,-1,-1,-1],"loss_changes":[1.7837348E0,6.2368387E-1,3.8704908E-1,9.054032E-2,1.9514337E-1,0E0,0E0,1.7430663E-2,6.6371754E-2,1.4625446E-1,8.773485E-2,0E0,0E0,0E0,0E0,0E0,0E0,0E0,0E0],"parents":[2147483647,0,0,1,1,2,2,3,3,4,4,7,7,8,8,9,9,10,10],"right_children":[2,4,6,8,10,-1,-1,12,14,16,18,-1,-1,-1,-1,-1,-1,-1,-1],"split_conditions":[3.0937327E-2,1.379069E-1,9.92676E-1,1.31772E2,1.0382237E0,5.3555244E-3,2.408296E-2,9.426828E-2,2.5982883E-2,1.3507199E2,5.5931218E-2,-1.6127974E-3,-2.4654549E-3,-9.079884E-4,1.5214116E-3,2.2512854E-3,3.066175E-4,2.3667053E-3,1.04807755E-2],"split_indices":[6,26,13,10,13,0,0,5,9,10,9,0,0,0,0,0,0,0,0],"split_type":[0,0,0,0,0,0,0,0,0,0,0,0,0,0,0,0,0,0,0],"sum_hessian":[9.99E2,9.86E2,1.3E1,5.6E2,4.26E2,5E0,8E0,2.94E2,2.66E2,4.12E2,1.4E1,1.99E2,9.5E1,2.35E2,3.1E1,1.54E2,2.58E2,7E0,7E0],"tree_param":{"num_deleted":"0","num_feature":"33","num_nodes":"19","size_leaf_vector":"1"}},{"base_weights":[9.5540326E-4,-3.9757215E-3,3.289759E-1,-1.9563846E-2,3.288232E-2,6.3485033E-3,2.2476934E-2,-3.30431E-2,-2.7061023E-3,4.710076E-2,3.0803808E-3,-1.7284105E-3,2.3833825E-4,4.153624E-3,-2.469918E-4,3.0478819E-3,2.0169234E-4,-2.848869E-3,4.5595132E-4],"categories":[],"categories_nodes":[],"categories_segments":[],"categories_sizes":[],"default_left":[0,1,0,1,0,0,0,1,0,0,0,0,0,0,0,0,0,0,0],"id":7,"left_children":[1,3,5,7,9,-1,-1,11,13,15,17,-1,-1,-1,-1,-1,-1,-1,-1],"loss_changes":[1.638228E0,5.74042E-1,3.082378E-1,1.5942591E-1,1.2570482E-1,0E0,0E0,2.2653788E-2,6.0383208E-2,1.1970544E-1,3.5698332E-2,0E0,0E0,0E0,0E0,0E0,0E0,0E0,0E0],"parents":[2147483647,0,0,1,1,2,2,3,3,4,4,7,7,8,8,9,9,10,10],"right_children":[2,4,6,8,10,-1,-1,12,14,16,18,-1,-1,-1,-1,-1,-1,-1,-1],"split_conditions":[3.0937327E-2,1.2961569E-2,1.0117362E0,1.3874E2,9.771075E-1,6.3485033E-3,2.2476934E-2,1.42323E2,9.725692E-1,1.586395E2,3.865731E-2,-1.7284105E-3,2.3833825E-4,4.153624E-3,-2.469918E-4,3.0478819E-3,2.0169234E-4,-2.848869E-3,4.5595132E-4],"split_indices":[6,8,13,10,31,0,0,12,13,11,27,0,0,0,0,0,0,0,0],"split_type":[0,0,0,0,0,0,0,0,0,0,0,0,0,0,0,0,0,0,0],"sum_hessian":[1.011E3,9.97E2,1.4E1,7.01E2,2.96E2,6E0,8E0,3.89E2,3.12E2,2E2,9.6E1,3.74E2,1.5E1,7E0,3.05E2,1.51E2,4.9E1,8E0,8.8E1],"tree_param":{"num_deleted":"0","num_feature":"33","num_nodes":"19","size_leaf_vector":"1"}},{"base_weights":[-9.5438055E-4,-4.3479544E-3,2.796606E-1,-2.0752728E-2,2.5017744E-2,2.2357177E-2,4.8076147E-3,-2.3761297E-2,3.8826417E-2,4.2089377E-2,5.224373E-3,4.218384E-3,-1.2673135E-3,7.514784E-4,3.7626147E-3,2.6497697E-3,-5.86661E-4,-2.1499142E-3,4.4620174E-4],"categories":[],"categories_nodes":[],"categories_segments":[],"categories_sizes":[],"default_left":[0,1,0,1,0,0,0,0,0,0,0,0,0,0,0,0,0,0,0],"id":8,"left_children":[1,3,5,7,9,-1,-1,11,13,15,17,-1,-1,-1,-1,-1,-1,-1,-1],"loss_changes":[9.563605E-1,4.784029E-1,3.2582015E-1,1.1510348E-1,1.2007438E-1,0E0,0E0,1.0616708E-1,2.5740441E-2,1.1273691E-1,2.9999357E-2,0E0,0E0,0E0,0E0,0E0,0E0,0E0,0E0],"parents":[2147483647,0,0,1,1,2,2,3,3,4,4,7,7,8,8,9,9,10,10],"right_children":[2,4,6,8,10,-1,-1,12,14,16,18,-1,-1,-1,-1,-1,-1,-1,-1],"split_conditions":[3.0937327E-2,1.448868E-1,5.8354545E-1,3.5798155E-2,9.2975193E-1,2.2357177E-2,4.8076147E-3,-1.0804732E-1,1.4829732E-1,1.6104283E2,8.109965E-2,4.218384E-3,-1.2673135E-3,7.514784E-4,3.7626147E-3,2.6497697E-3,-5.86661E-4,-2.1499142E-3,4.4620174E-4],"split_indices":[6,4,31,9,31,0,0,16,25,12,28,0,0,0,0,0,0,0,0],"split_type":[0,0,0,0,0,0,0,0,0,0,0,0,0,0,0,0,0,0,0],"sum_hessian":[1.002E3,9.91E2,1.1E1,6.36E2,3.55E2,5E0,6E0,6.06E2,3E1,1.9E2,1.65E2,8E0,5.98E2,1.9E1,1.1E1,1.58E2,3.2E1,1.1E1,1.54E2],"tree_param":{"num_deleted":"0","num_feature":"33","num_nodes":"19","size_leaf_vector":"1"}},{"base_weights":[5.447876E-4,-3.6846546E-3,3.4590384E-1,-1.9391555E-2,3.08109E-2,8.268875E-3,2.2561295E-2,-3.1302776E-2,-6.6560893E-3,4.282698E-2,-1.5987755E-3,-1.6161941E-3,1.1528649E-3,4.7630956E-3,-4.2672557E-4,1.25868E-3,3.2232718E-3,-7.1161444E-4,1.0807979E-3],"categories":[],"categories_nodes":[],"categories_segments":[],"categories_sizes":[],"default_left":[0,1,0,1,0,0,0,1,0,0,1,0,0,0,0,0,0,0,0],"id":9,"left_children":[1,3,5,7,9,-1,-1,11,13,15,17,-1,-1,-1,-1,-1,-1,-1,-1],"loss_changes":[1.4488049E0,5.315793E-1,1.5353811E-1,1.0203406E-1,1.1962572E-1,0E0,0E0,2.006185E-2,6.3415535E-2,8.394334E-2,2.494347E-2,0E0,0E0,0E0,0E0,0E0,0E0,0E0,0E0],"parents":[2147483647,0,0,1,1,2,2,3,3,4,4,7,7,8,8,9,9,10,10],"right_children":[2,4,6,8,10,-1,-1,12,14,16,18,-1,-1,-1,-1,-1,-1,-1,-1],"split_conditions":[3.0937327E-2,1.2506482E-2,1.0117362E0,1.3820183E2,1.4702383E2,8.268875E-3,2.2561295E-2,3.7088454E-2,-6.370474E-2,2.4334054E-1,3.709741E-1,-1.6161941E-3,1.1528649E-3,4.7630956E-3,-4.2672557E-4,1.25868E-3,3.2232718E-3,-7.1161444E-4,1.0807979E-3],"split_indices":[6,8,13,12,12,0,0,9,29,25,5,0,0,0,0,0,0,0,0],"split_type":[0,0,0,0,0,0,0,0,0,0,0,0,0,0,0,0,0,0,0],"sum_hessian":[9.9E2,9.79E2,1.1E1,6.73E2,3.06E2,5E0,6E0,3.47E2,3.26E2,2.23E2,8.3E1,3.41E2,6E0,5E0,3.21E2,1.24E2,9.9E1,5.4E1,2.9E1],"tree_param":{"num_deleted":"0","num_feature":"33","num_nodes":"19","size_leaf_vector":"1"}},{"base_weights":[-3.111284E-4,-4.897342E-3,3.2533225E-1,-1.6895583E-2,2.7338292E-2,6.422305E-3,2.1022085E-2,-3.1084783E-2,-5.224494E-3,8.055892E-3,2.3687555E-2,-2.578013E-3,-1.4187276E-3,-3.7157105E-4,4.5617362E-3,1.8525232E-3,1.05043575E-4],"categories":[],"categories_nodes":[],"categories_segments":[],"categories_sizes":[],"default_left":[0,1,0,1,0,0,0,0,0,0,0,0,0,0,0,0,0],"id":10,"left_children":[1,3,5,7,9,-1,-1,11,13,-1,15,-1,-1,-1,-1,-1,-1],"loss_changes":[1.5055177E0,3.8491213E-1,2.0815611E-1,1.1990009E-1,1.2804995E-1,0E0,0E0,1.668331E-2,8.561649E-2,0E0,7.607584E-2,0E0,0E0,0E0,0E0,0E0,0E0],"parents":[2147483647,0,0,1,1,2,2,3,3,4,4,7,7,8,8,10,10],"right_children":[2,4,6,8,10,-1,-1,12,14,-1,16,-1,-1,-1,-1,-1,-1],"split_conditions":[3.0937327E-2,1.3113199E-2,-3.128272E-2,1.32186E2,4.325867E-1,6.422305E-3,2.1022085E-2,1.160645E2,5.272755E-2,8.055892E-3,1.390445E2,-2.578013E-3,-1.4187276E-3,-3.7157105E-4,4.5617362E-3,1.8525232E-3,1.05043575E-4],"split_indices":[6,8,9,10,31,0,0,11,9,0,11,0,0,0,0,0,0],"split_type":[0,0,0,0,0,0,0,0,0,0,0,0,0,0,0,0,0],"sum_hessian":[1.006E3,9.93E2,1.3E1,7.24E2,2.69E2,5E0,8E0,3.26E2,3.98E2,6E0,2.63E2,3.6E1,2.9E2,3.9E2,8E0,1.62E2,1.01E2],"tree_param":{"num_deleted":"0","num_feature":"33","num_nodes":"17","size_leaf_vector":"1"}},{"base_weights":[-1.9098572E-4,-2.5366035E-3,1.280119E-2,-1.6674545E-2,2.7922478E-2,-2.805991E-2,-3.2086973E-3,3.1541526E-2,-4.1001275E-2,-3.3685423E-3,-1.3379558E-3,4.083054E-3,-3.3077525E-4,4.4425926E-3,1.3316802E-3,-3.0265443E-3,-9.5429627E-4],"categories":[],"categories_nodes":[],"categories_segments":[],"categories_sizes":[],"default_left":[0,1,0,1,0,0,0,0,0,0,0,0,0,0,0,0,0],"id":11,"left_children":[1,3,-1,5,7,9,11,13,15,-1,-1,-1,-1,-1,-1,-1,-1],"loss_changes":[5.962225E-1,4.2377362E-1,0E0,1.02936655E-1,7.911803E-2,1.6810507E-2,8.988295E-2,8.117214E-2,5.692683E-3,0E0,0E0,0E0,0E0,0E0,0E0,0E0,0E0],"parents":[2147483647,0,0,1,1,3,3,4,4,5,5,6,6,7,7,8,8],"right_children":[2,4,-1,6,8,10,12,14,16,-1,-1,-1,-1,-1,-1,-1,-1],"split_conditions":[4.5913506E-2,1.2506482E-2,1.280119E-2,1.381615E2,1.6441884E2,1.138565E2,-4.2115595E-2,-4.1513987E-2,1.6774863E-1,-3.3685423E-3,-1.3379558E-3,4.083054E-3,-3.3077525E-4,4.4425926E-3,1.3316802E-3,-3.0265443E-3,-9.5429627E-4],"split_indices":[6,8,0,11,12,11,21,21,3,0,0,0,0,0,0,0,0],"split_type":[0,0,0,0,0,0,0,0,0,0,0,0,0,0,0,0,0],"sum_hessian":[9.9E2,9.82E2,8E0,6.71E2,3.11E2,3.63E2,3.08E2,2.96E2,1.5E1,1E1,3.53E2,1.1E1,2.97E2,2.2E1,2.74E2,7E0,8E0],"tree_param":{"num_deleted":"0","num_feature":"33","num_nodes":"17","size_leaf_vector":"1"}},{"base_weights":[-4.0430622E-4,2.8524294E-1,-3.8593088E-3,3.799288E-3,2.1192862E-2,-1.5783198E-2,2.7444104E-2,4.3496843E-3,-1.7061971E-2,2.1487303E-2,1.0625974E-1,-1.3128918E-3,-3.1524472E-4,1.8109847E-3,1.4093563E-4,1.7140122E-3,1.1237799E-2],"categories":[],"categories_nodes":[],"categories_segments":[],"categories_sizes":[],"default_left":[0,0,1,0,0,0,0,0,1,0,0,0,0,0,0,0,0],"id":12,"left_children":[1,3,5,-1,-1,7,9,-1,11,13,15,-1,-1,-1,-1,-1,-1],"loss_changes":[9.9097353E-1,3.1586534E-1,3.707055E-1,0E0,0E0,9.598136E-2,1.263568E-1,0E0,7.016702E-2,7.0306346E-2,1.5435202E-1,0E0,0E0,0E0,0E0,0E0,0E0],"parents":[2147483647,0,0,1,1,2,2,5,5,6,6,8,8,9,9,10,10],"right_children":[2,4,6,-1,-1,8,10,-1,12,14,16,-1,-1,-1,-1,-1,-1],"split_conditions":[-8.590126E-2,1.54426E2,1.3113199E-2,3.799288E-3,2.1192862E-2,9.725692E-1,1.0382237E0,4.3496843E-3,1.3874E2,1.38302E2,1.8939534E-1,-1.3128918E-3,-3.1524472E-4,1.8109847E-3,1.4093563E-4,1.7140122E-3,1.1237799E-2],"split_indices":[21,10,8,0,0,13,13,0,10,10,28,0,0,0,0,0,0],"split_type":[0,0,0,0,0,0,0,0,0,0,0,0,0,0,0,0,0],"sum_hessian":[1.002E3,1.1E1,9.91E2,5E0,6E0,7.18E2,2.73E2,8E0,7.1E2,2.55E2,1.8E1,3.82E2,3.28E2,1.42E2,1.13E2,1.2E1,6E0],"tree_param":{"num_deleted":"0","num_feature":"33","num_nodes":"17","size_leaf_vector":"1"}},{"base_weights":[1.7918668E-3,-1.994885E-3,2.3574847E-1,-1.8574812E-2,1.695792E-2,3.3169106E-1,1.0281156E-3,-2.1551277E-2,1.385152E-2,1.3152726E-2,1.0498678E-1,9.612202E-3,2.0792814E-2,3.0129515E-3,-1.143909E-3,-2.1464343E-4,2.3503264E-3,1.2779082E-3,-1.1945873E-4,1.5251932E-3,1.3064123E-2],"categories":[],"categories_nodes":[],"categories_segments":[],"categories_sizes":[],"default_left":[1,1,0,1,0,0,0,0,0,0,0,0,0,0,0,0,0,0,0,0,0],"id":13,"left_children":[1,3,5,7,9,11,-1,13,15,17,19,-1,-1,-1,-1,-1,-1,-1,-1,-1,-1],"loss_changes":[8.899496E-1,3.1109452E-1,3.2350808E-1,5.1258907E-2,1.5337387E-1,4.9156547E-2,0E0,5.3918794E-2,2.7272772E-2,8.5666075E-2,2.1321565E-1,0E0,0E0,0E0,0E0,0E0,0E0,0E0,0E0,0E0,0E0],"parents":[2147483647,0,0,1,1,2,2,3,3,4,4,5,5,7,7,8,8,9,9,10,10],"right_children":[2,4,6,8,10,12,-1,14,16,18,20,-1,-1,-1,-1,-1,-1,-1,-1,-1,-1],"split_conditions":[3.719139E-1,1.3225779E-1,5.932808E-1,1.0163095E0,1.0382237E0,1.58498E2,1.0281156E-3,-9.880142E-2,1.08075395E-1,9.6605885E-1,1.9089444E-1,9.612202E-3,2.0792814E-2,3.0129515E-3,-1.143909E-3,-2.1464343E-4,2.3503264E-3,1.2779082E-3,-1.1945873E-4,1.5251932E-3,1.3064123E-2],"split_indices":[2,4,4,13,13,10,0,16,28,31,28,0,0,0,0,0,0,0,0,0,0],"split_type":[0,0,0,0,0,0,0,0,0,0,0,0,0,0,0,0,0,0,0,0,0],"sum_hessian":[1.003E3,9.88E2,1.5E1,5.27E2,4.61E2,1E1,5E0,4.83E2,4.4E1,4.43E2,1.8E1,5E0,5E0,7E0,4.76E2,2.9E1,1.5E1,2.46E2,1.97E2,1.3E1,5E0],"tree_param":{"num_deleted":"0","num_feature":"33","num_nodes":"21","size_leaf_vector":"1"}},{"base_weights":[-2.3805183E-5,-3.2297515E-3,2.6233146E-1,-1.8370979E-2,1.3992187E-2,1.9426113E-2,5.8345986E-3,5.8188923E-3,-1.989631E-2,2.7471825E-2,-2.9091793E-3,-1.1527536E-3,-7.5290714E-5,4.5403796E-3,1.1005561E-3,2.2242619E-3,-2.6562097E-4],"categories":[],"categories_nodes":[],"categories_segments":[],"categories_sizes":[],"default_left":[0,1,0,0,0,0,0,0,1,0,0,0,0,0,0,0,0],"id":14,"left_children":[1,3,5,7,9,-1,-1,-1,11,13,15,-1,-1,-1,-1,-1,-1],"loss_changes":[8.3605653E-1,2.563246E-1,1.7520297E-1,1.0981119E-1,1.04879126E-1,0E0,0E0,0E0,3.0056506E-2,8.654083E-2,2.3585854E-2,0E0,0E0,0E0,0E0,0E0,0E0],"parents":[2147483647,0,0,1,1,2,2,3,3,4,4,8,8,9,9,10,10],"right_children":[2,4,6,8,10,-1,-1,-1,12,14,16,-1,-1,-1,-1,-1,-1],"split_conditions":[3.0937327E-2,1.3225779E-1,6.117742E-1,-1.0804732E-1,9.4592303E-1,1.9426113E-2,5.8345986E-3,5.8188923E-3,-5.702623E-3,-4.1513987E-2,9.467568E-3,-1.1527536E-3,-7.5290714E-5,4.5403796E-3,1.1005561E-3,2.2242619E-3,-2.6562097E-4],"split_indices":[6,4,31,16,31,0,0,0,16,21,8,0,0,0,0,0,0],"split_type":[0,0,0,0,0,0,0,0,0,0,0,0,0,0,0,0,0],"sum_hessian":[9.92E2,9.81E2,1.1E1,5.22E2,4.59E2,5E0,6E0,5E0,5.17E2,2.55E2,2.04E2,4.41E2,7.6E1,1.9E1,2.36E2,9E0,1.95E2],"tree_param":{"num_deleted":"0","num_feature":"33","num_nodes":"17","size_leaf_vector":"1"}},{"base_weights":[3.5182686E-4,-2.333151E-3,2.4392055E-1,-1.30410455E-2,2.3601146E-2,6.2723956E-3,1.6086988E-2,4.7424496E-3,-1.4099804E-2,3.6440715E-2,1.7104881E-3,-8.5728493E-4,8.242139E-4,4.9613263E-3,1.3650869E-3,2.1312803E-3,-2.1370586E-4],"categories":[],"categories_nodes":[],"categories_segments":[],"categories_sizes":[],"default_left":[0,1,0,0,0,0,0,0,1,0,0,0,0,0,0,0,0],"id":15,"left_children":[1,3,5,7,9,-1,-1,-1,11,13,15,-1,-1,-1,-1,-1,-1],"loss_changes":[6.597775E-1,2.7745414E-1,6.1052382E-2,8.209755E-2,8.200911E-2,0E0,0E0,0E0,6.558491E-2,1.0286982E-1,2.6872018E-2,0E0,0E0,0E0,0E0,0E0,0E0],"parents":[2147483647,0,0,1,1,2,2,3,3,4,4,8,8,9,9,10,10],"right_children":[2,4,6,8,10,-1,-1,-1,12,14,16,-1,-1,-1,-1,-1,-1],"split_conditions":[4.5913506E-2,1.3113199E-2,1.5645999E2,9.7169334E-1,1.3870999E2,6.2723956E-3,1.6086988E-2,4.7424496E-3,2.7020955E-2,1.5321713E-2,1.16856016E-1,-8.5728493E-4,8.242139E-4,4.9613263E-3,1.3650869E-3,2.1312803E-3,-2.1370586E-4],"split_indices":[6,8,10,13,10,0,0,0,9,8,2,0,0,0,0,0,0],"split_type":[0,0,0,0,0,0,0,0,0,0,0,0,0,0,0,0,0],"sum_hessian":[1.007E3,9.97E2,1E1,7.06E2,2.91E2,5E0,5E0,6E0,7E2,1.83E2,1.08E2,6.37E2,6.3E1,2.2E1,1.61E2,1.3E1,9.5E1],"tree_param":{"num_deleted":"0","num_feature":"33","num_nodes":"17","size_leaf_vector":"1"}},{"base_weights":[1.5047886E-5,-3.416292E-3,2.3922738E-1,-1.3486461E-2,1.7957537E-2,1.6002137E-2,3.906656E-3,-1.5763732E-2,3.0535422E-2,-2.559459E-2,2.2494882E-2,3.5430875E-3,-8.2837715E-4,3.7738904E-3,9.90718E-4,2.8611254E-4,-1.6043425E-3,3.3580156E-3,8.962121E-4],"categories":[],"categories_nodes":[],"categories_segments":[],"categories_sizes":[],"default_left":[0,1,0,1,0,0,0,0,0,0,0,0,0,0,0,0,0,0,0],"id":16,"left_children":[1,3,5,7,9,-1,-1,11,13,15,17,-1,-1,-1,-1,-1,-1,-1,-1],"loss_changes":[8.12607E-1,2.1031453E-1,1.5725857E-1,6.70472E-2,6.2428005E-2,0E0,0E0,4.5180455E-2,1.4404852E-2,6.2831193E-3,5.6774706E-2,0E0,0E0,0E0,0E0,0E0,0E0,0E0,0E0],"parents":[2147483647,0,0,1,1,2,2,3,3,4,4,7,7,8,8,9,9,10,10],"right_children":[2,4,6,8,10,-1,-1,12,14,16,18,-1,-1,-1,-1,-1,-1,-1,-1],"split_conditions":[3.0937327E-2,1.5109964E-1,-1.2839257E-3,3.5798155E-2,-6.3304E-1,1.6002137E-2,3.906656E-3,-7.437575E-2,-5.5981345E-2,1.1986716E-1,-4.1513987E-2,3.5430875E-3,-8.2837715E-4,3.7738904E-3,9.90718E-4,2.8611254E-4,-1.6043425E-3,3.3580156E-3,8.962121E-4],"split_indices":[6,5,24,9,32,0,0,15,21,3,21,0,0,0,0,0,0,0,0],"split_type":[0,0,0,0,0,0,0,0,0,0,0,0,0,0,0,0,0,0,0],"sum_hessian":[9.88E2,9.75E2,1.3E1,6.63E2,3.12E2,8E0,5E0,6.31E2,3.2E1,2.9E1,2.83E2,5E0,6.26E2,5E0,2.7E1,5E0,2.4E1,2.5E1,2.58E2],"tree_param":{"num_deleted":"0","num_feature":"33","num_nodes":"19","size_leaf_vector":"1"}},{"base_weights":[1.331586E-3,-2.1208639E-3,2.4389438E-1,-1.2042605E-2,2.1319292E-2,1.6124584E-2,5.961343E-3,-2.3957053E-2,-3.838428E-3,6.1786347E-3,1.8384514E-2,-1.3889157E-3,6.5523585E-5,-3.584086E-4,1.6068671E-3,1.3736155E-3,-8.5596694E-5],"categories":[],"categories_nodes":[],"categories_segments":[],"categories_sizes":[],"default_left":[0,1,0,0,0,0,0,0,1,0,0,0,0,0,0,0,0],"id":17,"left_children":[1,3,5,7,9,-1,-1,11,13,-1,15,-1,-1,-1,-1,-1,-1],"loss_changes":[8.3544093E-1,2.2910284E-1,9.872973E-2,6.754981E-2,8.565484E-2,0E0,0E0,2.7264565E-2,4.9464095E-2,0E0,5.2279897E-2,0E0,0E0,0E0,0E0,0E0,0E0],"parents":[2147483647,0,0,1,1,2,2,3,3,4,4,7,7,8,8,10,10],"right_children":[2,4,6,8,10,-1,-1,12,14,-1,16,-1,-1,-1,-1,-1,-1],"split_conditions":[3.0937327E-2,1.3113199E-2,6.474558E-1,1.31772E2,4.325867E-1,1.6124584E-2,5.961343E-3,2.9403081E-2,1.0166972E0,6.1786347E-3,9.699161E-1,-1.3889157E-3,6.5523585E-5,-3.584086E-4,1.6068671E-3,1.3736155E-3,-8.5596694E-5],"split_indices":[6,8,31,10,31,0,0,32,13,0,31,0,0,0,0,0,0],"split_type":[0,0,0,0,0,0,0,0,0,0,0,0,0,0,0,0,0],"sum_hessian":[9.96E2,9.83E2,1.3E1,6.91E2,2.92E2,7E0,6E0,2.81E2,4.1E2,7E0,2.85E2,2.44E2,3.7E1,3.76E2,3.4E1,1.96E2,8.9E1],"tree_param":{"num_deleted":"0","num_feature":"33","num_nodes":"17","size_leaf_vector":"1"}},{"base_weights":[-5.979959E-4,-3.317634E-3,2.0823254E-1,-1.4544879E-2,1.2886258E-2,1.580216E-2,3.5337189E-3,4.4778655E-3,-1.558773E-2,4.526523E-3,3.059221E-2,-9.2337356E-4,4.501069E-4,-4.8467333E-5,1.3214586E-3,6.0750116E-3,1.1037508E-3],"categories":[],"categories_nodes":[],"categories_segments":[],"categories_sizes":[],"default_left":[0,1,0,0,0,0,0,0,1,0,0,0,0,0,0,0,0],"id":18,"left_children":[1,3,5,7,9,-1,-1,-1,11,13,15,-1,-1,-1,-1,-1,-1],"loss_changes":[5.7431376E-1,1.8174863E-1,1.7045695E-1,6.544826E-2,6.0400493E-2,0E0,0E0,0E0,4.1591525E-2,3.3609994E-2,9.8748736E-2,0E0,0E0,0E0,0E0,0E0,0E0],"parents":[2147483647,0,0,1,1,2,2,3,3,4,4,8,8,9,9,10,10],"right_children":[2,4,6,8,10,-1,-1,-1,12,14,16,-1,-1,-1,-1,-1,-1],"split_conditions":[3.0937327E-2,1.4042082E-1,-1.1316177E-2,9.725692E-1,2.4707448E-1,1.580216E-2,3.5337189E-3,4.4778655E-3,2.4052035E-2,1.0121223E0,1.11299425E-1,-9.2337356E-4,4.501069E-4,-4.8467333E-5,1.3214586E-3,6.0750116E-3,1.1037508E-3],"split_indices":[6,4,20,13,25,0,0,0,9,13,27,0,0,0,0,0,0],"split_type":[0,0,0,0,0,0,0,0,0,0,0,0,0,0,0,0,0],"sum_hessian":[1.009E3,9.97E2,1.2E1,5.89E2,4.08E2,6E0,6E0,5E0,5.84E2,2.78E2,1.3E2,5.23E2,6.1E1,2.23E2,5.5E1,1E1,1.2E2],"tree_param":{"num_deleted":"0","num_feature":"33","num_nodes":"17","size_leaf_vector":"1"}},{"base_weights":[6.8326306E-4,-2.6754423E-3,1.5850987E-1,3.2225937E-2,-8.386415E-3,3.712259E-2,1.5811743E-2,2.551351E-2,7.7579156E-3,-1.35878995E-2,8.4501505E-3,6.3610077E-4,3.1734796E-3,1.8489248E-3,-1.154578E-3,-1.0289456E-3,-1.6573626E-4,1.1736157E-3,-1.2678053E-4],"categories":[],"categories_nodes":[],"categories_segments":[],"categories_sizes":[],"default_left":[1,0,0,0,1,0,0,0,0,0,0,0,0,0,0,0,0,0,0],"id":19,"left_children":[1,3,5,7,9,11,-1,13,-1,15,17,-1,-1,-1,-1,-1,-1,-1,-1],"loss_changes":[5.3422785E-1,1.9699991E-1,3.9032245E-1,1.1074062E-1,7.446611E-2,7.550003E-3,0E0,7.496899E-2,0E0,4.654289E-2,3.323052E-2,0E0,0E0,0E0,0E0,0E0,0E0,0E0,0E0],"parents":[2147483647,0,0,1,1,2,2,3,3,4,4,5,5,7,7,9,9,10,10],"right_children":[2,4,6,8,10,12,-1,14,-1,16,18,-1,-1,-1,-1,-1,-1,-1,-1],"split_conditions":[1.0403163E0,-1.0513163E-1,1.46198E2,1.4129199E2,1.5333435E-1,1.6315763E-1,1.5811743E-2,1.9131288E-2,7.7579156E-3,1.39914E2,1.419765E2,6.3610077E-4,3.1734796E-3,1.8489248E-3,-1.154578E-3,-1.0289456E-3,-1.6573626E-4,1.1736157E-3,-1.2678053E-4],"split_indices":[13,16,10,10,5,28,0,8,0,10,11,0,0,0,0,0,0,0,0],"split_type":[0,0,0,0,0,0,0,0,0,0,0,0,0,0,0,0,0,0,0],"sum_hessian":[1.006E3,9.86E2,2E1,1.38E2,8.48E2,1.2E1,8E0,1.32E2,6E0,6.48E2,2E2,7E0,5E0,1.07E2,2.5E1,3.85E2,2.63E2,8.4E1,1.16E2],"tree_param":{"num_deleted":"0","num_feature":"33","num_nodes":"19","size_leaf_vector":"1"}},{"base_weights":[2.0175192E-3,1.9000508E-1,-7.708513E-4,2.4637445E-3,1.5349232E-2,-1.0437825E-2,2.0751394E-2,-1.8256688E-2,-1.0125303E-3,7.6822406E-3,3.5546403E-2,-1.0895728E-3,-3.0102517E-4,1.1554227E-3,-2.907392E-4,6.70003E-4,-2.0355354E-3,9.693835E-3,1.4303032E-3],"categories":[],"categories_nodes":[],"categories_segments":[],"categories_sizes":[],"default_left":[0,0,1,0,0,1,0,0,0,0,0,0,0,0,0,0,0,0,0],"id":20,"left_children":[1,3,5,-1,-1,7,9,11,13,15,17,-1,-1,-1,-1,-1,-1,-1,-1],"loss_changes":[5.3795403E-1,2.3181176E-1,2.1076824E-1,0E0,0E0,5.1494382E-2,6.0441405E-2,1.6391098E-2,3.696993E-2,4.703148E-2,1.5598725E-1,0E0,0E0,0E0,0E0,0E0,0E0,0E0,0E0],"parents":[2147483647,0,0,1,1,2,2,5,5,6,6,7,7,8,8,9,9,10,10],"right_children":[2,4,6,-1,-1,8,10,12,14,16,18,-1,-1,-1,-1,-1,-1,-1,-1],"split_conditions":[-8.590126E-2,-2.4215488E-2,1.2506482E-2,2.4637445E-3,1.5349232E-2,1.3874E2,2.4334054E-1,-2.6410404E-3,9.153348E-2,1.7427371E-1,1.5415107E-1,-1.0895728E-3,-3.0102517E-4,1.1554227E-3,-2.907392E-4,6.70003E-4,-2.0355354E-3,9.693835E-3,1.4303032E-3],"split_indices":[21,9,8,0,0,10,25,16,25,28,4,0,0,0,0,0,0,0,0],"split_type":[0,0,0,0,0,0,0,0,0,0,0,0,0,0,0,0,0,0,0],"sum_hessian":[1.025E3,1.4E1,1.011E3,7E0,7E0,6.98E2,3.13E2,3.81E2,3.17E2,1.67E2,1.46E2,2.95E2,8.6E1,5.2E1,2.65E2,1.5E2,1.7E1,5E0,1.41E2],"tree_param":{"num_deleted":"0","num_feature":"33","num_nodes":"19","size_leaf_vector":"1"}},{"base_weights":[-1.1462399E-3,-3.3943292E-3,2.0312534E-1,-5.1885326E-3,7.652045E-2,5.9425887E-3,1.2677235E-2,2.3988744E-2,-9.929742E-3,7.923612E-3,1.8371409E-2,1.5970132E-3,-1.3537721E-3,-6.3615304E-4,6.923287E-4,2.4673732E-3,-1.5577287E-3],"categories":[],"categories_nodes":[],"categories_segments":[],"categories_sizes":[],"default_left":[0,1,0,0,0,0,0,0,1,0,0,0,0,0,0,0,0],"id":21,"left_children":[1,3,5,7,9,-1,-1,11,13,-1,15,-1,-1,-1,-1,-1,-1],"loss_changes":[4.640432E-1,1.43637E-1,1.660493E-2,1.355304E-1,1.0192786E-1,0E0,0E0,5.6491986E-2,5.6097455E-2,0E0,2.3015074E-2,0E0,0E0,0E0,0E0,0E0,0E0],"parents":[2147483647,0,0,1,1,2,2,3,3,4,4,7,7,8,8,10,10],"right_children":[2,4,6,8,10,-1,-1,12,14,-1,16,-1,-1,-1,-1,-1,-1],"split_conditions":[4.5913506E-2,5.5931218E-2,-7.903483E-2,-9.9966675E-2,-5.8426327E-1,5.9425887E-3,1.2677235E-2,1.9295188E-2,2.0083003E-1,7.923612E-3,2.2799774E-1,1.5970132E-3,-1.3537721E-3,-6.3615304E-4,6.923287E-4,2.4673732E-3,-1.5577287E-3],"split_indices":[6,9,23,16,32,0,0,8,5,0,3,0,0,0,0,0,0],"split_type":[0,0,0,0,0,0,0,0,0,0,0,0,0,0,0,0,0],"sum_hessian":[1.008E3,9.98E2,1E1,9.77E2,2.1E1,5E0,5E0,1.36E2,8.41E2,8E0,1.3E1,1.18E2,1.8E1,7.53E2,8.8E1,8E0,5E0],"tree_param":{"num_deleted":"0","num_feature":"33","num_nodes":"17","size_leaf_vector":"1"}},{"base_weights":[2.9467707E-4,-2.6319881E-3,1.3602217E-1,3.007352E-2,-8.250084E-3,4.274912E-2,1.4112361E-2,7.961775E-2,1.5649512E-2,-1.2171754E-2,9.956632E-3,6.193854E-6,3.3208025E-3,6.318427E-3,1.2484463E-3,1.7555209E-3,-2.5787167E-4,5.685838E-4,-7.28733E-4,-5.525226E-4,1.1071045E-3],"categories":[],"categories_nodes":[],"categories_segments":[],"categories_sizes":[],"default_left":[1,0,0,0,1,0,0,0,0,0,0,0,0,0,0,0,0,0,0,0,0],"id":22,"left_children":[1,3,5,7,9,11,-1,13,15,17,19,-1,-1,-1,-1,-1,-1,-1,-1,-1,-1],"loss_changes":[3.9520356E-1,1.7921348E-1,2.743502E-1,1.0094561E-1,5.9526596E-2,1.4115093E-2,0E0,7.8600764E-2,4.553234E-2,3.8917996E-2,3.812986E-2,0E0,0E0,0E0,0E0,0E0,0E0,0E0,0E0,0E0,0E0],"parents":[2147483647,0,0,1,1,2,2,3,3,4,4,5,5,7,7,8,8,9,9,10,10],"right_children":[2,4,6,8,10,12,-1,14,16,18,20,-1,-1,-1,-1,-1,-1,-1,-1,-1,-1],"split_conditions":[1.0403163E0,-9.880142E-2,1.4744E2,-2.8097637E-2,1.0127305E0,1.5790437E-1,1.4112361E-2,-9.208074E-3,-1.0604728E-2,-4.9199093E-2,-6.030779E-1,6.193854E-6,3.3208025E-3,6.318427E-3,1.2484463E-3,1.7555209E-3,-2.5787167E-4,5.685838E-4,-7.28733E-4,-5.525226E-4,1.1071045E-3],"split_indices":[13,16,11,21,13,28,0,32,1,15,32,0,0,0,0,0,0,0,0,0,0],"split_type":[0,0,0,0,0,0,0,0,0,0,0,0,0,0,0,0,0,0,0,0,0],"sum_hessian":[9.93E2,9.73E2,2E1,1.42E2,8.31E2,1.3E1,7E0,3.1E1,1.11E2,6.84E2,1.47E2,5E0,8E0,1.6E1,1.5E1,5.7E1,5.4E1,6.3E1,6.21E2,5.4E1,9.3E1],"tree_param":{"num_deleted":"0","num_feature":"33","num_nodes":"21","size_leaf_vector":"1"}},{"base_weights":[-2.4127448E-4,-3.4450688E-3,1.27792E-1,2.4358004E-2,-8.270667E-3,4.3418575E-2,1.3648246E-2,4.8943266E-2,2.8487416E-3,-1.2133214E-2,1.0034723E-2,6.416033E-2,2.3108658E-4,6.0289507E-3,1.6639114E-3,8.700094E-4,-1.5914821E-3,-9.947905E-4,-1.5356916E-4,-5.216827E-4,1.2784478E-3,1.9516826E-3,3.9296816E-3],"categories":[],"categories_nodes":[],"categories_segments":[],"categories_sizes":[],"default_left":[1,0,0,0,1,0,0,0,0,0,0,0,0,0,0,0,0,0,0,0,0,0,0],"id":23,"left_children":[1,3,5,7,9,11,-1,13,15,17,19,21,-1,-1,-1,-1,-1,-1,-1,-1,-1,-1,-1],"loss_changes":[4.2006695E-1,1.3423376E-1,2.9436666E-1,7.812458E-2,6.0362767E-2,1.33836195E-2,0E0,7.341753E-2,4.092349E-2,4.9460582E-2,4.7642898E-2,9.214692E-4,0E0,0E0,0E0,0E0,0E0,0E0,0E0,0E0,0E0,0E0,0E0],"parents":[2147483647,0,0,1,1,2,2,3,3,4,4,5,5,7,7,8,8,9,9,10,10,11,11],"right_children":[2,4,6,8,10,12,-1,14,16,18,20,22,-1,-1,-1,-1,-1,-1,-1,-1,-1,-1,-1],"split_conditions":[1.0382237E0,-9.9966675E-2,1.54426E2,6.0882185E-2,1.0127305E0,1.0482324E0,1.3648246E-2,1.07614E2,1.9131288E-2,1.4214133E2,1.08075395E-1,2.6241994E-1,2.3108658E-4,6.0289507E-3,1.6639114E-3,8.700094E-4,-1.5914821E-3,-9.947905E-4,-1.5356916E-4,-5.216827E-4,1.2784478E-3,1.9516826E-3,3.9296816E-3],"split_indices":[13,16,10,32,13,13,0,10,8,12,28,25,0,0,0,0,0,0,0,0,0,0,0],"split_type":[0,0,0,0,0,0,0,0,0,0,0,0,0,0,0,0,0,0,0,0,0,0,0],"sum_hessian":[1.022E3,9.98E2,2.4E1,1.47E2,8.51E2,1.6E1,8E0,6.8E1,7.9E1,7.03E2,1.48E2,1E1,6E0,1.1E1,5.7E1,5.6E1,2.3E1,3.78E2,3.25E2,6.4E1,8.4E1,5E0,5E0],"tree_param":{"num_deleted":"0","num_feature":"33","num_nodes":"23","size_leaf_vector":"1"}},{"base_weights":[8.2314486E-4,1.2477258E-2,-6.566918E-4,-7.8005036E-3,2.2518432E-2,-1.6225232E-2,-8.1124785E-4,5.8173174E-3,1.9590355E-2,2.513211E-4,-8.798499E-4,2.9160304E-3,-1.5640778E-4,8.413234E-4,6.0446183E-3],"categories":[],"categories_nodes":[],"categories_segments":[],"categories_sizes":[],"default_left":[0,0,1,1,0,0,0,0,0,0,0,0,0,0,0],"id":24,"left_children":[1,-1,3,5,7,9,11,-1,13,-1,-1,-1,-1,-1,-1],"loss_changes":[3.7338474E-1,0E0,1.6722439E-1,4.544418E-2,6.310776E-2,1.0291755E-2,5.8134723E-2,0E0,6.292287E-2,0E0,0E0,0E0,0E0,0E0,0E0],"parents":[2147483647,0,0,2,2,3,3,4,4,5,5,6,6,8,8],"right_children":[2,-1,4,6,8,10,12,-1,14,-1,-1,-1,-1,-1,-1],"split_conditions":[-6.824883E-2,1.2477258E-2,1.4578915E-2,1.36706E2,4.325867E-1,-4.418019E-2,-4.1513987E-2,5.8173174E-3,4.5913506E-2,2.513211E-4,-8.798499E-4,2.9160304E-3,-1.5640778E-4,8.413234E-4,6.0446183E-3],"split_indices":[24,0,8,10,31,15,21,0,6,0,0,0,0,0,0],"split_type":[0,0,0,0,0,0,0,0,0,0,0,0,0,0,0],"sum_hessian":[1.013E3,5E0,1.008E3,7.71E2,2.37E2,3.49E2,4.22E2,6E0,2.31E2,2.1E1,3.28E2,1.5E1,4.07E2,2.26E2,5E0],"tree_param":{"num_deleted":"0","num_feature":"33","num_nodes":"15","size_leaf_vector":"1"}},{"base_weights":[1.0612382E-3,-1.3622461E-3,1.6417177E-1,-1.1114858E-2,1.0092137E-2,1.2041597E-2,2.1077802E-3,3.124898E-3,-1.2186821E-2,5.0383456E-2,7.1976017E-3,-6.7920337E-4,8.5419667E-4,4.4974415E-3,3.8345603E-4,4.5198514E-4,-1.3897279E-3],"categories":[],"categories_nodes":[],"categories_segments":[],"categories_sizes":[],"default_left":[0,1,0,0,0,0,0,0,1,0,0,0,0,0,0,0,0],"id":25,"left_children":[1,3,5,7,9,-1,-1,-1,11,13,15,-1,-1,-1,-1,-1,-1],"loss_changes":[4.0500656E-1,1.1293943E-1,1.3015425E-1,4.3846607E-2,5.3867817E-2,0E0,0E0,0E0,2.2276334E-2,5.170045E-2,2.8290967E-2,0E0,0E0,0E0,0E0,0E0,0E0],"parents":[2147483647,0,0,1,1,2,2,3,3,4,4,8,8,9,9,10,10],"right_children":[2,4,6,8,10,-1,-1,-1,12,14,16,-1,-1,-1,-1,-1,-1],"split_conditions":[3.0937327E-2,1.3225779E-1,1.2027029E-2,-5.8927875E-2,-4.1513987E-2,1.2041597E-2,2.1077802E-3,3.124898E-3,3.5798155E-2,1.344811E-1,2.6770812E-1,-6.7920337E-4,8.5419667E-4,4.4974415E-3,3.8345603E-4,4.5198514E-4,-1.3897279E-3],"split_indices":[6,4,1,15,21,0,0,0,9,28,3,0,0,0,0,0,0],"split_type":[0,0,0,0,0,0,0,0,0,0,0,0,0,0,0,0,0],"sum_hessian":[1.023E3,1.009E3,1.4E1,5.45E2,4.64E2,8E0,6E0,7E0,5.38E2,3E1,4.34E2,5.14E2,2.4E1,1.5E1,1.5E1,4.13E2,2.1E1],"tree_param":{"num_deleted":"0","num_feature":"33","num_nodes":"17","size_leaf_vector":"1"}},{"base_weights":[4.5984317E-4,-2.1268746E-3,9.033186E-2,2.1718131E-2,-6.4650103E-3,3.659081E-2,1.2316388E-2,5.1728413E-2,3.2893633E-3,-9.415238E-3,7.1861437E-3,3.8838425E-5,3.06627E-3,4.9318485E-3,1.4663176E-3,2.959982E-3,-9.4481E-5,-8.040811E-4,-7.7175704E-5,-2.665463E-4,1.7838316E-3],"categories":[],"categories_nodes":[],"categories_segments":[],"categories_sizes":[],"default_left":[1,0,0,0,1,0,0,0,0,0,0,0,0,0,0,0,0,0,0,0,0],"id":26,"left_children":[1,3,5,7,9,11,-1,13,15,17,19,-1,-1,-1,-1,-1,-1,-1,-1,-1,-1],"loss_changes":[2.3266566E-1,1.0079032E-1,2.2572139E-1,8.278773E-2,3.325345E-2,1.9440964E-2,0E0,5.7005703E-2,2.7330352E-2,3.555386E-2,5.2612953E-2,0E0,0E0,0E0,0E0,0E0,0E0,0E0,0E0,0E0,0E0],"parents":[2147483647,0,0,1,1,2,2,3,3,4,4,5,5,7,7,8,8,9,9,10,10],"right_children":[2,4,6,8,10,12,-1,14,16,18,20,-1,-1,-1,-1,-1,-1,-1,-1,-1,-1],"split_conditions":[1.0382237E0,-9.9966675E-2,1.54426E2,2.2399891E-2,1.0127305E0,1.6410239E-1,1.2316388E-2,-1.5688282E-2,-5.765205E-2,1.42323E2,-4.250599E-1,3.8838425E-5,3.06627E-3,4.9318485E-3,1.4663176E-3,2.959982E-3,-9.4481E-5,-8.040811E-4,-7.7175704E-5,-2.665463E-4,1.7838316E-3],"split_indices":[13,16,10,32,13,28,0,29,9,12,32,0,0,0,0,0,0,0,0,0,0],"split_type":[0,0,0,0,0,0,0,0,0,0,0,0,0,0,0,0,0,0,0,0,0],"sum_hessian":[9.99E2,9.72E2,2.7E1,1.49E2,8.23E2,2.1E1,6E0,5.6E1,9.3E1,6.77E2,1.46E2,9E0,1.2E1,1.7E1,3.9E1,7E0,8.6E1,3.66E2,3.11E2,1.02E2,4.4E1],"tree_param":{"num_deleted":"0","num_feature":"33","num_nodes":"21","size_leaf_vector":"1"}},{"base_weights":[1.1316211E-3,-1.3750844E-3,9.721061E-2,1.6333759E-2,-7.5473906E-3,3.2823045E-2,1.1898987E-2,3.831298E-2,3.9217034E-3,-1.1370551E-2,6.9553154E-3,2.5499428E-3,7.282263E-5,2.798938E-3,3.0056093E-4,4.3074778E-4,-2.1949017E-3,-9.066529E-4,-2.747542E-4,-8.5712597E-4,9.4686775E-4],"categories":[],"categories_nodes":[],"categories_segments":[],"categories_sizes":[],"default_left":[1,0,0,0,1,0,0,0,0,0,0,0,0,0,0,0,0,0,0,0,0],"id":27,"left_children":[1,3,5,7,9,11,-1,13,15,17,19,-1,-1,-1,-1,-1,-1,-1,-1,-1,-1],"loss_changes":[2.4627392E-1,1.0909977E-1,2.278471E-1,7.023404E-2,4.1109256E-2,1.0757873E-2,0E0,5.273263E-2,3.7633575E-2,2.318383E-2,4.507952E-2,0E0,0E0,0E0,0E0,0E0,0E0,0E0,0E0,0E0,0E0],"parents":[2147483647,0,0,1,1,2,2,3,3,4,4,5,5,7,7,8,8,9,9,10,10],"right_children":[2,4,6,8,10,12,-1,14,16,18,20,-1,-1,-1,-1,-1,-1,-1,-1,-1,-1],"split_conditions":[1.0382237E0,-3.916262E-2,1.52692E2,7.825755E-1,1.0127305E0,1.0436348E0,1.1898987E-2,4.056332E-3,1.3037129E-1,-2.9193345E-1,-6.309058E-1,2.5499428E-3,7.282263E-5,2.798938E-3,3.0056093E-4,4.3074778E-4,-2.1949017E-3,-9.066529E-4,-2.747542E-4,-8.5712597E-4,9.4686775E-4],"split_indices":[13,15,10,31,13,13,0,21,27,32,32,0,0,0,0,0,0,0,0,0,0],"split_type":[0,0,0,0,0,0,0,0,0,0,0,0,0,0,0,0,0,0,0,0,0],"sum_hessian":[1.021E3,9.96E2,2.5E1,2.57E2,7.39E2,1.8E1,7E0,9.2E1,1.65E2,5.85E2,1.54E2,1.1E1,7E0,5.9E1,3.3E1,1.51E2,1.4E1,2.71E2,3.14E2,5.1E1,1.03E2],"tree_param":{"num_deleted":"0","num_feature":"33","num_nodes":"21","size_leaf_vector":"1"}},{"base_weights":[1.4573011E-3,-1.8246536E-4,1.1625398E-1,-7.0575005E-3,1.5522656E-2,1.1384721E-2,2.1059327E-4,-1.590506E-2,-9.4508845E-4,9.608222E-3,4.6250045E-2,-6.8453135E-4,-2.122951E-3,-2.124931E-4,9.4499235E-4,7.7980425E-4,-5.813897E-4,1.294679E-3,9.221486E-3],"categories":[],"categories_nodes":[],"categories_segments":[],"categories_sizes":[],"default_left":[0,0,0,0,1,0,0,1,1,0,0,0,0,0,0,0,0,0,0],"id":28,"left_children":[1,3,5,7,9,-1,-1,11,13,15,17,-1,-1,-1,-1,-1,-1,-1,-1],"loss_changes":[1.8713151E-1,1.0603131E-1,1.7384528E-1,3.692156E-2,5.3894423E-2,0E0,0E0,1.582446E-2,2.6641443E-2,3.2225247E-2,1.3024123E-1,0E0,0E0,0E0,0E0,0E0,0E0,0E0,0E0],"parents":[2147483647,0,0,1,1,2,2,3,3,4,4,7,7,8,8,9,9,10,10],"right_children":[2,4,6,8,10,-1,-1,12,14,16,18,-1,-1,-1,-1,-1,-1,-1,-1],"split_conditions":[3.0937327E-2,1.0255951E-2,-6.7612138E-3,-3.6779904E-1,-1.5946252E-2,1.1384721E-2,2.1059327E-4,1.6454033E2,1.5333435E-1,2.1943787E-1,1.8014787E-1,-6.8453135E-4,-2.122951E-3,-2.124931E-4,9.4499235E-4,7.7980425E-4,-5.813897E-4,1.294679E-3,9.221486E-3],"split_indices":[6,6,7,32,16,0,0,12,5,3,28,0,0,0,0,0,0,0,0],"split_type":[0,0,0,0,0,0,0,0,0,0,0,0,0,0,0,0,0,0,0],"sum_hessian":[9.93E2,9.8E2,1.3E1,6.82E2,2.98E2,6E0,7E0,2.78E2,4.04E2,2.51E2,4.7E1,2.58E2,2E1,3.47E2,5.7E1,1.96E2,5.5E1,4.2E1,5E0],"tree_param":{"num_deleted":"0","num_feature":"33","num_nodes":"19","size_leaf_vector":"1"}},{"base_weights":[-5.527558E-4,-2.641947E-3,6.771258E-2,2.11611E-2,-6.5025813E-3,2.3230325E-2,7.7177035E-3,1.52856745E-2,6.4046234E-3,-7.3572495E-3,3.8186315E-2,4.0564306E-2,-2.1943977E-4,1.2456679E-3,-1.5502883E-3,-4.6879562E-4,4.2633605E-4,4.3924684E-3,3.8129493E-4,2.6256458E-3,1.1410398E-3],"categories":[],"categories_nodes":[],"categories_segments":[],"categories_sizes":[],"default_left":[1,0,0,0,1,0,0,0,0,1,0,0,0,0,0,0,0,0,0,0,0],"id":29,"left_children":[1,3,5,7,9,11,-1,13,-1,15,17,19,-1,-1,-1,-1,-1,-1,-1,-1,-1],"loss_changes":[1.4408182E-1,9.019456E-2,1.1203456E-1,8.411465E-2,3.251683E-2,1.0231763E-2,0E0,5.915644E-2,0E0,2.6661318E-2,2.3613643E-2,1.5577488E-3,0E0,0E0,0E0,0E0,0E0,0E0,0E0,0E0,0E0],"parents":[2147483647,0,0,1,1,2,2,3,3,4,4,5,5,7,7,9,9,10,10,11,11],"right_children":[2,4,6,8,10,12,-1,14,-1,16,18,20,-1,-1,-1,-1,-1,-1,-1,-1,-1],"split_conditions":[1.0367337E0,-1.0513163E-1,1.46198E2,1.4129199E2,2.1960268E0,1.0196166E0,7.7177035E-3,1.9211622E-2,6.4046234E-3,2.0083003E-1,-3.1694924E-3,-7.242004E-4,-2.1943977E-4,1.2456679E-3,-1.5502883E-3,-4.6879562E-4,4.2633605E-4,4.3924684E-3,3.8129493E-4,2.6256458E-3,1.1410398E-3],"split_indices":[13,16,10,10,31,14,0,8,0,5,20,19,0,0,0,0,0,0,0,0,0],"split_type":[0,0,0,0,0,0,0,0,0,0,0,0,0,0,0,0,0,0,0,0,0],"sum_hessian":[1.008E3,9.79E2,2.9E1,1.36E2,8.43E2,2E1,9E0,1.3E2,6E0,8.28E2,1.5E1,1.2E1,8E0,1.08E2,2.2E1,7.35E2,9.3E1,5E0,1E1,6E0,6E0],"tree_param":{"num_deleted":"0","num_feature":"33","num_nodes":"21","size_leaf_vector":"1"}},{"base_weights":[1.1741148E-3,1.288448E-1,-6.14449E-4,1.0983807E-2,1.6630894E-3,-6.3422783E-3,1.3228273E-2,-8.803919E-3,1.658225E-2,3.0802429E-2,2.3407245E-3,7.024076E-4,-5.908233E-4,1.944857E-4,3.1008036E-3,5.2630296E-4,2.7424083E-3,-6.140671E-5,1.9722197E-3],"categories":[],"categories_nodes":[],"categories_segments":[],"categories_sizes":[],"default_left":[0,0,1,0,0,1,0,0,0,0,0,0,0,0,0,0,0,0,0],"id":30,"left_children":[1,3,5,-1,-1,7,9,11,13,15,17,-1,-1,-1,-1,-1,-1,-1,-1],"loss_changes":[2.3139486E-1,1.1424023E-1,7.937264E-2,0E0,0E0,4.0099815E-2,5.5990364E-2,4.422548E-2,3.954903E-2,5.4029413E-2,2.4148472E-2,0E0,0E0,0E0,0E0,0E0,0E0,0E0,0E0],"parents":[2147483647,0,0,1,1,2,2,5,5,6,6,7,7,8,8,9,9,10,10],"right_children":[2,4,6,-1,-1,8,10,12,14,16,18,-1,-1,-1,-1,-1,-1,-1,-1],"split_conditions":[-4.13962E-2,-3.0539613E-2,1.30133E-2,1.0983807E-2,1.6630894E-3,2.7020955E-2,1.8069746E-1,-4.2828146E-2,1.46198E2,2.2215417E-1,3.9641257E-2,7.024076E-4,-5.908233E-4,1.944857E-4,3.1008036E-3,5.2630296E-4,2.7424083E-3,-6.140671E-5,1.9722197E-3],"split_indices":[23,24,8,0,0,9,3,15,10,25,1,0,0,0,0,0,0,0,0],"split_type":[0,0,0,0,0,0,0,0,0,0,0,0,0,0,0,0,0,0,0],"sum_hessian":[1.012E3,1.3E1,9.99E2,6E0,7E0,7.07E2,2.92E2,6.39E2,6.8E1,1.11E2,1.81E2,7.4E1,5.65E2,5.4E1,1.4E1,6.1E1,5E1,1.66E2,1.5E1],"tree_param":{"num_deleted":"0","num_feature":"33","num_nodes":"19","size_leaf_vector":"1"}},{"base_weights":[3.3271394E-4,8.012007E-3,-6.110198E-4,-2.1937888E-3,5.980121E-2,1.4185865E-2,-6.610558E-3,8.5227145E-3,2.5338365E-2,1.4636815E-3,-1.2680946E-4,-6.1290915E-4,9.455101E-5,3.4379712E-4,3.0640466E-3],"categories":[],"categories_nodes":[],"categories_segments":[],"categories_sizes":[],"default_left":[0,0,1,0,0,0,0,0,0,0,0,0,0,0,0],"id":31,"left_children":[1,-1,3,5,7,9,11,-1,13,-1,-1,-1,-1,-1,-1],"loss_changes":[1.5432796E-1,0E0,9.737531E-2,7.1860164E-2,9.482988E-2,5.330921E-2,3.7569918E-2,0E0,1.3513959E-2,0E0,0E0,0E0,0E0,0E0,0E0],"parents":[2147483647,0,0,2,2,3,3,4,4,5,5,6,6,8,8],"right_children":[2,-1,4,6,8,10,12,-1,14,-1,-1,-1,-1,-1,-1],"split_conditions":[-5.600318E-2,8.012007E-3,5.5931218E-2,-4.2828146E-2,5.629512E-1,8.8186055E-1,1.316845E-1,8.5227145E-3,2.3278414E-1,1.4636815E-3,-1.2680946E-4,-6.1290915E-4,9.455101E-5,3.4379712E-4,3.0640466E-3],"split_indices":[24,0,9,15,31,31,4,0,2,0,0,0,0,0,0],"split_type":[0,0,0,0,0,0,0,0,0,0,0,0,0,0,0],"sum_hessian":[1.021E3,5E0,1.016E3,9.91E2,2.5E1,2.1E2,7.81E2,5E0,2E1,1.1E2,1E2,4.69E2,3.12E2,1.4E1,6E0],"tree_param":{"num_deleted":"0","num_feature":"33","num_nodes":"15","size_leaf_vector":"1"}},{"base_weights":[2.2108678E-3,8.791604E-3,6.318549E-4,-2.487161E-3,3.5237618E-2,1.21057145E-2,-6.202305E-3,2.8661344E-2,5.08016E-3,8.036703E-4,-2.6058583E-3,4.198262E-3,-3.4720285E-4,3.70278E-3,8.608293E-4],"categories":[],"categories_nodes":[],"categories_segments":[],"categories_sizes":[],"default_left":[0,0,0,0,0,0,0,0,0,0,0,0,0,0,0],"id":32,"left_children":[1,-1,3,5,7,9,11,13,-1,-1,-1,-1,-1,-1,-1],"loss_changes":[2.7376488E-1,0E0,1.0705215E-1,4.9410407E-2,3.2875836E-2,4.797876E-2,4.9139343E-2,3.8209014E-2,0E0,0E0,0E0,0E0,0E0,0E0,0E0],"parents":[2147483647,0,0,2,2,3,3,4,4,5,5,6,6,7,7],"right_children":[2,-1,4,6,8,10,12,14,-1,-1,-1,-1,-1,-1,-1],"split_conditions":[-8.590126E-2,8.791604E-3,1.566224E-2,-3.916262E-2,2.6660617E-2,2.6844025E-1,-3.0833775E-2,-1.3519429E-2,5.08016E-3,8.036703E-4,-2.6058583E-3,4.198262E-3,-3.4720285E-4,3.70278E-3,8.608293E-4],"split_indices":[21,0,6,15,17,2,17,24,0,0,0,0,0,0,0],"split_type":[0,0,0,0,0,0,0,0,0,0,0,0,0,0,0],"sum_hessian":[9.98E2,8E0,9.9E2,9.09E2,8.1E1,1.84E2,7.25E2,7.5E1,6E0,1.74E2,1E1,5E0,7.2E2,1.4E1,6.1E1],"tree_param":{"num_deleted":"0","num_feature":"33","num_nodes":"15","size_leaf_vector":"1"}},{"base_weights":[-6.980934E-4,9.681009E-3,-1.8494882E-3,-3.302442E-3,6.07711E-2,8.996837E-3,-7.337322E-3,7.8047565E-3,1.794526E-2,1.4088047E-3,-6.8412184E-5,-5.120863E-4,2.6538776E-4,-2.911516E-4,1.7582685E-3],"categories":[],"categories_nodes":[],"categories_segments":[],"categories_sizes":[],"default_left":[0,0,1,0,0,0,1,0,0,0,0,0,0,0,0],"id":33,"left_children":[1,-1,3,5,7,9,11,-1,13,-1,-1,-1,-1,-1,-1],"loss_changes":[2.278987E-1,0E0,9.227732E-2,4.919587E-2,9.109245E-2,4.874321E-2,2.7452268E-2,0E0,7.162743E-3,0E0,0E0,0E0,0E0,0E0,0E0],"parents":[2147483647,0,0,2,2,3,3,4,4,5,5,6,6,8,8],"right_children":[2,-1,4,6,8,10,12,-1,14,-1,-1,-1,-1,-1,-1],"split_conditions":[-6.824883E-2,9.681009E-3,1.0382237E0,-3.916262E-2,5.8354545E-1,7.825755E-1,1.0137537E0,7.8047565E-3,1.5251175E-1,1.4088047E-3,-6.8412184E-5,-5.120863E-4,2.6538776E-4,-2.911516E-4,1.7582685E-3],"split_indices":[24,0,13,15,31,31,13,0,28,0,0,0,0,0,0],"split_type":[0,0,0,0,0,0,0,0,0,0,0,0,0,0,0],"sum_hessian":[1.016E3,5E0,1.011E3,9.89E2,2.2E1,2.44E2,7.45E2,6E0,1.6E1,8.5E1,1.59E2,6.06E2,1.39E2,7E0,9E0],"tree_param":{"num_deleted":"0","num_feature":"33","num_nodes":"15","size_leaf_vector":"1"}},{"base_weights":[5.515233E-4,6.589973E-3,-7.510867E-4,-1.9298444E-3,7.245251E-2,1.6518507E-2,-5.052942E-3,1.8689051E-2,7.947172E-3,2.0914709E-3,-2.7265161E-5,-2.9943773E-4,1.9267552E-3,1.8616427E-3,-1.484797E-4],"categories":[],"categories_nodes":[],"categories_segments":[],"categories_sizes":[],"default_left":[0,0,1,0,0,0,1,0,0,0,0,0,0,0,0],"id":34,"left_children":[1,-1,3,5,7,9,11,13,-1,-1,-1,-1,-1,-1,-1],"loss_changes":[1.7397027E-1,0E0,8.711944E-2,5.729615E-2,7.14303E-2,6.2216498E-2,3.490248E-2,4.5285365E-3,0E0,0E0,0E0,0E0,0E0,0E0,0E0],"parents":[2147483647,0,0,2,2,3,3,4,4,5,5,6,6,7,7],"right_children":[2,-1,4,6,8,10,12,14,-1,-1,-1,-1,-1,-1,-1],"split_conditions":[-9.937943E-2,6.589973E-3,1.0403163E0,-9.9966675E-2,2.721341E-1,-9.208074E-3,2.1960268E0,-7.242004E-4,7.947172E-3,2.0914709E-3,-2.7265161E-5,-2.9943773E-4,1.9267552E-3,1.8616427E-3,-1.484797E-4],"split_indices":[21,0,13,16,25,32,31,19,0,0,0,0,0,0,0],"split_type":[0,0,0,0,0,0,0,0,0,0,0,0,0,0,0],"sum_hessian":[1.016E3,9E0,1.007E3,9.92E2,1.5E1,1.43E2,8.49E2,1E1,5E0,5.7E1,8.6E1,8.32E2,1.7E1,5E0,5E0],"tree_param":{"num_deleted":"0","num_feature":"33","num_nodes":"15","size_leaf_vector":"1"}},{"base_weights":[-1.4990111E-4,1.1513779E-1,-1.8270743E-3,9.624569E-3,1.1696003E-3,-3.2058195E-3,4.4283923E-2,3.574953E-2,-4.198333E-3,7.607964E-3,1.662248E-2,3.7337323E-3,-8.419742E-6,1.0133369E-3,-2.6044535E-4,1.7458064E-3,-1.4749104E-4],"categories":[],"categories_nodes":[],"categories_segments":[],"categories_sizes":[],"default_left":[0,0,1,0,0,0,0,0,0,0,0,0,0,0,0,0,0],"id":35,"left_children":[1,3,5,-1,-1,7,9,11,13,-1,15,-1,-1,-1,-1,-1,-1],"loss_changes":[2.0226888E-1,1.0195021E-1,6.568812E-2,0E0,0E0,3.8891114E-2,8.699036E-2,3.4965303E-2,2.42854E-2,0E0,9.054216E-3,0E0,0E0,0E0,0E0,0E0,0E0],"parents":[2147483647,0,0,1,1,2,2,5,5,6,6,7,7,8,8,10,10],"right_children":[2,4,6,-1,-1,8,10,12,14,-1,16,-1,-1,-1,-1,-1,-1],"split_conditions":[-4.13962E-2,-3.0539613E-2,1.0337018E0,9.624569E-3,1.1696003E-3,9.3344307E-1,5.629512E-1,1.8582691E-1,-1.913934E-2,7.607964E-3,1.0220977E0,3.7337323E-3,-8.419742E-6,1.0133369E-3,-2.6044535E-4,1.7458064E-3,-1.4749104E-4],"split_indices":[23,24,13,0,0,14,31,2,23,0,14,0,0,0,0,0,0],"split_type":[0,0,0,0,0,0,0,0,0,0,0,0,0,0,0,0,0],"sum_hessian":[1.044E3,1.4E1,1.03E3,7E0,7E0,1.001E3,2.9E1,2.4E1,9.77E2,5E0,2.4E1,1.1E1,1.3E1,3.8E1,9.39E2,1.2E1,1.2E1],"tree_param":{"num_deleted":"0","num_feature":"33","num_nodes":"17","size_leaf_vector":"1"}},{"base_weights":[1.3581304E-3,8.730507E-3,3.1412824E-4,-1.3052038E-3,6.894606E-2,1.36383185E-2,-5.9107062E-3,3.0557865E-2,7.6162564E-3,8.7117153E-4,-1.5954928E-3,-4.520977E-4,2.4580487E-4,2.1785684E-3,2.8713336E-4],"categories":[],"categories_nodes":[],"categories_segments":[],"categories_sizes":[],"default_left":[0,0,1,0,0,0,0,0,0,0,0,0,0,0,0],"id":36,"left_children":[1,-1,3,5,7,9,11,13,-1,-1,-1,-1,-1,-1,-1],"loss_changes":[1.8118237E-1,0E0,1.1089448E-1,6.718249E-2,6.896302E-2,4.0209115E-2,2.5334895E-2,5.2396394E-3,0E0,0E0,0E0,0E0,0E0,0E0,0E0],"parents":[2147483647,0,0,2,2,3,3,4,4,5,5,6,6,7,7],"right_children":[2,-1,4,6,8,10,12,14,-1,-1,-1,-1,-1,-1,-1],"split_conditions":[-6.824883E-2,8.730507E-3,1.0382237E0,-3.916262E-2,1.54426E2,1.9295188E-2,9.919081E-3,1.0436348E0,7.6162564E-3,8.7117153E-4,-1.5954928E-3,-4.520977E-4,2.4580487E-4,2.1785684E-3,2.8713336E-4],"split_indices":[24,0,13,15,10,8,6,13,0,0,0,0,0,0,0],"split_type":[0,0,0,0,0,0,0,0,0,0,0,0,0,0,0],"sum_hessian":[1.001E3,5E0,9.96E2,9.74E2,2.2E1,2.29E2,7.45E2,1.6E1,6E0,2.12E2,1.7E1,5.78E2,1.67E2,1E1,6E0],"tree_param":{"num_deleted":"0","num_feature":"33","num_nodes":"15","size_leaf_vector":"1"}},{"base_weights":[-2.7977878E-5,-1.763158E-3,6.372486E-2,1.0882497E-2,-5.9703514E-3,2.6888609E-2,7.3924945E-3,2.3423163E-2,-3.131994E-3,-3.6427898E-3,-2.6411088E-2,1.9267201E-4,3.648558E-2,1.9258E-3,-8.9877525E-5,-5.3200583E-6,-1.9881732E-3,-2.3489549E-4,2.9997781E-3,1.3324873E-3,-1.5261559E-3,2.167213E-3,1.0058315E-3],"categories":[],"categories_nodes":[],"categories_segments":[],"categories_sizes":[],"default_left":[1,0,0,0,1,0,0,0,0,1,0,0,0,0,0,0,0,0,0,0,0,0,0],"id":37,"left_children":[1,3,5,7,9,11,-1,13,15,17,19,-1,21,-1,-1,-1,-1,-1,-1,-1,-1,-1,-1],"loss_changes":[1.1272623E-1,5.2842066E-2,7.969349E-2,4.3659627E-2,3.534871E-2,4.280761E-3,0E0,4.9934655E-2,1.3073936E-2,4.5269728E-2,1.7395694E-2,0E0,6.998312E-4,0E0,0E0,0E0,0E0,0E0,0E0,0E0,0E0,0E0,0E0],"parents":[2147483647,0,0,1,1,2,2,3,3,4,4,5,5,7,7,8,8,9,9,10,10,12,12],"right_children":[2,4,6,8,10,12,-1,14,16,18,20,-1,22,-1,-1,-1,-1,-1,-1,-1,-1,-1,-1],"split_conditions":[1.0382237E0,-3.916262E-2,1.4744E2,9.00712E-1,1.63746E2,1.6315763E-1,7.3924945E-3,2.0358309E-1,1.2897225E-1,1.6237216E2,7.464943E-3,1.9267201E-4,-5.266762E-4,1.9258E-3,-8.9877525E-5,-5.3200583E-6,-1.9881732E-3,-2.3489549E-4,2.9997781E-3,1.3324873E-3,-1.5261559E-3,2.167213E-3,1.0058315E-3],"split_indices":[13,15,11,31,12,28,0,5,27,12,8,0,15,0,0,0,0,0,0,0,0,0,0],"split_type":[0,0,0,0,0,0,0,0,0,0,0,0,0,0,0,0,0,0,0,0,0,0,0],"sum_hessian":[1.017E3,9.91E2,2.6E1,2.47E2,7.44E2,1.9E1,7E0,1.3E2,1.17E2,6.69E2,7.5E1,6E0,1.3E1,8.1E1,4.9E1,1.09E2,8E0,6.59E2,1E1,5E0,7E1,8E0,5E0],"tree_param":{"num_deleted":"0","num_feature":"33","num_nodes":"23","size_leaf_vector":"1"}},{"base_weights":[1.6698365E-3,8.309335E-3,6.8793865E-4,-1.1170474E-3,3.3198763E-2,-5.745563E-3,9.675964E-3,6.224235E-3,2.109638E-2,-4.6382114E-4,2.0230848E-4,1.0517852E-3,-7.969098E-5,3.8626285E-3,6.3850096E-4],"categories":[],"categories_nodes":[],"categories_segments":[],"categories_sizes":[],"default_left":[0,0,1,1,0,0,0,0,0,0,0,0,0,0,0],"id":38,"left_children":[1,-1,3,5,7,9,11,-1,13,-1,-1,-1,-1,-1,-1],"loss_changes":[1.6336289E-1,0E0,5.9129443E-2,4.7763214E-2,5.5927023E-2,2.3167027E-2,3.6775775E-2,0E0,2.1457164E-2,0E0,0E0,0E0,0E0,0E0,0E0],"parents":[2147483647,0,0,2,2,3,3,4,4,5,5,6,6,8,8],"right_children":[2,-1,4,6,8,10,12,-1,14,-1,-1,-1,-1,-1,-1],"split_conditions":[-6.824883E-2,8.309335E-3,3.780639E-2,1.5333435E-1,4.9112293E-1,-3.834958E-2,1.8069746E-1,6.224235E-3,-6.4416684E-2,-4.6382114E-4,2.0230848E-4,1.0517852E-3,-7.969098E-5,3.8626285E-3,6.3850096E-4],"split_indices":[24,0,9,5,31,32,3,0,21,0,0,0,0,0,0],"split_type":[0,0,0,0,0,0,0,0,0,0,0,0,0,0,0],"sum_hessian":[1.011E3,5E0,1.006E3,9.54E2,5.2E1,6.68E2,2.86E2,5E0,4.7E1,4.91E2,1.77E2,1.42E2,1.44E2,5E0,4.2E1],"tree_param":{"num_deleted":"0","num_feature":"33","num_nodes":"15","size_leaf_vector":"1"}},{"base_weights":[5.358075E-4,6.4139958E-3,-5.484858E-4,-1.7260523E-3,4.4614412E-2,1.2467721E-2,-4.5736595E-3,1.5398885E-2,6.484726E-3,1.3655181E-3,-3.6065886E-4,-5.805493E-4,-2.289567E-5,5.2451647E-5,1.5613304E-3],"categories":[],"categories_nodes":[],"categories_segments":[],"categories_sizes":[],"default_left":[0,0,1,0,0,0,0,0,0,0,0,0,0,0,0],"id":39,"left_children":[1,-1,3,5,7,9,11,13,-1,-1,-1,-1,-1,-1,-1],"loss_changes":[1.3165683E-1,0E0,5.0227925E-2,3.724185E-2,5.76587E-2,4.518294E-2,2.2209955E-2,4.2826263E-3,0E0,0E0,0E0,0E0,0E0,0E0,0E0],"parents":[2147483647,0,0,2,2,3,3,4,4,5,5,6,6,7,7],"right_children":[2,-1,4,6,8,10,12,14,-1,-1,-1,-1,-1,-1,-1],"split_conditions":[-9.937943E-2,6.4139958E-3,1.0367337E0,9.7097594E-1,1.52692E2,8.3850914E-1,7.471522E-1,1.39942225E-2,6.484726E-3,1.3655181E-3,-3.6065886E-4,-5.805493E-4,-2.289567E-5,5.2451647E-5,1.5613304E-3],"split_indices":[21,0,13,14,10,31,31,24,0,0,0,0,0,0,0],"split_type":[0,0,0,0,0,0,0,0,0,0,0,0,0,0,0],"sum_hessian":[9.49E2,7E0,9.42E2,9.19E2,2.3E1,1.53E2,7.66E2,1.8E1,5E0,8.7E1,6.6E1,2.82E2,4.84E2,1E1,8E0],"tree_param":{"num_deleted":"0","num_feature":"33","num_nodes":"15","size_leaf_vector":"1"}},{"base_weights":[5.0579564E-4,7.4867653E-3,-8.5547223E-4,-4.5341495E-3,1.7906522E-2,-1.03727635E-2,1.3013132E-3,1.3952219E-2,5.1736454E-3,-6.532339E-4,3.0000808E-4,1.5870747E-4,-2.2741933E-3,2.009429E-3,1.9668291E-4],"categories":[],"categories_nodes":[],"categories_segments":[],"categories_sizes":[],"default_left":[0,0,1,0,0,0,1,0,0,0,0,0,0,0,0],"id":40,"left_children":[1,-1,3,5,7,9,11,13,-1,-1,-1,-1,-1,-1,-1],"loss_changes":[2.0225371E-1,0E0,6.820326E-2,2.8156152E-2,5.3369902E-2,1.828117E-2,3.641945E-2,4.0846605E-2,0E0,0E0,0E0,0E0,0E0,0E0,0E0],"parents":[2147483647,0,0,2,2,3,3,4,4,5,5,6,6,7,7],"right_children":[2,-1,4,6,8,10,12,14,-1,-1,-1,-1,-1,-1,-1],"split_conditions":[-8.590126E-2,7.4867653E-3,2.4707448E-1,-2.4352296E-1,1.0436348E0,2.8176846E-2,1.6553867E2,-1.4178693E-2,5.1736454E-3,-6.532339E-4,3.0000808E-4,1.5870747E-4,-2.2741933E-3,2.009429E-3,1.9668291E-4],"split_indices":[21,0,25,32,13,9,12,1,0,0,0,0,0,0,0],"split_type":[0,0,0,0,0,0,0,0,0,0,0,0,0,0,0],"sum_hessian":[9.94E2,8E0,9.86E2,8.25E2,1.61E2,4.12E2,4.13E2,1.55E2,6E0,3.54E2,5.8E1,3.98E2,1.5E1,4.2E1,1.13E2],"tree_param":{"num_deleted":"0","num_feature":"33","num_nodes":"15","size_leaf_vector":"1"}},{"base_weights":[1.3054252E-3,9.055843E-2,-3.186753E-4,3.8841307E-2,8.313972E-3,-6.739716E-3,6.974875E-3,4.1440837E-3,-2.2281686E-4,3.5216322E-3,-7.7636447E-3,1.445527E-2,-4.4868966E-3,-5.590531E-4,2.6280727E-4,1.844092E-4,1.791783E-3,-3.729621E-6,-1.6273083E-3],"categories":[],"categories_nodes":[],"categories_segments":[],"categories_sizes":[],"default_left":[0,0,0,0,0,0,0,0,0,0,0,1,1,0,0,0,0,0,0],"id":41,"left_children":[1,3,5,7,-1,9,11,-1,-1,-1,13,15,17,-1,-1,-1,-1,-1,-1],"loss_changes":[1.459994E-1,6.40308E-2,4.6410874E-2,2.325148E-2,0E0,4.218982E-2,3.984756E-2,0E0,0E0,0E0,2.3240175E-2,6.45553E-2,2.2777881E-2,0E0,0E0,0E0,0E0,0E0,0E0],"parents":[2147483647,0,0,1,1,2,2,3,3,5,5,6,6,10,10,11,11,12,12],"right_children":[2,4,6,8,-1,10,12,-1,-1,-1,14,16,18,-1,-1,-1,-1,-1,-1],"split_conditions":[-3.5925705E-2,1.0170481E0,1.3225779E-1,-3.4086816E-2,8.313972E-3,-5.8927875E-2,1.8069746E-1,4.1440837E-3,-2.2281686E-4,3.5216322E-3,-1.33997435E-2,7.556603E-2,1.9295188E-2,-5.590531E-4,2.6280727E-4,1.844092E-4,1.791783E-3,-3.729621E-6,-1.6273083E-3],"split_indices":[23,13,4,1,0,15,3,0,0,0,32,27,8,0,0,0,0,0,0],"split_type":[0,0,0,0,0,0,0,0,0,0,0,0,0,0,0,0,0,0,0],"sum_hessian":[1.006E3,1.7E1,9.89E2,1.1E1,6E0,5.26E2,4.63E2,5E0,6E0,6E0,5.2E2,2.8E2,1.83E2,4.12E2,1.08E2,1.87E2,9.3E1,1.59E2,2.4E1],"tree_param":{"num_deleted":"0","num_feature":"33","num_nodes":"19","size_leaf_vector":"1"}},{"base_weights":[8.933523E-4,-4.7403728E-4,9.889091E-2,1.3977987E-2,-3.1491478E-3,8.15963E-3,5.637996E-4,2.9086137E-2,-3.3606985E-3,-4.8735267E-3,2.2295862E-2,2.9475426E-3,2.7297295E-4,1.0924206E-4,-2.4692253E-3,-9.808674E-4,-1.6211183E-4,4.465336E-3,5.20769E-4],"categories":[],"categories_nodes":[],"categories_segments":[],"categories_sizes":[],"default_left":[0,0,0,0,1,0,0,0,0,0,0,0,0,0,0,0,0,0,0],"id":42,"left_children":[1,3,5,7,9,-1,-1,11,13,15,17,-1,-1,-1,-1,-1,-1,-1,-1],"loss_changes":[1.3632572E-1,3.8859423E-2,7.7032864E-2,4.1224755E-2,3.731622E-2,0E0,0E0,5.894891E-2,1.8994683E-2,1.9057302E-2,4.206039E-2,0E0,0E0,0E0,0E0,0E0,0E0,0E0,0E0],"parents":[2147483647,0,0,1,1,2,2,3,3,4,4,7,7,8,8,9,9,10,10],"right_children":[2,4,6,8,10,-1,-1,12,14,16,18,-1,-1,-1,-1,-1,-1,-1,-1],"split_conditions":[3.0937327E-2,9.7097594E-1,-1.2839257E-3,7.825755E-1,1.6761223E-2,8.15963E-3,5.637996E-4,1.8069746E-1,1.9295188E-2,9.812804E-1,2.0358309E-1,2.9475426E-3,2.7297295E-4,1.0924206E-4,-2.4692253E-3,-9.808674E-4,-1.6211183E-4,4.465336E-3,5.20769E-4],"split_indices":[6,14,24,31,8,0,0,3,8,14,5,0,0,0,0,0,0,0,0],"split_type":[0,0,0,0,0,0,0,0,0,0,0,0,0,0,0,0,0,0,0],"sum_hessian":[1.016E3,1.003E3,1.3E1,1.56E2,8.47E2,7E0,6E0,8.3E1,7.3E1,7.94E2,5.3E1,3.6E1,4.7E1,6.6E1,7E0,7.8E1,7.16E2,7E0,4.6E1],"tree_param":{"num_deleted":"0","num_feature":"33","num_nodes":"19","size_leaf_vector":"1"}},{"base_weights":[7.0126663E-4,-3.3000627E-4,5.2188598E-3,3.5931082E-3,-1.0537691E-3,-3.6535903E-3,1.0928854E-2,1.7824337E-3,-2.3655912E-4,2.1509908E-3,3.1812108E-4],"categories":[],"categories_nodes":[],"categories_segments":[],"categories_sizes":[],"default_left":[1,0,0,0,1,0,0,0,0,0,0],"id":43,"left_children":[1,3,-1,-1,5,7,9,-1,-1,-1,-1],"loss_changes":[1.085564E-1,5.2639235E-2,0E0,0E0,3.1099146E-2,3.489715E-2,2.581063E-2,0E0,0E0,0E0,0E0],"parents":[2147483647,0,0,1,1,4,4,5,5,6,6],"right_children":[2,4,-1,-1,6,8,10,-1,-1,-1,-1],"split_conditions":[3.3017315E-2,-9.937943E-2,5.2188598E-3,3.5931082E-3,1.0127305E0,-5.765205E-2,3.140576E-2,1.7824337E-3,-2.3655912E-4,2.1509908E-3,3.1812108E-4],"split_indices":[17,21,0,0,13,9,27,0,0,0,0],"split_type":[0,0,0,0,0,0,0,0,0,0,0],"sum_hessian":[1.014E3,1.005E3,9E0,9E0,9.96E2,8.19E2,1.77E2,2.1E1,7.98E2,2.1E1,1.56E2],"tree_param":{"num_deleted":"0","num_feature":"33","num_nodes":"11","size_leaf_vector":"1"}},{"base_weights":[9.226532E-4,-2.5947107E-4,9.699187E-2,-6.571458E-3,6.249895E-3,8.720143E-3,8.3918095E-4,-9.182918E-3,1.0581736E-2,1.390036E-2,-5.139713E-3,-5.2675925E-4,7.094118E-4,-1.5501694E-4,2.2295022E-3,8.603339E-4,-1.6907881E-3,-1.1871755E-3,5.696153E-5],"categories":[],"categories_nodes":[],"categories_segments":[],"categories_sizes":[],"default_left":[1,0,0,0,0,0,0,0,0,1,1,0,0,0,0,0,0,0,0],"id":44,"left_children":[1,3,5,7,9,-1,-1,11,13,15,17,-1,-1,-1,-1,-1,-1,-1,-1],"loss_changes":[1.12114556E-1,4.0142015E-2,7.1580894E-2,2.2315431E-2,4.1983765E-2,0E0,0E0,1.3770811E-2,3.0848324E-2,4.601807E-2,2.2688616E-2,0E0,0E0,0E0,0E0,0E0,0E0,0E0,0E0],"parents":[2147483647,0,0,1,1,2,2,3,3,4,4,7,7,8,8,9,9,10,10],"right_children":[2,4,6,8,10,-1,-1,12,14,16,18,-1,-1,-1,-1,-1,-1,-1,-1],"split_conditions":[3.719139E-1,1.316845E-1,-3.4900452E-3,6.62129E-2,1.8069746E-1,8.720143E-3,8.3918095E-4,3.425382E-2,1.40926E2,1.6436067E2,1.764035E-1,-5.2675925E-4,7.094118E-4,-1.5501694E-4,2.2295022E-3,8.603339E-4,-1.6907881E-3,-1.1871755E-3,5.696153E-5],"split_indices":[2,4,20,32,3,0,0,9,10,12,4,0,0,0,0,0,0,0,0],"split_type":[0,0,0,0,0,0,0,0,0,0,0,0,0,0,0,0,0,0,0],"sum_hessian":[9.86E2,9.75E2,1.1E1,4.95E2,4.8E2,5E0,6E0,4.3E2,6.5E1,2.87E2,1.93E2,4.07E2,2.3E1,4.7E1,1.8E1,2.69E2,1.8E1,4.8E1,1.45E2],"tree_param":{"num_deleted":"0","num_feature":"33","num_nodes":"19","size_leaf_vector":"1"}},{"base_weights":[1.7743812E-5,-1.6389772E-3,6.4364076E-2,3.9927114E-2,-2.779653E-3,2.7008437E-2,7.018438E-3,-7.5464575E-3,7.006975E-2,-1.0115964E-2,2.2510574E-3,1.816362E-3,3.5874982E-4,9.4937504E-4,-1.6411337E-3,4.934853E-3,1.8418863E-3,-7.1029895E-4,1.08701934E-4,1.6828212E-4,-1.7997253E-3],"categories":[],"categories_nodes":[],"categories_segments":[],"categories_sizes":[],"default_left":[1,0,0,0,1,0,0,0,0,0,0,0,0,0,0,0,0,0,0,0,0],"id":45,"left_children":[1,3,5,7,9,11,-1,13,15,17,19,-1,-1,-1,-1,-1,-1,-1,-1,-1,-1],"loss_changes":[1.0617639E-1,4.6149436E-2,6.718896E-2,3.773422E-2,3.4936655E-2,3.0661821E-3,0E0,8.000679E-3,1.158572E-2,1.9383408E-2,2.4078041E-2,0E0,0E0,0E0,0E0,0E0,0E0,0E0,0E0,0E0,0E0],"parents":[2147483647,0,0,1,1,2,2,3,3,4,4,5,5,7,7,8,8,9,9,10,10],"right_children":[2,4,6,8,10,12,-1,14,16,18,20,-1,-1,-1,-1,-1,-1,-1,-1,-1,-1],"split_conditions":[1.0382237E0,-4.3401647E-2,1.54426E2,1.5665872E-1,-3.6779904E-1,1.0436348E0,7.018438E-3,1.25098E2,4.6634797E-2,-5.702623E-3,1.9295188E-2,1.816362E-3,3.5874982E-4,9.4937504E-4,-1.6411337E-3,4.934853E-3,1.8418863E-3,-7.1029895E-4,1.08701934E-4,1.6828212E-4,-1.7997253E-3],"split_indices":[13,22,10,28,32,13,0,10,29,16,8,0,0,0,0,0,0,0,0,0,0],"split_type":[0,0,0,0,0,0,0,0,0,0,0,0,0,0,0,0,0,0,0,0,0],"sum_hessian":[9.94E2,9.7E2,2.4E1,2.5E1,9.45E2,1.7E1,7E0,1E1,1.5E1,3.84E2,5.61E2,1.1E1,6E0,5E0,5E0,7E0,8E0,2.88E2,9.6E1,5.46E2,1.5E1],"tree_param":{"num_deleted":"0","num_feature":"33","num_nodes":"21","size_leaf_vector":"1"}},{"base_weights":[1.9706083E-4,6.425944E-3,-5.654421E-4,-3.151207E-3,1.3827844E-2,1.099826E-2,-5.812116E-3,9.491247E-3,5.063779E-2,1.2409937E-3,-6.635659E-4,-3.3763438E-4,9.81299E-4,-1.3305481E-4,1.0257376E-3,2.5621126E-4,3.8716753E-3],"categories":[],"categories_nodes":[],"categories_segments":[],"categories_sizes":[],"default_left":[0,0,1,0,0,0,1,0,0,0,0,0,0,0,0,0,0],"id":46,"left_children":[1,-1,3,5,7,9,11,13,15,-1,-1,-1,-1,-1,-1,-1,-1],"loss_changes":[9.938612E-2,0E0,3.7633404E-2,3.2330353E-2,2.4102384E-2,4.5949884E-2,1.7407348E-2,1.8675227E-2,1.9116305E-2,0E0,0E0,0E0,0E0,0E0,0E0,0E0,0E0],"parents":[2147483647,0,0,2,2,3,3,4,4,5,5,6,6,7,7,8,8],"right_children":[2,-1,4,6,8,10,12,14,16,-1,-1,-1,-1,-1,-1,-1,-1],"split_conditions":[-6.824883E-2,6.425944E-3,1.0137537E0,-9.9966675E-2,2.460423E-1,9.00712E-1,3.9149825E-2,-5.8426327E-1,1.07882E2,1.2409937E-3,-6.635659E-4,-3.3763438E-4,9.81299E-4,-1.3305481E-4,1.0257376E-3,2.5621126E-4,3.8716753E-3],"split_indices":[24,0,13,16,2,31,21,32,10,0,0,0,0,0,0,0,0],"split_type":[0,0,0,0,0,0,0,0,0,0,0,0,0,0,0,0,0],"sum_hessian":[1.014E3,5E0,1.009E3,8.56E2,1.53E2,1.35E2,7.21E2,1.38E2,1.5E1,8.6E1,4.9E1,6.96E2,2.5E1,6.6E1,7.2E1,6E0,9E0],"tree_param":{"num_deleted":"0","num_feature":"33","num_nodes":"17","size_leaf_vector":"1"}},{"base_weights":[2.1971029E-4,6.158197E-3,-5.159678E-4,-8.388778E-3,2.760471E-3,-4.632824E-3,-2.272092E-2,3.0207917E-2,8.548341E-4,-1.328634E-3,-3.9470102E-5,-7.8523124E-4,-1.60981E-3,2.6025136E-3,-3.3303828E-4,-3.489801E-4,3.0378246E-4],"categories":[],"categories_nodes":[],"categories_segments":[],"categories_sizes":[],"default_left":[0,0,1,1,0,0,0,0,0,0,0,0,0,0,0,0,0],"id":47,"left_children":[1,-1,3,5,7,9,11,13,15,-1,-1,-1,-1,-1,-1,-1,-1],"loss_changes":[9.12345E-2,0E0,2.5895327E-2,1.5774844E-2,3.705833E-2,1.979519E-2,3.549736E-3,3.739044E-2,2.7201425E-2,0E0,0E0,0E0,0E0,0E0,0E0,0E0,0E0],"parents":[2147483647,0,0,2,2,3,3,4,4,5,5,6,6,7,7,8,8],"right_children":[2,-1,4,6,8,10,12,14,16,-1,-1,-1,-1,-1,-1,-1,-1],"split_conditions":[-6.824883E-2,6.158197E-3,9.979426E-2,9.512107E-2,-3.8920168E-2,1.160645E2,-3.0011105E-4,-3.0979903E-2,-3.4852707E-1,-1.328634E-3,-3.9470102E-5,-7.8523124E-4,-1.60981E-3,2.6025136E-3,-3.3303828E-4,-3.489801E-4,3.0378246E-4],"split_indices":[24,0,5,5,21,11,24,32,32,0,0,0,0,0,0,0,0],"split_type":[0,0,0,0,0,0,0,0,0,0,0,0,0,0,0,0,0],"sum_hessian":[1.007E3,5E0,1.002E3,2.94E2,7.08E2,2.34E2,6E1,4.5E1,6.63E2,3.4E1,2E2,3.6E1,2.4E1,2.8E1,1.7E1,2.65E2,3.98E2],"tree_param":{"num_deleted":"0","num_feature":"33","num_nodes":"17","size_leaf_vector":"1"}},{"base_weights":[2.3616549E-5,-1.3908372E-3,6.0659606E-2,3.4802016E-3,-1.8965242E-3,1.5597817E-2,6.4511313E-3,2.6427321E-2,-2.9424417E-3,-1.3463585E-4,1.844298E-3,2.3187047E-3,3.5946487E-4,-1.9551315E-3,-1.11932335E-4],"categories":[],"categories_nodes":[],"categories_segments":[],"categories_sizes":[],"default_left":[1,0,0,0,0,0,0,0,0,0,0,0,0,0,0],"id":48,"left_children":[1,3,5,-1,7,9,-1,11,13,-1,-1,-1,-1,-1,-1],"loss_changes":[8.653731E-2,3.553057E-2,6.884043E-2,0E0,2.9109681E-2,5.939896E-3,0E0,1.3097381E-2,2.3987565E-2,0E0,0E0,0E0,0E0,0E0,0E0],"parents":[2147483647,0,0,1,1,2,2,4,4,5,5,7,7,8,8],"right_children":[2,4,6,-1,8,10,-1,12,14,-1,-1,-1,-1,-1,-1],"split_conditions":[1.0403163E0,-9.937943E-2,1.4744E2,3.4802016E-3,-7.61841E-2,-3.9608525E-3,6.4511313E-3,7.825755E-1,9.6948534E-1,-1.3463585E-4,1.844298E-3,2.3187047E-3,3.5946487E-4,-1.9551315E-3,-1.11932335E-4],"split_indices":[13,21,11,0,15,21,0,31,13,0,0,0,0,0,0],"split_type":[0,0,0,0,0,0,0,0,0,0,0,0,0,0,0],"sum_hessian":[1.007E3,9.85E2,2.2E1,6E0,9.79E2,1.4E1,8E0,3.4E1,9.45E2,8E0,6E0,1.6E1,1.8E1,1.7E1,9.28E2],"tree_param":{"num_deleted":"0","num_feature":"33","num_nodes":"15","size_leaf_vector":"1"}},{"base_weights":[4.1211516E-4,-1.1011985E-3,5.185057E-2,2.738271E-3,-1.6141825E-3,1.7415911E-2,7.0032277E-3,-7.143858E-4,-2.5139017E-2,2.766186E-3,2.93935E-2,1.3704415E-3,-9.1430826E-5,3.4682613E-4,-1.7275596E-3,9.046468E-4,-6.5107975E-4,8.511004E-4,1.7899283E-3],"categories":[],"categories_nodes":[],"categories_segments":[],"categories_sizes":[],"default_left":[1,0,0,0,1,0,0,0,0,0,0,0,0,0,0,0,0,0,0],"id":49,"left_children":[1,3,5,-1,7,9,-1,11,13,15,17,-1,-1,-1,-1,-1,-1,-1,-1],"loss_changes":[7.898941E-2,2.8345862E-2,8.565157E-2,0E0,2.0683922E-2,3.7789964E-3,0E0,2.9599732E-2,1.1108087E-2,2.8973278E-3,3.4151878E-4,0E0,0E0,0E0,0E0,0E0,0E0,0E0,0E0],"parents":[2147483647,0,0,1,1,2,2,4,4,5,5,7,7,8,8,9,9,10,10],"right_children":[2,4,6,-1,8,10,-1,12,14,16,18,-1,-1,-1,-1,-1,-1,-1,-1],"split_conditions":[1.0382237E0,-9.918417E-2,1.54426E2,2.738271E-3,2.4975339E-1,-3.9608525E-3,7.0032277E-3,1.07882E2,1.0037534E-1,-6.3304E-1,1.2954727E-2,1.3704415E-3,-9.1430826E-5,3.4682613E-4,-1.7275596E-3,9.046468E-4,-6.5107975E-4,8.511004E-4,1.7899283E-3],"split_indices":[13,15,10,0,3,21,0,10,27,32,24,0,0,0,0,0,0,0,0],"split_type":[0,0,0,0,0,0,0,0,0,0,0,0,0,0,0,0,0,0,0],"sum_hessian":[1.013E3,9.85E2,2.8E1,8E0,9.77E2,2.1E1,7E0,9.42E2,3.5E1,1E1,1.1E1,3.5E1,9.07E2,8E0,2.7E1,5E0,5E0,5E0,6E0],"tree_param":{"num_deleted":"0","num_feature":"33","num_nodes":"19","size_leaf_vector":"1"}},{"base_weights":[1.1440128E-3,4.928325E-3,4.5609602E-4,-1.9052651E-3,1.1818342E-2,1.0845833E-2,-4.602696E-3,3.0416565E-3,2.2749178E-2,8.327798E-4,-1.1987947E-3,-2.57714E-4,2.458224E-3,2.2247906E-3,-1.4232397E-4,-2.5299678E-4,1.4835218E-3],"categories":[],"categories_nodes":[],"categories_segments":[],"categories_sizes":[],"default_left":[0,0,1,0,0,0,1,0,0,0,0,0,0,0,0,0,0],"id":50,"left_children":[1,-1,3,5,7,9,11,13,15,-1,-1,-1,-1,-1,-1,-1,-1],"loss_changes":[6.690659E-2,0E0,2.6665073E-2,2.835717E-2,1.6335946E-2,2.953139E-2,2.0420244E-2,2.3559077E-2,1.4778156E-2,0E0,0E0,0E0,0E0,0E0,0E0,0E0,0E0],"parents":[2147483647,0,0,2,2,3,3,4,4,5,5,6,6,7,7,8,8],"right_children":[2,-1,4,6,8,10,12,14,16,-1,-1,-1,-1,-1,-1,-1,-1],"split_conditions":[-5.600318E-2,4.928325E-3,1.0127305E0,9.7097594E-1,1.0359683E-2,1.9131288E-2,5.6573644E-2,9.641721E-2,1.20987065E-1,8.327798E-4,-1.1987947E-3,-2.57714E-4,2.458224E-3,2.2247906E-3,-1.4232397E-4,-2.5299678E-4,1.4835218E-3],"split_indices":[24,0,13,14,6,8,21,25,28,0,0,0,0,0,0,0,0],"split_type":[0,0,0,0,0,0,0,0,0,0,0,0,0,0,0,0,0],"sum_hessian":[9.98E2,6E0,9.92E2,8.22E2,1.7E2,1.43E2,6.79E2,9.5E1,7.5E1,1.23E2,2E1,6.73E2,6E0,1.1E1,8.4E1,1.5E1,6E1],"tree_param":{"num_deleted":"0","num_feature":"33","num_nodes":"17","size_leaf_vector":"1"}},{"base_weights":[5.739766E-4,-2.24921E-4,4.0123276E-3,-7.862757E-3,3.391554E-3,-3.5105467E-2,-6.4126058E-3,3.3665735E-2,1.39013E-3,-9.2496997E-4,-2.048596E-3,-8.5728745E-5,-8.036702E-4,3.1209264E-3,2.3448151E-4,2.075616E-4,-6.086298E-4],"categories":[],"categories_nodes":[],"categories_segments":[],"categories_sizes":[],"default_left":[1,1,0,0,0,0,1,0,0,0,0,0,0,0,0,0,0],"id":51,"left_children":[1,3,-1,5,7,9,11,13,15,-1,-1,-1,-1,-1,-1,-1,-1],"loss_changes":[6.411383E-2,2.7593464E-2,0E0,1.2456322E-2,4.103422E-2,8.007437E-4,1.386078E-2,3.469933E-2,2.3904953E-2,0E0,0E0,0E0,0E0,0E0,0E0,0E0,0E0],"parents":[2147483647,0,0,1,1,3,3,4,4,5,5,6,6,7,7,8,8],"right_children":[2,4,-1,6,8,10,12,14,16,-1,-1,-1,-1,-1,-1,-1,-1],"split_conditions":[3.3017315E-2,1.0149333E-1,4.0123276E-3,1.140265E2,-4.1513987E-2,1.6731739E-3,9.426828E-2,1.344811E-1,2.0433784E-1,-9.2496997E-4,-2.048596E-3,-8.5728745E-5,-8.036702E-4,3.1209264E-3,2.3448151E-4,2.075616E-4,-6.086298E-4],"split_indices":[17,5,0,11,21,1,5,28,2,0,0,0,0,0,0,0,0],"split_type":[0,0,0,0,0,0,0,0,0,0,0,0,0,0,0,0,0],"sum_hessian":[1.006E3,9.97E2,9E0,3.2E2,6.77E2,1.5E1,3.05E2,4.1E1,6.36E2,5E0,1E1,2.06E2,9.9E1,2E1,2.1E1,5.29E2,1.07E2],"tree_param":{"num_deleted":"0","num_feature":"33","num_nodes":"17","size_leaf_vector":"1"}},{"base_weights":[2.9805634E-4,-4.5446592E-4,3.8023621E-3,-5.5905553E-3,5.616442E-3,1.6545162E-2,-7.2321403E-3,-1.5811255E-2,9.291042E-3,-7.6862256E-4,1.9014681E-3,-4.9924717E-4,3.117652E-4,9.455066E-4,-1.106187E-3,3.9271868E-4,3.1908676E-3],"categories":[],"categories_nodes":[],"categories_segments":[],"categories_sizes":[],"default_left":[0,1,0,0,0,0,1,0,0,0,0,0,0,0,0,0,0],"id":52,"left_children":[1,3,-1,5,7,9,11,13,15,-1,-1,-1,-1,-1,-1,-1,-1],"loss_changes":[5.7949558E-2,3.1430386E-2,0E0,1.9960018E-2,3.652396E-2,2.6642136E-2,1.8932521E-2,1.5322484E-2,3.0441564E-2,0E0,0E0,0E0,0E0,0E0,0E0,0E0,0E0],"parents":[2147483647,0,0,1,1,3,3,4,4,5,5,6,6,7,7,8,8],"right_children":[2,4,-1,6,8,10,12,14,16,-1,-1,-1,-1,-1,-1,-1,-1],"split_conditions":[4.5913506E-2,-2.0875853E-1,3.8023621E-3,-8.706191E-3,7.670553E-2,-1.1956244E-2,-5.702623E-3,9.900192E-1,2.1960268E0,-7.6862256E-4,1.9014681E-3,-4.9924717E-4,3.117652E-4,9.455066E-4,-1.106187E-3,3.9271868E-4,3.1908676E-3],"split_indices":[6,32,0,7,2,0,16,13,31,0,0,0,0,0,0,0,0],"split_type":[0,0,0,0,0,0,0,0,0,0,0,0,0,0,0,0,0],"sum_hessian":[1.015E3,1.006E3,9E0,5.45E2,4.61E2,3.7E1,5.08E2,6.7E1,3.94E2,1.5E1,2.2E1,4.22E2,8.6E1,1E1,5.7E1,3.85E2,9E0],"tree_param":{"num_deleted":"0","num_feature":"33","num_nodes":"17","size_leaf_vector":"1"}},{"base_weights":[1.6306412E-4,-1.2529643E-3,4.6084147E-2,7.2953748E-3,-3.658348E-3,1.34004215E-2,7.5779594E-3,9.922375E-3,-2.8217653E-2,-6.0434206E-3,6.1626104E-3,1.9646863E-2,-4.3066908E-4,2.017728E-5,1.2890855E-3,-2.5249056E-3,-1.20499266E-4,-4.151513E-4,2.6680034E-4,-3.9190968E-4,8.84894E-4,2.0393953E-4,1.529915E-3],"categories":[],"categories_nodes":[],"categories_segments":[],"categories_sizes":[],"default_left":[1,0,0,0,1,0,0,0,0,0,0,0,0,0,0,0,0,0,0,0,0,0,0],"id":53,"left_children":[1,3,5,7,9,11,-1,13,15,17,19,21,-1,-1,-1,-1,-1,-1,-1,-1,-1,-1,-1],"loss_changes":[6.521335E-2,2.0033548E-2,1.0138856E-1,2.0244628E-2,1.7839257E-2,3.469416E-3,0E0,3.018206E-2,8.503403E-3,1.578067E-2,2.420267E-2,3.1145583E-3,0E0,0E0,0E0,0E0,0E0,0E0,0E0,0E0,0E0,0E0,0E0],"parents":[2147483647,0,0,1,1,2,2,3,3,4,4,5,5,7,7,8,8,9,9,10,10,11,11],"right_children":[2,4,6,8,10,12,-1,14,16,18,20,22,-1,-1,-1,-1,-1,-1,-1,-1,-1,-1,-1],"split_conditions":[1.0382237E0,9.8570865E-1,1.54426E2,1.9668197E-2,1.0137537E0,1.6021421E-2,7.5779594E-3,2.0485188E-1,2.53024E-2,6.681102E-3,7.7620816E-1,-3.8503904E-2,-4.3066908E-4,2.017728E-5,1.2890855E-3,-2.5249056E-3,-1.20499266E-4,-4.151513E-4,2.6680034E-4,-3.9190968E-4,8.84894E-4,2.0393953E-4,1.529915E-3],"split_indices":[13,13,10,8,13,8,0,25,29,20,31,30,0,0,0,0,0,0,0,0,0,0,0],"split_type":[0,0,0,0,0,0,0,0,0,0,0,0,0,0,0,0,0,0,0,0,0,0,0],"sum_hessian":[1.001E3,9.72E2,2.9E1,2.13E2,7.59E2,2.3E1,6E0,1.99E2,1.4E1,6.11E2,1.48E2,1.8E1,5E0,1.25E2,7.4E1,7E0,7E0,5.1E2,1.01E2,6.7E1,8.1E1,8E0,1E1],"tree_param":{"num_deleted":"0","num_feature":"33","num_nodes":"23","size_leaf_vector":"1"}},{"base_weights":[1.4066123E-3,5.2660615E-3,5.722201E-4,3.165274E-2,-6.330865E-5,5.1138576E-2,-1.1168655E-3,5.5587525E-4,-3.513453E-2,1.1505076E-3,3.1450887E-3,-1.2892259E-4,4.1441113E-4,-2.1411486E-3,-9.0167363E-4],"categories":[],"categories_nodes":[],"categories_segments":[],"categories_sizes":[],"default_left":[0,0,0,0,1,0,0,1,0,0,0,0,0,0,0],"id":54,"left_children":[1,-1,3,5,7,9,-1,11,13,-1,-1,-1,-1,-1,-1],"loss_changes":[8.7078825E-2,0E0,1.9715061E-2,2.2183126E-2,2.1279039E-2,3.515821E-3,0E0,2.3360351E-2,1.4629234E-3,0E0,0E0,0E0,0E0,0E0,0E0],"parents":[2147483647,0,0,2,2,3,3,4,4,5,5,7,7,8,8],"right_children":[2,-1,4,6,8,10,-1,12,14,-1,-1,-1,-1,-1,-1],"split_conditions":[-5.600318E-2,5.2660615E-3,-1.4915694E-2,-1.6219247E-2,2.760441E-1,1.4513168E-1,-1.1168655E-3,1.5489894E-1,9.6506765E-3,1.1505076E-3,3.1450887E-3,-1.2892259E-4,4.1441113E-4,-2.1411486E-3,-9.0167363E-4],"split_indices":[24,0,7,32,3,5,0,5,23,0,0,0,0,0,0],"split_type":[0,0,0,0,0,0,0,0,0,0,0,0,0,0,0],"sum_hessian":[1.004E3,7E0,9.97E2,1.9E1,9.78E2,1.4E1,5E0,9.62E2,1.6E1,5E0,9E0,6.85E2,2.77E2,1E1,6E0],"tree_param":{"num_deleted":"0","num_feature":"33","num_nodes":"15","size_leaf_vector":"1"}},{"base_weights":[1.3363397E-3,5.7364115E-4,3.862188E-3,2.4841709E-2,-7.609394E-4,5.341607E-2,-3.5944032E-3,-6.244384E-3,2.8353066E-3,1.1999508E-3,3.3789047E-3,6.521093E-4,-1.2738494E-3,-5.167445E-4,4.6064457E-4,9.2096794E-5,2.2704282E-3],"categories":[],"categories_nodes":[],"categories_segments":[],"categories_sizes":[],"default_left":[1,0,0,0,0,0,0,1,1,0,0,0,0,0,0,0,0],"id":55,"left_children":[1,3,-1,5,7,9,11,13,15,-1,-1,-1,-1,-1,-1,-1,-1],"loss_changes":[5.8197543E-2,3.2309435E-2,0E0,4.2444274E-2,1.867265E-2,9.209931E-3,1.0161668E-2,2.3805749E-2,2.4106832E-2,0E0,0E0,0E0,0E0,0E0,0E0,0E0,0E0],"parents":[2147483647,0,0,1,1,3,3,4,4,5,5,6,6,7,7,8,8],"right_children":[2,4,-1,6,8,10,12,14,16,-1,-1,-1,-1,-1,-1,-1,-1],"split_conditions":[3.3017315E-2,-1.913934E-2,3.862188E-3,-3.1694924E-3,-3.6779904E-1,9.77096E-3,1.7379364E-2,-5.702623E-3,2.1960268E0,1.1999508E-3,3.3789047E-3,6.521093E-4,-1.2738494E-3,-5.167445E-4,4.6064457E-4,9.2096794E-5,2.2704282E-3],"split_indices":[17,23,0,20,32,6,8,16,31,0,0,0,0,0,0,0,0],"split_type":[0,0,0,0,0,0,0,0,0,0,0,0,0,0,0,0,0],"sum_hessian":[1.005E3,9.96E2,9E0,5.1E1,9.45E2,2.5E1,2.6E1,3.74E2,5.71E2,9E0,1.6E1,1.5E1,1.1E1,2.96E2,7.8E1,5.59E2,1.2E1],"tree_param":{"num_deleted":"0","num_feature":"33","num_nodes":"17","size_leaf_vector":"1"}},{"base_weights":[1.357478E-4,4.670322E-2,-7.223384E-4,5.950444E-3,5.494661E-3,3.095987E-4,-2.2101782E-2,1.6171038E-3,-8.76051E-4,-7.4434043E-3,3.5946982E-3,9.005517E-4,-2.996496E-2,-1.5375564E-4,-9.834201E-4,8.862911E-4,3.420457E-5,-2.259543E-3,1.3959206E-4],"categories":[],"categories_nodes":[],"categories_segments":[],"categories_sizes":[],"default_left":[0,0,1,0,0,1,0,0,0,1,0,0,0,0,0,0,0,0,0],"id":56,"left_children":[1,3,5,7,-1,9,11,-1,-1,13,15,-1,17,-1,-1,-1,-1,-1,-1],"loss_changes":[3.9752886E-2,4.5699112E-2,2.156165E-2,8.000069E-3,0E0,2.3789693E-2,1.4733339E-2,0E0,0E0,1.4785368E-2,2.6969248E-2,0E0,1.9078739E-2,0E0,0E0,0E0,0E0,0E0,0E0],"parents":[2147483647,0,0,1,1,2,2,3,3,5,5,6,6,9,9,10,10,12,12],"right_children":[2,4,6,8,-1,10,12,-1,-1,14,16,-1,18,-1,-1,-1,-1,-1,-1],"split_conditions":[-7.419713E-2,1.5645999E2,1.6470567E2,1.769158E-2,5.494661E-3,9.979426E-2,1.09912075E-1,1.6171038E-3,-8.76051E-4,9.426828E-2,1.2582608E-1,9.005517E-4,9.932622E-1,-1.5375564E-4,-9.834201E-4,8.862911E-4,3.420457E-5,-2.259543E-3,1.3959206E-4],"split_indices":[21,10,12,6,0,5,5,0,0,5,5,0,14,0,0,0,0,0,0],"split_type":[0,0,0,0,0,0,0,0,0,0,0,0,0,0,0,0,0,0,0],"sum_hessian":[9.93E2,1.7E1,9.76E2,1.1E1,6E0,9.32E2,4.4E1,5E0,6E0,2.77E2,6.55E2,7E0,3.7E1,2.05E2,7.2E1,1.11E2,5.44E2,2.5E1,1.2E1],"tree_param":{"num_deleted":"0","num_feature":"33","num_nodes":"19","size_leaf_vector":"1"}}]},"name":"gbtree"},"learner_model_param":{"base_score":"[1.3797964E-1]","boost_from_average":"1","num_class":"0","num_feature":"33","num_target":"1"},"objective":{"name":"reg:squarederror","reg_loss_param":{"scale_pos_weight":"1"}}},"version":[3,2,0]}