{"learner":{"attributes":{"best_iteration":"6","best_score":"0.05026557364425113","scikit_learn":"{\"_estimator_type\": \"regressor\"}"},"feature_names":["log_ret_1d","log_ret_5d","vol_5d","vol_10d","vol_20d","vol_60d","hl_range","co_range","atr_14","mom_10d","ma_5","ma_20","ma_60","ma_ratio_5_20","ma_ratio_20_60","drawdown_20","drawdown_60","ctx_equity_proxy_log_ret_1d","ctx_duration_proxy_log_ret_1d","ctx_credit_proxy_log_ret_1d","ctx_real_asset_proxy_log_ret_1d","ctx_equity_proxy_log_ret_5d","ctx_duration_proxy_log_ret_5d","ctx_credit_proxy_log_ret_5d","ctx_real_asset_proxy_log_ret_5d","ctx_equity_proxy_vol_20d","ctx_duration_proxy_vol_20d","ctx_credit_proxy_vol_20d","ctx_real_asset_proxy_vol_20d","ctx_equity_duration_ret_5d_spread","ctx_credit_duration_ret_5d_spread","ctx_rel_vol_20d_vs_equity_proxy","ctx_corr_20d_vs_equity_proxy"],"feature_types":["float","float","float","float","float","float","float","float","float","float","float","float","float","float","float","float","float","float","float","float","float","float","float","float","float","float","float","float","float","float","float","float","float"],"gradient_booster":{"model":{"cats":{"enc":[],"feature_segments":[],"sorted_idx":[]},"gbtree_model_param":{"num_parallel_tree":"1","num_trees":"57"},"iteration_indptr":[0,1,2,3,4,5,6,7,8,9,10,11,12,13,14,15,16,17,18,19,20,21,22,23,24,25,26,27,28,29,30,31,32,33,34,35,36,37,38,39,40,41,42,43,44,45,46,47,48,49,50,51,52,53,54,55,56,57],"tree_info":[0,0,0,0,0,0,0,0,0,0,0,0,0,0,0,0,0,0,0,0,0,0,0,0,0,0,0,0,0,0,0,0,0,0,0,0,0,0,0,0,0,0,0,0,0,0,0,0,0,0,0,0,0,0,0,0,0],"trees":[{"base_weights":[-8.1117015E-4,-4.4092634E-3,4.1903397E-1,-2.1883355E-2,4.3938182E-2,2.656653E-2,1.0909112E-2,-5.0996378E-2,-8.671558E-3,6.8482E-2,2.9993372E-2,-2.729046E-3,-1.4468986E-3,-5.373926E-4,8.730354E-3,5.5996324E-3,2.5677858E-3,1.0561299E-3,3.892606E-3],"categories":[],"categories_nodes":[],"categories_segments":[],"categories_sizes":[],"default_left":[0,1,0,1,0,0,0,0,0,0,0,0,0,0,0,0,0,0,0],"id":0,"left_children":[1,3,5,7,9,-1,-1,11,13,15,17,-1,-1,-1,-1,-1,-1,-1,-1],"loss_changes":[2.1333635E0,1.1837204E0,1.5473294E-1,3.953475E-1,1.2526625E-1,0E0,0E0,2.3801744E-2,2.7167958E-1,9.4102025E-2,9.982157E-2,0E0,0E0,0E0,0E0,0E0,0E0,0E0,0E0],"parents":[2147483647,0,0,1,1,2,2,3,3,4,4,7,7,8,8,9,9,10,10],"right_children":[2,4,6,8,10,-1,-1,12,14,16,18,-1,-1,-1,-1,-1,-1,-1,-1],"split_conditions":[3.1300593E-2,1.6846885E-1,6.597692E-1,1.0223461E-1,9.733424E-1,2.656653E-2,1.0909112E-2,2.9057603E-2,5.7090923E-2,1.346738E-1,3.318816E-1,-2.729046E-3,-1.4468986E-3,-5.373926E-4,8.730354E-3,5.5996324E-3,2.5677858E-3,1.0561299E-3,3.892606E-3],"split_indices":[6,5,31,5,14,0,0,32,9,28,32,0,0,0,0,0,0,0,0],"split_type":[0,0,0,0,0,0,0,0,0,0,0,0,0,0,0,0,0,0,0],"sum_hessian":[1.41E3,1.399E3,1.1E1,1.028E3,3.71E2,6E0,5E0,3.2E2,7.08E2,1.33E2,2.38E2,2.74E2,4.6E1,7.01E2,7E0,3.6E1,9.7E1,2.02E2,3.6E1],"tree_param":{"num_deleted":"0","num_feature":"33","num_nodes":"19","size_leaf_vector":"1"}},{"base_weights":[-1.1104612E-3,-5.101936E-3,4.5866692E-1,-2.1736475E-2,3.9462116E-2,1.33032305E-2,2.7911538E-2,-5.0654855E-2,-8.681527E-3,6.214104E-2,2.5898775E-2,-2.7730481E-3,-1.8219671E-3,-5.613566E-4,5.3733843E-3,3.8375824E-3,1.3698649E-3,4.598281E-4,2.583069E-3],"categories":[],"categories_nodes":[],"categories_segments":[],"categories_sizes":[],"default_left":[0,1,0,1,0,0,0,0,0,0,0,0,0,0,0,0,0,0,0],"id":1,"left_children":[1,3,5,7,9,-1,-1,11,13,15,17,-1,-1,-1,-1,-1,-1,-1,-1],"loss_changes":[2.5587595E0,1.0253378E0,8.158922E-2,3.7973088E-1,1.1404896E-1,0E0,0E0,1.9363582E-2,2.0669717E-1,6.896508E-2,1.0150424E-1,0E0,0E0,0E0,0E0,0E0,0E0,0E0,0E0],"parents":[2147483647,0,0,1,1,2,2,3,3,4,4,7,7,8,8,9,9,10,10],"right_children":[2,4,6,8,10,-1,-1,12,14,16,18,-1,-1,-1,-1,-1,-1,-1,-1],"split_conditions":[3.1300593E-2,1.6846885E-1,2.3240933E-1,1.0223461E-1,9.733424E-1,1.33032305E-2,2.7911538E-2,1.2396633E2,5.1395405E-2,2.0481655E-1,5.1969206E-3,-2.7730481E-3,-1.8219671E-3,-5.613566E-4,5.3733843E-3,3.8375824E-3,1.3698649E-3,4.598281E-4,2.583069E-3],"split_indices":[6,5,4,5,14,0,0,12,9,5,1,0,0,0,0,0,0,0,0],"split_type":[0,0,0,0,0,0,0,0,0,0,0,0,0,0,0,0,0,0,0],"sum_hessian":[1.392E3,1.381E3,1.1E1,1.006E3,3.75E2,5E0,6E0,3.12E2,6.94E2,1.39E2,2.36E2,2.31E2,8.1E1,6.8E2,1.4E1,9.7E1,4.2E1,1.44E2,9.2E1],"tree_param":{"num_deleted":"0","num_feature":"33","num_nodes":"19","size_leaf_vector":"1"}},{"base_weights":[1.4575778E-3,-3.3931814E-3,4.7430247E-1,-2.0295732E-2,4.161386E-2,1.2834752E-2,2.8333692E-2,-4.770539E-2,-7.959768E-3,6.276071E-2,2.8784055E-2,-2.5748361E-3,-1.1233753E-3,-5.153745E-4,5.2733547E-3,3.9001422E-3,1.7316118E-3,9.815017E-4,3.9292956E-3],"categories":[],"categories_nodes":[],"categories_segments":[],"categories_sizes":[],"default_left":[0,1,0,1,0,0,0,0,0,0,0,0,0,0,0,0,0,0,0],"id":2,"left_children":[1,3,5,7,9,-1,-1,11,13,15,17,-1,-1,-1,-1,-1,-1,-1,-1],"loss_changes":[3.1622682E0,1.0392461E0,1.3594747E-1,3.3537793E-1,9.9392116E-2,0E0,0E0,2.8314054E-2,1.837652E-1,5.7321846E-2,1.05134994E-1,0E0,0E0,0E0,0E0,0E0,0E0,0E0,0E0],"parents":[2147483647,0,0,1,1,2,2,3,3,4,4,7,7,8,8,9,9,10,10],"right_children":[2,4,6,8,10,-1,-1,12,14,16,18,-1,-1,-1,-1,-1,-1,-1,-1],"split_conditions":[3.1300593E-2,1.6846885E-1,1.5645999E2,1.0223461E-1,9.733424E-1,1.2834752E-2,2.8333692E-2,5.7741817E-2,5.457287E-2,2.3300686E-1,3.4778652E-1,-2.5748361E-3,-1.1233753E-3,-5.153745E-4,5.2733547E-3,3.9001422E-3,1.7316118E-3,9.815017E-4,3.9292956E-3],"split_indices":[6,5,10,5,14,0,0,32,9,3,32,0,0,0,0,0,0,0,0],"split_type":[0,0,0,0,0,0,0,0,0,0,0,0,0,0,0,0,0,0,0],"sum_hessian":[1.377E3,1.364E3,1.3E1,9.92E2,3.72E2,5E0,8E0,3.07E2,6.85E2,1.39E2,2.33E2,2.66E2,4.1E1,6.72E2,1.3E1,8.9E1,5E1,1.98E2,3.5E1],"tree_param":{"num_deleted":"0","num_feature":"33","num_nodes":"19","size_leaf_vector":"1"}},{"base_weights":[1.1164827E-3,-3.4011663E-3,4.211834E-1,-3.0746454E-2,2.0021396E-2,1.0316827E-2,2.7074417E-2,7.07725E-3,-3.2316096E-2,-2.631675E-3,4.1167144E-2,9.922691E-4,-1.8485341E-3,1.0622179E-3,-3.3844454E-4,5.5431556E-3,1.8343553E-3],"categories":[],"categories_nodes":[],"categories_segments":[],"categories_sizes":[],"default_left":[0,1,0,0,0,0,0,0,0,0,0,0,0,0,0,0,0],"id":3,"left_children":[1,3,5,7,9,-1,-1,-1,11,13,15,-1,-1,-1,-1,-1,-1],"loss_changes":[2.6753128E0,8.941085E-1,2.7597833E-1,1.7873514E-1,3.603285E-1,0E0,0E0,0E0,1.5587664E-1,3.6099825E-2,1.1739433E-1,0E0,0E0,0E0,0E0,0E0,0E0],"parents":[2147483647,0,0,1,1,2,2,3,3,4,4,8,8,9,9,10,10],"right_children":[2,4,6,8,10,-1,-1,-1,12,14,16,-1,-1,-1,-1,-1,-1],"split_conditions":[3.1300593E-2,1.3192399E-1,1.5645999E2,-1.0865489E-1,6.735224E-2,1.0316827E-2,2.7074417E-2,7.07725E-3,9.4932E1,-9.728791E-2,-4.05022E-2,9.922691E-4,-1.8485341E-3,1.0622179E-3,-3.3844454E-4,5.5431556E-3,1.8343553E-3],"split_indices":[6,4,10,16,27,0,0,0,10,16,21,0,0,0,0,0,0],"split_type":[0,0,0,0,0,0,0,0,0,0,0,0,0,0,0,0,0],"sum_hessian":[1.408E3,1.394E3,1.4E1,6.43E2,7.51E2,6E0,8E0,5E0,6.38E2,3.63E2,3.88E2,5.2E1,5.86E2,5.3E1,3.1E2,2.2E1,3.66E2],"tree_param":{"num_deleted":"0","num_feature":"33","num_nodes":"17","size_leaf_vector":"1"}},{"base_weights":[-1.6901084E-3,-5.2419696E-3,3.7712297E-1,-2.0006428E-2,3.490924E-2,8.771836E-3,2.4062363E-2,-4.3451555E-2,-8.580675E-3,1.733266E-2,5.0693538E-2,-2.3837627E-3,-1.4660765E-3,1.6250008E-3,-5.627416E-4,4.8622494E-3,6.5000256E-4,5.3616497E-3,2.2707751E-3],"categories":[],"categories_nodes":[],"categories_segments":[],"categories_sizes":[],"default_left":[0,1,0,1,0,0,0,0,0,0,0,0,0,0,0,0,0,0,0],"id":4,"left_children":[1,3,5,7,9,-1,-1,11,13,15,17,-1,-1,-1,-1,-1,-1,-1,-1],"loss_changes":[1.882974E0,8.2233423E-1,1.885773E-1,2.7125567E-1,1.0260421E-1,0E0,0E0,1.8416226E-2,7.5397566E-2,6.036455E-2,5.3619742E-2,0E0,0E0,0E0,0E0,0E0,0E0,0E0,0E0],"parents":[2147483647,0,0,1,1,2,2,3,3,4,4,7,7,8,8,9,9,10,10],"right_children":[2,4,6,8,10,-1,-1,12,14,16,18,-1,-1,-1,-1,-1,-1,-1,-1],"split_conditions":[3.1300593E-2,1.370998E-2,1.5645999E2,1.0223461E-1,1.1149056E-2,8.771836E-3,2.4062363E-2,-6.1061308E-2,-1.0162889E-1,8.8316E1,-4.3381236E-2,-2.3837627E-3,-1.4660765E-3,1.6250008E-3,-5.627416E-4,4.8622494E-3,6.5000256E-4,5.3616497E-3,2.2707751E-3],"split_indices":[6,8,10,5,6,0,0,32,16,10,21,0,0,0,0,0,0,0,0],"split_type":[0,0,0,0,0,0,0,0,0,0,0,0,0,0,0,0,0,0,0],"sum_hessian":[1.397E3,1.385E3,1.2E1,1.013E3,3.72E2,5E0,7E0,3.31E2,6.82E2,1.77E2,1.95E2,2.53E2,7.8E1,4.1E1,6.41E2,8E0,1.69E2,1.5E1,1.8E2],"tree_param":{"num_deleted":"0","num_feature":"33","num_nodes":"19","size_leaf_vector":"1"}},{"base_weights":[-1.1430037E-3,-4.6809493E-3,3.84581E-1,-2.0406669E-2,2.9827006E-2,9.46154E-3,2.6249552E-2,-4.157054E-2,-9.397361E-3,2.1774217E-2,5.8409933E-2,-2.2371865E-3,-1.0654683E-3,-5.3082715E-4,5.1358226E-3,5.167203E-4,2.3721966E-3,3.1259668E-3,-7.1679207E-4],"categories":[],"categories_nodes":[],"categories_segments":[],"categories_sizes":[],"default_left":[0,1,0,1,0,0,0,0,0,0,0,0,0,0,0,0,0,0,0],"id":5,"left_children":[1,3,5,7,9,-1,-1,11,13,15,17,-1,-1,-1,-1,-1,-1,-1,-1],"loss_changes":[1.9519144E0,7.695614E-1,2.5723433E-1,2.2655097E-1,1.0092467E-1,0E0,0E0,2.0455897E-2,8.8843584E-2,1.0170224E-1,2.9893607E-2,0E0,0E0,0E0,0E0,0E0,0E0,0E0,0E0],"parents":[2147483647,0,0,1,1,2,2,3,3,4,4,7,7,8,8,9,9,10,10],"right_children":[2,4,6,8,10,-1,-1,12,14,16,18,-1,-1,-1,-1,-1,-1,-1,-1],"split_conditions":[3.1300593E-2,1.30133E-2,1.58498E2,1.0223461E-1,2.571356E-1,9.46154E-3,2.6249552E-2,6.950669E-2,1.0313517E0,2.4215801E-1,2.0856159E-2,-2.2371865E-3,-1.0654683E-3,-5.3082715E-4,5.1358226E-3,5.167203E-4,2.3721966E-3,3.1259668E-3,-7.1679207E-4],"split_indices":[6,8,10,5,32,0,0,32,13,25,8,0,0,0,0,0,0,0,0],"split_type":[0,0,0,0,0,0,0,0,0,0,0,0,0,0,0,0,0,0,0],"sum_hessian":[1.428E3,1.416E3,1.2E1,9.73E2,4.43E2,6E0,6E0,3.32E2,6.41E2,3.47E2,9.6E1,2.86E2,4.6E1,6.35E2,6E0,2.41E2,1.06E2,9.1E1,5E0],"tree_param":{"num_deleted":"0","num_feature":"33","num_nodes":"19","size_leaf_vector":"1"}},{"base_weights":[1.1440008E-3,-2.433442E-3,3.557402E-1,-2.7857766E-2,1.8368438E-2,8.889787E-3,2.5414262E-2,1.2702583E-2,-3.1560805E-2,2.3611657E-4,3.9479338E-2,-6.9326044E-5,6.164916E-3,3.825685E-3,-1.6323436E-3,3.828162E-3,-9.265119E-5,1.7360116E-3,8.591198E-3],"categories":[],"categories_nodes":[],"categories_segments":[],"categories_sizes":[],"default_left":[0,1,0,0,0,0,0,0,0,0,0,0,0,0,0,0,0,0,0],"id":6,"left_children":[1,3,5,7,9,-1,-1,11,13,15,17,-1,-1,-1,-1,-1,-1,-1,-1],"loss_changes":[1.7781008E0,7.345884E-1,2.8965282E-1,9.4273716E-2,2.924419E-1,0E0,0E0,8.275527E-2,6.975448E-2,6.58386E-2,2.163685E-1,0E0,0E0,0E0,0E0,0E0,0E0,0E0,0E0],"parents":[2147483647,0,0,1,1,2,2,3,3,4,4,7,7,8,8,9,9,10,10],"right_children":[2,4,6,8,10,-1,-1,12,14,16,18,-1,-1,-1,-1,-1,-1,-1,-1],"split_conditions":[3.1300593E-2,1.3192399E-1,1.5645999E2,9.4414E1,7.339006E-2,8.889787E-3,2.5414262E-2,1.0042217E0,9.715758E-1,-7.723278E-2,1.0382237E0,-6.9326044E-5,6.164916E-3,3.825685E-3,-1.6323436E-3,3.828162E-3,-9.265119E-5,1.7360116E-3,8.591198E-3],"split_indices":[6,26,10,10,27,0,0,14,13,15,13,0,0,0,0,0,0,0,0],"split_type":[0,0,0,0,0,0,0,0,0,0,0,0,0,0,0,0,0,0,0],"sum_hessian":[1.4E3,1.387E3,1.3E1,6.24E2,7.63E2,7E0,6E0,5.2E1,5.72E2,4.11E2,3.52E2,4.7E1,5E0,5E0,5.67E2,1E1,4.01E2,3.41E2,1.1E1],"tree_param":{"num_deleted":"0","num_feature":"33","num_nodes":"19","size_leaf_vector":"1"}},{"base_weights":[7.0474145E-4,-2.812436E-3,3.2939664E-1,-1.6955765E-2,2.804628E-2,6.8139466E-3,2.2149984E-2,-2.9609194E-2,-2.1885E-3,-6.1898706E-3,3.9305106E-2,5.69589E-3,-1.5615078E-3,2.261553E-3,-2.9242467E-4,-8.1820536E-4,7.589198E-4,2.298941E-3,-8.866496E-6],"categories":[],"categories_nodes":[],"categories_segments":[],"categories_sizes":[],"default_left":[0,1,0,1,0,0,0,0,0,0,0,0,0,0,0,0,0,0,0],"id":7,"left_children":[1,3,5,7,9,-1,-1,11,13,15,17,-1,-1,-1,-1,-1,-1,-1,-1],"loss_changes":[1.6379185E0,6.123713E-1,2.6870978E-1,1.7969123E-1,1.7023069E-1,0E0,0E0,1.2407121E-1,7.749663E-2,2.4163019E-2,8.748829E-2,0E0,0E0,0E0,0E0,0E0,0E0,0E0,0E0],"parents":[2147483647,0,0,1,1,2,2,3,3,4,4,7,7,8,8,9,9,10,10],"right_children":[2,4,6,8,10,-1,-1,12,14,16,18,-1,-1,-1,-1,-1,-1,-1,-1],"split_conditions":[3.1300593E-2,1.2967351E-2,1.012289E0,1.1850994E-1,6.3949235E-2,6.8139466E-3,2.2149984E-2,9.696007E-1,-3.517232E-2,1.4560916E2,1.586395E2,5.69589E-3,-1.5615078E-3,2.261553E-3,-2.9242467E-4,-8.1820536E-4,7.589198E-4,2.298941E-3,-8.866496E-6],"split_indices":[6,8,13,26,27,0,0,14,29,12,11,0,0,0,0,0,0,0,0],"split_type":[0,0,0,0,0,0,0,0,0,0,0,0,0,0,0,0,0,0,0],"sum_hessian":[1.415E3,1.401E3,1.4E1,9.61E2,4.4E2,6E0,8E0,5.17E2,4.44E2,1.09E2,3.31E2,5E0,5.12E2,3.1E1,4.13E2,7.4E1,3.5E1,2.83E2,4.8E1],"tree_param":{"num_deleted":"0","num_feature":"33","num_nodes":"19","size_leaf_vector":"1"}},{"base_weights":[-4.6413363E-4,-2.831664E-3,2.993935E-1,-1.4616702E-2,3.0773282E-2,2.2208584E-2,5.2358205E-3,-3.598592E-2,-4.8746252E-3,4.2922493E-2,1.2916164E-2,-2.0560385E-3,-1.1117735E-3,-3.516676E-4,4.459988E-3,3.0610834E-3,1.4880345E-3,2.8211197E-3,2.0202917E-4],"categories":[],"categories_nodes":[],"categories_segments":[],"categories_sizes":[],"default_left":[0,1,0,1,0,0,0,0,0,0,0,0,0,0,0,0,0,0,0],"id":8,"left_children":[1,3,5,7,9,-1,-1,11,13,15,17,-1,-1,-1,-1,-1,-1,-1,-1],"loss_changes":[9.9686843E-1,5.521273E-1,2.635228E-1,2.1466693E-1,7.798147E-2,0E0,0E0,2.1891534E-2,1.4481482E-1,4.9960792E-2,5.6921188E-2,0E0,0E0,0E0,0E0,0E0,0E0,0E0,0E0],"parents":[2147483647,0,0,1,1,2,2,3,3,4,4,7,7,8,8,9,9,10,10],"right_children":[2,4,6,8,10,-1,-1,12,14,16,18,-1,-1,-1,-1,-1,-1,-1,-1],"split_conditions":[3.1300593E-2,1.697743E-1,5.8354545E-1,1.0223461E-1,6.4549274E-3,2.2208584E-2,5.2358205E-3,-5.8101807E-3,5.457287E-2,9.974549E-1,-1.5697235E-1,-2.0560385E-3,-1.1117735E-3,-3.516676E-4,4.459988E-3,3.0610834E-3,1.4880345E-3,2.8211197E-3,2.0202917E-4],"split_indices":[6,5,31,5,30,0,0,16,9,13,16,0,0,0,0,0,0,0,0],"split_type":[0,0,0,0,0,0,0,0,0,0,0,0,0,0,0,0,0,0,0],"sum_hessian":[1.402E3,1.392E3,1E1,1.031E3,3.61E2,5E0,5E0,3.22E2,7.09E2,2.14E2,1.47E2,2.33E2,8.9E1,6.94E2,1.5E1,8.8E1,1.26E2,2.4E1,1.23E2],"tree_param":{"num_deleted":"0","num_feature":"33","num_nodes":"19","size_leaf_vector":"1"}},{"base_weights":[4.4570176E-4,-2.547618E-3,3.448898E-1,-1.4198724E-2,3.207822E-2,8.406883E-3,2.2356084E-2,-3.4263074E-2,-4.8701456E-3,2.865484E-2,1.1809188E-1,-1.4466345E-3,-2.250108E-3,2.8368693E-3,-3.5590245E-4,3.3913858E-3,1.1024734E-3,7.186306E-4,1.1835112E-2],"categories":[],"categories_nodes":[],"categories_segments":[],"categories_sizes":[],"default_left":[0,1,0,1,0,0,0,1,0,0,0,0,0,0,0,0,0,0,0],"id":9,"left_children":[1,3,5,7,9,-1,-1,11,13,15,17,-1,-1,-1,-1,-1,-1,-1,-1],"loss_changes":[1.4360743E0,5.575914E-1,1.416583E-1,1.9336882E-1,9.90873E-2,0E0,0E0,1.7473817E-2,9.8314725E-2,8.54449E-2,1.565263E-1,0E0,0E0,0E0,0E0,0E0,0E0,0E0,0E0],"parents":[2147483647,0,0,1,1,2,2,3,3,4,4,7,7,8,8,9,9,10,10],"right_children":[2,4,6,8,10,-1,-1,12,14,16,18,-1,-1,-1,-1,-1,-1,-1,-1],"split_conditions":[3.1300593E-2,1.3969355E-2,1.012289E0,1.0223461E-1,1.0403163E0,8.406883E-3,2.2356084E-2,9.435215E-2,-1.1158493E-1,-1.5697235E-1,1.6315763E-1,-1.4466345E-3,-2.250108E-3,2.8368693E-3,-3.5590245E-4,3.3913858E-3,1.1024734E-3,7.186306E-4,1.1835112E-2],"split_indices":[6,8,13,5,13,0,0,5,16,16,28,0,0,0,0,0,0,0,0],"split_type":[0,0,0,0,0,0,0,0,0,0,0,0,0,0,0,0,0,0,0],"sum_hessian":[1.391E3,1.38E3,1.1E1,1.033E3,3.47E2,5E0,6E0,3.27E2,7.06E2,3.35E2,1.2E1,2.21E2,1.06E2,2.4E1,6.82E2,4.7E1,2.88E2,7E0,5E0],"tree_param":{"num_deleted":"0","num_feature":"33","num_nodes":"19","size_leaf_vector":"1"}},{"base_weights":[-7.224872E-4,-4.004178E-3,2.9861587E-1,-2.260611E-2,1.2189038E-2,5.937233E-3,2.0266809E-2,5.3857276E-3,-2.3807561E-2,5.401207E-3,4.1367088E-2,1.0401148E-3,-1.3672429E-3,3.594158E-3,1.3616105E-4,1.33689735E-2,1.5430005E-3],"categories":[],"categories_nodes":[],"categories_segments":[],"categories_sizes":[],"default_left":[0,1,0,0,0,0,0,0,0,0,0,0,0,0,0,0,0],"id":10,"left_children":[1,3,5,7,9,-1,-1,-1,11,13,15,-1,-1,-1,-1,-1,-1],"loss_changes":[1.3587841E0,4.123515E-1,2.3980713E-1,1.02302074E-1,1.4475332E-1,0E0,0E0,0E0,1.0029736E-1,1.05736695E-1,3.1946135E-1,0E0,0E0,0E0,0E0,0E0,0E0],"parents":[2147483647,0,0,1,1,2,2,3,3,4,4,8,8,9,9,10,10],"right_children":[2,4,6,8,10,-1,-1,-1,12,14,16,-1,-1,-1,-1,-1,-1],"split_conditions":[3.1300593E-2,1.3192399E-1,1.5645999E2,-1.0596468E-1,2.4478953E-1,5.937233E-3,2.0266809E-2,5.3857276E-3,9.427E1,8.8316E1,1.4813295E-1,1.0401148E-3,-1.3672429E-3,3.594158E-3,1.3616105E-4,1.33689735E-2,1.5430005E-3],"split_indices":[6,4,10,16,25,0,0,0,10,10,5,0,0,0,0,0,0],"split_type":[0,0,0,0,0,0,0,0,0,0,0,0,0,0,0,0,0],"sum_hessian":[1.381E3,1.367E3,1.4E1,6.36E2,7.31E2,6E0,8E0,5E0,6.31E2,5.94E2,1.37E2,4.6E1,5.85E2,2.2E1,5.72E2,5E0,1.32E2],"tree_param":{"num_deleted":"0","num_feature":"33","num_nodes":"17","size_leaf_vector":"1"}},{"base_weights":[-2.6549143E-4,-2.1347154E-3,2.3596059E-1,-1.3091541E-2,2.7341029E-2,1.6249564E-2,5.380158E-3,-2.4507554E-2,-2.242016E-3,7.9984725E-2,2.321362E-2,5.334752E-3,-1.3033643E-3,-2.1552928E-4,2.9669274E-3,4.905396E-3,2.6460341E-3,1.6313609E-3,-4.5413917E-4],"categories":[],"categories_nodes":[],"categories_segments":[],"categories_sizes":[],"default_left":[0,1,0,1,0,0,0,0,0,0,0,0,0,0,0,0,0,0,0],"id":11,"left_children":[1,3,5,7,9,-1,-1,11,13,15,17,-1,-1,-1,-1,-1,-1,-1,-1],"loss_changes":[6.186869E-1,4.4927317E-1,9.073514E-2,1.255374E-1,8.0058634E-2,0E0,0E0,1.0387373E-1,6.6622674E-2,8.051202E-3,1.0700925E-1,0E0,0E0,0E0,0E0,0E0,0E0,0E0,0E0],"parents":[2147483647,0,0,1,1,2,2,3,3,4,4,7,7,8,8,9,9,10,10],"right_children":[2,4,6,8,10,-1,-1,12,14,16,18,-1,-1,-1,-1,-1,-1,-1,-1],"split_conditions":[3.1300593E-2,1.370998E-2,-2.2487257E-2,1.1850994E-1,8.8316E1,1.6249564E-2,5.380158E-3,9.696007E-1,1.02988E0,1.6437277E0,1.2033886E0,5.334752E-3,-1.3033643E-3,-2.1552928E-4,2.9669274E-3,4.905396E-3,2.6460341E-3,1.6313609E-3,-4.5413917E-4],"split_indices":[6,8,7,26,10,0,0,14,13,31,31,0,0,0,0,0,0,0,0],"split_type":[0,0,0,0,0,0,0,0,0,0,0,0,0,0,0,0,0,0,0],"sum_hessian":[1.399E3,1.389E3,1E1,1.013E3,3.76E2,5E0,5E0,4.93E2,5.2E2,2.6E1,3.5E2,5E0,4.88E2,5.04E2,1.6E1,1.4E1,1.2E1,2.71E2,7.9E1],"tree_param":{"num_deleted":"0","num_feature":"33","num_nodes":"19","size_leaf_vector":"1"}},{"base_weights":[1.5209778E-4,-2.5933224E-3,2.9305562E-1,-1.21555645E-2,2.6547017E-2,1.9666744E-2,7.5455643E-3,-2.9209772E-2,-4.6218154E-3,-7.816809E-3,3.3567786E-2,-1.18314E-3,-2.0092574E-3,3.8745773E-3,-2.9384394E-4,2.408559E-3,-8.140012E-4,1.467632E-3,4.914583E-3],"categories":[],"categories_nodes":[],"categories_segments":[],"categories_sizes":[],"default_left":[0,1,0,1,0,0,0,1,0,0,0,0,0,0,0,0,0,0,0],"id":12,"left_children":[1,3,5,7,9,-1,-1,11,13,15,17,-1,-1,-1,-1,-1,-1,-1,-1],"loss_changes":[1.1257564E0,3.8680607E-1,1.2594497E-1,1.341288E-1,8.301471E-2,0E0,0E0,1.8530756E-2,7.527511E-2,2.8740687E-2,7.486871E-2,0E0,0E0,0E0,0E0,0E0,0E0,0E0,0E0],"parents":[2147483647,0,0,1,1,2,2,3,3,4,4,7,7,8,8,9,9,10,10],"right_children":[2,4,6,8,10,-1,-1,12,14,16,18,-1,-1,-1,-1,-1,-1,-1,-1],"split_conditions":[3.1300593E-2,1.3886578E-2,6.103789E-1,1.0223461E-1,6.337113E-2,1.9666744E-2,7.5455643E-3,9.435215E-2,-7.529853E-2,9.037E1,1.0382237E0,-1.18314E-3,-2.0092574E-3,3.8745773E-3,-2.9384394E-4,2.408559E-3,-8.140012E-4,1.467632E-3,4.914583E-3],"split_indices":[6,8,31,5,27,0,0,5,15,10,13,0,0,0,0,0,0,0,0],"split_type":[0,0,0,0,0,0,0,0,0,0,0,0,0,0,0,0,0,0,0],"sum_hessian":[1.398E3,1.386E3,1.2E1,1.044E3,3.42E2,6E0,6E0,3.19E2,7.25E2,5.8E1,2.84E2,2.14E2,1.05E2,1E1,7.15E2,7E0,5.1E1,2.68E2,1.6E1],"tree_param":{"num_deleted":"0","num_feature":"33","num_nodes":"19","size_leaf_vector":"1"}},{"base_weights":[1.8143259E-3,-8.9177315E-4,2.5299978E-1,-1.8883914E-2,1.3272414E-2,1.8787142E-2,4.9315877E-3,2.8935488E-2,-2.1218179E-2,-2.6079048E-3,2.7031465E-2,-7.92542E-4,3.3157528E-3,3.9806045E-3,-1.1199256E-3,3.068987E-3,-1.9276298E-4,1.1500185E-3,5.523695E-3],"categories":[],"categories_nodes":[],"categories_segments":[],"categories_sizes":[],"default_left":[1,1,0,0,0,0,0,0,0,0,0,0,0,0,0,0,0,0,0],"id":13,"left_children":[1,3,5,7,9,-1,-1,11,13,15,17,-1,-1,-1,-1,-1,-1,-1,-1],"loss_changes":[9.566096E-1,3.5524842E-1,2.4715388E-1,6.915054E-2,1.7049903E-1,0E0,0E0,4.9599864E-2,7.152504E-2,2.920958E-2,1.3805935E-1,0E0,0E0,0E0,0E0,0E0,0E0,0E0,0E0],"parents":[2147483647,0,0,1,1,2,2,3,3,4,4,7,7,8,8,9,9,10,10],"right_children":[2,4,6,8,10,-1,-1,12,14,16,18,-1,-1,-1,-1,-1,-1,-1,-1],"split_conditions":[4.043084E-1,1.3192399E-1,-3.5105126E-3,9.4672165E1,6.498202E-2,1.8787142E-2,4.9315877E-3,9.894944E-1,-1.02789305E-1,-1.3844393E-1,1.0382237E0,-7.92542E-4,3.3157528E-3,3.9806045E-3,-1.1199256E-3,3.068987E-3,-1.9276298E-4,1.1500185E-3,5.523695E-3],"split_indices":[2,4,20,12,27,0,0,14,16,16,13,0,0,0,0,0,0,0,0],"split_type":[0,0,0,0,0,0,0,0,0,0,0,0,0,0,0,0,0,0,0],"sum_hessian":[1.406E3,1.392E3,1.4E1,6.13E2,7.79E2,7E0,7E0,2.8E1,5.85E2,3.62E2,4.17E2,1.3E1,1.5E1,6E0,5.79E2,6E0,3.56E2,3.99E2,1.8E1],"tree_param":{"num_deleted":"0","num_feature":"33","num_nodes":"19","size_leaf_vector":"1"}},{"base_weights":[1.3299088E-4,-2.0877079E-3,2.562425E-1,-1.1870218E-2,2.3696356E-2,1.8833673E-2,5.820495E-3,-1.7224014E-2,8.5771065E-3,3.5259113E-2,9.290286E-3,-1.158431E-3,-3.0320135E-4,2.6990514E-4,5.7616853E-3,2.1962856E-3,-2.0445573E-4,2.7554994E-3,1.5819183E-5],"categories":[],"categories_nodes":[],"categories_segments":[],"categories_sizes":[],"default_left":[0,1,0,0,0,0,0,1,1,0,0,0,0,0,0,0,0,0,0],"id":14,"left_children":[1,3,5,7,9,-1,-1,11,13,15,17,-1,-1,-1,-1,-1,-1,-1,-1],"loss_changes":[7.939302E-1,3.4937158E-1,1.5823352E-1,1.100564E-1,6.313707E-2,0E0,0E0,5.266756E-2,7.024185E-2,7.213384E-2,7.029461E-2,0E0,0E0,0E0,0E0,0E0,0E0,0E0,0E0],"parents":[2147483647,0,0,1,1,2,2,3,3,4,4,7,7,8,8,9,9,10,10],"right_children":[2,4,6,8,10,-1,-1,12,14,16,18,-1,-1,-1,-1,-1,-1,-1,-1],"split_conditions":[3.1300593E-2,1.6846885E-1,6.103789E-1,1.0119532E-2,6.4549274E-3,1.8833673E-2,5.820495E-3,1.3192399E-1,1.9712454E-2,1.241025E2,-1.5869711E-1,-1.158431E-3,-3.0320135E-4,2.6990514E-4,5.7616853E-3,2.1962856E-3,-2.0445573E-4,2.7554994E-3,1.5819183E-5],"split_indices":[6,5,31,6,30,0,0,4,17,11,16,0,0,0,0,0,0,0,0],"split_type":[0,0,0,0,0,0,0,0,0,0,0,0,0,0,0,0,0,0,0],"sum_hessian":[1.394E3,1.383E3,1.1E1,1.003E3,3.8E2,5E0,6E0,7.95E2,2.08E2,2.1E2,1.7E2,5.18E2,2.77E2,2.03E2,5E0,1.72E2,3.8E1,2.7E1,1.43E2],"tree_param":{"num_deleted":"0","num_feature":"33","num_nodes":"19","size_leaf_vector":"1"}},{"base_weights":[3.2338296E-4,-1.797888E-3,2.1212433E-1,-1.191406E-2,2.0699587E-2,1.3716124E-2,4.1736546E-3,-2.2602271E-2,-4.9326546E-3,-6.340729E-4,3.220083E-2,-1.318468E-3,1.729913E-4,-8.7930175E-6,-1.2081674E-3,3.3461598E-3,-1.923386E-4,2.4264387E-3,8.4378244E-4],"categories":[],"categories_nodes":[],"categories_segments":[],"categories_sizes":[],"default_left":[0,1,0,1,0,0,0,1,0,0,0,0,0,0,0,0,0,0,0],"id":15,"left_children":[1,3,5,7,9,-1,-1,11,13,15,17,-1,-1,-1,-1,-1,-1,-1,-1],"loss_changes":[6.343256E-1,3.184151E-1,8.91276E-2,7.1895584E-2,1.0650821E-1,0E0,0E0,3.7497148E-2,5.3509478E-2,3.346474E-2,6.974554E-2,0E0,0E0,0E0,0E0,0E0,0E0,0E0,0E0],"parents":[2147483647,0,0,1,1,2,2,3,3,4,4,7,7,8,8,9,9,10,10],"right_children":[2,4,6,8,10,-1,-1,12,14,16,18,-1,-1,-1,-1,-1,-1,-1,-1],"split_conditions":[3.1300593E-2,1.314858E-2,6.6475326E-1,9.10153E-3,-2.0955767E-1,1.3716124E-2,4.1736546E-3,1.0137537E0,1.5412584E2,-1.4055625E-1,2.0377825E-1,-1.318468E-3,1.729913E-4,-8.7930175E-6,-1.2081674E-3,3.3461598E-3,-1.923386E-4,2.4264387E-3,8.4378244E-4],"split_indices":[6,8,31,8,32,0,0,13,12,16,3,0,0,0,0,0,0,0,0],"split_type":[0,0,0,0,0,0,0,0,0,0,0,0,0,0,0,0,0,0,0],"sum_hessian":[1.41E3,1.397E3,1.3E1,9.64E2,4.33E2,8E0,5E0,3.8E2,5.84E2,1.52E2,2.81E2,3.32E2,4.8E1,4.69E2,1.15E2,6E0,1.46E2,1.35E2,1.46E2],"tree_param":{"num_deleted":"0","num_feature":"33","num_nodes":"19","size_leaf_vector":"1"}},{"base_weights":[6.909862E-4,-1.680333E-3,2.3404719E-1,-1.0036407E-2,2.0212166E-2,4.131273E-3,1.6864266E-2,2.4608735E-2,-1.3288812E-2,1.4232944E-2,5.0167076E-2,-8.418096E-5,3.5655387E-3,-7.6981855E-4,1.1317477E-3,3.4236691E-3,5.187906E-4,3.1412118E-3,6.897897E-5],"categories":[],"categories_nodes":[],"categories_segments":[],"categories_sizes":[],"default_left":[0,1,0,0,0,0,0,0,1,0,0,0,0,0,0,0,0,0,0],"id":16,"left_children":[1,3,5,7,9,-1,-1,11,13,15,17,-1,-1,-1,-1,-1,-1,-1,-1],"loss_changes":[7.701199E-1,2.5228775E-1,1.9098657E-1,1.1278167E-1,6.7525744E-2,0E0,0E0,1.0572003E-1,6.947306E-2,6.602832E-2,3.881654E-2,0E0,0E0,0E0,0E0,0E0,0E0,0E0,0E0],"parents":[2147483647,0,0,1,1,2,2,3,3,4,4,7,7,8,8,9,9,10,10],"right_children":[2,4,6,8,10,-1,-1,12,14,16,18,-1,-1,-1,-1,-1,-1,-1,-1],"split_conditions":[3.1300593E-2,1.6846885E-1,1.5645999E2,9.686498E-1,3.3799148E-1,4.131273E-3,1.6864266E-2,9.6225005E-1,2.6898064E-2,-4.3381236E-2,2.3300686E-1,-8.418096E-5,3.5655387E-3,-7.6981855E-4,1.1317477E-3,3.4236691E-3,5.187906E-4,3.1412118E-3,6.897897E-5],"split_indices":[6,5,10,14,32,0,0,14,1,21,3,0,0,0,0,0,0,0,0],"split_type":[0,0,0,0,0,0,0,0,0,0,0,0,0,0,0,0,0,0,0],"sum_hessian":[1.39E3,1.377E3,1.3E1,9.97E2,3.8E2,6E0,7E0,8.5E1,9.12E2,3.18E2,6.2E1,5.5E1,3E1,8.62E2,5E1,2E1,2.98E2,4.9E1,1.3E1],"tree_param":{"num_deleted":"0","num_feature":"33","num_nodes":"19","size_leaf_vector":"1"}},{"base_weights":[1.5873121E-3,-7.9514325E-4,2.5418875E-1,-9.424441E-3,2.3114426E-2,5.2524596E-3,1.671349E-2,3.0289553E-2,-1.1689904E-2,6.297237E-3,2.0758558E-2,5.2440222E-3,9.5077784E-4,-9.880298E-4,-2.097108E-4,3.3547916E-3,8.767238E-4],"categories":[],"categories_nodes":[],"categories_segments":[],"categories_sizes":[],"default_left":[0,1,0,0,0,0,0,0,0,0,0,0,0,0,0,0,0],"id":17,"left_children":[1,3,5,7,9,-1,-1,11,13,-1,15,-1,-1,-1,-1,-1,-1],"loss_changes":[8.373221E-1,2.8473696E-1,1.2014747E-1,9.158428E-2,8.605078E-2,0E0,0E0,4.4257198E-2,5.7992667E-2,0E0,5.2456394E-2,0E0,0E0,0E0,0E0,0E0,0E0],"parents":[2147483647,0,0,1,1,2,2,3,3,4,4,7,7,8,8,10,10],"right_children":[2,4,6,8,10,-1,-1,12,14,-1,16,-1,-1,-1,-1,-1,-1],"split_conditions":[3.1300593E-2,1.3969355E-2,4.9927604E-1,-9.728791E-2,4.392205E-1,5.2524596E-3,1.671349E-2,6.7251676E-1,1.19079225E-1,6.297237E-3,8.772E1,5.2440222E-3,9.5077784E-4,-9.880298E-4,-2.097108E-4,3.3547916E-3,8.767238E-4],"split_indices":[6,8,3,16,31,0,0,31,4,0,10,0,0,0,0,0,0],"split_type":[0,0,0,0,0,0,0,0,0,0,0,0,0,0,0,0,0],"sum_hessian":[1.39E3,1.378E3,1.2E1,1.013E3,3.65E2,5E0,7E0,5.4E1,9.59E2,7E0,3.58E2,6E0,4.8E1,4.61E2,4.98E2,2.2E1,3.36E2],"tree_param":{"num_deleted":"0","num_feature":"33","num_nodes":"17","size_leaf_vector":"1"}},{"base_weights":[-9.346483E-4,-2.8194643E-3,2.0400225E-1,-9.6513955E-3,2.3441654E-2,1.5243307E-2,3.6997595E-3,-2.3709226E-2,-3.9387685E-3,4.020949E-2,1.2320124E-2,-1.2676144E-3,1.2664536E-4,2.0597484E-3,-2.8156486E-4,1.6861929E-3,4.9525998E-3,2.3419948E-3,2.0420334E-4],"categories":[],"categories_nodes":[],"categories_segments":[],"categories_sizes":[],"default_left":[0,1,0,1,0,0,0,1,0,0,0,0,0,0,0,0,0,0,0],"id":18,"left_children":[1,3,5,7,9,-1,-1,11,13,15,17,-1,-1,-1,-1,-1,-1,-1,-1],"loss_changes":[5.5100757E-1,2.5373843E-1,1.479106E-1,9.001123E-2,5.395794E-2,0E0,0E0,1.4034256E-2,6.1267704E-2,4.0928766E-2,5.0131E-2,0E0,0E0,0E0,0E0,0E0,0E0,0E0,0E0],"parents":[2147483647,0,0,1,1,2,2,3,3,4,4,7,7,8,8,9,9,10,10],"right_children":[2,4,6,8,10,-1,-1,12,14,16,18,-1,-1,-1,-1,-1,-1,-1,-1],"split_conditions":[3.1300593E-2,1.4791061E-2,-1.1417824E-2,1.0223461E-1,-3.6660132E-3,1.5243307E-2,3.6997595E-3,2.1805404E-1,-1.1158493E-1,9.3848705E-3,-1.5697235E-1,-1.2676144E-3,1.2664536E-4,2.0597484E-3,-2.8156486E-4,1.6861929E-3,4.9525998E-3,2.3419948E-3,2.0420334E-4],"split_indices":[6,8,20,5,30,0,0,32,16,19,16,0,0,0,0,0,0,0,0],"split_type":[0,0,0,0,0,0,0,0,0,0,0,0,0,0,0,0,0,0,0],"sum_hessian":[1.424E3,1.412E3,1.2E1,1.121E3,2.91E2,6E0,6E0,3.23E2,7.98E2,1.15E2,1.76E2,3.04E2,1.9E1,2.8E1,7.7E2,1.05E2,1E1,3.3E1,1.43E2],"tree_param":{"num_deleted":"0","num_feature":"33","num_nodes":"19","size_leaf_vector":"1"}},{"base_weights":[9.3280344E-4,-1.3786501E-3,1.4068493E-1,3.0662587E-2,-6.4422577E-3,3.176979E-2,1.5328926E-2,2.596837E-2,6.7104995E-3,-1.152644E-2,1.220501E-2,6.5383356E-4,2.881501E-3,2.7606783E-3,3.6816302E-4,-6.4634567E-4,1.6577457E-3,8.9112145E-5,1.7479341E-3],"categories":[],"categories_nodes":[],"categories_segments":[],"categories_sizes":[],"default_left":[1,0,0,0,1,0,0,0,0,1,0,0,0,0,0,0,0,0,0],"id":19,"left_children":[1,3,5,7,9,11,-1,13,-1,15,17,-1,-1,-1,-1,-1,-1,-1,-1],"loss_changes":[4.566361E-1,2.2587928E-1,4.058316E-1,8.886884E-2,1.1409764E-1,6.497518E-3,0E0,9.916558E-2,0E0,5.9561953E-2,6.1123997E-2,0E0,0E0,0E0,0E0,0E0,0E0,0E0,0E0],"parents":[2147483647,0,0,1,1,2,2,3,3,4,4,5,5,7,7,9,9,10,10],"right_children":[2,4,6,8,10,12,-1,14,-1,16,18,-1,-1,-1,-1,-1,-1,-1,-1],"split_conditions":[1.0403163E0,-1.0162889E-1,1.46336E2,1.4131999E2,1.7089434E-1,1.2276335E-2,1.5328926E-2,1.3679492E-1,6.7104995E-3,3.1396233E-2,1.3063026E-2,6.5383356E-4,2.881501E-3,2.7606783E-3,3.6816302E-4,-6.4634567E-4,1.6577457E-3,8.9112145E-5,1.7479341E-3],"split_indices":[13,16,10,10,5,24,0,28,0,1,1,0,0,0,0,0,0,0,0],"split_type":[0,0,0,0,0,0,0,0,0,0,0,0,0,0,0,0,0,0,0],"sum_hessian":[1.412E3,1.39E3,2.2E1,1.89E2,1.201E3,1.4E1,8E0,1.82E2,7E0,9.44E2,2.57E2,9E0,5E0,7E1,1.12E2,9.16E2,2.8E1,1.77E2,8E1],"tree_param":{"num_deleted":"0","num_feature":"33","num_nodes":"19","size_leaf_vector":"1"}},{"base_weights":[1.885214E-3,-1.6621147E-4,1.9432001E-1,-1.391949E-2,1.1511659E-2,1.3706802E-2,3.19697E-3,3.814219E-3,-1.5025289E-2,1.739673E-4,2.4578338E-2,1.3615399E-3,-8.574049E-4,2.8867533E-3,-8.556716E-5,3.663461E-3,9.0711686E-4],"categories":[],"categories_nodes":[],"categories_segments":[],"categories_sizes":[],"default_left":[0,1,0,0,0,0,0,0,0,0,0,0,0,0,0,0,0],"id":20,"left_children":[1,3,5,7,9,-1,-1,-1,11,13,15,-1,-1,-1,-1,-1,-1],"loss_changes":[5.613891E-1,2.2629772E-1,1.3856888E-1,6.568274E-2,1.1288296E-1,0E0,0E0,0E0,5.7875976E-2,4.448371E-2,1.0960534E-1,0E0,0E0,0E0,0E0,0E0,0E0],"parents":[2147483647,0,0,1,1,2,2,3,3,4,4,8,8,9,9,10,10],"right_children":[2,4,6,8,10,-1,-1,-1,12,14,16,-1,-1,-1,-1,-1,-1],"split_conditions":[3.1300593E-2,1.3192399E-1,-1.2814894E-3,-1.02789305E-1,7.444457E-2,1.3706802E-2,3.19697E-3,3.814219E-3,9.438E1,-7.723278E-2,1.5413295E-1,1.3615399E-3,-8.574049E-4,2.8867533E-3,-8.556716E-5,3.663461E-3,9.0711686E-4],"split_indices":[6,4,24,16,27,0,0,0,12,15,4,0,0,0,0,0,0],"split_type":[0,0,0,0,0,0,0,0,0,0,0,0,0,0,0,0,0],"sum_hessian":[1.421E3,1.407E3,1.4E1,6.46E2,7.61E2,8E0,6E0,7E0,6.39E2,4.08E2,3.53E2,3E1,6.09E2,1.2E1,3.96E2,4E1,3.13E2],"tree_param":{"num_deleted":"0","num_feature":"33","num_nodes":"17","size_leaf_vector":"1"}},{"base_weights":[-5.370541E-4,-2.255862E-3,1.8473887E-1,-1.0553633E-2,1.5019401E-2,3.3079963E-3,1.2529037E-2,2.1828018E-2,-1.3243126E-2,1.1704523E-2,6.9264695E-2,3.0886435E-3,3.8160066E-4,-1.5490634E-3,-5.1227305E-4,1.656137E-3,1.458501E-4,9.636506E-3,1.129428E-3],"categories":[],"categories_nodes":[],"categories_segments":[],"categories_sizes":[],"default_left":[0,0,0,0,1,0,0,0,0,0,0,0,0,0,0,0,0,0,0],"id":21,"left_children":[1,3,5,7,9,-1,-1,11,13,15,17,-1,-1,-1,-1,-1,-1,-1,-1],"loss_changes":[4.5039186E-1,2.0098649E-1,8.491859E-2,8.276352E-2,8.10058E-2,0E0,0E0,4.0923733E-2,4.6208963E-2,8.0834985E-2,1.4548162E-1,0E0,0E0,0E0,0E0,0E0,0E0,0E0,0E0],"parents":[2147483647,0,0,1,1,2,2,3,3,4,4,7,7,8,8,9,9,10,10],"right_children":[2,4,6,8,10,-1,-1,12,14,16,18,-1,-1,-1,-1,-1,-1,-1,-1],"split_conditions":[3.1300593E-2,1.0189702E-2,-3.1021524E-2,-9.728791E-2,5.7090923E-2,3.3079963E-3,1.2529037E-2,1.1837831E-1,9.8185176E-1,9.686498E-1,-5.974712E-1,3.0886435E-3,3.8160066E-4,-1.5490634E-3,-5.1227305E-4,1.656137E-3,1.458501E-4,9.636506E-3,1.129428E-3],"split_indices":[6,6,9,16,9,0,0,28,14,14,32,0,0,0,0,0,0,0,0],"split_type":[0,0,0,0,0,0,0,0,0,0,0,0,0,0,0,0,0,0,0],"sum_hessian":[1.412E3,1.4E3,1.2E1,9.46E2,4.54E2,5E0,7E0,7.2E1,8.74E2,4.29E2,2.5E1,1.8E1,5.4E1,1.25E2,7.49E2,1.24E2,3.05E2,6E0,1.9E1],"tree_param":{"num_deleted":"0","num_feature":"33","num_nodes":"19","size_leaf_vector":"1"}},{"base_weights":[1.7132294E-4,-1.9036693E-3,1.24482974E-1,2.8626947E-2,-6.900324E-3,3.2231916E-2,1.3220166E-2,9.3937226E-2,2.0999333E-2,-1.2126445E-2,8.019917E-3,2.233542E-4,2.7983878E-3,7.6260194E-3,1.0051007E-3,1.8157983E-3,1.592576E-4,-7.636607E-4,1.4422722E-4,-7.83519E-5,1.4931104E-3],"categories":[],"categories_nodes":[],"categories_segments":[],"categories_sizes":[],"default_left":[1,0,0,0,1,0,0,0,0,1,0,0,0,0,0,0,0,0,0,0,0],"id":22,"left_children":[1,3,5,7,9,11,-1,13,15,17,19,-1,-1,-1,-1,-1,-1,-1,-1,-1,-1],"loss_changes":[3.6136097E-1,2.1041273E-1,2.883572E-1,9.467073E-2,9.249762E-2,9.635312E-3,0E0,8.3444044E-2,4.7633648E-2,4.1517362E-2,6.454232E-2,0E0,0E0,0E0,0E0,0E0,0E0,0E0,0E0,0E0,0E0],"parents":[2147483647,0,0,1,1,2,2,3,3,4,4,5,5,7,7,8,8,9,9,10,10],"right_children":[2,4,6,8,10,12,-1,14,16,18,20,-1,-1,-1,-1,-1,-1,-1,-1,-1,-1],"split_conditions":[1.0403163E0,-9.815655E-2,1.39464E2,-4.05022E-2,6.436863E-2,1.2276335E-2,1.3220166E-2,-5.6179278E-3,-1.1890747E-2,1.0139974E0,7.135961E-2,2.233542E-4,2.7983878E-3,7.6260194E-3,1.0051007E-3,1.8157983E-3,1.592576E-4,-7.636607E-4,1.4422722E-4,-7.83519E-5,1.4931104E-3],"split_indices":[13,16,11,21,32,24,0,32,1,13,27,0,0,0,0,0,0,0,0,0,0],"split_type":[0,0,0,0,0,0,0,0,0,0,0,0,0,0,0,0,0,0,0,0,0],"sum_hessian":[1.399E3,1.377E3,2.2E1,1.93E2,1.184E3,1.4E1,8E0,1.9E1,1.74E2,8.77E2,3.07E2,7E0,7E0,1E1,9E0,9.3E1,8.1E1,7.25E2,1.52E2,2.14E2,9.3E1],"tree_param":{"num_deleted":"0","num_feature":"33","num_nodes":"21","size_leaf_vector":"1"}},{"base_weights":[-2.4445384E-4,-2.7800957E-3,1.1378552E-1,1.8466461E-2,-7.5073927E-3,2.9579185E-2,1.140518E-2,3.862863E-2,5.12331E-3,-1.5981387E-2,4.8937666E-4,4.4751E-2,1.5620328E-4,2.817013E-3,-4.7801394E-4,1.9001991E-3,-9.2624156E-5,1.4055044E-3,-8.7147765E-4,-5.120078E-5,3.13058E-3,2.6918733E-3,1.3345811E-3],"categories":[],"categories_nodes":[],"categories_segments":[],"categories_sizes":[],"default_left":[1,0,0,0,0,0,0,0,0,0,1,0,0,0,0,0,0,0,0,0,0,0,0],"id":23,"left_children":[1,3,5,7,9,11,-1,13,15,17,19,21,-1,-1,-1,-1,-1,-1,-1,-1,-1,-1,-1],"loss_changes":[4.1205055E-1,1.4015031E-1,2.916684E-1,6.8134926E-2,7.732719E-2,7.486265E-3,0E0,8.674255E-2,3.539319E-2,3.5863847E-2,5.534511E-2,5.321428E-4,0E0,0E0,0E0,0E0,0E0,0E0,0E0,0E0,0E0,0E0,0E0],"parents":[2147483647,0,0,1,1,2,2,3,3,4,4,5,5,7,7,8,8,9,9,10,10,11,11],"right_children":[2,4,6,8,10,12,-1,14,16,18,20,22,-1,-1,-1,-1,-1,-1,-1,-1,-1,-1,-1],"split_conditions":[1.0352526E0,9.7244567E-1,1.46336E2,1.3535865E-1,1.2622005E-1,1.0220977E0,1.140518E-2,9.959773E-1,9.336233E-1,9.4672165E1,5.865154E-1,-2.7404767E-3,1.5620328E-4,2.817013E-3,-4.7801394E-4,1.9001991E-3,-9.2624156E-5,1.4055044E-3,-8.7147765E-4,-5.120078E-5,3.13058E-3,2.6918733E-3,1.3345811E-3],"split_indices":[13,14,10,28,4,14,0,13,14,12,32,16,0,0,0,0,0,0,0,0,0,0,0],"split_type":[0,0,0,0,0,0,0,0,0,0,0,0,0,0,0,0,0,0,0,0,0,0,0],"sum_hessian":[1.423E3,1.393E3,3E1,2.53E2,1.14E3,1.8E1,1.2E1,1E2,1.53E2,5.53E2,5.87E2,1.1E1,7E0,7.3E1,2.7E1,2.6E1,1.27E2,1.7E1,5.36E2,5.74E2,1.3E1,6E0,5E0],"tree_param":{"num_deleted":"0","num_feature":"33","num_nodes":"23","size_leaf_vector":"1"}},{"base_weights":[1.2552732E-3,1.0721589E-2,4.8294845E-5,-7.32732E-3,1.856957E-2,5.2186702E-3,-8.097278E-3,5.4350037E-2,1.414482E-2,-4.4840746E-4,3.2393602E-3,5.3201984E-3,1.8962314E-3,2.9992124E-3,5.4191594E-4],"categories":[],"categories_nodes":[],"categories_segments":[],"categories_sizes":[],"default_left":[0,0,1,0,0,0,0,0,0,0,0,0,0,0,0],"id":24,"left_children":[1,-1,3,5,7,-1,9,11,13,-1,-1,-1,-1,-1,-1],"loss_changes":[3.6561215E-1,0E0,1.9329666E-1,8.788207E-2,6.303406E-2,0E0,6.443482E-2,3.3584967E-2,5.3914405E-2,0E0,0E0,0E0,0E0,0E0,0E0],"parents":[2147483647,0,0,2,2,3,3,4,4,6,6,7,7,8,8],"right_children":[2,-1,4,6,8,-1,10,12,14,-1,-1,-1,-1,-1,-1],"split_conditions":[-6.61599E-2,1.0721589E-2,1.6773894E-1,-1.0624614E-2,-3.912035E-2,5.2186702E-3,1.9638775E-2,1.868329E-1,8.8316E1,-4.4840746E-4,3.2393602E-3,5.3201984E-3,1.8962314E-3,2.9992124E-3,5.4191594E-4],"split_indices":[24,0,5,19,29,0,6,5,10,0,0,0,0,0,0],"split_type":[0,0,0,0,0,0,0,0,0,0,0,0,0,0,0],"sum_hessian":[1.42E3,7E0,1.413E3,1.011E3,4.02E2,6E0,1.005E3,4.3E1,3.59E2,9.94E2,1.1E1,9E0,3.4E1,2.3E1,3.36E2],"tree_param":{"num_deleted":"0","num_feature":"33","num_nodes":"15","size_leaf_vector":"1"}},{"base_weights":[1.0299475E-3,-6.767025E-4,1.7466897E-1,-1.8358545E-2,4.585026E-3,1.2680429E-2,2.9749777E-3,-2.2783652E-2,-4.859343E-3,4.45422E-2,2.6380278E-3,-1.1953509E-3,9.4932737E-4,-7.9907844E-4,7.47595E-4,3.8552668E-3,7.738589E-5,2.6751363E-3,8.239013E-5],"categories":[],"categories_nodes":[],"categories_segments":[],"categories_sizes":[],"default_left":[0,1,0,0,0,0,0,0,1,0,0,0,0,0,0,0,0,0,0],"id":25,"left_children":[1,3,5,7,9,-1,-1,11,13,15,17,-1,-1,-1,-1,-1,-1,-1,-1],"loss_changes":[4.2625663E-1,1.3266197E-1,1.12190485E-1,1.942277E-2,8.5380904E-2,0E0,0E0,1.1997029E-2,1.8307254E-2,7.128246E-2,5.2747358E-2,0E0,0E0,0E0,0E0,0E0,0E0,0E0,0E0],"parents":[2147483647,0,0,1,1,2,2,3,3,4,4,7,7,8,8,9,9,10,10],"right_children":[2,4,6,8,10,-1,-1,12,14,16,18,-1,-1,-1,-1,-1,-1,-1,-1],"split_conditions":[3.1300593E-2,1.0223461E-1,-3.5105126E-3,-1.3157895E-3,-3.8736124E-2,1.2680429E-2,2.9749777E-3,1.32324E2,1.214025E2,1.346738E-1,8.6922E1,-1.1953509E-3,9.4932737E-4,-7.9907844E-4,7.47595E-4,3.8552668E-3,7.738589E-5,2.6751363E-3,8.239013E-5],"split_indices":[6,5,20,16,21,0,0,10,11,28,10,0,0,0,0,0,0,0,0],"split_type":[0,0,0,0,0,0,0,0,0,0,0,0,0,0,0,0,0,0,0],"sum_hessian":[1.437E3,1.424E3,1.3E1,3.26E2,1.098E3,7E0,6E0,2.45E2,8.1E1,5E1,1.048E3,2.39E2,6E0,5.2E1,2.9E1,2.8E1,2.2E1,1.9E1,1.029E3],"tree_param":{"num_deleted":"0","num_feature":"33","num_nodes":"19","size_leaf_vector":"1"}},{"base_weights":[-5.3112657E-4,-2.3771585E-3,7.7884145E-2,1.8560603E-2,-6.176998E-3,1.2234439E-2,2.9979657E-2,6.223112E-2,1.0893864E-2,-1.0587614E-2,6.037244E-3,3.935353E-3,3.5628506E-3,5.5305073E-3,1.8705983E-3,1.7541213E-3,-2.120207E-4,-8.6066575E-4,-2.5347827E-4,6.5035056E-5,2.021902E-3,1.311203E-3,-5.303064E-4],"categories":[],"categories_nodes":[],"categories_segments":[],"categories_sizes":[],"default_left":[1,0,0,0,0,0,0,0,0,0,1,0,0,0,0,0,0,0,0,0,0,0,0],"id":26,"left_children":[1,3,5,7,9,-1,11,13,15,17,19,21,-1,-1,-1,-1,-1,-1,-1,-1,-1,-1,-1],"loss_changes":[2.0139751E-1,1.0823687E-1,2.4836639E-1,6.929746E-2,6.2070973E-2,0E0,2.7670616E-2,3.3084385E-2,6.567645E-2,3.084328E-2,4.9807303E-2,5.78802E-3,0E0,0E0,0E0,0E0,0E0,0E0,0E0,0E0,0E0,0E0,0E0],"parents":[2147483647,0,0,1,1,2,2,3,3,4,4,6,6,7,7,8,8,9,9,10,10,11,11],"right_children":[2,4,6,8,10,-1,12,14,16,18,20,22,-1,-1,-1,-1,-1,-1,-1,-1,-1,-1,-1],"split_conditions":[1.0382237E0,-9.728791E-2,5.336515E-1,-1.6465474E-2,1.0258482E-2,1.2234439E-2,1.6877086E-1,-2.237293E-2,1.3679492E-1,-2.465755E-1,3.1930026E-1,1.836649E-1,3.5628506E-3,5.5305073E-3,1.8705983E-3,1.7541213E-3,-2.120207E-4,-8.6066575E-4,-2.5347827E-4,6.5035056E-5,2.021902E-3,1.311203E-3,-5.303064E-4],"split_indices":[13,16,31,18,6,0,28,24,28,32,32,2,0,0,0,0,0,0,0,0,0,0,0],"split_type":[0,0,0,0,0,0,0,0,0,0,0,0,0,0,0,0,0,0,0,0,0,0,0],"sum_hessian":[1.389E3,1.358E3,3.1E1,2.08E2,1.15E3,6E0,2.5E1,3E1,1.78E2,8.45E2,3.05E2,1.6E1,9E0,9E0,2.1E1,6.8E1,1.1E2,3.83E2,4.62E2,2.69E2,3.6E1,6E0,1E1],"tree_param":{"num_deleted":"0","num_feature":"33","num_nodes":"23","size_leaf_vector":"1"}},{"base_weights":[5.519009E-4,7.3443623E-3,-4.7109372E-4,-6.4029736E-3,1.43670095E-2,5.4485273E-2,-7.3631015E-3,1.1940812E-2,7.5997123E-3,1.0622821E-3,3.6152245E-3,-5.5838266E-4,8.8969E-6,-1.3539541E-3,8.522218E-4],"categories":[],"categories_nodes":[],"categories_segments":[],"categories_sizes":[],"default_left":[0,0,1,0,0,0,1,0,0,0,0,0,0,0,0],"id":27,"left_children":[1,-1,3,5,7,9,11,13,-1,-1,-1,-1,-1,-1,-1],"loss_changes":[2.1563756E-1,0E0,1.2604554E-1,6.0206275E-2,1.347546E-1,7.940713E-3,2.8921787E-2,8.071613E-2,0E0,0E0,0E0,0E0,0E0,0E0,0E0],"parents":[2147483647,0,0,2,2,3,3,4,4,5,5,6,6,7,7],"right_children":[2,-1,4,6,8,10,12,14,-1,-1,-1,-1,-1,-1,-1],"split_conditions":[-8.842349E-2,7.3443623E-3,7.40515E-2,-7.723278E-2,1.0426509E0,9.163188E-3,1.38798E2,-6.2991434E-1,7.5997123E-3,1.0622821E-3,3.6152245E-3,-5.5838266E-4,8.8969E-6,-1.3539541E-3,8.522218E-4],"split_indices":[21,0,27,15,13,29,10,32,0,0,0,0,0,0,0],"split_type":[0,0,0,0,0,0,0,0,0,0,0,0,0,0,0],"sum_hessian":[1.439E3,9E0,1.43E3,1.022E3,4.08E2,1.5E1,1.007E3,4.02E2,6E0,6E0,9E0,6.69E2,3.38E2,4.6E1,3.56E2],"tree_param":{"num_deleted":"0","num_feature":"33","num_nodes":"15","size_leaf_vector":"1"}},{"base_weights":[1.8123693E-3,9.635614E-3,9.899952E-4,-5.395891E-3,1.8123126E-2,5.754237E-2,-6.268142E-3,2.453544E-2,-2.3597945E-2,1.0831748E-3,3.753401E-3,6.974031E-4,-3.9107582E-4,1.1063649E-3,4.9571246E-3,4.699058E-4,-1.5446147E-3],"categories":[],"categories_nodes":[],"categories_segments":[],"categories_sizes":[],"default_left":[0,0,1,0,0,0,0,0,0,0,0,0,0,0,0,0,0],"id":28,"left_children":[1,-1,3,5,7,9,11,13,15,-1,-1,-1,-1,-1,-1,-1,-1],"loss_changes":[2.1959682E-1,0E0,1.5272506E-1,5.619189E-2,1.0197232E-1,7.1769767E-3,3.1638045E-2,5.691588E-2,1.2565255E-2,0E0,0E0,0E0,0E0,0E0,0E0,0E0,0E0],"parents":[2147483647,0,0,2,2,3,3,4,4,5,5,6,6,7,7,8,8],"right_children":[2,-1,4,6,8,10,12,14,16,-1,-1,-1,-1,-1,-1,-1,-1],"split_conditions":[-2.2487257E-2,9.635614E-3,7.477499E-2,-7.723278E-2,1.624815E2,-8.706965E-3,-2.5499312E-2,-2.124115E-3,-9.974209E-3,1.0831748E-3,3.753401E-3,6.974031E-4,-3.9107582E-4,1.1063649E-3,4.9571246E-3,4.699058E-4,-1.5446147E-3],"split_indices":[7,0,27,15,12,17,30,16,1,0,0,0,0,0,0,0,0],"split_type":[0,0,0,0,0,0,0,0,0,0,0,0,0,0,0,0,0],"sum_hessian":[1.399E3,5E0,1.394E3,1.016E3,3.78E2,1.3E1,1.003E3,3.28E2,5E1,5E0,8E0,7.1E1,9.32E2,3.19E2,9E0,9E0,4.1E1],"tree_param":{"num_deleted":"0","num_feature":"33","num_nodes":"17","size_leaf_vector":"1"}},{"base_weights":[-5.3297554E-4,-1.319523E-3,6.8688043E-3,-7.376481E-3,1.1722916E-2,-1.3117678E-2,-3.2606575E-4,8.162357E-3,6.654333E-2,-7.566364E-4,6.6320336E-4,1.0906424E-3,-1.982639E-4,1.6160533E-3,2.511581E-4,1.0161246E-2,1.3120922E-3],"categories":[],"categories_nodes":[],"categories_segments":[],"categories_sizes":[],"default_left":[0,0,0,0,1,0,0,0,0,0,0,0,0,0,0,0,0],"id":29,"left_children":[1,3,-1,5,7,9,11,13,15,-1,-1,-1,-1,-1,-1,-1,-1],"loss_changes":[1.5301834E-1,1.10840976E-1,0E0,3.8773473E-2,8.6316995E-2,2.826947E-2,3.4811385E-2,3.161414E-2,1.4339572E-1,0E0,0E0,0E0,0E0,0E0,0E0,0E0,0E0],"parents":[2147483647,0,0,1,1,3,3,4,4,5,5,6,6,7,7,8,8],"right_children":[2,4,-1,6,8,10,12,14,16,-1,-1,-1,-1,-1,-1,-1,-1],"split_conditions":[5.4644175E-2,1.0258482E-2,6.8688043E-3,1.3192399E-1,1.0352526E0,1.8773114E-2,1.0399999E-2,9.2494E1,5.599011E-1,-7.566364E-4,6.6320336E-4,1.0906424E-3,-1.982639E-4,1.6160533E-3,2.511581E-4,1.0161246E-2,1.3120922E-3],"split_indices":[6,6,0,26,13,1,8,10,31,0,0,0,0,0,0,0,0],"split_type":[0,0,0,0,0,0,0,0,0,0,0,0,0,0,0,0,0],"sum_hessian":[1.408E3,1.401E3,7E0,9.57E2,4.44E2,5.27E2,4.3E2,4.18E2,2.6E1,4.9E2,3.7E1,6E1,3.7E2,4.7E1,3.71E2,5E0,2.1E1],"tree_param":{"num_deleted":"0","num_feature":"33","num_nodes":"17","size_leaf_vector":"1"}},{"base_weights":[6.857869E-4,-5.713419E-4,1.2670887E-1,-6.995379E-3,1.2842738E-2,1.1315866E-2,1.1856419E-3,1.53641775E-2,-8.764021E-3,1.5985003E-2,-2.6536038E-2,3.0799643E-3,2.850009E-4,-1.3800734E-3,-2.849883E-4,7.026834E-4,4.7075315E-3,-2.1337715E-3,5.5447774E-4],"categories":[],"categories_nodes":[],"categories_segments":[],"categories_sizes":[],"default_left":[0,0,0,0,0,0,0,0,0,1,0,0,0,0,0,0,0,0,0],"id":30,"left_children":[1,3,5,7,9,-1,-1,11,13,15,17,-1,-1,-1,-1,-1,-1,-1,-1],"loss_changes":[2.2456378E-1,1.210761E-1,1.3826326E-1,3.7703402E-2,5.672521E-2,0E0,0E0,3.0926526E-2,5.0696433E-2,6.238365E-2,2.11199E-2,0E0,0E0,0E0,0E0,0E0,0E0,0E0,0E0],"parents":[2147483647,0,0,1,1,2,2,3,3,4,4,7,7,8,8,9,9,10,10],"right_children":[2,4,6,8,10,-1,-1,12,14,16,18,-1,-1,-1,-1,-1,-1,-1,-1],"split_conditions":[3.1300593E-2,1.0189702E-2,-3.5105126E-3,-9.815655E-2,1.63098E2,1.1315866E-2,1.1856419E-3,-8.515822E-3,9.8185176E-1,3.386053E-1,3.6564294E-2,3.0799643E-3,2.850009E-4,-1.3800734E-3,-2.849883E-4,7.026834E-4,4.7075315E-3,-2.1337715E-3,5.5447774E-4],"split_indices":[6,6,20,16,10,0,0,17,14,25,30,0,0,0,0,0,0,0,0],"split_type":[0,0,0,0,0,0,0,0,0,0,0,0,0,0,0,0,0,0,0],"sum_hessian":[1.416E3,1.403E3,1.3E1,9.49E2,4.54E2,6E0,7E0,6.9E1,8.8E2,4.21E2,3.3E1,1.1E1,5.8E1,1.22E2,7.58E2,4.12E2,9E0,2.3E1,1E1],"tree_param":{"num_deleted":"0","num_feature":"33","num_nodes":"19","size_leaf_vector":"1"}},{"base_weights":[8.189163E-5,8.15156E-3,-6.033066E-4,-6.137151E-3,1.3972092E-2,1.41319735E-2,-7.96558E-3,9.891688E-3,7.918331E-2,4.9469485E-3,3.2673564E-4,-6.011388E-4,3.2690576E-5,7.19969E-4,-9.337103E-4,9.878512E-3,1.766097E-3],"categories":[],"categories_nodes":[],"categories_segments":[],"categories_sizes":[],"default_left":[0,0,1,0,0,0,1,0,0,0,0,0,0,0,0,0,0],"id":31,"left_children":[1,-1,3,5,7,9,11,13,15,-1,-1,-1,-1,-1,-1,-1,-1],"loss_changes":[1.5998486E-1,0E0,1.15184695E-1,3.8470346E-2,1.037894E-1,5.4763343E-2,3.32299E-2,4.8041176E-2,1.1245151E-1,0E0,0E0,0E0,0E0,0E0,0E0,0E0,0E0],"parents":[2147483647,0,0,2,2,3,3,4,4,5,5,6,6,7,7,8,8],"right_children":[2,-1,4,6,8,10,12,14,16,-1,-1,-1,-1,-1,-1,-1,-1],"split_conditions":[-6.61599E-2,8.15156E-3,7.477499E-2,9.686498E-1,5.7090923E-2,1.2875056E-1,1.4009401E2,1.6328917E2,5.599011E-1,4.9469485E-3,3.2673564E-4,-6.011388E-4,3.2690576E-5,7.19969E-4,-9.337103E-4,9.878512E-3,1.766097E-3],"split_indices":[24,0,27,14,9,5,10,12,31,0,0,0,0,0,0,0,0],"split_type":[0,0,0,0,0,0,0,0,0,0,0,0,0,0,0,0,0],"sum_hessian":[1.431E3,5E0,1.426E3,1.034E3,3.92E2,8.5E1,9.49E2,3.7E2,2.2E1,6E0,7.9E1,6.45E2,3.04E2,3.2E2,5E1,5E0,1.7E1],"tree_param":{"num_deleted":"0","num_feature":"33","num_nodes":"17","size_leaf_vector":"1"}},{"base_weights":[1.4517915E-3,5.0727933E-5,1.521161E-1,-5.7405103E-3,1.2770181E-2,1.1438118E-2,1.2284209E-3,-1.5103438E-2,-1.5970905E-3,1.0581413E-2,5.798635E-2,-8.508428E-4,3.1210735E-4,-6.431903E-4,9.738237E-5,3.3542086E-4,1.7285908E-3,7.2625265E-3,9.6074614E-4],"categories":[],"categories_nodes":[],"categories_segments":[],"categories_sizes":[],"default_left":[0,0,0,1,1,0,0,1,0,1,0,0,0,0,0,0,0,0,0],"id":32,"left_children":[1,3,5,7,9,-1,-1,11,13,15,17,-1,-1,-1,-1,-1,-1,-1,-1],"loss_changes":[2.9784065E-1,1.0312558E-1,1.21468335E-1,3.7296224E-2,4.2734273E-2,0E0,0E0,1.2154914E-2,2.6703341E-2,3.8699355E-2,6.487616E-2,0E0,0E0,0E0,0E0,0E0,0E0,0E0,0E0],"parents":[2147483647,0,0,1,1,2,2,3,3,4,4,7,7,8,8,9,9,10,10],"right_children":[2,4,6,8,10,-1,-1,12,14,16,18,-1,-1,-1,-1,-1,-1,-1,-1],"split_conditions":[3.1300593E-2,1.0258482E-2,-4.293116E-2,1.0223461E-1,1.0382237E0,1.1438118E-2,1.2284209E-3,-8.180628E-4,-3.811562E-1,3.2627514E-1,6.367061E-1,-8.508428E-4,3.1210735E-4,-6.431903E-4,9.738237E-5,3.3542086E-4,1.7285908E-3,7.2625265E-3,9.6074614E-4],"split_indices":[6,6,15,5,13,0,0,16,32,32,31,0,0,0,0,0,0,0,0],"split_type":[0,0,0,0,0,0,0,0,0,0,0,0,0,0,0,0,0,0,0],"sum_hessian":[1.41E3,1.398E3,1.2E1,9.61E2,4.37E2,7E0,5E0,2.94E2,6.67E2,4.18E2,1.9E1,2.7E2,2.4E1,1.59E2,5.08E2,3.61E2,5.7E1,5E0,1.4E1],"tree_param":{"num_deleted":"0","num_feature":"33","num_nodes":"19","size_leaf_vector":"1"}},{"base_weights":[-1.651686E-4,8.299685E-3,-9.876204E-4,-2.070035E-3,5.6876283E-2,-1.0204468E-2,4.074486E-3,8.963796E-3,1.1192595E-2,2.259629E-3,-5.611726E-4,-7.1773096E-4,4.4550202E-4,1.9284849E-3,-5.1364745E-4],"categories":[],"categories_nodes":[],"categories_segments":[],"categories_sizes":[],"default_left":[0,0,1,1,0,0,0,0,0,0,0,0,0,0,0],"id":33,"left_children":[1,-1,3,5,7,9,11,-1,13,-1,-1,-1,-1,-1,-1],"loss_changes":[1.942178E-1,0E0,8.8680424E-2,6.9466844E-2,1.433768E-1,3.426357E-2,7.0706934E-2,0E0,1.2149513E-2,0E0,0E0,0E0,0E0,0E0,0E0],"parents":[2147483647,0,0,2,2,3,3,4,4,5,5,6,6,8,8],"right_children":[2,-1,4,6,8,10,12,-1,14,-1,-1,-1,-1,-1,-1],"split_conditions":[-6.61599E-2,8.299685E-3,1.0382237E0,-2.0955767E-1,5.8354545E-1,-8.7423734E-2,1.04679815E-1,8.963796E-3,1.0220977E0,2.259629E-3,-5.611726E-4,-7.1773096E-4,4.4550202E-4,1.9284849E-3,-5.1364745E-4],"split_indices":[24,0,13,32,31,29,3,0,14,0,0,0,0,0,0],"split_type":[0,0,0,0,0,0,0,0,0,0,0,0,0,0,0],"sum_hessian":[1.419E3,6E0,1.413E3,1.388E3,2.5E1,5.97E2,7.91E2,6E0,1.9E1,1E1,5.87E2,1.64E2,6.27E2,8E0,1.1E1],"tree_param":{"num_deleted":"0","num_feature":"33","num_nodes":"15","size_leaf_vector":"1"}},{"base_weights":[3.8579563E-4,7.422035E-3,-4.6050796E-4,-1.5645782E-3,7.21146E-2,-7.5188745E-3,7.3804874E-3,2.5400816E-2,9.23328E-3,-4.1123768E-4,2.8854236E-3,1.0641963E-3,1.256619E-4,2.4002155E-3,1.2432555E-4],"categories":[],"categories_nodes":[],"categories_segments":[],"categories_sizes":[],"default_left":[0,0,1,1,0,1,0,0,0,0,0,0,0,0,0],"id":34,"left_children":[1,-1,3,5,7,9,11,13,-1,-1,-1,-1,-1,-1,-1],"loss_changes":[1.763646E-1,0E0,1.1229205E-1,7.355646E-2,1.0572071E-1,3.8644005E-2,3.7301183E-2,8.16773E-3,0E0,0E0,0E0,0E0,0E0,0E0,0E0],"parents":[2147483647,0,0,2,2,3,3,4,4,5,5,6,6,7,7],"right_children":[2,-1,4,6,8,10,12,14,-1,-1,-1,-1,-1,-1,-1],"split_conditions":[-1.1966528E-1,7.422035E-3,1.0382237E0,1.5109964E-1,1.46336E2,7.311254E-1,-9.815655E-2,-7.7259855E-4,9.23328E-3,-4.1123768E-4,2.8854236E-3,1.0641963E-3,1.256619E-4,2.4002155E-3,1.2432555E-4],"split_indices":[21,0,13,5,10,32,16,19,0,0,0,0,0,0,0],"split_type":[0,0,0,0,0,0,0,0,0,0,0,0,0,0,0],"sum_hessian":[1.406E3,7E0,1.399E3,1.379E3,2E1,8.28E2,5.51E2,1.5E1,5E0,8.2E2,8E0,1.42E2,4.09E2,7E0,8E0],"tree_param":{"num_deleted":"0","num_feature":"33","num_nodes":"15","size_leaf_vector":"1"}},{"base_weights":[-1.0198805E-3,1.1985617E-1,-2.2009176E-3,1.012469E-2,2.5723537E-3,-4.51219E-3,2.1380423E-2,4.6503775E-2,-5.382781E-3,5.7907645E-3,1.4960096E-2,3.8774696E-3,4.2041094E-4,-5.229889E-4,5.7911773E-5,3.1004575E-4,2.336315E-3],"categories":[],"categories_nodes":[],"categories_segments":[],"categories_sizes":[],"default_left":[0,0,1,0,0,0,0,0,1,0,0,0,0,0,0,0,0],"id":35,"left_children":[1,3,5,-1,-1,7,9,11,13,-1,15,-1,-1,-1,-1,-1,-1],"loss_changes":[2.0655066E-1,6.8726584E-2,7.8144625E-2,0E0,0E0,5.8210656E-2,7.587412E-2,2.536735E-2,4.2652115E-2,0E0,3.3378016E-2,0E0,0E0,0E0,0E0,0E0,0E0],"parents":[2147483647,0,0,1,1,2,2,5,5,6,6,7,7,8,8,10,10],"right_children":[2,4,6,-1,-1,8,10,12,14,-1,16,-1,-1,-1,-1,-1,-1],"split_conditions":[-4.391485E-2,6.103789E-1,2.529289E-2,1.012469E-2,2.5723537E-3,9.336233E-1,-6.970644E-1,1.861794E-1,1.4324321E-1,5.7907645E-3,3.0850902E-1,3.8774696E-3,4.2041094E-4,-5.229889E-4,5.7911773E-5,3.1004575E-4,2.336315E-3],"split_indices":[23,31,1,0,0,14,32,2,4,0,32,0,0,0,0,0,0],"split_type":[0,0,0,0,0,0,0,0,0,0,0,0,0,0,0,0,0],"sum_hessian":[1.444E3,1.3E1,1.431E3,5E0,8E0,1.304E3,1.27E2,2.1E1,1.283E3,7E0,1.2E2,1.1E1,1E1,7.22E2,5.61E2,9.5E1,2.5E1],"tree_param":{"num_deleted":"0","num_feature":"33","num_nodes":"17","size_leaf_vector":"1"}},{"base_weights":[1.0163531E-3,1.1506765E-1,-5.0277566E-5,1.7606318E-3,1.0118154E-2,-4.975926E-3,1.4898141E-2,-6.4630075E-3,1.4953938E-2,1.1964468E-2,8.889929E-2,3.886704E-5,-5.4947607E-4,-1.2570925E-3,1.1236611E-3,1.3393875E-3,1.633353E-4,7.95384E-3,1.2576872E-3],"categories":[],"categories_nodes":[],"categories_segments":[],"categories_sizes":[],"default_left":[0,0,0,0,0,1,1,0,0,0,0,0,0,0,0,0,0,0,0],"id":36,"left_children":[1,3,5,-1,-1,7,9,11,13,15,17,-1,-1,-1,-1,-1,-1,-1,-1],"loss_changes":[1.7068161E-1,8.349697E-2,1.0249438E-1,0E0,0E0,3.1126926E-2,7.3834196E-2,3.1962734E-2,2.2573901E-2,4.2845972E-2,5.4154165E-2,0E0,0E0,0E0,0E0,0E0,0E0,0E0,0E0],"parents":[2147483647,0,0,1,1,2,2,5,5,6,6,7,7,8,8,9,9,10,10],"right_children":[2,4,6,-1,-1,8,10,12,14,16,18,-1,-1,-1,-1,-1,-1,-1,-1],"split_conditions":[-8.842349E-2,1.5645999E2,1.1277525E-2,1.7606318E-3,1.0118154E-2,2.529289E-2,1.0382237E0,1.1299177E-1,8.39217E-2,-8.414425E-2,-6.535352E-1,3.886704E-5,-5.4947607E-4,-1.2570925E-3,1.1236611E-3,1.3393875E-3,1.633353E-4,7.95384E-3,1.2576872E-3],"split_indices":[21,10,6,0,0,1,13,25,25,16,32,0,0,0,0,0,0,0,0],"split_type":[0,0,0,0,0,0,0,0,0,0,0,0,0,0,0,0,0,0,0],"sum_hessian":[1.402E3,1.2E1,1.39E3,7E0,5E0,1.046E3,3.44E2,9.74E2,7.2E1,3.32E2,1.2E1,3.75E2,5.99E2,1.1E1,6.1E1,1.22E2,2.1E2,5E0,7E0],"tree_param":{"num_deleted":"0","num_feature":"33","num_nodes":"19","size_leaf_vector":"1"}},{"base_weights":[2.0556153E-4,-9.22251E-4,6.608005E-2,3.524323E-2,-2.230365E-3,1.3425854E-2,7.6172636E-3,6.1321717E-2,2.0740885E-2,-6.7441664E-3,5.205894E-3,1.5037194E-3,-3.490989E-4,4.309345E-3,1.996186E-3,1.8190354E-3,-2.1273564E-3,2.4027522E-5,-6.649902E-4,9.004865E-4,4.007108E-5],"categories":[],"categories_nodes":[],"categories_segments":[],"categories_sizes":[],"default_left":[1,0,0,0,1,0,0,0,0,1,0,0,0,0,0,0,0,0,0,0,0],"id":37,"left_children":[1,3,5,7,9,11,-1,13,15,17,19,-1,-1,-1,-1,-1,-1,-1,-1,-1,-1],"loss_changes":[1.0592999E-1,6.640524E-2,1.0696805E-1,1.7259896E-2,4.5483198E-2,5.6461464E-3,0E0,5.6042E-3,3.4211732E-2,3.9933085E-2,2.885937E-2,0E0,0E0,0E0,0E0,0E0,0E0,0E0,0E0,0E0,0E0],"parents":[2147483647,0,0,1,1,2,2,3,3,4,4,5,5,7,7,8,8,9,9,10,10],"right_children":[2,4,6,8,10,12,-1,14,16,18,20,-1,-1,-1,-1,-1,-1,-1,-1,-1,-1],"split_conditions":[1.0403163E0,-7.723278E-2,1.388575E2,7.825755E-1,1.5330188E-1,1.0220977E0,7.6172636E-3,1.3855089E-1,2.2321321E-1,1.1126496E-1,1.5601669E-1,1.5037194E-3,-3.490989E-4,4.309345E-3,1.996186E-3,1.8190354E-3,-2.1273564E-3,2.4027522E-5,-6.649902E-4,9.004865E-4,4.007108E-5],"split_indices":[13,15,11,31,5,14,0,2,25,25,4,0,0,0,0,0,0,0,0,0,0],"split_type":[0,0,0,0,0,0,0,0,0,0,0,0,0,0,0,0,0,0,0,0,0],"sum_hessian":[1.424E3,1.401E3,2.3E1,4.8E1,1.353E3,1.5E1,8E0,1.6E1,3.2E1,8.42E2,5.11E2,8E0,7E0,6E0,1E1,2.6E1,6E0,4.01E2,4.41E2,1.3E2,3.81E2],"tree_param":{"num_deleted":"0","num_feature":"33","num_nodes":"21","size_leaf_vector":"1"}},{"base_weights":[1.4835085E-3,7.102879E-3,6.8031583E-4,-4.0652445E-3,1.3181752E-2,-5.104445E-3,3.2823108E-2,2.7896201E-2,4.014722E-3,7.2955195E-4,-3.545103E-4,-1.6063125E-3,3.2639725E-3,8.08407E-4,4.115301E-3,-1.9194714E-4,1.2774785E-3],"categories":[],"categories_nodes":[],"categories_segments":[],"categories_sizes":[],"default_left":[0,0,1,1,0,0,0,0,0,0,0,0,0,0,0,0,0],"id":38,"left_children":[1,-1,3,5,7,9,11,13,15,-1,-1,-1,-1,-1,-1,-1,-1],"loss_changes":[1.5899083E-1,0E0,8.322908E-2,3.915363E-2,5.1954694E-2,3.8822867E-2,6.112169E-2,9.3111254E-2,4.051955E-2,0E0,0E0,0E0,0E0,0E0,0E0,0E0,0E0],"parents":[2147483647,0,0,2,2,3,3,4,4,5,5,6,6,7,7,8,8],"right_children":[2,-1,4,6,8,10,12,14,16,-1,-1,-1,-1,-1,-1,-1,-1],"split_conditions":[-6.61599E-2,7.102879E-3,1.687617E-1,1.9266027E0,1.82175E-1,-9.728791E-2,9.81574E-1,2.2321321E-1,2.6258445E-1,7.2955195E-4,-3.545103E-4,-1.6063125E-3,3.2639725E-3,8.08407E-4,4.115301E-3,-1.9194714E-4,1.2774785E-3],"split_indices":[24,0,2,31,3,16,14,25,32,0,0,0,0,0,0,0,0],"split_type":[0,0,0,0,0,0,0,0,0,0,0,0,0,0,0,0,0],"sum_hessian":[1.408E3,7E0,1.401E3,1.016E3,3.85E2,9.89E2,2.7E1,1.47E2,2.38E2,9E1,8.99E2,9E0,1.8E1,1.22E2,2.5E1,1.75E2,6.3E1],"tree_param":{"num_deleted":"0","num_feature":"33","num_nodes":"17","size_leaf_vector":"1"}},{"base_weights":[-1.6083035E-5,6.1018686E-3,-8.3339337E-4,-1.4088583E-2,2.20855E-3,-8.657006E-3,-2.2916678E-2,-1.88333E-4,1.6514713E-2,-1.4562992E-3,-1.796238E-4,-1.4987657E-3,-7.0269115E-4,5.282866E-5,-1.616855E-3,5.996575E-3,5.444527E-4],"categories":[],"categories_nodes":[],"categories_segments":[],"categories_sizes":[],"default_left":[0,0,0,0,1,0,0,1,0,0,0,0,0,0,0,0,0],"id":39,"left_children":[1,-1,3,5,7,9,11,13,15,-1,-1,-1,-1,-1,-1,-1,-1],"loss_changes":[1.3497122E-1,0E0,5.4223254E-2,1.1837184E-2,3.7516586E-2,1.6170885E-2,5.521897E-3,3.7574984E-2,9.003472E-2,0E0,0E0,0E0,0E0,0E0,0E0,0E0,0E0],"parents":[2147483647,0,0,2,2,3,3,4,4,5,5,6,6,7,7,8,8],"right_children":[2,-1,4,6,8,10,12,14,16,-1,-1,-1,-1,-1,-1,-1,-1],"split_conditions":[-8.842349E-2,6.1018686E-3,1.0223461E-1,9.435215E-2,2.4478953E-1,1.157565E2,9.702991E-2,1.6395401E2,1.4813295E-1,-1.4562992E-3,-1.796238E-4,-1.4987657E-3,-7.0269115E-4,5.282866E-5,-1.616855E-3,5.996575E-3,5.444527E-4],"split_indices":[21,0,5,5,25,11,5,10,5,0,0,0,0,0,0,0,0],"split_type":[0,0,0,0,0,0,0,0,0,0,0,0,0,0,0,0,0],"sum_hessian":[1.351E3,8E0,1.343E3,2.5E2,1.093E3,1.56E2,9.4E1,9.37E2,1.56E2,3E1,1.26E2,5.1E1,4.3E1,9.03E2,3.4E1,7E0,1.49E2],"tree_param":{"num_deleted":"0","num_feature":"33","num_nodes":"17","size_leaf_vector":"1"}},{"base_weights":[3.8410592E-4,7.533252E-3,-5.920214E-4,-4.9214875E-3,1.1353747E-2,5.2867226E-2,-5.779963E-3,9.074673E-3,5.075421E-3,7.722074E-4,3.5017175E-3,-5.759317E-4,-6.6836066E-5,-1.2621768E-3,7.020822E-4],"categories":[],"categories_nodes":[],"categories_segments":[],"categories_sizes":[],"default_left":[0,0,1,0,0,0,0,0,0,0,0,0,0,0,0],"id":40,"left_children":[1,-1,3,5,7,9,11,13,-1,-1,-1,-1,-1,-1,-1],"loss_changes":[2.0457968E-1,0E0,7.173813E-2,5.0808743E-2,7.489698E-2,8.555077E-3,2.5584891E-2,6.1889637E-2,0E0,0E0,0E0,0E0,0E0,0E0,0E0],"parents":[2147483647,0,0,2,2,3,3,4,4,5,5,6,6,7,7],"right_children":[2,-1,4,6,8,10,12,14,-1,-1,-1,-1,-1,-1,-1],"split_conditions":[-8.842349E-2,7.533252E-3,7.40515E-2,-7.723278E-2,1.0403163E0,-8.706965E-3,-2.1360782E-1,-6.2991434E-1,5.075421E-3,7.722074E-4,3.5017175E-3,-5.759317E-4,-6.6836066E-5,-1.2621768E-3,7.020822E-4],"split_indices":[21,0,27,15,13,17,32,32,0,0,0,0,0,0,0],"split_type":[0,0,0,0,0,0,0,0,0,0,0,0,0,0,0],"sum_hessian":[1.393E3,8E0,1.385E3,1.017E3,3.68E2,1.4E1,1.003E3,3.6E2,8E0,5E0,9E0,4.37E2,5.66E2,4.5E1,3.15E2],"tree_param":{"num_deleted":"0","num_feature":"33","num_nodes":"15","size_leaf_vector":"1"}},{"base_weights":[1.1878189E-3,8.954709E-2,-2.958252E-5,3.1990964E-2,7.497189E-3,-6.365464E-3,5.458701E-3,-7.378791E-4,3.6703844E-3,-8.658978E-3,1.0798938E-2,-2.7583734E-4,1.4720043E-2,1.2982921E-3,-5.187092E-4,1.0000048E-3,-8.928589E-4,3.5627236E-4,-3.758211E-4,1.2267132E-3,-5.0289085E-4],"categories":[],"categories_nodes":[],"categories_segments":[],"categories_sizes":[],"default_left":[0,0,1,0,0,1,0,0,0,0,0,0,0,0,0,0,0,0,0,0,0],"id":41,"left_children":[1,3,5,7,-1,9,11,-1,-1,13,15,17,19,-1,-1,-1,-1,-1,-1,-1,-1],"loss_changes":[1.503837E-1,6.125097E-2,4.8021644E-2,2.2381205E-2,0E0,2.5327623E-2,3.9305102E-2,0E0,0E0,3.3883378E-2,2.0396028E-2,2.4597608E-2,6.90654E-2,0E0,0E0,0E0,0E0,0E0,0E0,0E0,0E0],"parents":[2147483647,0,0,1,1,2,2,3,3,5,5,6,6,9,9,10,10,11,11,12,12],"right_children":[2,4,6,8,-1,10,12,-1,-1,14,16,18,20,-1,-1,-1,-1,-1,-1,-1,-1],"split_conditions":[-3.5868954E-2,9.9496377E-1,1.0591348E-2,-5.2077036E-2,7.497189E-3,1.3192399E-1,1.1277525E-2,-7.378791E-4,3.6703844E-3,9.4672165E1,8.869668E-3,5.6135086E-3,2.2005007E-1,1.2982921E-3,-5.187092E-4,1.0000048E-3,-8.928589E-4,3.5627236E-4,-3.758211E-4,1.2267132E-3,-5.0289085E-4],"split_indices":[23,13,8,29,0,4,6,0,0,12,6,21,3,0,0,0,0,0,0,0,0],"split_type":[0,0,0,0,0,0,0,0,0,0,0,0,0,0,0,0,0,0,0,0,0],"sum_hessian":[1.397E3,1.8E1,1.379E3,1E1,8E0,6.4E2,7.39E2,5E0,5E0,5.65E2,7.5E1,4.57E2,2.82E2,2.6E1,5.39E2,5.7E1,1.8E1,2.26E2,2.31E2,2.02E2,8E1],"tree_param":{"num_deleted":"0","num_feature":"33","num_nodes":"21","size_leaf_vector":"1"}},{"base_weights":[1.1421989E-3,8.8270994E-5,1.1463534E-1,1.6062524E-2,-2.2050054E-3,8.005604E-3,1.74469E-3,2.8140238E-2,-7.7567264E-3,-4.6081403E-3,1.2158063E-2,2.3986322E-3,6.0441694E-4,8.0344296E-4,-9.5948874E-4,-3.2944485E-4,4.6160203E-4,4.489028E-4,2.5669925E-3],"categories":[],"categories_nodes":[],"categories_segments":[],"categories_sizes":[],"default_left":[1,0,0,0,1,0,0,0,0,1,0,0,0,0,0,0,0,0,0],"id":42,"left_children":[1,3,5,7,9,-1,-1,11,13,15,17,-1,-1,-1,-1,-1,-1,-1,-1],"loss_changes":[1.6900389E-1,5.1358774E-2,4.155609E-2,5.085032E-2,4.2373125E-2,0E0,0E0,3.666678E-2,1.6652303E-2,2.8872965E-2,2.146839E-2,0E0,0E0,0E0,0E0,0E0,0E0,0E0,0E0],"parents":[2147483647,0,0,1,1,2,2,3,3,4,4,7,7,8,8,9,9,10,10],"right_children":[2,4,6,8,10,-1,-1,12,14,16,18,-1,-1,-1,-1,-1,-1,-1,-1],"split_conditions":[4.043084E-1,-1.0162889E-1,-3.922783E-2,2.2271928E-1,1.8773114E-2,8.005604E-3,1.74469E-3,7.825755E-1,9.6381E1,1.5372925E0,1.6458284E-2,2.3986322E-3,6.0441694E-4,8.0344296E-4,-9.5948874E-4,-3.2944485E-4,4.6160203E-4,4.489028E-4,2.5669925E-3],"split_indices":[2,16,21,3,1,0,0,31,11,31,20,0,0,0,0,0,0,0,0],"split_type":[0,0,0,0,0,0,0,0,0,0,0,0,0,0,0,0,0,0,0],"sum_hessian":[1.412E3,1.4E3,1.2E1,1.75E2,1.225E3,7E0,5E0,1.16E2,5.9E1,1.05E3,1.75E2,5.1E1,6.5E1,1.9E1,4E1,9.19E2,1.31E2,1.63E2,1.2E1],"tree_param":{"num_deleted":"0","num_feature":"33","num_nodes":"19","size_leaf_vector":"1"}},{"base_weights":[4.431902E-4,9.234172E-2,-4.721886E-4,1.1156009E-3,7.9592E-3,-1.1978914E-3,3.8091958E-2,4.9930293E-2,-1.7580413E-3,9.488E-3,6.592858E-3,1.0515247E-3,3.9977143E-3,1.4308899E-3,-1.2654602E-4,-1.1332292E-3,1.1930004E-3],"categories":[],"categories_nodes":[],"categories_segments":[],"categories_sizes":[],"default_left":[0,0,1,0,0,0,0,0,0,0,0,0,0,0,0,0,0],"id":43,"left_children":[1,3,5,-1,-1,7,9,11,13,15,-1,-1,-1,-1,-1,-1,-1],"loss_changes":[1.1941267E-1,6.198149E-2,3.9394103E-2,0E0,0E0,3.963886E-2,6.8482384E-2,1.1333831E-2,3.2165278E-2,1.02448175E-2,0E0,0E0,0E0,0E0,0E0,0E0,0E0],"parents":[2147483647,0,0,1,1,2,2,5,5,6,6,7,7,8,8,9,9],"right_children":[2,4,6,-1,-1,8,10,12,14,16,-1,-1,-1,-1,-1,-1,-1],"split_conditions":[-8.842349E-2,1.5645999E2,1.0403163E0,1.1156009E-3,7.9592E-3,8.6922E1,1.46336E2,9.2343666E1,-5.7170477E-2,-9.464805E-3,6.592858E-3,1.0515247E-3,3.9977143E-3,1.4308899E-3,-1.2654602E-4,-1.1332292E-3,1.1930004E-3],"split_indices":[21,10,13,0,0,10,10,12,9,21,0,0,0,0,0,0,0],"split_type":[0,0,0,0,0,0,0,0,0,0,0,0,0,0,0,0,0],"sum_hessian":[1.418E3,1.3E1,1.405E3,7E0,6E0,1.38E3,2.5E1,1.4E1,1.366E3,2E1,5E0,8E0,6E0,3.3E1,1.333E3,6E0,1.4E1],"tree_param":{"num_deleted":"0","num_feature":"33","num_nodes":"17","size_leaf_vector":"1"}},{"base_weights":[4.8184377E-4,6.619522E-3,-9.160545E-5,-7.055345E-3,5.2201394E-3,1.4688313E-2,-8.851281E-3,6.28949E-3,-4.3396406E-2,-8.03822E-4,3.1718866E-3,2.560055E-3,-4.7463187E-4,1.889394E-3,2.2534514E-4,-1.2245015E-3,-3.0802414E-3],"categories":[],"categories_nodes":[],"categories_segments":[],"categories_sizes":[],"default_left":[0,0,1,0,0,0,0,0,0,0,0,0,0,0,0,0,0],"id":44,"left_children":[1,-1,3,5,7,9,11,13,15,-1,-1,-1,-1,-1,-1,-1,-1],"loss_changes":[1.0485315E-1,0E0,5.1119477E-2,2.3482049E-2,4.1031636E-2,7.0008986E-2,2.1784797E-2,4.2951845E-2,4.3436363E-3,0E0,0E0,0E0,0E0,0E0,0E0,0E0,0E0],"parents":[2147483647,0,0,2,2,3,3,4,4,5,5,6,6,7,7,8,8],"right_children":[2,-1,4,6,8,10,12,14,16,-1,-1,-1,-1,-1,-1,-1,-1],"split_conditions":[-6.61599E-2,6.619522E-3,1.3130297E-1,9.4414E1,1.6450934E2,9.9116206E-1,9.715758E-1,-3.922783E-2,1.63098E2,-8.03822E-4,3.1718866E-3,2.560055E-3,-4.7463187E-4,1.889394E-3,2.2534514E-4,-1.2245015E-3,-3.0802414E-3],"split_indices":[24,0,4,10,12,14,13,21,10,0,0,0,0,0,0,0,0],"split_type":[0,0,0,0,0,0,0,0,0,0,0,0,0,0,0,0,0],"sum_hessian":[1.385E3,5E0,1.38E3,5.97E2,7.83E2,4.5E1,5.52E2,7.67E2,1.6E1,2.8E1,1.7E1,5E0,5.47E2,4E1,7.27E2,9E0,7E0],"tree_param":{"num_deleted":"0","num_feature":"33","num_nodes":"17","size_leaf_vector":"1"}},{"base_weights":[4.7864715E-4,-5.8944075E-4,6.760078E-2,4.4815917E-3,-1.0476538E-3,2.1763982E-2,6.569563E-3,-8.3318E-3,4.3112743E-3,1.8726246E-3,3.6255802E-5,-1.1840262E-3,-2.45891E-4,-4.507713E-4,3.805015E-4],"categories":[],"categories_nodes":[],"categories_segments":[],"categories_sizes":[],"default_left":[1,0,0,0,1,0,0,0,0,0,0,0,0,0,0],"id":45,"left_children":[1,3,5,-1,7,9,-1,11,13,-1,-1,-1,-1,-1,-1],"loss_changes":[1.00695886E-1,5.7267915E-2,6.1467327E-2,0E0,5.3787414E-2,4.5938017E-3,0E0,3.0485284E-2,3.497406E-2,0E0,0E0,0E0,0E0,0E0,0E0],"parents":[2147483647,0,0,1,1,2,2,4,4,5,5,7,7,8,8],"right_children":[2,4,6,-1,8,10,-1,12,14,-1,-1,-1,-1,-1,-1],"split_conditions":[1.0403163E0,-6.61599E-2,1.46336E2,4.4815917E-3,-2.1360782E-1,1.0444155E0,6.569563E-3,8.576475E-2,1.04679815E-1,1.8726246E-3,3.6255802E-5,-1.1840262E-3,-2.45891E-4,-4.507713E-4,3.805015E-4],"split_indices":[13,24,10,0,32,13,0,28,3,0,0,0,0,0,0],"split_type":[0,0,0,0,0,0,0,0,0,0,0,0,0,0,0],"sum_hessian":[1.403E3,1.382E3,2.1E1,6E0,1.376E3,1.3E1,8E0,5.83E2,7.93E2,7E0,6E0,1.05E2,4.78E2,1.57E2,6.36E2],"tree_param":{"num_deleted":"0","num_feature":"33","num_nodes":"15","size_leaf_vector":"1"}},{"base_weights":[6.803789E-4,6.181736E-3,1.5444837E-4,-6.781151E-4,3.705083E-2,1.179215E-2,-3.0015828E-3,2.7671405E-3,6.901884E-2,1.8403082E-3,-2.2023462E-4,-5.6314585E-4,7.4528265E-7,8.3626667E-4,-1.1642036E-3,4.5400388E-3,8.7910733E-4],"categories":[],"categories_nodes":[],"categories_segments":[],"categories_sizes":[],"default_left":[0,0,1,0,0,0,1,0,0,0,0,0,0,0,0,0,0],"id":46,"left_children":[1,-1,3,5,7,9,11,13,15,-1,-1,-1,-1,-1,-1,-1,-1],"loss_changes":[9.10945E-2,0E0,4.315401E-2,3.984603E-2,3.378443E-2,8.7674096E-2,2.8882701E-2,6.2074796E-3,1.632978E-2,0E0,0E0,0E0,0E0,0E0,0E0,0E0,0E0],"parents":[2147483647,0,0,2,2,3,3,4,4,5,5,6,6,7,7,8,8],"right_children":[2,-1,4,6,8,10,12,14,16,-1,-1,-1,-1,-1,-1,-1,-1],"split_conditions":[-6.61599E-2,6.181736E-3,1.0352526E0,-9.265513E-2,1.6877086E-1,1.3679492E-1,7.314883E-1,2.2199197E-1,2.246286E-2,1.8403082E-3,-2.2023462E-4,-5.6314585E-4,7.4528265E-7,8.3626667E-4,-1.1642036E-3,4.5400388E-3,8.7910733E-4],"split_indices":[24,0,13,16,28,28,31,5,24,0,0,0,0,0,0,0,0],"split_type":[0,0,0,0,0,0,0,0,0,0,0,0,0,0,0,0,0],"sum_hessian":[1.408E3,5E0,1.403E3,1.373E3,3E1,2.15E2,1.158E3,1.5E1,1.5E1,8.4E1,1.31E2,3.09E2,8.49E2,1E1,5E0,1E1,5E0],"tree_param":{"num_deleted":"0","num_feature":"33","num_nodes":"17","size_leaf_vector":"1"}},{"base_weights":[-5.4356025E-4,-1.3339821E-3,9.953015E-2,-7.743375E-3,3.3493184E-3,6.5920847E-3,2.5315126E-3,-1.2632403E-2,3.680482E-3,4.3547857E-3,-4.6504967E-2,1.7618577E-3,-7.3909096E-4,5.2391693E-5,3.3733267E-3,3.9060935E-5,9.3220547E-4,1.773915E-5,-3.3918552E-3],"categories":[],"categories_nodes":[],"categories_segments":[],"categories_sizes":[],"default_left":[0,1,0,1,1,0,0,0,0,0,0,0,0,0,0,0,0,0,0],"id":47,"left_children":[1,3,5,7,9,-1,-1,11,13,15,17,-1,-1,-1,-1,-1,-1,-1,-1],"loss_changes":[1.1103161E-1,4.1809756E-2,1.0705166E-2,3.288721E-2,4.0554643E-2,0E0,0E0,4.2912208E-2,2.965225E-2,4.032588E-2,1.6017966E-2,0E0,0E0,0E0,0E0,0E0,0E0,0E0,0E0],"parents":[2147483647,0,0,1,1,2,2,3,3,4,4,7,7,8,8,9,9,10,10],"right_children":[2,4,6,8,10,-1,-1,12,14,16,18,-1,-1,-1,-1,-1,-1,-1,-1],"split_conditions":[3.1300593E-2,-2.1360782E-1,-4.3401647E-2,1.010673E0,1.6563266E2,6.5920847E-3,2.5315126E-3,-7.4121747E-3,1.6712753E0,1.38263E2,1.18772864E-1,1.7618577E-3,-7.3909096E-4,5.2391693E-5,3.3733267E-3,3.9060935E-5,9.3220547E-4,1.773915E-5,-3.3918552E-3],"split_indices":[6,32,22,13,12,0,0,19,31,11,4,0,0,0,0,0,0,0,0],"split_type":[0,0,0,0,0,0,0,0,0,0,0,0,0,0,0,0,0,0,0],"sum_hessian":[1.401E3,1.391E3,1E1,5.87E2,8.04E2,5E0,5E0,4.11E2,1.76E2,7.89E2,1.5E1,1.7E1,3.94E2,1.7E2,6E0,6.32E2,1.57E2,5E0,1E1],"tree_param":{"num_deleted":"0","num_feature":"33","num_nodes":"19","size_leaf_vector":"1"}},{"base_weights":[-1.3926452E-4,-1.1564996E-3,5.6383885E-2,3.8348667E-3,-1.5497175E-3,7.3297243E-3,2.0180834E-2,-7.548173E-3,2.8571053E-3,2.5046298E-3,-6.127048E-3,-5.623026E-4,2.9525766E-4,-3.6241798E-4,3.634282E-4,1.0767177E-3,-1.6383637E-3],"categories":[],"categories_nodes":[],"categories_segments":[],"categories_sizes":[],"default_left":[1,0,0,0,0,0,0,0,1,0,0,0,0,0,0,0,0],"id":48,"left_children":[1,3,5,-1,7,-1,9,11,13,-1,15,-1,-1,-1,-1,-1,-1],"loss_changes":[8.130894E-2,4.264104E-2,7.8689076E-2,0E0,3.6579967E-2,0E0,1.5258308E-2,2.9219192E-2,3.5627395E-2,0E0,8.811588E-3,0E0,0E0,0E0,0E0,0E0,0E0],"parents":[2147483647,0,0,1,1,2,2,4,4,6,6,7,7,8,8,10,10],"right_children":[2,4,6,-1,8,-1,10,12,14,-1,16,-1,-1,-1,-1,-1,-1],"split_conditions":[1.0403163E0,-6.61599E-2,5.8354545E-1,3.8348667E-3,-2.1360782E-1,7.3297243E-3,-3.248866E-3,1.0137537E0,1.15548775E-1,2.5046298E-3,1.3461379E-2,-5.623026E-4,2.9525766E-4,-3.6241798E-4,3.634282E-4,1.0767177E-3,-1.6383637E-3],"split_indices":[13,24,31,0,32,0,20,13,3,0,6,0,0,0,0,0,0],"split_type":[0,0,0,0,0,0,0,0,0,0,0,0,0,0,0,0,0],"sum_hessian":[1.412E3,1.388E3,2.4E1,6E0,1.382E3,6E0,1.8E1,5.85E2,7.97E2,8E0,1E1,4.59E2,1.26E2,2.42E2,5.55E2,5E0,5E0],"tree_param":{"num_deleted":"0","num_feature":"33","num_nodes":"17","size_leaf_vector":"1"}},{"base_weights":[6.347893E-4,3.3454064E-2,-7.736077E-4,1.9618312E-2,4.8951926E-3,-1.6034284E-3,2.8762005E-2,4.221935E-2,-3.7674578E-3,-1.9480078E-3,3.155561E-3,5.8041117E-3,8.11673E-3,7.7595975E-4,2.8134116E-3,-1.6303953E-3,1.0611016E-3,4.0278286E-5,-4.8110713E-4,1.2314724E-3,-1.4511461E-3],"categories":[],"categories_nodes":[],"categories_segments":[],"categories_sizes":[],"default_left":[0,0,1,0,0,1,0,0,0,1,0,0,0,0,0,0,0,0,0,0,0],"id":49,"left_children":[1,3,5,7,-1,9,11,13,15,17,-1,-1,19,-1,-1,-1,-1,-1,-1,-1,-1],"loss_changes":[6.515348E-2,4.979855E-2,3.3182647E-2,2.605765E-2,0E0,2.9468868E-2,6.575955E-2,8.504447E-3,1.8709708E-2,2.7689748E-2,0E0,0E0,1.9726392E-2,0E0,0E0,0E0,0E0,0E0,0E0,0E0,0E0],"parents":[2147483647,0,0,1,1,2,2,3,3,5,5,6,6,7,7,8,8,9,9,12,12],"right_children":[2,4,6,8,-1,10,12,14,16,18,-1,-1,20,-1,-1,-1,-1,-1,-1,-1,-1],"split_conditions":[-7.723278E-2,1.3926201E2,5.7090923E-2,9.924E1,4.8951926E-3,7.311254E-1,5.599011E-1,1.0953026E-2,9.6952116E-1,2.1894906E-2,3.155561E-3,5.8041117E-3,1.0262183E0,7.7595975E-4,2.8134116E-3,-1.6303953E-3,1.0611016E-3,4.0278286E-5,-4.8110713E-4,1.2314724E-3,-1.4511461E-3],"split_indices":[15,10,9,10,0,32,31,6,13,29,0,0,14,0,0,0,0,0,0,0,0],"split_type":[0,0,0,0,0,0,0,0,0,0,0,0,0,0,0,0,0,0,0,0,0],"sum_hessian":[1.408E3,5.7E1,1.351E3,4.8E1,9E0,1.315E3,3.6E1,2.4E1,2.4E1,1.309E3,6E0,6E0,3E1,9E0,1.5E1,1.1E1,1.3E1,9.64E2,3.45E2,2.1E1,9E0],"tree_param":{"num_deleted":"0","num_feature":"33","num_nodes":"21","size_leaf_vector":"1"}},{"base_weights":[1.1415838E-3,4.862981E-3,7.285389E-4,-7.8028E-4,1.6671108E-2,6.9245156E-3,-3.947985E-3,-8.067286E-3,2.3197431E-2,-9.293039E-4,4.894517E-4,-1.2904358E-4,-1.5039227E-3,-1.3410326E-3,9.971863E-4,-1.1745418E-3,1.3854381E-3],"categories":[],"categories_nodes":[],"categories_segments":[],"categories_sizes":[],"default_left":[0,0,1,0,0,0,1,0,0,0,0,0,0,0,0,0,0],"id":50,"left_children":[1,-1,3,5,7,9,11,13,15,-1,-1,-1,-1,-1,-1,-1,-1],"loss_changes":[5.566943E-2,0E0,3.366518E-2,3.1243274E-2,1.9722685E-2,2.743912E-2,3.2323424E-2,1.4192723E-2,2.087101E-2,0E0,0E0,0E0,0E0,0E0,0E0,0E0,0E0],"parents":[2147483647,0,0,2,2,3,3,4,4,5,5,6,6,7,7,8,8],"right_children":[2,-1,4,6,8,10,12,14,16,-1,-1,-1,-1,-1,-1,-1,-1],"split_conditions":[-6.61599E-2,4.862981E-3,2.5601724E-2,-3.948399E-2,7.922338E-3,9.350367E1,1.6450934E2,-8.180628E-4,-5.943646E-3,-9.293039E-4,4.894517E-4,-1.2904358E-4,-1.5039227E-3,-1.3410326E-3,9.971863E-4,-1.1745418E-3,1.3854381E-3],"split_indices":[24,0,22,15,6,12,12,16,9,0,0,0,0,0,0,0,0],"split_type":[0,0,0,0,0,0,0,0,0,0,0,0,0,0,0,0,0],"sum_hessian":[1.403E3,5E0,1.398E3,1.278E3,1.2E2,3.72E2,9.06E2,2.5E1,9.5E1,3.7E1,3.35E2,8.62E2,4.4E1,1.5E1,1E1,8E0,8.7E1],"tree_param":{"num_deleted":"0","num_feature":"33","num_nodes":"17","size_leaf_vector":"1"}},{"base_weights":[5.2993576E-4,5.3343043E-2,-1.9287129E-4,5.5383793E-3,1.0614766E-2,4.768266E-2,-7.502335E-4,2.2376473E-3,-1.0081463E-3,3.3305075E-3,1.0214451E-3,-9.032189E-3,1.7933233E-3,-2.0982416E-3,-3.8132703E-4,1.4934108E-3,2.9814002E-5],"categories":[],"categories_nodes":[],"categories_segments":[],"categories_sizes":[],"default_left":[0,0,0,0,0,0,1,0,0,0,0,0,0,0,0,0,0],"id":51,"left_children":[1,3,5,-1,7,9,11,-1,-1,-1,-1,13,15,-1,-1,-1,-1],"loss_changes":[5.3720664E-2,4.544361E-2,3.7099868E-2,0E0,1.3510683E-2,6.892748E-3,2.8960366E-2,0E0,0E0,0E0,0E0,1.4632169E-2,3.5336606E-2,0E0,0E0,0E0,0E0],"parents":[2147483647,0,0,1,1,2,2,4,4,5,5,6,6,11,11,12,12],"right_children":[2,4,6,-1,8,10,12,-1,-1,-1,-1,14,16,-1,-1,-1,-1],"split_conditions":[-3.5868954E-2,-3.0780796E-2,8.6922E1,5.5383793E-3,-6.1705997E-3,1.6437277E0,1.0223461E-1,2.2376473E-3,-1.0081463E-3,3.3305075E-3,1.0214451E-3,1.13878E2,-3.8736124E-2,-2.0982416E-3,-3.8132703E-4,1.4934108E-3,2.9814002E-5],"split_indices":[23,24,10,0,18,31,5,0,0,0,0,11,21,0,0,0,0],"split_type":[0,0,0,0,0,0,0,0,0,0,0,0,0,0,0,0,0],"sum_hessian":[1.406E3,1.8E1,1.388E3,7E0,1.1E1,1.5E1,1.373E3,5E0,6E0,8E0,7E0,3.22E2,1.051E3,1.2E1,3.1E2,4.2E1,1.009E3],"tree_param":{"num_deleted":"0","num_feature":"33","num_nodes":"17","size_leaf_vector":"1"}},{"base_weights":[-1.5250343E-4,-7.24898E-4,7.271158E-2,1.3531192E-2,-2.3448472E-3,1.6318432E-3,5.033385E-3,3.9359845E-2,6.661195E-5,-3.537386E-4,-1.4503235E-2,5.185249E-4,3.23027E-3,1.3327771E-3,-5.169359E-4,-1.1026168E-4,1.5610073E-3,-1.4526276E-3,-2.0056908E-4],"categories":[],"categories_nodes":[],"categories_segments":[],"categories_sizes":[],"default_left":[1,0,0,0,0,0,0,0,0,1,0,0,0,0,0,0,0,0,0],"id":52,"left_children":[1,3,5,7,9,-1,-1,11,13,15,17,-1,-1,-1,-1,-1,-1,-1,-1],"loss_changes":[5.8859587E-2,3.2363527E-2,9.038195E-3,4.9728774E-2,3.0449377E-2,0E0,0E0,3.519077E-2,2.6558906E-2,6.332136E-2,2.6902385E-2,0E0,0E0,0E0,0E0,0E0,0E0,0E0,0E0],"parents":[2147483647,0,0,1,1,2,2,3,3,4,4,7,7,8,8,9,9,10,10],"right_children":[2,4,6,8,10,-1,-1,12,14,16,18,-1,-1,-1,-1,-1,-1,-1,-1],"split_conditions":[4.043084E-1,-1.1158493E-1,1.57206E2,6.0723975E-2,1.9036299E-1,1.6318432E-3,5.033385E-3,-9.966215E-2,9.6108E1,1.4928179E-2,-2.1369813E-3,5.185249E-4,3.23027E-3,1.3327771E-3,-5.169359E-4,-1.1026168E-4,1.5610073E-3,-1.4526276E-3,-2.0056908E-4],"split_indices":[2,16,10,32,3,0,0,32,11,8,22,0,0,0,0,0,0,0,0],"split_type":[0,0,0,0,0,0,0,0,0,0,0,0,0,0,0,0,0,0,0],"sum_hessian":[1.409E3,1.399E3,1E1,1.42E2,1.257E3,5E0,5E0,4.8E1,9.4E1,1.081E3,1.76E2,2.3E1,2.5E1,2.6E1,6.8E1,1.022E3,5.9E1,7.3E1,1.03E2],"tree_param":{"num_deleted":"0","num_feature":"33","num_nodes":"19","size_leaf_vector":"1"}},{"base_weights":[8.073403E-4,-8.940852E-5,4.6810545E-2,3.7035033E-2,-6.324951E-4,9.023857E-3,7.6741697E-3,3.2559063E-3,1.690428E-2,2.728622E-4,-2.2651143E-2,1.6749579E-3,-5.606592E-3,1.3613822E-4,1.6497793E-3,-9.852768E-5,6.5783615E-4,-2.7313603E-3,-5.590012E-4,-1.3385065E-3,4.5626934E-4],"categories":[],"categories_nodes":[],"categories_segments":[],"categories_sizes":[],"default_left":[1,0,0,0,0,0,0,0,0,0,0,0,0,0,0,0,0,0,0,0,0],"id":53,"left_children":[1,3,5,7,9,11,-1,-1,13,15,17,-1,19,-1,-1,-1,-1,-1,-1,-1,-1],"loss_changes":[5.8253873E-2,2.7967662E-2,1.0744695E-1,1.0205902E-2,2.7256977E-2,7.7075944E-3,0E0,0E0,2.876749E-3,3.800559E-2,1.9196538E-2,0E0,4.609219E-3,0E0,0E0,0E0,0E0,0E0,0E0,0E0,0E0],"parents":[2147483647,0,0,1,1,2,2,3,3,4,4,5,5,8,8,9,9,10,10,12,12],"right_children":[2,4,6,8,10,12,-1,-1,14,16,18,-1,20,-1,-1,-1,-1,-1,-1,-1,-1],"split_conditions":[1.0403163E0,8.6922E1,1.5404E2,1.6437277E0,1.9474437E-2,-7.7259855E-4,7.6741697E-3,3.2559063E-3,2.6084844E-2,1.0829946E-1,9.776412E-1,1.6749579E-3,-9.464805E-3,1.3613822E-4,1.6497793E-3,-9.852768E-5,6.5783615E-4,-2.7313603E-3,-5.590012E-4,-1.3385065E-3,4.5626934E-4],"split_indices":[13,10,10,31,8,19,0,0,24,27,13,0,21,0,0,0,0,0,0,0,0],"split_type":[0,0,0,0,0,0,0,0,0,0,0,0,0,0,0,0,0,0,0,0,0],"sum_hessian":[1.411E3,1.385E3,2.6E1,1.9E1,1.366E3,2E1,6E0,7E0,1.2E1,1.313E3,5.3E1,7E0,1.3E1,7E0,5E0,1.119E3,1.94E2,1.3E1,4E1,5E0,8E0],"tree_param":{"num_deleted":"0","num_feature":"33","num_nodes":"21","size_leaf_vector":"1"}},{"base_weights":[1.1599158E-3,6.4378574E-2,3.8422935E-4,2.5088506E-2,6.611448E-3,-2.8041452E-3,6.899977E-3,-2.3610097E-4,2.3528156E-3,-3.1868962E-3,2.839912E-3,1.0404342E-2,-1.3601551E-2,-1.538153E-3,-1.2099537E-4,2.2110331E-3,3.4728867E-4,-2.3483892E-3,-3.1043796E-4],"categories":[],"categories_nodes":[],"categories_segments":[],"categories_sizes":[],"default_left":[0,0,0,0,0,1,0,0,0,0,0,0,0,0,0,0,0,0,0],"id":54,"left_children":[1,3,5,7,-1,9,11,-1,-1,13,-1,15,17,-1,-1,-1,-1,-1,-1],"loss_changes":[6.8775386E-2,4.2001955E-2,2.883378E-2,8.080663E-3,0E0,2.1442605E-2,3.2902762E-2,0E0,0E0,1.9532174E-2,0E0,4.530571E-2,1.6235251E-2,0E0,0E0,0E0,0E0,0E0,0E0],"parents":[2147483647,0,0,1,1,2,2,3,3,5,5,6,6,9,9,11,11,12,12],"right_children":[2,4,6,8,-1,10,12,-1,-1,14,-1,16,18,-1,-1,-1,-1,-1,-1],"split_conditions":[-7.306624E-2,1.5645999E2,1.0189702E-2,-7.4121747E-3,6.611448E-3,7.311254E-1,2.3300686E-1,-2.3610097E-4,2.3528156E-3,8.9718E1,2.839912E-3,-7.118424E-3,9.731331E-1,-1.538153E-3,-1.2099537E-4,2.2110331E-3,3.4728867E-4,-2.3483892E-3,-3.1043796E-4],"split_indices":[21,10,6,19,0,32,3,0,0,10,0,19,13,0,0,0,0,0,0],"split_type":[0,0,0,0,0,0,0,0,0,0,0,0,0,0,0,0,0,0,0],"sum_hessian":[1.402E3,1.6E1,1.386E3,1.1E1,5E0,9.31E2,4.55E2,5E0,6E0,9.26E2,5E0,3.89E2,6.6E1,2.4E1,9.02E2,3.5E1,3.54E2,1.1E1,5.5E1],"tree_param":{"num_deleted":"0","num_feature":"33","num_nodes":"19","size_leaf_vector":"1"}},{"base_weights":[6.5029453E-4,-4.7567047E-4,3.8353864E-2,1.5363594E-2,-1.7378376E-3,1.6146252E-2,6.2583014E-3,4.7727387E-2,6.0383743E-3,-9.606898E-3,1.2389779E-3,6.69809E-2,-8.867982E-3,5.0191004E-3,1.776248E-4,-2.36594E-4,1.5234305E-3,2.3308129E-3,-5.5487966E-4,-8.5225176E-5,5.3261773E-4,2.0195858E-3,4.1203303E-3,-1.0266582E-3,5.779661E-4],"categories":[],"categories_nodes":[],"categories_segments":[],"categories_sizes":[],"default_left":[1,0,0,0,0,0,0,0,0,0,1,0,0,0,0,0,0,0,0,0,0,0,0,0,0],"id":55,"left_children":[1,3,5,7,9,11,-1,13,15,17,19,21,23,-1,-1,-1,-1,-1,-1,-1,-1,-1,-1,-1,-1],"loss_changes":[5.8560792E-2,2.6815709E-2,7.509466E-2,2.958995E-2,2.9105432E-2,4.255645E-2,0E0,5.0815664E-2,2.0667521E-2,2.9097077E-2,2.5010865E-2,1.1831783E-3,5.7179793E-3,0E0,0E0,0E0,0E0,0E0,0E0,0E0,0E0,0E0,0E0,0E0,0E0],"parents":[2147483647,0,0,1,1,2,2,3,3,4,4,5,5,7,7,8,8,9,9,10,10,11,11,12,12],"right_children":[2,4,6,8,10,12,-1,14,16,18,20,22,24,-1,-1,-1,-1,-1,-1,-1,-1,-1,-1,-1,-1],"split_conditions":[3.386053E-1,-3.912035E-2,1.0382237E0,1.15058334E2,-3.6779904E-1,-1.1738046E-2,6.2583014E-3,9.974549E-1,8.965611E-4,-7.118424E-3,1.3999033E2,-1.06723586E-4,-1.321501E-2,5.0191004E-3,1.776248E-4,-2.36594E-4,1.5234305E-3,2.3308129E-3,-5.5487966E-4,-8.5225176E-5,5.3261773E-4,2.0195858E-3,4.1203303E-3,-1.0266582E-3,5.779661E-4],"split_indices":[25,29,13,12,32,1,0,13,19,19,12,7,15,0,0,0,0,0,0,0,0,0,0,0,0],"split_type":[0,0,0,0,0,0,0,0,0,0,0,0,0,0,0,0,0,0,0,0,0,0,0,0,0],"sum_hessian":[1.378E3,1.339E3,3.9E1,9.8E1,1.241E3,3.2E1,7E0,2.1E1,7.7E1,3.4E2,9.01E2,1E1,2.2E1,9E0,1.2E1,5.4E1,2.3E1,8E0,3.32E2,6.87E2,2.14E2,5E0,5E0,1.4E1,8E0],"tree_param":{"num_deleted":"0","num_feature":"33","num_nodes":"25","size_leaf_vector":"1"}},{"base_weights":[3.498033E-4,5.097812E-2,-3.480124E-4,-2.3506918E-4,8.384961E-2,6.010911E-4,-2.4104849E-2,5.877273E-3,1.5281426E-3,-8.423494E-3,3.0007653E-3,8.3425216E-4,-3.172716E-2,-1.8569808E-4,-1.0955909E-3,1.1615603E-3,1.9357969E-5,1.1484645E-4,-2.2810614E-3],"categories":[],"categories_nodes":[],"categories_segments":[],"categories_sizes":[],"default_left":[0,0,1,0,0,1,0,0,0,1,0,0,0,0,0,0,0,0,0],"id":56,"left_children":[1,3,5,-1,7,9,11,-1,-1,13,15,-1,17,-1,-1,-1,-1,-1,-1],"loss_changes":[4.937268E-2,3.5169315E-2,3.110776E-2,0E0,1.7953984E-2,2.8762873E-2,1.7007781E-2,0E0,0E0,1.764173E-2,5.545625E-2,0E0,2.1377768E-2,0E0,0E0,0E0,0E0,0E0,0E0],"parents":[2147483647,0,0,1,1,2,2,4,4,5,5,6,6,9,9,10,10,12,12],"right_children":[2,4,6,-1,8,10,12,-1,-1,14,16,-1,18,-1,-1,-1,-1,-1,-1],"split_conditions":[-7.306624E-2,-2.4168637E-2,1.6450934E2,-2.3506918E-4,-5.2159643E-3,9.995835E-2,1.09937474E-1,5.877273E-3,1.5281426E-3,9.435215E-2,1.2552708E-1,8.3425216E-4,1.6677992E-1,-1.8569808E-4,-1.0955909E-3,1.1615603E-3,1.9357969E-5,1.1484645E-4,-2.2810614E-3],"split_indices":[21,9,12,0,15,5,5,0,0,5,5,0,25,0,0,0,0,0,0],"split_type":[0,0,0,0,0,0,0,0,0,0,0,0,0,0,0,0,0,0,0],"sum_hessian":[1.396E3,1.8E1,1.378E3,7E0,1.1E1,1.326E3,5.2E1,6E0,5E0,2.78E2,1.048E3,8E0,4.4E1,2.07E2,7.1E1,1.19E2,9.29E2,1.3E1,3.1E1],"tree_param":{"num_deleted":"0","num_feature":"33","num_nodes":"19","size_leaf_vector":"1"}}]},"name":"gbtree"},"learner_model_param":{"base_score":"[1.4239694E-1]","boost_from_average":"1","num_class":"0","num_feature":"33","num_target":"1"},"objective":{"name":"reg:squarederror","reg_loss_param":{"scale_pos_weight":"1"}}},"version":[3,2,0]}